2.886180639266967773e+00,1.325486063957214355e+00,-7.466417551040649414e-01,-2.392761558294296265e-01,1.695415526628494263e-01
-1.334153175354003906e+00,5.340033173561096191e-01,-1.742936857044696808e-02,-4.418386518955230713e-01,-3.378522023558616638e-02
1.317932367324829102e+00,-6.658537387847900391e-01,-2.060398310422897339e-01,1.119206547737121582e+00,6.041317060589790344e-02
-1.591046571731567383e+00,2.064014971256256104e-02,7.791945338249206543e-01,1.653527975082397461e+00,3.568489253520965576e-01
-7.003751397132873535e-01,1.535372436046600342e-01,8.760694265365600586e-01,-1.240427494049072266e+00,-3.960502743721008301e-01
2.639769911766052246e-01,5.042109489440917969e-01,6.431685294955968857e-03,1.366590112447738647e-01,6.178880482912063599e-02
2.609020233154296875e+00,4.193044304847717285e-01,-6.443573236465454102e-01,-7.944985628128051758e-01,2.424070984125137329e-01
-1.606150031089782715e+00,-8.622285723686218262e-01,1.556760787963867188e+00,2.117939710617065430e+00,4.418328404426574707e-01
-7.443906068801879883e-01,-4.813909232616424561e-01,4.043397307395935059e-01,-4.654261767864227295e-01,-3.740731179714202881e-01
-2.143715858459472656e+00,4.200773537158966064e-01,9.268327802419662476e-02,1.232747063040733337e-01,1.367579996585845947e-01
-6.631597876548767090e-01,6.982555389404296875e-01,4.866186976432800293e-01,-2.589133262634277344e+00,-4.630166590213775635e-01
2.952637910842895508e+00,-3.795036077499389648e-01,-2.439622953534126282e-02,-4.810929000377655029e-01,-1.652875244617462158e-01
2.705598354339599609e+00,-5.953195095062255859e-01,5.271800160408020020e-01,4.846507906913757324e-01,2.046999335289001465e-01
3.041469752788543701e-01,-4.671520888805389404e-01,-1.871250271797180176e-01,-1.149306654930114746e+00,-1.819030754268169403e-02
-3.736897706985473633e+00,3.837523162364959717e-01,1.878327280282974243e-01,-1.818861067295074463e-01,-3.018029332160949707e-01
1.176258698105812073e-01,-1.218330115079879761e-01,9.201859682798385620e-02,3.501786589622497559e-01,-3.224594052881002426e-03
-1.243850350379943848e+00,-1.191518530249595642e-01,1.271522164344787598e+00,-9.984123110771179199e-01,6.487977504730224609e-02
1.392925620079040527e+00,4.594242572784423828e-02,-3.396451473236083984e-01,-4.689083993434906006e-01,-5.737956985831260681e-02
-1.284086108207702637e+00,6.903020292520523071e-02,5.617287009954452515e-02,1.562911123037338257e-01,-3.408131599426269531e-01
3.155318975448608398e+00,4.014004170894622803e-01,6.919317692518234253e-02,-5.831392407417297363e-01,-1.158344224095344543e-01
-2.390820026397705078e+00,2.000162452459335327e-01,-6.468754410743713379e-01,2.981059253215789795e-01,-3.319646790623664856e-02
3.580870628356933594e-01,-1.253252148628234863e+00,3.021434545516967773e-01,6.273144483566284180e-01,3.712304681539535522e-02
-7.177649140357971191e-01,2.040251791477203369e-01,4.170344471931457520e-01,-1.965554833412170410e+00,-1.646668314933776855e-01
2.028103828430175781e+00,1.347859501838684082e+00,7.438976168632507324e-01,-2.101853847503662109e+00,-4.460908472537994385e-01
2.781963348388671875e+00,1.053612589836120605e+00,-2.577774785459041595e-02,2.114463150501251221e-01,-2.061648666858673096e-01
1.357662200927734375e+00,3.337818980216979980e-01,7.723774760961532593e-02,6.573877334594726562e-01,1.651292107999324799e-02
-1.684842944145202637e+00,-3.671630918979644775e-01,1.881408393383026123e-01,1.321860194206237793e+00,-1.575237661600112915e-01
5.654267072677612305e-01,-2.157087773084640503e-01,-1.101827397942543030e-01,1.179502367973327637e+00,-6.895800679922103882e-02
-7.431223392486572266e-01,-1.424782991409301758e+00,-9.558544754981994629e-01,3.378073871135711670e-01,-1.146907079964876175e-02
-2.549537897109985352e+00,-1.456499099731445312e+00,-3.695503771305084229e-01,-1.244690299034118652e+00,-3.640602827072143555e-01
6.625617146492004395e-01,-1.474279284477233887e+00,4.568136930465698242e-01,8.571528792381286621e-01,-4.565349221229553223e-02
-1.463242053985595703e+00,5.566650629043579102e-01,3.187502026557922363e-01,-2.506617605686187744e-01,-6.052770838141441345e-02
-2.038305759429931641e+00,-2.263368219137191772e-01,1.091822683811187744e-01,1.572337031364440918e+00,1.871280968189239502e-01
2.133044719696044922e+00,-5.079159736633300781e-01,3.288864791393280029e-01,3.643488883972167969e-01,2.263787388801574707e-01
1.955461502075195312e+00,1.641722321510314941e+00,-2.209291905164718628e-01,1.837931014597415924e-02,6.385310739278793335e-02
1.332246065139770508e+00,6.830130219459533691e-01,1.213912606239318848e+00,-1.621859073638916016e+00,-3.696769177913665771e-01
-1.550369977951049805e+00,8.095667697489261627e-03,1.019153833389282227e+00,6.236454248428344727e-01,2.022132426500320435e-01
2.898379802703857422e+00,-1.911594867706298828e+00,1.745976060628890991e-01,-4.641228914260864258e-02,-2.150290608406066895e-01
-6.649609804153442383e-01,-9.415633678436279297e-01,-3.030279278755187988e-01,1.021981358528137207e+00,1.068686768412590027e-01
1.414741039276123047e+00,9.129556417465209961e-01,4.326482713222503662e-01,-1.534768223762512207e+00,-2.166228294372558594e-01
1.851252675056457520e+00,2.404107712209224701e-02,2.747220695018768311e-01,-4.890231490135192871e-01,-1.325760781764984131e-01
-2.128492355346679688e+00,5.379481911659240723e-01,-5.377725958824157715e-01,1.796137094497680664e-01,-3.159495070576667786e-02
-1.919047236442565918e+00,-5.073224306106567383e-01,-2.556113339960575104e-02,5.189661383628845215e-01,2.129358649253845215e-01
-1.314563632011413574e+00,1.379724383354187012e+00,-1.214755177497863770e+00,-1.433945655822753906e+00,-3.070448040962219238e-01
3.376109600067138672e+00,-1.755390316247940063e-01,-2.213477045297622681e-01,1.332339882850646973e+00,1.286184340715408325e-01
1.867820858955383301e+00,-2.027927041053771973e-01,-4.027213156223297119e-01,-5.743722617626190186e-02,-8.194561302661895752e-02
-4.039844512939453125e+00,1.897029727697372437e-01,1.761489361524581909e-01,8.275700211524963379e-01,-3.909398615360260010e-01
-1.072983980178833008e+00,-1.776752434670925140e-02,-7.689841985702514648e-01,1.643830299377441406e+00,1.516345143318176270e-01
-4.554345130920410156e+00,-1.076296091079711914e+00,3.261888772249221802e-02,1.113711714744567871e+00,4.596967399120330811e-01
-2.762383937835693359e+00,1.870867013931274414e+00,-4.062280431389808655e-02,5.105375647544860840e-01,-7.888004928827285767e-02
7.060221433639526367e-01,9.435830116271972656e-01,6.109503507614135742e-01,2.595397472381591797e+00,3.999063968658447266e-01
1.086474537849426270e+00,1.395095825195312500e+00,-5.997399091720581055e-01,-4.117991328239440918e-01,-4.336450621485710144e-02
3.312626361846923828e+00,1.191359162330627441e-01,-3.102773427963256836e-01,-6.184825897216796875e-01,1.085891872644424438e-01
5.408679246902465820e-01,4.762273728847503662e-01,-1.001875400543212891e+00,-1.117638349533081055e+00,2.125944197177886963e-02
2.171768665313720703e+00,1.032659318298101425e-02,-3.748231530189514160e-01,-2.854833900928497314e-01,-2.755095250904560089e-02
3.097863674163818359e+00,-1.394642829895019531e+00,-1.815650612115859985e-01,-8.424777984619140625e-01,-3.341533541679382324e-01
-1.681413292884826660e+00,-1.181142687797546387e+00,4.136893749237060547e-01,-1.270949959754943848e+00,-2.196289747953414917e-01
-1.955363631248474121e+00,1.257771253585815430e+00,3.196375966072082520e-01,1.150042414665222168e+00,1.041289791464805603e-01
-5.399332642555236816e-01,-1.359166145324707031e+00,-1.756653636693954468e-01,-7.036769390106201172e-01,2.811809182167053223e-01
-2.966475009918212891e+00,-1.483711242675781250e+00,3.446002006530761719e-01,-1.082053408026695251e-01,-1.563358306884765625e-01
1.146616697311401367e+00,-6.159133315086364746e-01,-3.900934383273124695e-02,1.084684371948242188e+00,1.169148609042167664e-01
4.869106113910675049e-01,-4.921624362468719482e-01,5.373738408088684082e-01,1.520071268081665039e+00,1.545111835002899170e-01
-2.046862542629241943e-01,-1.661653757095336914e+00,1.303913354873657227e+00,1.576619267463684082e+00,4.318627119064331055e-01
-7.231073975563049316e-01,-4.305421113967895508e-01,-2.409596592187881470e-01,1.536608576774597168e+00,1.318304240703582764e-01
-7.746974229812622070e-01,5.430285334587097168e-01,-4.981595277786254883e-01,9.692984223365783691e-01,5.254836753010749817e-03
-1.197250843048095703e+00,-1.423736095428466797e+00,6.252534985542297363e-01,-4.023046791553497314e-01,5.030487477779388428e-02
-2.216057777404785156e+00,-1.040238261222839355e+00,-1.654163897037506104e-01,1.315510272979736328e+00,3.817316889762878418e-02
-2.567760944366455078e+00,9.219501018524169922e-01,-3.363724350929260254e-01,5.092733725905418396e-02,-1.435625106096267700e-01
-1.834196925163269043e+00,3.961299359798431396e-02,4.089116156101226807e-01,1.507704377174377441e+00,2.350360006093978882e-01
-2.983953237533569336e+00,-1.138632416725158691e+00,1.097760163247585297e-02,-2.461680024862289429e-01,-1.741567850112915039e-01
3.563587427139282227e+00,5.204941630363464355e-01,-1.508451998233795166e-01,-5.178000032901763916e-02,-6.196510978043079376e-03
1.371971487998962402e+00,1.622538566589355469e+00,2.789605855941772461e-01,-5.759317427873611450e-02,-1.223373934626579285e-01
7.140324115753173828e-01,-3.387760221958160400e-01,-2.670833468437194824e-01,-1.043929576873779297e+00,1.749657541513442993e-01
1.517125606536865234e+00,-1.824428141117095947e-01,-6.315313577651977539e-01,-3.674511611461639404e-02,-1.239164546132087708e-01
1.151318848133087158e-01,1.763670802116394043e+00,-1.798907369375228882e-01,8.494005203247070312e-01,4.940194636583328247e-02
-2.611319780349731445e+00,-1.566471531987190247e-02,-1.497886300086975098e+00,-6.269025206565856934e-01,-1.543361246585845947e-01
-2.457401275634765625e+00,-1.879258513450622559e+00,-6.432212144136428833e-02,-3.848066031932830811e-01,-7.935577630996704102e-02
2.088209867477416992e+00,2.974993363022804260e-02,-2.701084315776824951e-01,-2.155067920684814453e-01,-2.686824277043342590e-02
7.182465791702270508e-01,-3.969317972660064697e-01,-8.445566296577453613e-01,-7.709821462631225586e-01,-1.371158063411712646e-01
2.433539390563964844e+00,-4.665648043155670166e-01,-2.768685221672058105e-01,3.200112581253051758e-01,-1.133657470345497131e-01
9.170596003532409668e-01,2.568565905094146729e-01,-1.382212042808532715e+00,-1.764328777790069580e-01,-7.937433570623397827e-02
2.786075115203857422e+00,2.181551456451416016e-01,-2.340600639581680298e-01,-5.372103452682495117e-01,-5.824181810021400452e-02
2.006529569625854492e+00,3.139662444591522217e-01,5.114692449569702148e-01,1.180956125259399414e+00,2.197734862565994263e-01
1.561842441558837891e+00,9.853297472000122070e-01,3.518403172492980957e-01,-4.255542755126953125e-01,-8.209186047315597534e-02
-4.110999107360839844e-01,3.034914433956146240e-01,8.288843631744384766e-01,-2.858468055725097656e+00,-5.037638545036315918e-01
3.476540088653564453e+00,1.763740032911300659e-01,-6.808050721883773804e-02,-2.479990758001804352e-02,1.132309529930353165e-02
-4.373704493045806885e-01,-5.758865177631378174e-02,-3.414224684238433838e-01,-1.411947488784790039e+00,-7.078018784523010254e-02
2.147873878479003906e+00,5.828686952590942383e-01,-2.517358064651489258e-01,-1.298930406570434570e+00,-3.111936151981353760e-01
-1.076724052429199219e+00,-8.486651778221130371e-01,-6.403990387916564941e-01,6.441968679428100586e-01,1.860366910696029663e-01
-7.843119502067565918e-01,-7.916265726089477539e-01,1.040924906730651855e+00,-1.707620918750762939e-01,1.475048214197158813e-01
3.016988992691040039e+00,3.825986385345458984e-01,5.866044759750366211e-01,1.194507241249084473e+00,1.447708159685134888e-01
-6.535750031471252441e-01,1.056507349014282227e+00,1.260834097862243652e+00,-5.953935980796813965e-01,-3.856818079948425293e-01
7.936408519744873047e-01,1.116302132606506348e+00,6.454880833625793457e-01,-9.050744771957397461e-01,-3.629362881183624268e-01
6.227137446403503418e-01,-6.154638901352882385e-02,5.696514844894409180e-01,-8.781857490539550781e-01,-9.482966735959053040e-03
3.484680652618408203e+00,6.135240197181701660e-01,3.479180485010147095e-02,-1.053461432456970215e+00,-2.258062511682510376e-01
-4.366649687290191650e-01,6.612949967384338379e-01,-4.262798279523849487e-02,-6.592620611190795898e-01,-2.479061298072338104e-02
-1.695269584655761719e+00,-1.020134210586547852e+00,-1.797863006591796875e+00,2.451263964176177979e-01,-2.023758292198181152e-01
1.262432456016540527e+00,-2.533364854753017426e-02,3.418853133916854858e-02,-7.607602477073669434e-01,1.809002310037612915e-01
1.469394564628601074e+00,-8.801734074950218201e-03,-1.086754202842712402e-01,-7.625219821929931641e-01,-4.276359826326370239e-02
-1.410911321640014648e+00,-9.202187061309814453e-01,-3.782815039157867432e-01,2.532205879688262939e-01,-4.231731966137886047e-02
-7.576364278793334961e-02,-1.605082601308822632e-01,6.067308187484741211e-01,-1.248864531517028809e+00,-3.493340015411376953e-01
-3.257727622985839844e+00,-6.639830023050308228e-02,-1.155732050538063049e-01,-6.521888971328735352e-01,-3.296655714511871338e-01
1.896615624427795410e+00,6.973879933357238770e-01,-4.658127129077911377e-01,4.585527181625366211e-01,-1.292710751295089722e-02
4.304310679435729980e-01,-9.995918273925781250e-01,-3.979625403881072998e-01,-1.364520907402038574e+00,1.030312478542327881e-01
3.308136463165283203e+00,-3.554069101810455322e-01,3.331631720066070557e-01,2.608380317687988281e-01,-1.382263451814651489e-01
-5.710031986236572266e-01,8.478274345397949219e-01,-9.877865314483642578e-01,-8.770106434822082520e-01,5.174450948834419250e-02
-2.984456062316894531e+00,5.987495779991149902e-01,-5.610079765319824219e-01,8.846012949943542480e-01,2.661920189857482910e-01
1.330531954765319824e+00,6.483747959136962891e-01,-4.575671255588531494e-01,-1.608663558959960938e+00,-3.875701725482940674e-01
-9.744499921798706055e-01,-2.494798898696899414e-01,5.107815861701965332e-01,1.140889406204223633e+00,-1.494121365249156952e-02
-2.871632277965545654e-01,5.235484838485717773e-01,4.940296709537506104e-01,1.663292527198791504e+00,-9.951740503311157227e-02
-9.952047467231750488e-01,1.233004212379455566e+00,7.107294797897338867e-01,6.653291583061218262e-01,4.310187399387359619e-01
-3.869636297225952148e+00,-1.277121901512145996e+00,-1.821187287569046021e-01,3.771795630455017090e-01,2.112936675548553467e-01
-9.734236598014831543e-01,-1.631682872772216797e+00,5.011225342750549316e-01,-5.531205534934997559e-01,1.306748837232589722e-01
1.147544860839843750e+00,-3.478098809719085693e-01,-3.455705642700195312e-01,-9.178715944290161133e-01,-3.192843496799468994e-01
3.973273277282714844e+00,-1.761326789855957031e-01,1.165660023689270020e-01,1.071799039840698242e+00,-1.423779758624732494e-04
-1.250787496566772461e+00,1.604973912239074707e+00,-3.421000540256500244e-01,-8.244981169700622559e-01,-1.295094788074493408e-01
1.639310956001281738e+00,-2.193559557199478149e-01,-1.114330649375915527e+00,-1.969914585351943970e-01,-5.000968277454376221e-02
-6.038326025009155273e-01,4.985839724540710449e-01,1.137748211622238159e-01,1.175870418548583984e+00,-1.794230192899703979e-01
2.205308437347412109e+00,-1.064206838607788086e+00,-6.403280496597290039e-01,-1.373652815818786621e+00,8.550064265727996826e-02
-3.049668550491333008e+00,-7.192233204841613770e-01,-1.748539358377456665e-01,1.940717697143554688e-01,-2.307137548923492432e-01
-2.241008043289184570e+00,-1.944341361522674561e-01,4.488545656204223633e-01,-6.130421161651611328e-01,-1.171674355864524841e-01
-1.052200317382812500e+00,1.023167669773101807e-01,-2.644284963607788086e-01,1.602410316467285156e+00,-4.148770570755004883e-01
-3.834977865219116211e+00,1.558930873870849609e+00,4.467538595199584961e-01,9.281472563743591309e-01,-4.571207463741302490e-01
2.607359290122985840e-01,9.460929632186889648e-01,2.595403790473937988e-01,3.072966635227203369e-01,1.884806901216506958e-02
3.325654029846191406e+00,9.371424466371536255e-02,-3.560647964477539062e-01,1.912904828786849976e-01,-4.328852519392967224e-03
-1.061881661415100098e+00,-5.375494360923767090e-01,-4.909637570381164551e-01,2.974435985088348389e-01,1.559324711561203003e-01
-1.050495028495788574e+00,-5.051063895225524902e-01,-4.540093541145324707e-01,1.032000064849853516e+00,-4.479839205741882324e-01
3.084855079650878906e+00,9.770614653825759888e-02,-5.640308856964111328e-01,-5.325821638107299805e-01,-9.523812681436538696e-03
-1.613001704216003418e+00,1.543774008750915527e-01,3.982290029525756836e-01,4.505798816680908203e-01,2.202786272391676903e-03
3.496392011642456055e+00,1.407873868942260742e+00,-5.845394134521484375e-01,-2.365501374006271362e-01,6.014169380068778992e-02
-1.511281609535217285e+00,1.353910088539123535e+00,3.424516618251800537e-01,-1.116429924964904785e+00,-2.671814262866973877e-01
-2.289885997772216797e+00,-1.474305242300033569e-01,-3.496307134628295898e-01,1.133537411689758301e+00,2.509880363941192627e-01
1.754531741142272949e+00,1.041981339454650879e+00,-6.083406135439872742e-02,-5.111078023910522461e-01,-7.115910947322845459e-02
-3.493625402450561523e+00,-2.225440442562103271e-01,1.026720926165580750e-01,3.973566591739654541e-01,-1.972416341304779053e-01
-1.453503966331481934e+00,-3.042927086353302002e-01,6.048076152801513672e-01,-5.234748721122741699e-01,-2.709293663501739502e-01
-1.036694407463073730e+00,-5.124254226684570312e-01,-6.906927227973937988e-01,1.414873957633972168e+00,2.223885953426361084e-01
8.898099660873413086e-01,1.926394850015640259e-01,-3.883805572986602783e-01,9.268395900726318359e-01,-1.333094388246536255e-02
8.581705689430236816e-01,1.015080928802490234e+00,4.670074880123138428e-01,7.583464980125427246e-01,6.768744438886642456e-02
8.562653064727783203e-01,-1.279545873403549194e-01,-9.766191840171813965e-01,-4.614658653736114502e-01,-2.837806344032287598e-01
-8.154374957084655762e-01,2.972175367176532745e-02,-8.095262050628662109e-01,1.315105557441711426e+00,1.138335689902305603e-01
5.367944836616516113e-01,5.521911382675170898e-01,1.149596050381660461e-01,1.149139404296875000e+00,7.404288649559020996e-02
-1.962546586990356445e+00,-1.783937811851501465e-01,-4.880570769309997559e-01,1.969011276960372925e-01,-1.347560137510299683e-01
1.314247250556945801e-01,1.560112833976745605e+00,-2.165477536618709564e-02,1.887741208076477051e+00,-1.726716756820678711e-02
3.154100894927978516e+00,3.503477871417999268e-01,3.408939391374588013e-02,-5.231882333755493164e-01,-1.067753136157989502e-01
-2.829361438751220703e+00,-5.695390701293945312e-01,-4.308965802192687988e-01,2.097809314727783203e-01,-6.561539322137832642e-02
1.201655194163322449e-01,-4.880298972129821777e-01,6.351710855960845947e-02,3.052062094211578369e-01,1.563864760100841522e-02
9.588105678558349609e-01,1.055022776126861572e-01,-2.190649807453155518e-01,1.553782224655151367e+00,1.671989858150482178e-01
1.475951433181762695e+00,2.438336372375488281e+00,7.231168746948242188e-01,-1.431642651557922363e+00,9.807796217501163483e-03
-4.949222803115844727e-01,-1.783459633588790894e-01,6.269473433494567871e-01,2.128588438034057617e+00,6.403206586837768555e-01
-2.912313211709260941e-03,-2.322430610656738281e-01,-6.587490439414978027e-01,1.087287068367004395e+00,-5.560383200645446777e-02
1.762514948844909668e+00,8.227975368499755859e-01,3.542023301124572754e-01,-1.216381907463073730e+00,-3.699007332324981689e-01
-1.764291882514953613e+00,9.032414555549621582e-01,5.400454401969909668e-01,-7.544187903404235840e-01,-2.799886167049407959e-01
-4.888654649257659912e-01,-8.206690549850463867e-01,-8.316144347190856934e-01,1.668165028095245361e-01,-4.227041900157928467e-01
-7.706327438354492188e-01,8.826932907104492188e-01,-5.135567784309387207e-01,6.194120049476623535e-01,3.337585926055908203e-02
-1.448639154434204102e+00,-9.991423487663269043e-01,-1.389576354995369911e-03,-1.154162287712097168e+00,-2.456862628459930420e-01
-2.721799373626708984e+00,-7.498632073402404785e-01,-3.526380360126495361e-01,-1.643816232681274414e+00,-2.196470499038696289e-01
1.030561327934265137e+00,8.274548649787902832e-01,-5.093832612037658691e-01,1.301954269409179688e+00,2.962823770940303802e-02
-1.450911641120910645e+00,-9.816456437110900879e-01,3.421322405338287354e-01,-4.356331229209899902e-01,5.523971468210220337e-02
2.109177827835083008e+00,-8.508865237236022949e-01,1.370149552822113037e-01,8.452917337417602539e-01,-3.711280971765518188e-02
2.506854295730590820e+00,2.103462964296340942e-01,-3.215393126010894775e-01,-3.950683176517486572e-01,6.828944385051727295e-02
1.251335501670837402e+00,4.689155220985412598e-01,-1.151497289538383484e-01,-1.166051626205444336e+00,-2.336196452379226685e-01
1.977015614509582520e+00,7.930873036384582520e-01,5.952794849872589111e-02,3.654335439205169678e-01,-1.968262642621994019e-01
-2.000154733657836914e+00,-8.793654441833496094e-01,-2.501693367958068848e-01,-8.053554892539978027e-01,-1.193435117602348328e-01
-3.336480855941772461e+00,1.410835742950439453e+00,9.579936265945434570e-01,1.716893166303634644e-01,-2.270984798669815063e-01
4.203004837036132812e-01,-1.428488731384277344e+00,-4.952798187732696533e-01,-1.193324208259582520e+00,-2.057830691337585449e-01
-2.332156658172607422e+00,1.945926696062088013e-01,-9.943112730979919434e-01,-1.064332365989685059e+00,5.241148173809051514e-02
-3.210405826568603516e+00,3.731802403926849365e-01,-3.664456605911254883e-01,-4.627487361431121826e-01,-7.720029354095458984e-02
-1.136813879013061523e+00,1.884848713874816895e+00,2.694968283176422119e-01,5.924307703971862793e-01,1.105615571141242981e-01
1.803001046180725098e+00,-1.413929611444473267e-01,-1.628729552030563354e-01,-8.117809891700744629e-02,-2.450940757989883423e-01
1.986429929733276367e+00,-8.503554463386535645e-01,4.980598092079162598e-01,-7.403580546379089355e-01,2.918789386749267578e-01
-1.246789813041687012e+00,-1.828169524669647217e-01,1.623493075370788574e+00,-7.886916399002075195e-01,-3.081596493721008301e-01
-7.115077972412109375e-01,1.553307175636291504e+00,-9.432244896888732910e-01,4.527052044868469238e-01,-1.372441500425338745e-01
6.707233786582946777e-01,-1.946340322494506836e+00,9.989661723375320435e-02,-1.525430679321289062e-01,5.932088941335678101e-03
2.662970781326293945e+00,-2.773948013782501221e-01,-6.026188731193542480e-01,-8.192998170852661133e-01,2.847055532038211823e-02
-1.910528540611267090e+00,-2.305832952260971069e-01,1.497810363769531250e+00,-2.572317421436309814e-01,-2.580493390560150146e-01
1.557108998298645020e+00,-4.748594388365745544e-02,1.786311566829681396e-01,8.309052586555480957e-01,2.426019459962844849e-01
-1.417193770408630371e+00,3.191753029823303223e-01,-7.982216477394104004e-01,-5.849201679229736328e-01,1.423782706260681152e-01
7.176073193550109863e-01,3.922453820705413818e-01,4.708003997802734375e-01,-3.076945841312408447e-01,3.873622715473175049e-01
-1.486789107322692871e+00,2.534178495407104492e-01,5.112946033477783203e-01,1.615931391716003418e+00,2.992300689220428467e-02
2.008294343948364258e+00,1.259258508682250977e+00,-4.374514892697334290e-02,-1.300591468811035156e+00,-3.466912209987640381e-01
-1.692623645067214966e-01,5.136679410934448242e-01,9.044664502143859863e-01,-2.665555000305175781e+00,-6.098226904869079590e-01
-3.055996000766754150e-01,3.710410296916961670e-01,-5.435345768928527832e-01,1.392224311828613281e+00,4.346367344260215759e-02
9.106624722480773926e-01,6.674455851316452026e-02,-1.165847063064575195e+00,-2.053449749946594238e-01,2.099436149001121521e-02
3.420257329940795898e+00,-1.128117293119430542e-01,-8.647953718900680542e-02,3.320938348770141602e-01,-4.964393749833106995e-02
-2.314822435379028320e+00,-3.040842711925506592e-02,3.989716768264770508e-01,9.148785471916198730e-01,-1.699724197387695312e-01
-3.299255609512329102e+00,7.994874119758605957e-01,-9.316072463989257812e-01,-1.203390121459960938e+00,-4.585160315036773682e-02
-1.672400087118148804e-01,-1.633839607238769531e-01,-7.620515674352645874e-02,-1.917079925537109375e+00,-2.107667475938796997e-01
-2.937087535858154297e+00,4.216472804546356201e-02,-5.825255513191223145e-01,8.709827661514282227e-01,-6.505204737186431885e-02
8.840198069810867310e-02,1.896147370338439941e+00,5.653555393218994141e-01,-3.286841511726379395e-01,-2.982197105884552002e-01
1.582633137702941895e+00,-3.093773424625396729e-01,2.066561877727508545e-01,1.379787087440490723e+00,4.306624233722686768e-01
-2.087658166885375977e+00,-1.309972047805786133e+00,9.112012386322021484e-01,5.245582461357116699e-01,-2.166766077280044556e-01
9.514819383621215820e-01,2.374433428049087524e-01,9.288965463638305664e-01,-1.651239633560180664e+00,-3.209018707275390625e-01
-1.142797350883483887e+00,-3.976543843746185303e-01,7.277266383171081543e-01,8.322132378816604614e-02,-3.536615669727325439e-01
1.818875074386596680e+00,5.071768164634704590e-01,-2.108412832021713257e-01,-1.092070579528808594e+00,3.980358690023422241e-02
-1.762586355209350586e+00,-1.236887097358703613e+00,3.963835239410400391e-01,8.850262761116027832e-01,-1.812668293714523315e-01
3.745736479759216309e-01,1.216090083122253418e+00,5.105071067810058594e-01,2.816163897514343262e-01,2.510667741298675537e-01
1.796329140663146973e+00,-9.910714030265808105e-01,-4.583847820758819580e-01,-3.443802297115325928e-01,-1.566144526004791260e-01
-5.603836849331855774e-02,-4.280284643173217773e-01,4.693179428577423096e-01,1.047979235649108887e+00,8.287219703197479248e-02
-6.108996868133544922e-01,1.045710802078247070e+00,6.816941499710083008e-02,8.567016720771789551e-01,2.858575806021690369e-02
-2.460581064224243164e-01,-2.242008745670318604e-01,4.722324907779693604e-01,-1.363743185997009277e+00,2.032232284545898438e-01
-1.429572463035583496e+00,-1.989405900239944458e-01,2.966920137405395508e-01,1.036395072937011719e+00,8.247704058885574341e-02
-2.660917043685913086e+00,2.195051461458206177e-01,-9.417129158973693848e-01,5.662069320678710938e-01,-1.283047199249267578e-01
-3.206361234188079834e-01,-4.289112612605094910e-02,2.182321995496749878e-01,1.925594568252563477e+00,4.626875817775726318e-01
-6.839508414268493652e-01,-4.326216280460357666e-01,1.246362105011940002e-01,1.112964749336242676e+00,3.030773401260375977e-01
-2.782672405242919922e+00,-1.357174813747406006e-01,1.609310358762741089e-01,1.361825108528137207e+00,1.078146174550056458e-01
-2.748335599899291992e+00,-6.570974588394165039e-01,2.686765789985656738e-02,1.559395790100097656e+00,1.658278256654739380e-01
8.470064997673034668e-01,5.942822694778442383e-01,-4.034771025180816650e-01,1.920757889747619629e-01,-1.192081272602081299e-01
8.031942844390869141e-01,-1.206375837326049805e+00,4.638855159282684326e-02,1.034608557820320129e-01,6.688128411769866943e-02
-9.573906660079956055e-01,8.150472044944763184e-01,-1.354178190231323242e+00,5.523337125778198242e-01,-5.147198960185050964e-02
4.145824432373046875e+00,3.940016627311706543e-01,-2.710379064083099365e-01,-1.629328429698944092e-01,-2.657163515686988831e-02
-2.780148506164550781e+00,-2.225381731986999512e-01,6.586849093437194824e-01,-5.745528340339660645e-01,-4.048323035240173340e-01
-3.419058799743652344e+00,-1.421985477209091187e-01,8.164305090904235840e-01,2.542949020862579346e-01,2.559825479984283447e-01
-2.091234475374221802e-01,1.901968955993652344e+00,1.662860512733459473e-01,-1.137491583824157715e+00,-2.529338598251342773e-01
-8.216665387153625488e-01,7.716214656829833984e-01,6.218666434288024902e-01,1.381420791149139404e-01,-4.537852406501770020e-01
1.528386712074279785e+00,1.103391647338867188e+00,-2.887812852859497070e-01,-1.045807600021362305e-01,-1.528466194868087769e-01
-6.861158609390258789e-01,-6.718924641609191895e-01,1.483357667922973633e+00,1.607894897460937500e+00,3.896828293800354004e-01
-1.419981479644775391e+00,9.048539400100708008e-02,-5.595859885215759277e-02,-1.294044017791748047e+00,-2.061323076486587524e-01
-9.333697557449340820e-01,-6.217755079269409180e-01,1.074709296226501465e+00,1.241501927375793457e+00,2.685423493385314941e-01
7.196133732795715332e-01,4.199752211570739746e-01,2.717461884021759033e-01,1.206770092248916626e-01,9.359548985958099365e-02
4.361061751842498779e-01,2.609349191188812256e-01,-7.156641483306884766e-01,1.194940686225891113e+00,-3.609069809317588806e-02
6.904288530349731445e-01,-4.350470900535583496e-01,-2.112314999103546143e-01,1.303297162055969238e+00,-1.700399965047836304e-01
3.071698904037475586e+00,3.472646474838256836e-01,4.302200675010681152e-01,3.622537255287170410e-01,3.148356080055236816e-01
9.487901329994201660e-01,1.012967944145202637e+00,-6.590222716331481934e-01,-4.468656480312347412e-01,1.937759853899478912e-02
1.785833597183227539e+00,1.361488342285156250e+00,-9.829040169715881348e-01,-8.011764287948608398e-01,-4.545810446143150330e-02
-4.009568691253662109e-01,1.654109716415405273e+00,-8.831241726875305176e-02,1.317070126533508301e+00,-1.400560420006513596e-02
3.643312454223632812e+00,1.192239150404930115e-01,4.161966145038604736e-01,1.882291734218597412e-01,-1.145919337868690491e-01
4.366966784000396729e-01,5.892357230186462402e-01,1.292976140975952148e+00,-2.825242877006530762e-01,-3.975146710872650146e-01
3.588650226593017578e+00,-2.824107706546783447e-01,3.503790199756622314e-01,2.855809330940246582e-01,2.211583405733108521e-01
-7.283970713615417480e-01,-4.131065011024475098e-01,5.366429686546325684e-01,-3.555918931961059570e-01,-7.005427032709121704e-03
2.100126743316650391e+00,5.479686260223388672e-01,4.469193518161773682e-01,-9.626170992851257324e-01,-2.647439539432525635e-01
4.424239993095397949e-01,5.482595562934875488e-01,-7.837264239788055420e-02,4.599471017718315125e-02,3.952034190297126770e-02
1.913295269012451172e+00,-1.376476168632507324e+00,8.099648356437683105e-02,-4.555739834904670715e-02,-9.370493888854980469e-02
-1.781260848045349121e+00,-3.422802090644836426e-01,5.645002722740173340e-01,1.227542519569396973e+00,2.403694204986095428e-02
-1.678590893745422363e+00,-5.511180311441421509e-02,-2.712279558181762695e-01,1.832195401191711426e+00,-1.307753175497055054e-01
-1.146872043609619141e+00,6.633611917495727539e-01,1.195933461189270020e+00,5.988887278363108635e-04,-4.589892923831939697e-01
-1.276636838912963867e+00,-1.674510717391967773e+00,2.194741219282150269e-01,9.668271988630294800e-02,-1.039635017514228821e-01
6.034451723098754883e-01,1.628237962722778320e+00,-1.159687757492065430e+00,-1.825404465198516846e-01,-9.720722585916519165e-02
3.235679626464843750e+00,-7.008466124534606934e-02,8.755185604095458984e-01,1.161893129348754883e+00,4.421296417713165283e-01
3.256738781929016113e-01,1.735641241073608398e+00,-5.924836993217468262e-01,4.338562116026878357e-02,7.124705612659454346e-02
-1.470553040504455566e+00,-1.041860580444335938e+00,-4.378203451633453369e-01,1.204674243927001953e+00,1.410185992717742920e-01
9.499601125717163086e-01,4.026934206485748291e-01,-4.725642502307891846e-01,1.206774234771728516e+00,-2.851293655112385750e-03
6.707125157117843628e-02,-1.097209053114056587e-03,1.060253143310546875e+00,8.563806414604187012e-01,2.711327672004699707e-01
7.499904036521911621e-01,1.960930585861206055e+00,1.062303129583597183e-02,1.309399604797363281e-01,-6.392641365528106689e-02
-1.871997117996215820e+00,-3.461738526821136475e-01,6.544293165206909180e-01,1.463446021080017090e-01,-2.129416763782501221e-01
1.118440032005310059e+00,9.583835005760192871e-01,-7.821574807167053223e-02,-2.569928020238876343e-02,2.711234390735626221e-01
1.754452347755432129e+00,-5.083335638046264648e-01,4.909954071044921875e-01,-2.117456346750259399e-01,3.251408040523529053e-01
-1.386043429374694824e+00,1.060599565505981445e+00,2.571269571781158447e-01,-1.693760156631469727e+00,-2.189693748950958252e-01
3.876479566097259521e-01,2.633212506771087646e-01,3.157883882522583008e-01,-1.696751475334167480e+00,-1.101986095309257507e-01
1.457022905349731445e+00,1.627620905637741089e-01,-6.378626227378845215e-01,1.454305369406938553e-02,-3.276207670569419861e-02
-3.116979360580444336e+00,8.276031613349914551e-01,2.429962605237960815e-01,-1.304519057273864746e+00,-1.034045442938804626e-01
2.174159765243530273e+00,1.411440372467041016e-01,-2.411314249038696289e-01,-4.804148077964782715e-01,-1.588668227195739746e-01
2.236373424530029297e+00,3.633690178394317627e-01,1.005569577217102051e+00,-1.000145435333251953e+00,-4.031603932380676270e-01
1.259045396000146866e-02,1.224773764610290527e+00,-3.533492386341094971e-01,-1.232236623764038086e+00,8.027946203947067261e-02
9.880571961402893066e-01,8.973815441131591797e-01,-2.435632944107055664e-01,1.169240832328796387e+00,4.550801962614059448e-02
8.697454333305358887e-01,-5.614312887191772461e-01,-2.062924206256866455e-01,4.277977049350738525e-01,-2.969004809856414795e-01
8.021837472915649414e-01,1.329434275627136230e+00,1.299574017524719238e+00,-2.430565953254699707e-01,-4.657086450606584549e-03
3.585813999176025391e+00,4.606511294841766357e-01,-1.780246049165725708e-01,-7.420558333396911621e-01,-2.012139409780502319e-01
1.890028715133666992e+00,-8.481364250183105469e-01,-9.608853608369827271e-02,7.232647538185119629e-01,1.037693023681640625e-01
3.186306059360504150e-01,-4.873998463153839111e-01,-6.612188816070556641e-01,-1.035939812660217285e+00,-1.732443869113922119e-01
-6.746401190757751465e-01,-1.259338498115539551e+00,-1.216980218887329102e-01,-3.516738712787628174e-01,-1.888757944107055664e-01
-1.687392830848693848e+00,-3.056625723838806152e-01,4.020583331584930420e-01,9.375135898590087891e-01,-2.672807313501834869e-02
1.099777221679687500e+00,-1.376358389854431152e+00,4.712929725646972656e-01,6.575924158096313477e-01,-7.372990250587463379e-02
-2.689283132553100586e+00,6.956402659416198730e-01,-5.396110415458679199e-01,9.676657915115356445e-01,1.526001244783401489e-01
1.439294219017028809e+00,-1.907431125640869141e+00,6.051856279373168945e-01,3.130128383636474609e-01,2.989361286163330078e-01
1.179856181144714355e+00,3.642055019736289978e-02,2.512924671173095703e-01,-6.173492074012756348e-01,1.308239717036485672e-02
3.113339662551879883e+00,8.949130177497863770e-01,6.114511564373970032e-02,-1.770586252212524414e+00,-3.760536313056945801e-01
-6.955626606941223145e-01,-7.656708955764770508e-01,5.622256994247436523e-01,-1.561624765396118164e+00,-2.189469337463378906e-01
1.245111942291259766e+00,-7.210488319396972656e-01,5.740397572517395020e-01,-7.367926239967346191e-01,-3.065683841705322266e-01
-3.896697163581848145e-01,2.041645348072052002e-02,1.859938055276870728e-01,5.445033777505159378e-03,-2.184146083891391754e-02
4.455532431602478027e-01,1.458921909332275391e+00,6.035102605819702148e-01,-9.871438145637512207e-01,2.946030721068382263e-02
-1.637662291526794434e+00,-7.375947833061218262e-01,2.641660273075103760e-01,6.258464455604553223e-01,1.853348463773727417e-01
-1.217280507087707520e+00,1.776030659675598145e-02,-6.693695187568664551e-01,1.391412377357482910e+00,3.111534714698791504e-01
2.392708063125610352e+00,-1.014243841171264648e+00,-3.478948771953582764e-01,1.601755470037460327e-01,-7.679325342178344727e-02
1.542357653379440308e-01,-2.182755708694458008e+00,5.017818808555603027e-01,-5.281016826629638672e-01,-1.799837201833724976e-01
-4.893539249897003174e-01,-3.924050629138946533e-01,1.662717461585998535e-01,-1.184697866439819336e+00,-2.208616733551025391e-01
3.572296857833862305e+00,-1.127155125141143799e-01,7.113805413246154785e-02,1.037944912910461426e+00,1.975147873163223267e-01
-2.141881465911865234e+00,-2.906167209148406982e-01,-3.172284662723541260e-01,-8.708837628364562988e-01,-1.383369565010070801e-01
9.659992158412933350e-02,-3.815415203571319580e-01,-9.316775947809219360e-02,-1.520989298820495605e+00,-1.571740508079528809e-01
8.329980969429016113e-01,1.500055491924285889e-01,9.902714192867279053e-02,1.389289140701293945e+00,1.779089272022247314e-01
2.919014453887939453e+00,4.777173399925231934e-01,-5.802775621414184570e-01,-1.970796138048171997e-01,8.543682098388671875e-02
-5.895795226097106934e-01,2.985850870609283447e-01,-1.365017145872116089e-01,1.363109052181243896e-01,3.617895999923348427e-03
-1.019298076629638672e+00,-1.007418185472488403e-01,-4.703795909881591797e-02,-1.513682723045349121e+00,-2.268795669078826904e-01
8.654803037643432617e-01,-3.621545433998107910e-01,7.197528481483459473e-01,7.372946739196777344e-01,2.933360934257507324e-01
2.170377492904663086e+00,-1.581169813871383667e-01,-3.167362809181213379e-01,5.918543413281440735e-02,-2.565322257578372955e-02
-2.638453722000122070e+00,5.871943831443786621e-01,5.850112438201904297e-01,1.523026704788208008e+00,2.070753574371337891e-01
-3.347119808197021484e+00,9.360363334417343140e-02,8.898804783821105957e-01,-1.993949860334396362e-01,3.006218969821929932e-01
2.449509620666503906e+00,8.455989956855773926e-01,-2.243013381958007812e-01,-6.131477355957031250e-01,-5.146041512489318848e-01
-1.940521597862243652e+00,-3.528605997562408447e-01,4.185507595539093018e-01,-7.753876447677612305e-01,-1.595351248979568481e-01
1.631857395172119141e+00,-7.668709754943847656e-01,-9.655641764402389526e-02,6.990337967872619629e-01,1.451591700315475464e-01
-1.058425545692443848e+00,1.416502237319946289e+00,8.668021857738494873e-02,-1.560078620910644531e+00,-2.118495553731918335e-01
-2.043296396732330322e-01,2.905839979648590088e-01,5.375870466232299805e-01,-2.396976709365844727e+00,-1.763895601034164429e-01
-1.021224260330200195e+00,-1.277106761932373047e+00,2.325728088617324829e-01,2.868656516075134277e-01,3.771484270691871643e-02
-3.618468046188354492e-01,-1.155320048332214355e+00,1.904210448265075684e-02,-8.739448189735412598e-01,9.823042154312133789e-02
1.677769064903259277e+00,2.105508446693420410e-01,7.340628504753112793e-01,-5.080105066299438477e-01,4.057392179965972900e-01
-3.983645141124725342e-01,8.853344917297363281e-01,8.112931847572326660e-01,-2.094391345977783203e+00,-3.270554840564727783e-01
-9.689021706581115723e-01,1.328008413314819336e+00,-7.136134505271911621e-01,1.606689989566802979e-01,-1.045428961515426636e-01
7.425488829612731934e-01,3.457275331020355225e-01,-9.882475137710571289e-01,1.580794155597686768e-01,-1.570807099342346191e-01
-2.362710475921630859e+00,-5.860521793365478516e-01,-1.928350031375885010e-01,5.600339770317077637e-01,2.615731060504913330e-01
3.410499393939971924e-01,8.681027293205261230e-01,-5.706431865692138672e-01,8.282827734947204590e-01,4.542812705039978027e-02
1.825324296951293945e+00,5.334430336952209473e-01,-5.235306620597839355e-01,1.135819628834724426e-01,9.992233663797378540e-02
-3.581196308135986328e+00,-6.443168967962265015e-02,-1.658558696508407593e-01,-5.387923121452331543e-01,-3.122963905334472656e-01
-2.057593584060668945e+00,-1.113712668418884277e+00,-1.052144408226013184e+00,-4.876044690608978271e-01,-3.360294997692108154e-01
-2.455379724502563477e+00,-4.510972201824188232e-01,-1.688657164573669434e+00,-4.200634360313415527e-01,-4.661655426025390625e-02
6.745115518569946289e-01,-8.767978847026824951e-02,5.489981174468994141e-01,5.448763966560363770e-01,2.089586108922958374e-02
-2.072201818227767944e-01,4.721045792102813721e-01,-3.590871393680572510e-01,8.683916330337524414e-01,3.378570824861526489e-02
7.924478650093078613e-01,-1.466871500015258789e+00,-7.151255011558532715e-01,3.937519788742065430e-01,1.237396616488695145e-02
6.887233853340148926e-01,-1.871971726417541504e+00,6.624631583690643311e-02,2.057920247316360474e-01,-3.049587830901145935e-02
-1.369844794273376465e+00,-1.661899238824844360e-01,8.693264722824096680e-01,2.374115705490112305e+00,6.888453364372253418e-01
1.352668523788452148e+00,-1.271739482879638672e+00,2.982218265533447266e-01,9.931505322456359863e-01,1.305871009826660156e-01
-2.388495206832885742e+00,-8.257281780242919922e-01,-5.853136777877807617e-01,-6.712831258773803711e-01,-1.985687315464019775e-01
-1.331701636314392090e+00,-2.552852332592010498e-01,-7.023799419403076172e-01,2.489218413829803467e-01,1.424038112163543701e-01
3.327720642089843750e+00,6.340215206146240234e-01,5.935857072472572327e-02,1.223965167999267578e+00,-8.656505495309829712e-03
-1.737649798393249512e+00,-9.772155880928039551e-01,3.799839615821838379e-01,2.207042723894119263e-01,-2.492110580205917358e-01
1.541275382041931152e+00,-1.513137817382812500e+00,1.559332758188247681e-01,9.396049976348876953e-01,2.895948849618434906e-02
-1.630234837532043457e+00,-1.807726174592971802e-01,7.080932855606079102e-01,-9.551830887794494629e-01,-4.158995747566223145e-01
7.112873792648315430e-01,1.129582285881042480e+00,1.090755462646484375e+00,-3.262462019920349121e-01,4.168018698692321777e-01
1.496189236640930176e-01,3.818530142307281494e-01,7.224531769752502441e-01,-2.202046155929565430e+00,-4.528560042381286621e-01
-1.446694850921630859e+00,1.974247545003890991e-01,-4.883531033992767334e-01,7.347941994667053223e-01,1.058067604899406433e-01
-2.094643115997314453e+00,-1.408838748931884766e+00,7.672155648469924927e-02,1.280909180641174316e+00,1.626862138509750366e-01
-1.105486154556274414e+00,4.882695078849792480e-01,4.924011230468750000e-01,-1.754149675369262695e+00,-6.137943267822265625e-02
2.137801647186279297e+00,-3.207718431949615479e-01,6.570984125137329102e-01,-7.804290652275085449e-01,-2.638852000236511230e-01
3.168213129043579102e+00,6.011413931846618652e-01,2.364048957824707031e-01,-4.021537601947784424e-01,-1.200288981199264526e-01
2.993300676345825195e+00,8.019002526998519897e-02,-3.478293120861053467e-01,-6.027272939682006836e-01,8.741455525159835815e-02
2.602778196334838867e+00,-3.717754036188125610e-02,-7.735388278961181641e-01,-1.617424368858337402e+00,3.011844754219055176e-01
3.180413484573364258e+00,8.028600215911865234e-01,6.572780758142471313e-02,-1.613099932670593262e+00,-2.858791053295135498e-01
1.107685640454292297e-01,5.301666259765625000e-01,-1.550035327672958374e-01,9.027006030082702637e-01,-2.978536486625671387e-01
9.466340541839599609e-01,-1.563477158546447754e+00,-1.038724660873413086e+00,2.577977180480957031e-01,-1.111212894320487976e-01
-6.163845062255859375e-01,-6.244957447052001953e-01,-1.397473067045211792e-01,4.371567070484161377e-01,2.065652422606945038e-02
-5.936153531074523926e-01,8.297487497329711914e-01,2.606880366802215576e-01,9.366335868835449219e-01,1.630368977785110474e-01
-2.668539524078369141e+00,-8.309240341186523438e-01,1.252016067504882812e+00,6.930123567581176758e-01,-1.967711597681045532e-01
7.601569890975952148e-01,-8.307357430458068848e-01,-2.142435610294342041e-01,5.092977285385131836e-01,1.091367006301879883e-01
-1.998540997505187988e+00,-1.019142270088195801e-01,6.364505887031555176e-01,-6.958346962928771973e-01,-2.253936380147933960e-01
-2.776640355587005615e-01,-4.120219945907592773e-01,5.349592119455337524e-02,1.783955655992031097e-02,-3.356143087148666382e-02
-1.482533216476440430e+00,-6.336100697517395020e-01,-4.821884632110595703e-01,-9.919975996017456055e-01,4.720882475376129150e-01
3.496685743331909180e+00,4.554946720600128174e-01,-2.903575003147125244e-01,4.954203069210052490e-01,-7.908375561237335205e-02
-1.598451733589172363e+00,-3.768472671508789062e-01,2.195333540439605713e-01,6.167443394660949707e-01,-3.469992429018020630e-02
1.418587565422058105e+00,-1.885474473237991333e-01,-3.305551409721374512e-01,-5.996834635734558105e-01,1.196712329983711243e-01
5.699700117111206055e-01,9.568102359771728516e-01,-8.169185370206832886e-02,1.412740796804428101e-01,-1.270723342895507812e-01
1.080438256263732910e+00,6.032996773719787598e-01,-8.840240240097045898e-01,-3.065959513187408447e-01,1.089538857340812683e-01
1.674523353576660156e+00,-4.961231350898742676e-01,-1.707808226346969604e-01,3.819272220134735107e-01,-6.416250020265579224e-02
1.159504890441894531e+00,-1.711202710866928101e-01,-9.491631388664245605e-01,6.796323657035827637e-01,-1.089113727211952209e-01
-2.640958070755004883e+00,1.483816385269165039e+00,5.387858673930168152e-02,4.753252863883972168e-01,1.202970221638679504e-01
-1.150958776473999023e+00,1.326258540153503418e+00,1.404216587543487549e-01,1.082187414169311523e+00,7.959670573472976685e-02
-2.502674341201782227e+00,1.084709286689758301e+00,6.247056722640991211e-01,-6.939021348953247070e-01,1.486176997423171997e-01
-1.557398289442062378e-01,-2.796643786132335663e-02,3.899058997631072998e-01,8.546905219554901123e-02,4.017134197056293488e-03
-7.593033909797668457e-01,-6.428260803222656250e-01,3.834679722785949707e-01,1.327994465827941895e+00,-1.470488905906677246e-01
-2.639071702957153320e+00,-2.039012461900711060e-01,2.063684910535812378e-01,1.521587073802947998e-01,-1.816367357969284058e-01
3.579564809799194336e+00,4.474198818206787109e-01,-2.033176645636558533e-02,5.309318900108337402e-01,-3.898808360099792480e-02
-8.753404617309570312e-01,-6.471177935600280762e-01,-6.442502737045288086e-01,1.699366688728332520e+00,-5.054303407669067383e-01
-3.509314060211181641e+00,-5.889739990234375000e-01,-5.565550327301025391e-01,-3.763617575168609619e-01,1.969911158084869385e-01
1.401640295982360840e+00,-9.912487268447875977e-01,6.801040843129158020e-03,-8.491816520690917969e-01,1.425047172233462334e-03
-1.749826669692993164e+00,5.123922228813171387e-01,1.345793623477220535e-02,6.804599165916442871e-01,-9.600516408681869507e-02
6.258569359779357910e-01,2.090640068054199219e-01,1.111337184906005859e+00,-9.079378843307495117e-01,-2.885912358760833740e-01
1.072199106216430664e+00,6.795274466276168823e-02,4.231578409671783447e-01,4.762832541018724442e-03,1.402504043653607368e-03
8.159536123275756836e-01,4.685094654560089111e-01,-4.716053307056427002e-01,-8.911428451538085938e-01,1.471837982535362244e-02
3.969127237796783447e-01,-2.017315924167633057e-01,-1.760927401483058929e-02,5.147796869277954102e-01,-4.293621983379125595e-03
2.317090779542922974e-01,-4.697468280792236328e-01,-5.437811613082885742e-01,8.663235306739807129e-01,3.630320727825164795e-02
2.311202049255371094e+00,-4.787235334515571594e-02,-2.283860445022583008e-01,1.075102165341377258e-01,-6.308679934591054916e-03
1.758904218673706055e+00,1.604551553726196289e+00,7.694373130798339844e-01,-3.233122825622558594e-01,-3.192018866539001465e-01
1.349533319473266602e+00,1.622147262096405029e-01,-3.031681478023529053e-01,-4.152444303035736084e-01,-3.145494684576988220e-02
-1.276835083961486816e+00,-4.412443637847900391e-01,-6.844625473022460938e-01,1.113490462303161621e+00,2.242513932287693024e-03
-1.520471215248107910e+00,-1.650660157203674316e+00,3.019583225250244141e-01,8.102346658706665039e-01,-9.046301245689392090e-02
1.167526602745056152e+00,-8.084821105003356934e-01,-2.332890182733535767e-01,-3.200870454311370850e-01,-6.587579101324081421e-02
2.706556320190429688e+00,7.717881202697753906e-01,3.815313801169395447e-03,-9.669221043586730957e-01,-6.384513527154922485e-02
-1.897184401750564575e-01,-5.436713099479675293e-01,-4.633834585547447205e-02,8.432205021381378174e-02,-7.059189956635236740e-03
1.270580530166625977e+00,4.227157831192016602e-01,-1.967547684907913208e-01,9.797280281782150269e-02,8.965888619422912598e-02
-1.092614084482192993e-01,-1.427839398384094238e+00,5.698691010475158691e-01,-6.386411786079406738e-01,1.202089712023735046e-02
-2.812517404556274414e+00,-4.311452433466911316e-02,-1.327083468437194824e+00,-3.271865546703338623e-01,3.408337831497192383e-01
-4.899650812149047852e-01,1.156779050827026367e+00,-7.318536043167114258e-01,2.431605607271194458e-01,9.794105589389801025e-02
-9.352153539657592773e-01,-5.665631294250488281e-01,-1.298752188682556152e+00,-3.606557846069335938e-02,-3.035962283611297607e-01
2.209086656570434570e+00,-3.634535893797874451e-02,3.249600231647491455e-01,3.866649866104125977e-01,2.277023196220397949e-01
-4.519239664077758789e-01,2.055226325988769531e+00,-3.365976810455322266e-01,6.345115303993225098e-01,2.663354389369487762e-02
-1.557322502136230469e+00,-5.166595578193664551e-01,-7.914121747016906738e-01,9.828838109970092773e-01,-6.878270953893661499e-02
-1.534738302230834961e+00,-8.796730637550354004e-01,5.070615410804748535e-01,-1.662651062011718750e+00,3.630022704601287842e-01
-4.673290550708770752e-01,-1.045652776956558228e-01,2.543067932128906250e-01,-2.671021938323974609e+00,-5.012738704681396484e-01
2.248016119003295898e+00,-5.885361880064010620e-02,-4.789318144321441650e-01,-2.406991645693778992e-02,-1.768304109573364258e-01
1.297607272863388062e-01,-2.148752659559249878e-01,8.311977982521057129e-01,-6.558285355567932129e-01,-3.514023125171661377e-01
1.662125468254089355e+00,6.532267928123474121e-01,-3.695953488349914551e-01,-5.534728765487670898e-01,1.280277967453002930e-01
6.906582713127136230e-01,1.596603989601135254e+00,-3.063119947910308838e-01,-5.851442217826843262e-01,-5.852780491113662720e-02
-2.035797685384750366e-01,-2.205252274870872498e-02,1.147883292287588120e-02,1.180511936545372009e-01,-4.753101617097854614e-03
-2.999885797500610352e+00,-3.469633460044860840e-01,7.755193710327148438e-01,-2.558053135871887207e-01,-3.395075798034667969e-01
-1.548447847366333008e+00,4.594946503639221191e-01,6.033478975296020508e-01,1.208328962326049805e+00,-3.827585652470588684e-02
1.059807658195495605e+00,-8.917961120605468750e-01,-6.410259604454040527e-01,-1.503421068191528320e+00,-8.057617582380771637e-03
-1.182272553443908691e+00,-6.434133052825927734e-01,-6.782169342041015625e-01,-1.455777406692504883e+00,8.650948852300643921e-02
-6.361330747604370117e-01,-3.854746818542480469e-01,2.617107927799224854e-01,1.209785863757133484e-01,-1.067876070737838745e-01
7.316085100173950195e-01,3.620809316635131836e-01,5.583801269531250000e-01,-2.595551729202270508e+00,-3.793776035308837891e-01
-2.578822970390319824e-01,-1.510108590126037598e+00,9.089279174804687500e-01,1.937424540519714355e+00,1.916313469409942627e-01
-6.519723534584045410e-01,2.476309388875961304e-01,1.068998098373413086e+00,6.251531839370727539e-01,2.466379404067993164e-01
1.345029354095458984e+00,3.943755105137825012e-02,-8.915355801582336426e-02,1.099973842501640320e-01,4.912679083645343781e-03
2.139445066452026367e+00,2.162666916847229004e-01,-2.858339548110961914e-01,4.340161085128784180e-01,4.167470708489418030e-02
-4.878626465797424316e-01,2.259408682584762573e-01,7.332540750503540039e-01,1.165463685989379883e+00,2.933753728866577148e-01
2.479576587677001953e+00,1.254948675632476807e-01,-3.539740294218063354e-02,1.600659340620040894e-01,1.028825622051954269e-02
-1.123951673507690430e+00,-1.563967466354370117e+00,5.414258241653442383e-01,1.047499895095825195e+00,1.435197293758392334e-01
2.088787078857421875e+00,6.810119152069091797e-01,8.463661372661590576e-02,-1.253013014793395996e+00,-2.088184952735900879e-01
-2.010837316513061523e+00,1.252272963523864746e+00,-4.531991854310035706e-02,-7.390148043632507324e-01,1.532112946733832359e-03
-2.784537672996520996e-01,-3.323118090629577637e-01,9.015193581581115723e-01,3.764246702194213867e-01,-3.183651566505432129e-01
2.921945095062255859e+00,2.125674299895763397e-02,3.073616325855255127e-01,-6.038363575935363770e-01,-2.599161565303802490e-01
-5.449333414435386658e-02,1.106605768203735352e+00,-4.084078967571258545e-01,-3.522068858146667480e-01,-4.107920825481414795e-02
-9.033085703849792480e-01,6.641523241996765137e-01,8.499796390533447266e-01,-9.761521220207214355e-01,-3.919603526592254639e-01
1.204033493995666504e+00,-3.646937608718872070e-01,6.376360654830932617e-01,1.228397130966186523e+00,2.957977950572967529e-01
-2.133409023284912109e+00,-6.350385546684265137e-01,1.088144853711128235e-01,-6.206132173538208008e-01,3.596622943878173828e-01
-2.488358169794082642e-01,7.851843833923339844e-01,-4.645107984542846680e-01,8.597438931465148926e-01,-1.229659169912338257e-01
2.586295127868652344e+00,-4.533825516700744629e-01,1.841768026351928711e-01,-9.346210360527038574e-01,2.046453952789306641e-01
2.246203660964965820e+00,1.356274604797363281e+00,-1.945738941431045532e-01,-2.721636593341827393e-01,-1.770461052656173706e-01
-3.095673918724060059e-01,-6.978522539138793945e-01,5.208929181098937988e-01,1.273679733276367188e+00,2.892714738845825195e-01
-1.900394260883331299e-01,-1.073439359664916992e+00,-7.251033186912536621e-01,1.857282519340515137e-01,2.073045074939727783e-02
-1.055740833282470703e+00,8.068386912345886230e-01,-2.419362515211105347e-01,1.397280097007751465e+00,-2.179933935403823853e-01
-2.338348627090454102e+00,-9.839105010032653809e-01,4.854150116443634033e-01,-4.469480216503143311e-01,-1.538980454206466675e-01
1.383169770240783691e+00,-4.759820103645324707e-01,-9.713619202375411987e-02,-4.073933064937591553e-01,2.555581927299499512e-01
-1.136537075042724609e+00,8.178798556327819824e-01,7.002510428428649902e-01,-8.814037442207336426e-01,-5.412100628018379211e-02
3.449642658233642578e+00,3.584622144699096680e-01,1.713178306818008423e-02,-2.012596428394317627e-01,-4.577298834919929504e-02
1.013485789299011230e+00,7.887225747108459473e-01,-4.746067523956298828e-01,-1.080811262130737305e+00,-2.200778126716613770e-01
1.236026287078857422e+00,3.771361708641052246e-01,-3.194444775581359863e-01,3.259266912937164307e-01,-1.595113985240459442e-02
-2.617892026901245117e+00,9.530979394912719727e-01,-3.593653738498687744e-01,1.288996219635009766e+00,3.131545186042785645e-01
2.943163394927978516e+00,3.140501677989959717e-03,2.398478537797927856e-01,-1.348626464605331421e-01,2.529483139514923096e-01
-4.596880674362182617e-01,-8.423582911491394043e-01,-8.086208701133728027e-01,-1.493821740150451660e+00,-2.471604198217391968e-02
-2.164276361465454102e+00,-7.405775785446166992e-01,-7.402921561151742935e-03,-5.008660554885864258e-01,-1.389362215995788574e-01
-4.151632189750671387e-01,6.577770113945007324e-01,9.365190863609313965e-01,-9.588494300842285156e-01,1.419792771339416504e-01
-3.704997777938842773e+00,-9.084329605102539062e-01,2.403207719326019287e-01,7.531922459602355957e-01,-3.450084030628204346e-01
3.318725109100341797e+00,3.740263283252716064e-01,3.594925701618194580e-01,6.940940022468566895e-01,8.435922674834728241e-03
-2.406750440597534180e+00,-9.018847942352294922e-01,6.369379162788391113e-01,-3.111194670200347900e-01,-5.378733277320861816e-01
3.131916284561157227e+00,9.853671789169311523e-01,-3.321239259093999863e-03,3.070844709873199463e-02,1.645531207323074341e-01
-2.927559375762939453e+00,-1.848458647727966309e-01,-4.710954427719116211e-02,5.600338578224182129e-01,-1.618411093950271606e-01
1.328891158103942871e+00,6.799507141113281250e-01,-1.541761308908462524e-01,4.064740240573883057e-01,5.209022387862205505e-02
-7.930448651313781738e-01,1.239252448081970215e+00,-4.758557975292205811e-01,-2.115606814622879028e-01,-1.226785555481910706e-01
1.912990331649780273e+00,-1.246394991874694824e+00,-6.089481711387634277e-01,-1.136544823646545410e+00,6.304584443569183350e-02
3.313067197799682617e+00,1.252673745155334473e+00,2.615107595920562744e-02,3.719166815280914307e-01,-1.907564997673034668e-01
-1.588444560766220093e-01,3.759719729423522949e-01,-9.638602137565612793e-01,1.112656354904174805e+00,1.014232188463211060e-01
4.177682876586914062e+00,-2.398358136415481567e-01,-2.566429972648620605e-01,-5.080464854836463928e-02,2.986037917435169220e-02
-1.509728550910949707e+00,1.085841357707977295e-01,4.263138771057128906e-01,1.574869990348815918e+00,1.185282245278358459e-01
-1.791582465171813965e+00,-3.397604525089263916e-01,2.071882337331771851e-01,-1.572501420974731445e+00,-2.523263990879058838e-01
5.106095671653747559e-01,5.197277069091796875e-01,1.191795110702514648e+00,-1.239710450172424316e+00,-3.263795375823974609e-01
-1.788487195968627930e+00,-1.215862393379211426e+00,8.574498891830444336e-01,3.677785694599151611e-01,-2.985308468341827393e-01
3.642150163650512695e+00,9.071707129478454590e-01,3.804436326026916504e-01,-2.987976372241973877e-01,-4.596508443355560303e-01
5.833466649055480957e-01,-1.318831145763397217e-01,1.050849556922912598e+00,-4.929941594600677490e-01,-2.536090910434722900e-01
-2.423175811767578125e+00,9.402495622634887695e-01,-2.587285935878753662e-01,-6.843910217285156250e-01,-1.122761815786361694e-01
-3.141099810600280762e-01,9.850581288337707520e-01,1.750602424144744873e-01,-1.550212264060974121e+00,-1.204237937927246094e-01
-1.889690756797790527e+00,1.099526047706604004e+00,6.359403133392333984e-01,-1.062394618988037109e+00,-2.544210255146026611e-01
2.435524702072143555e+00,-7.057717442512512207e-02,5.997538194060325623e-02,8.231623172760009766e-01,-1.301847025752067566e-02
2.257461547851562500e+00,2.990773916244506836e-01,-4.559782445430755615e-01,4.028887748718261719e-01,-4.939424619078636169e-02
-1.544065237045288086e+00,-2.152598619461059570e+00,8.756772875785827637e-01,-1.965527236461639404e-02,-1.776314228773117065e-01
3.011273145675659180e+00,7.872775793075561523e-01,-1.250502765178680420e-01,-1.116463065147399902e+00,-7.274312083609402180e-04
-1.659025192260742188e+00,5.952545255422592163e-02,1.201066493988037109e+00,1.418471336364746094e+00,4.267096519470214844e-01
3.851480007171630859e+00,-2.742499113082885742e-01,2.174439877271652222e-01,4.662882089614868164e-01,-1.631365567445755005e-01
2.370019435882568359e+00,-7.496739029884338379e-01,-8.655837774276733398e-01,-8.951018452644348145e-01,1.616195142269134521e-01
3.411632061004638672e+00,5.773212909698486328e-01,2.081301957368850708e-01,9.103218317031860352e-01,1.121709495782852173e-01
1.880757063627243042e-01,-5.386408567428588867e-01,1.891217753291130066e-02,1.864417910575866699e+00,4.074385166168212891e-01
-1.305379509925842285e+00,-2.750356793403625488e-01,6.160388588905334473e-01,1.957586407661437988e+00,2.945248782634735107e-01
-1.228231191635131836e+00,-4.059551060199737549e-01,1.759299188852310181e-01,2.100964069366455078e+00,6.239425539970397949e-01
-3.250928878784179688e+00,-4.455077052116394043e-01,8.385668992996215820e-01,5.647116303443908691e-01,2.865529060363769531e-01
3.486861944198608398e+00,-8.084096312522888184e-01,-1.159389764070510864e-01,5.143324732780456543e-01,-2.270526997745037079e-02
-2.617149591445922852e+00,-1.552328001707792282e-02,-2.164101451635360718e-01,1.241274833679199219e+00,-1.340629011392593384e-01
-1.591119408607482910e+00,7.938774824142456055e-01,-3.999908566474914551e-01,1.218409895896911621e+00,2.188535630702972412e-01
3.297487199306488037e-01,-4.953566193580627441e-01,7.312287092208862305e-01,1.755230545997619629e+00,4.044601619243621826e-01
-1.309267640113830566e+00,1.052290081977844238e+00,-6.060073375701904297e-01,1.034800887107849121e+00,9.873579442501068115e-02
2.149154186248779297e+00,-8.864279389381408691e-01,-4.459430873394012451e-01,-4.981840401887893677e-02,1.255021151155233383e-02
1.787551641464233398e+00,5.248883962631225586e-01,-2.397325932979583740e-01,5.324496701359748840e-02,5.268051475286483765e-02
2.943323850631713867e+00,-4.842182695865631104e-01,-4.781040549278259277e-01,-2.440571226179599762e-02,-2.497601360082626343e-01
8.477404117584228516e-01,-8.875137567520141602e-01,1.764004081487655640e-01,1.135947465896606445e+00,-5.355081707239151001e-02
3.223211050033569336e+00,-6.153223514556884766e-01,-4.739147722721099854e-01,-1.720072925090789795e-01,-3.035392165184020996e-01
2.832663059234619141e+00,2.555541694164276123e-01,-2.748797461390495300e-02,-4.449517428874969482e-01,-1.280181556940078735e-01
-4.158676147460937500e+00,-4.267897903919219971e-01,7.687925696372985840e-01,1.079484075307846069e-01,1.373588144779205322e-01
1.980478048324584961e+00,9.234266877174377441e-01,3.087248206138610840e-01,-1.733260393142700195e+00,-2.300559282302856445e-01
-7.350839972496032715e-01,-3.742422461509704590e-01,1.420880198478698730e+00,1.704830884933471680e+00,4.446015357971191406e-01
2.531831741333007812e+00,-3.244787156581878662e-01,-2.284053862094879150e-01,-5.862236618995666504e-01,4.081794247031211853e-02
-2.504909753799438477e+00,-9.536935687065124512e-01,-5.181607604026794434e-01,5.108547806739807129e-01,1.384093612432479858e-01
-2.005428791046142578e+00,1.638181328773498535e+00,1.235656261444091797e+00,4.369536042213439941e-01,-4.007239341735839844e-01
-1.644931197166442871e+00,2.198510169982910156e-01,-2.150930911302566528e-01,7.543365955352783203e-01,-4.442523792386054993e-02
-5.780561566352844238e-01,1.101412177085876465e+00,6.889467835426330566e-01,1.106821522116661072e-01,-3.853914141654968262e-01
-2.215569019317626953e+00,1.303552985191345215e+00,1.279548764228820801e+00,-4.137196540832519531e-01,-2.997174561023712158e-01
2.479834705591201782e-01,-1.632361672818660736e-02,-8.787597417831420898e-01,9.016135931015014648e-01,-2.296604663133621216e-01
-2.671592950820922852e+00,-1.036351203918457031e+00,1.544077098369598389e-01,8.450685739517211914e-01,-2.096047997474670410e-01
4.080883860588073730e-01,4.770838096737861633e-02,-7.076762914657592773e-01,-1.699212044477462769e-01,-2.363777458667755127e-01
-9.575271606445312500e-01,-1.163186788558959961e+00,2.915827035903930664e-01,-8.010307699441909790e-02,-2.415365166962146759e-02
-1.412615776062011719e+00,8.108307719230651855e-01,-9.999606013298034668e-01,-1.341721892356872559e+00,-1.000022813677787781e-01
-1.929959654808044434e+00,-6.005602478981018066e-01,-4.000533819198608398e-01,-1.627455353736877441e+00,-1.545132249593734741e-01
7.817962169647216797e-01,1.255034923553466797e+00,5.080226063728332520e-01,-8.036965131759643555e-01,-8.630242198705673218e-02
-2.471297502517700195e+00,-3.206801116466522217e-01,-3.921087086200714111e-02,4.385842680931091309e-01,-1.387331187725067139e-01
2.024852037429809570e+00,-6.009763479232788086e-01,-5.157827585935592651e-02,-1.457228660583496094e+00,1.274378597736358643e-01
4.266673564910888672e+00,5.682614445686340332e-01,3.273126780986785889e-01,-1.051491618156433105e+00,-2.236545979976654053e-01
-4.472509384155273438e+00,-1.678821563720703125e+00,5.395691394805908203e-01,-3.852745294570922852e-01,1.344970613718032837e-01
7.444194555282592773e-01,1.808727532625198364e-01,1.504275560379028320e+00,2.149646729230880737e-01,3.557792007923126221e-01
-2.293903112411499023e+00,-1.033145785331726074e+00,6.697100400924682617e-01,9.658192396163940430e-01,6.563805043697357178e-03
1.892550945281982422e+00,5.964164137840270996e-01,-6.057426333427429199e-01,-1.443547129631042480e+00,-3.561446964740753174e-01
3.033867776393890381e-01,1.734787821769714355e-01,1.022689267992973328e-01,2.067332506179809570e+00,2.043162733316421509e-01
-1.482143878936767578e+00,-1.012526273727416992e+00,2.940492033958435059e-01,2.473630428314208984e+00,4.892747402191162109e-01
-2.470505714416503906e+00,6.342353820800781250e-01,4.443848878145217896e-02,5.614913702011108398e-01,3.442057967185974121e-01
-7.955040782690048218e-02,-1.053100004792213440e-01,8.264053463935852051e-01,-7.357993721961975098e-01,-3.577571809291839600e-01
-1.216907262802124023e+00,9.009769558906555176e-02,-9.993113577365875244e-02,6.946836709976196289e-01,-6.683054566383361816e-02
-1.493300050497055054e-01,-1.371978670358657837e-01,3.053477220237255096e-02,1.464433223009109497e-01,4.417834337800741196e-03
-1.321857452392578125e+00,2.487431317567825317e-01,1.482629418373107910e+00,8.040922880172729492e-01,3.832086622714996338e-01
-1.808007210493087769e-01,-4.402491450309753418e-01,9.588086605072021484e-01,-1.087188601493835449e+00,-1.429771929979324341e-01
-1.548126339912414551e+00,-9.683019518852233887e-01,-1.515588045120239258e+00,6.591753661632537842e-02,-1.491519659757614136e-01
-1.388437628746032715e+00,1.333781480789184570e-01,1.099774837493896484e+00,-3.559641540050506592e-01,-1.083714067935943604e-01
4.086691856384277344e+00,-4.266080856323242188e-01,-2.025509178638458252e-01,-8.107393234968185425e-02,2.974691055715084076e-02
1.413255810737609863e+00,1.121536970138549805e+00,3.877556025981903076e-01,4.894202649593353271e-01,-1.116531565785408020e-01
7.986722588539123535e-01,-9.889312386512756348e-01,1.962927579879760742e-01,9.291834831237792969e-01,1.551314294338226318e-01
-2.009353160858154297e+00,6.869800090789794922e-01,1.344956159591674805e-01,3.006927967071533203e-01,-1.637681126594543457e-01
4.025846481323242188e+00,-2.714337706565856934e-01,-2.520014047622680664e-01,3.701952993869781494e-01,-1.003087386488914490e-01
1.663125872611999512e+00,-2.807419300079345703e-01,-5.683803558349609375e-01,-5.755250453948974609e-01,3.900222480297088623e-02
1.982784032821655273e+00,5.214290618896484375e-01,-4.368260800838470459e-01,-1.076701059937477112e-01,5.972660705447196960e-02
-3.538595438003540039e-01,3.003997206687927246e-01,9.149267673492431641e-01,-1.226826071739196777e+00,-3.492604196071624756e-01
2.392607688903808594e+00,2.301173657178878784e-01,1.999559700489044189e-01,-7.734287381172180176e-01,-1.981798559427261353e-01
-2.202217102050781250e+00,1.659412264823913574e+00,-4.773483276367187500e-01,-1.372597575187683105e+00,-1.205343976616859436e-01
1.885395526885986328e+00,1.062133610248565674e-01,-1.505089402198791504e-01,5.923080444335937500e-01,6.426343694329261780e-03
-3.203367471694946289e+00,-1.398536205291748047e+00,-5.969209596514701843e-02,-1.215579211711883545e-01,3.712128400802612305e-01
2.094743967056274414e+00,-8.921874761581420898e-01,1.205667927861213684e-01,1.526284575462341309e+00,2.458827048540115356e-01
-3.083592891693115234e+00,-7.223141789436340332e-01,1.670736521482467651e-01,1.258326053619384766e+00,3.337282836437225342e-01
-3.837388940155506134e-03,5.187645182013511658e-02,-2.533571720123291016e-01,-7.797900587320327759e-02,-1.826166175305843353e-02
-8.672379702329635620e-02,-1.665042340755462646e-01,1.468521505594253540e-01,8.072596788406372070e-02,-6.186074111610651016e-03
9.098630547523498535e-01,5.013197660446166992e-01,7.289108037948608398e-01,-2.394058942794799805e+00,-5.759692788124084473e-01
6.218412891030311584e-02,2.287929654121398926e-01,1.963737756013870239e-01,1.620097875595092773e+00,4.108165577054023743e-02
