-8.393116295337677002e-03,-6.376181542873382568e-02,4.218282550573348999e-02,-4.998511821031570435e-02,-4.912962764501571655e-02,3.454615920782089233e-02,4.861930850893259048e-03,-5.064304545521736145e-02,6.594359409064054489e-03,3.130539506673812866e-02,1.775798760354518890e-02,3.925302252173423767e-02,-4.293090105056762695e-02,3.979328554123640060e-03,-3.498842567205429077e-02,-9.012937545776367188e-03,1.591364666819572449e-02,2.759891375899314880e-02,-4.320726171135902405e-02,-4.108612984418869019e-02,-1.670703664422035217e-02,2.761891484260559082e-02,-5.645552277565002441e-02,-1.826727390289306641e-02,9.638674557209014893e-03,1.110547780990600586e-02,6.104698032140731812e-02,-2.813278138637542725e-02,-6.425884366035461426e-02,2.679130434989929199e-02,5.355590209364891052e-02,3.693927079439163208e-02,-5.044871568679809570e-02,-1.859068125486373901e-02,3.167350962758064270e-02,4.043875634670257568e-02,-3.834825381636619568e-02,-4.129776731133460999e-02,-4.101293161511421204e-02,-3.306499496102333069e-02,-2.608237415552139282e-02,-1.252703275531530380e-02,-4.316859692335128784e-02,-1.670800894498825073e-02,3.308933228254318237e-02,8.106924593448638916e-03,1.973873563110828400e-02,3.369206935167312622e-02,2.426155284047126770e-02,1.214095018804073334e-02,-5.290896818041801453e-02,-5.785101652145385742e-02,1.227875472977757454e-04,-2.347107976675033569e-02,5.437062680721282959e-02,3.492682427167892456e-02,4.413715377449989319e-02,-6.282342970371246338e-02,-1.909204572439193726e-02,-5.854340642690658569e-02,-2.946466021239757538e-02,2.448933385312557220e-02,-8.097039908170700073e-02,-2.911042980849742889e-02,-1.591938734054565430e-02,1.069170609116554260e-02,1.312544941902160645e-02,9.105366654694080353e-03,-2.408941462635993958e-02,4.207938909530639648e-02,3.568228334188461304e-02,-1.853869855403900146e-02,9.325263672508299351e-04,-4.031287506222724915e-02,-3.240498155355453491e-02,4.691773280501365662e-02,-3.727788478136062622e-02,1.419885270297527313e-02,-2.558537200093269348e-02,-3.030459582805633545e-02,3.744877874851226807e-02,-4.904644936323165894e-02,3.153030946850776672e-02,-1.031130403280258179e-01,9.651821106672286987e-03,-6.944913882762193680e-03,-6.581309437751770020e-02,1.487385295331478119e-02,6.801674608141183853e-03,3.636021167039871216e-02,-1.300289854407310486e-02,6.178690120577812195e-03,-4.799131304025650024e-02,-9.362402372062206268e-03,5.000815540552139282e-02,-5.987994000315666199e-02,6.106269359588623047e-02,-4.874768853187561035e-02,-7.571470737457275391e-02,-1.042436994612216949e-02,-3.723094239830970764e-02,3.627662733197212219e-02,3.169512376189231873e-02,-3.378553315997123718e-02,-3.268138319253921509e-02,-1.550258509814739227e-02,5.289727821946144104e-02,-4.275834653526544571e-03,-2.569421380758285522e-02,2.175093442201614380e-02,-3.689998015761375427e-02,-2.698603831231594086e-02,-1.948619144968688488e-03,-1.600946485996246338e-02,-3.858390077948570251e-02,1.232087612152099609e-02,2.777183055877685547e-02,-2.385105378925800323e-02,-2.151528745889663696e-02,-4.608877003192901611e-02,-3.569877007976174355e-03,-4.188148677349090576e-02,1.771485246717929840e-02,-3.529408574104309082e-02,5.817271769046783447e-02,4.550070315599441528e-02,-3.116334602236747742e-02,2.194573730230331421e-02,2.892552688717842102e-02,-2.726584486663341522e-02,-5.879785399883985519e-03,5.201961100101470947e-02,-2.567832730710506439e-02,-6.891302764415740967e-02,7.936795242130756378e-03,3.204233944416046143e-03,2.557648904621601105e-02,-5.416934192180633545e-02,-9.628542698919773102e-03,4.855774343013763428e-03,-2.197009325027465820e-02,4.057059437036514282e-02,3.587514162063598633e-03,-6.248291209340095520e-02,-2.929256483912467957e-02,3.491269797086715698e-02,5.940626561641693115e-02,-3.848139569163322449e-02,1.240395009517669678e-03,-2.473318576812744141e-02,-2.995088882744312286e-02,-6.105386465787887573e-02,-1.916115544736385345e-02,4.539913311600685120e-02,-6.159676238894462585e-02,4.780350625514984131e-02,-1.412269379943609238e-02,4.246307164430618286e-02,1.855670660734176636e-02,2.283843234181404114e-03,-4.766530543565750122e-02,3.060065209865570068e-02,-3.659829497337341309e-02,5.122694745659828186e-02,1.698212930932641029e-03,5.153895169496536255e-02,2.990699931979179382e-02,-1.578614301979541779e-02,-5.653675645589828491e-02,-1.325084269046783447e-02,-1.004703938961029053e-01,2.350143529474735260e-02,-6.236442178487777710e-02,-8.794615045189857483e-03,-5.924621596932411194e-02,-5.907624214887619019e-02,-6.386459618806838989e-02,-3.121994435787200928e-02,3.624328970909118652e-02,-3.935056924819946289e-02,-6.697351578623056412e-03,1.305260602384805679e-02,-8.814208209514617920e-03,-5.052650347352027893e-02,6.073027849197387695e-02,3.596364706754684448e-02,-3.517563268542289734e-02,-2.216256409883499146e-02,-5.110878497362136841e-03,-3.797309845685958862e-02,2.217974513769149780e-02,4.995500296354293823e-02,-4.622443765401840210e-02,-3.904516249895095825e-02,7.381594623439013958e-04,-5.309556797146797180e-02,-4.895593971014022827e-02,-5.109755694866180420e-02,3.057751432061195374e-02,2.065212611341848969e-04,-2.820947393774986267e-02,2.747319079935550690e-02,-1.149192526936531067e-01,-5.008240696042776108e-03,-1.142878644168376923e-02,5.725793074816465378e-03,-1.058085635304450989e-01,3.870382532477378845e-02,-2.628554962575435638e-02,4.473449289798736572e-02,-8.268802613019943237e-02,-8.889809250831604004e-03,-1.096177194267511368e-02,5.359486490488052368e-02,4.512488469481468201e-02,2.799375355243682861e-02,-2.714362228289246559e-03,4.281995445489883423e-02,-3.730702772736549377e-02,-4.164953902363777161e-02,9.901104494929313660e-03,5.134660378098487854e-02,5.181456357240676880e-02,4.338355362415313721e-02,2.154417335987091064e-03,-6.741819088347256184e-04,-3.539061918854713440e-02,4.543792828917503357e-02,-6.074760109186172485e-02,-5.033418536186218262e-02,2.811148762702941895e-02,-6.301303207874298096e-02,-4.036709293723106384e-02,-5.700331181287765503e-02,1.422020141035318375e-02,-8.286677300930023193e-02,1.242245361208915710e-02,-3.278288245201110840e-02,-8.619503118097782135e-03,-1.222665794193744659e-02,-5.713151395320892334e-02,-1.271936297416687012e-02,-2.568247541785240173e-02,-7.507896982133388519e-03,2.498942986130714417e-02,-3.178006783127784729e-02,5.311184376478195190e-02,1.579178310930728912e-02,1.938032545149326324e-02,-1.586228609085083008e-05,-5.818159133195877075e-02,4.248195886611938477e-02,-6.477919523604214191e-04,1.859141886234283447e-02,-3.925126791000366211e-02,4.909449070692062378e-02
5.996684543788433075e-03,7.878112955950200558e-04,-2.516740001738071442e-02,3.884001821279525757e-02,4.977782070636749268e-02,-5.726944655179977417e-02,4.860051721334457397e-02,2.070899307727813721e-02,-4.083440303802490234e-01,2.652984345331788063e-03,-1.894490234553813934e-02,-5.332501605153083801e-02,1.889353245496749878e-02,-4.118708521127700806e-02,-7.745008915662765503e-03,-1.451923744753003120e-03,1.295599713921546936e-02,-4.633706063032150269e-02,-5.026217177510261536e-02,4.014403223991394043e-01,2.847227640450000763e-02,-2.463728934526443481e-02,2.335673943161964417e-02,-5.078195128589868546e-03,2.961675869300961494e-03,3.419344723224639893e-01,-9.317371062934398651e-03,-5.871215835213661194e-02,-2.686168253421783447e-01,2.220079489052295685e-02,-5.020389333367347717e-02,7.537366356700658798e-03,-1.398967672139406204e-02,-1.373848505318164825e-02,1.367624034173786640e-03,7.217691279947757721e-03,-2.587689757347106934e-01,-7.302345335483551025e-02,-2.107335813343524933e-02,1.686824299395084381e-02,-1.895237155258655548e-02,4.669297859072685242e-02,3.621517866849899292e-02,1.806299202144145966e-02,-4.212927306070923805e-04,2.861335501074790955e-02,4.439156875014305115e-02,1.159040955826640129e-03,1.900406181812286377e-02,2.865295158699154854e-03,-4.018969461321830750e-02,-1.395646482706069946e-02,6.242312788963317871e-01,-5.650657415390014648e-02,-5.030127242207527161e-02,-3.860298693180084229e-01,-4.900580644607543945e-02,-1.983888819813728333e-02,-2.062296628952026367e+00,4.952334985136985779e-02,2.549470774829387665e-02,1.586282625794410706e-02,2.176874428987503052e-01,-1.361526455730199814e-02,3.006464568898081779e-03,-1.161186676472425461e-02,-7.006321549415588379e-01,-5.156513452529907227e-01,1.274282205849885941e-02,-3.840309381484985352e-02,5.087977740913629532e-03,3.013739734888076782e-02,-2.898294478654861450e-02,5.302551388740539551e-02,-9.285541623830795288e-02,4.910458996891975403e-02,-1.367020964622497559e+00,-1.208977214992046356e-02,-2.386646904051303864e-02,1.732047297991812229e-03,4.823071509599685669e-02,-8.992552757263183594e-03,6.692184135317802429e-03,1.448760479688644409e-01,9.274736046791076660e-01,1.068725734949111938e-01,1.969361118972301483e-02,1.062743831425905228e-02,-1.358197480440139771e-01,4.739261232316493988e-03,1.401335746049880981e-01,2.310392819344997406e-02,6.259702611714601517e-03,2.822123840451240540e-02,7.193578034639358521e-02,2.994437329471111298e-02,4.435406625270843506e-02,-2.731207571923732758e-02,-3.244336128234863281e+00,-2.348387800157070160e-02,4.780059307813644409e-02,-1.835669577121734619e-02,-3.110800683498382568e-02,4.196436330676078796e-02,-1.801060438156127930e-01,3.570193424820899963e-02,2.778593450784683228e-02,6.557540502399206161e-03,-4.216953366994857788e-02,3.007276915013790131e-03,1.871354132890701294e-01,-8.748518303036689758e-03,-4.385989531874656677e-02,-2.906898409128189087e-02,-1.227370053529739380e-01,1.590043492615222931e-02,4.946418479084968567e-02,-2.259867452085018158e-02,7.009991910308599472e-03,4.130633175373077393e-02,-4.990745782852172852e-01,1.146944612264633179e-02,-8.891933411359786987e-02,-2.051661722362041473e-02,3.177932649850845337e-02,2.721447311341762543e-02,-6.710597127676010132e-02,5.814694240689277649e-02,2.539230627007782459e-04,-1.254529476165771484e+00,6.771209649741649628e-03,-1.939198933541774750e-02,-6.981920450925827026e-02,7.959684133529663086e-01,1.440999470651149750e-02,-1.952872611582279205e-02,-3.894013911485671997e-02,-1.612902618944644928e-02,3.252111747860908508e-02,-8.017664402723312378e-02,-2.693392336368560791e-02,3.797204792499542236e-02,-2.177254110574722290e-02,-5.904190987348556519e-02,-6.305916607379913330e-02,4.188811872154474258e-03,2.507829340174794197e-03,1.462249550968408585e-02,-2.898818999528884888e-02,5.191844701766967773e-01,-1.603649230673909187e-03,-4.615306854248046875e-03,5.406222864985466003e-02,3.971901908516883850e-02,-2.320755086839199066e-02,2.734085079282522202e-03,3.531657159328460693e-02,3.690180927515029907e-02,-4.830292984843254089e-02,2.344092354178428650e-02,6.260609626770019531e-02,-2.695209532976150513e-02,4.216590523719787598e-02,6.399028003215789795e-03,1.332867797464132309e-02,3.954067453742027283e-02,4.211048036813735962e-02,-1.888675987720489502e-02,-7.639117538928985596e-03,1.745089888572692871e-02,1.994404196739196777e-01,8.970011770725250244e-02,-1.066811829805374146e-01,3.287614583969116211e-01,-2.187897443771362305e+00,-5.159666389226913452e-02,-3.099794266745448112e-03,-4.412082433700561523e-01,3.571069985628128052e-02,4.439468309283256531e-02,1.314167119562625885e-02,4.574038386344909668e-01,4.019416123628616333e-02,-4.353938624262809753e-02,-2.698172628879547119e-02,6.132355891168117523e-03,-4.378089681267738342e-02,-3.980476781725883484e-02,-2.783583290874958038e-02,-7.202756404876708984e-01,-9.875662624835968018e-03,-3.655119985342025757e-02,5.154044926166534424e-02,1.123584061861038208e-02,-1.688725650310516357e-01,1.137613281607627869e-01,-6.752968579530715942e-02,-1.810468733310699463e-02,-5.385576561093330383e-02,8.778003603219985962e-02,-2.386047132313251495e-02,1.654516160488128662e-02,4.419595897197723389e-01,-5.034132599830627441e-01,1.800663303583860397e-03,-6.126008182764053345e-02,5.969098210334777832e-01,-5.708046630024909973e-02,4.729245975613594055e-02,6.367304921150207520e-01,-1.781744003295898438e+00,1.942941546440124512e-02,5.130841135978698730e-01,7.189860916696488857e-04,2.331176958978176117e-02,-1.416078954935073853e-02,4.168057814240455627e-02,5.901253968477249146e-02,-3.875812515616416931e-02,-4.231058061122894287e-01,1.654689759016036987e-02,6.453577429056167603e-02,5.511861294507980347e-02,4.086652025580406189e-02,-3.195087483618408442e-04,3.833579132333397865e-03,-5.274140462279319763e-02,1.592455431818962097e-02,3.092338144779205322e-02,5.799069628119468689e-02,4.017121717333793640e-02,-9.961075782775878906e-01,-4.180037230253219604e-02,8.083475753664970398e-03,-6.676602363586425781e-02,-9.769850969314575195e-01,3.645825758576393127e-02,-3.085476532578468323e-02,7.100109476596117020e-03,-4.214035719633102417e-02,-1.391072124242782593e-01,6.421578675508499146e-02,-1.110156532377004623e-02,-4.037138819694519043e-02,8.006503582000732422e-01,4.678159952163696289e-02,-5.436536669731140137e-02,3.492118045687675476e-02,-3.114780597388744354e-02,2.939369529485702515e-02,6.062749773263931274e-02,-2.902317047119140625e-01,1.809302344918251038e-02,-4.877928271889686584e-02,-2.534222602844238281e-02,-5.787202715873718262e-02
-5.769311636686325073e-02,-3.726906329393386841e-02,1.336169708520174026e-02,1.664274930953979492e-02,-6.909742951393127441e-04,2.025968581438064575e-02,-5.085097253322601318e-02,-2.888751775026321411e-02,-6.564003825187683105e-01,-7.940384745597839355e-02,-3.951963037252426147e-02,-3.325245901942253113e-02,1.982291042804718018e-02,-2.806607633829116821e-02,5.083247274160385132e-02,-1.337616890668869019e-02,7.292720954865217209e-03,-7.095053791999816895e-03,-3.254056721925735474e-02,-3.942925333976745605e-01,-2.429126016795635223e-02,-4.291449487209320068e-02,9.189367294311523438e-03,-1.841446757316589355e-02,-1.661930419504642487e-02,-2.983590960502624512e-01,5.161641538143157959e-02,2.320792153477668762e-02,-3.226033449172973633e-01,3.279574215412139893e-02,4.697628319263458252e-03,-4.331931099295616150e-02,-3.630267828702926636e-02,-5.463134497404098511e-02,-5.232363939285278320e-03,-4.488277435302734375e-02,-1.768247634172439575e-01,3.915809094905853271e-03,-7.435034215450286865e-02,-6.738143414258956909e-02,-5.075752269476652145e-03,-1.201844215393066406e-02,4.328884184360504150e-03,4.802834615111351013e-02,3.232955932617187500e-03,2.859843522310256958e-02,-3.216839581727981567e-02,-4.646479338407516479e-02,2.370599657297134399e-02,3.354503214359283447e-02,-1.768539845943450928e-02,5.262002348899841309e-03,-8.093426823616027832e-01,2.664370834827423096e-02,3.763986378908157349e-02,2.383068017661571503e-02,-6.013149768114089966e-02,4.593431949615478516e-02,3.390326499938964844e-01,-5.248414352536201477e-02,5.998340994119644165e-02,1.371928900480270386e-01,-2.133333683013916016e-01,-5.360113084316253662e-02,-2.016463130712509155e-02,-3.827225416898727417e-02,-1.820957213640213013e-01,4.817390739917755127e-01,4.628624767065048218e-02,-3.312148153781890869e-03,4.174338281154632568e-02,-2.171595394611358643e-02,7.782004028558731079e-02,4.463024809956550598e-02,2.579548954963684082e-02,2.080485224723815918e-02,1.701561063528060913e-01,-2.021711133420467377e-02,-4.492476582527160645e-03,7.458105683326721191e-03,-4.787415266036987305e-02,-3.402603045105934143e-02,-3.966151922941207886e-02,-4.460336565971374512e-01,2.306970059871673584e-01,1.012092828750610352e+00,-6.100330501794815063e-02,-5.741780251264572144e-02,-9.886142611503601074e-02,-3.063288703560829163e-02,4.974962770938873291e-02,-5.228635668754577637e-02,3.227056562900543213e-02,2.919131889939308167e-02,-4.841616749763488770e-02,-7.437571883201599121e-03,-5.672052502632141113e-03,-5.706042516976594925e-03,4.652248322963714600e-02,4.724021255970001221e-02,4.982648044824600220e-02,-3.532878309488296509e-02,3.255832195281982422e-02,5.676091462373733521e-02,-1.140874266624450684e+00,2.112601883709430695e-02,5.902685225009918213e-02,1.451291888952255249e-02,5.305811762809753418e-03,-2.195675671100616455e-02,-1.033785343170166016e-01,-1.490959376096725464e-01,-1.598089933395385742e-03,-2.355134487152099609e-02,-4.727708399295806885e-01,-3.912727534770965576e-02,1.428305357694625854e-02,-4.050551354885101318e-02,5.478779226541519165e-02,5.611766874790191650e-02,-1.774182915687561035e-01,-3.258854150772094727e-02,-9.436443448066711426e-03,2.961821667850017548e-02,4.309942573308944702e-02,-3.350025787949562073e-02,-2.436071634292602539e-03,-1.119631528854370117e-02,-5.417025089263916016e-02,-5.528352260589599609e-01,-5.645650625228881836e-02,-1.198603212833404541e-02,7.562729995697736740e-03,-1.066636443138122559e-01,2.331030368804931641e-02,3.167285025119781494e-02,-7.644899189472198486e-03,1.875934004783630371e-02,-6.239810585975646973e-02,-1.084109321236610413e-01,3.053017705678939819e-02,-4.637437313795089722e-02,4.475156217813491821e-02,1.750590652227401733e-02,-1.772353611886501312e-02,5.281142890453338623e-02,5.182199925184249878e-02,-4.324643407016992569e-03,5.986557155847549438e-02,2.215543687343597412e-01,-3.413801491260528564e-01,5.978674441576004028e-02,2.044524997472763062e-02,1.678222231566905975e-02,1.137487590312957764e-02,-2.533928118646144867e-02,-5.295196920633316040e-02,-7.637664675712585449e-03,-1.575618982315063477e-03,1.568997651338577271e-02,5.471451580524444580e-02,8.043542504310607910e-02,-4.731789231300354004e-02,-6.857179105281829834e-02,-9.161336719989776611e-02,5.852729082107543945e-04,3.207749873399734497e-02,2.039154618978500366e-02,-3.441731631755828857e-02,-1.346130669116973877e-02,-1.287413120269775391e+00,-8.169105648994445801e-01,-2.578597068786621094e-01,5.158360116183757782e-03,-1.024458050727844238e+00,-6.245078146457672119e-02,-3.438621759414672852e-02,4.105961620807647705e-01,-2.784708887338638306e-02,-4.146666079759597778e-02,2.654705196619033813e-02,-5.521222949028015137e-01,1.188158988952636719e-02,4.512564837932586670e-02,5.175978690385818481e-02,1.374923437833786011e-02,-5.913972854614257812e-04,3.194200992584228516e-02,-5.689049512147903442e-02,7.825955748558044434e-01,3.897491097450256348e-02,1.654325425624847412e-02,3.276478499174118042e-02,-4.646687209606170654e-02,1.600904576480388641e-02,-2.294650226831436157e-01,1.300743222236633301e-02,-5.837909132242202759e-02,-1.461318880319595337e-02,-6.226056814193725586e-02,2.390760928392410278e-02,1.947449147701263428e-02,-3.976493179798126221e-01,6.980772018432617188e-01,3.141275793313980103e-02,6.995216972427442670e-05,-3.988075256347656250e-01,4.474213719367980957e-02,4.591867327690124512e-04,-1.217871233820915222e-01,-6.581419706344604492e-01,-5.475971102714538574e-02,-3.303933143615722656e-01,5.705273151397705078e-02,1.473890244960784912e-02,-3.603544831275939941e-02,-3.831007331609725952e-02,-6.019404530525207520e-02,2.403338998556137085e-02,-4.591126143932342529e-01,1.834458857774734497e-02,-3.628261387348175049e-03,1.062071323394775391e-02,-4.334442317485809326e-03,-1.329214125871658325e-02,-3.927871584892272949e-04,-2.124069444835186005e-02,-4.652246832847595215e-02,-1.106537878513336182e-02,-3.226110339164733887e-02,-4.058579355478286743e-02,8.576040863990783691e-01,-5.560493469238281250e-02,-5.085773766040802002e-03,-3.621587902307510376e-02,-1.270095705986022949e+00,3.166243433952331543e-03,3.647607564926147461e-02,-3.293977677822113037e-02,-2.400343120098114014e-02,4.513936936855316162e-01,1.388569711707532406e-03,-1.465066522359848022e-02,-3.356068581342697144e-02,8.024551719427108765e-02,2.400276809930801392e-02,-4.865238070487976074e-02,-4.328721761703491211e-02,6.503788288682699203e-03,-4.338744282722473145e-02,1.522734761238098145e-02,-7.552247494459152222e-02,2.733112871646881104e-02,7.188171148300170898e-03,2.303109318017959595e-02,-8.486261591315269470e-03
6.687390804290771484e-02,-1.495660562068223953e-02,5.658614635467529297e-02,-3.490606695413589478e-02,-1.602768898010253906e-03,-2.462230809032917023e-02,-3.451990336179733276e-02,4.973325133323669434e-02,-2.847068905830383301e-01,-7.188050076365470886e-03,3.085454925894737244e-02,-3.252494335174560547e-02,-7.959000766277313232e-03,5.035408306866884232e-03,-2.378201670944690704e-02,1.251833885908126831e-02,2.675694227218627930e-02,2.470016479492187500e-02,1.650222018361091614e-02,-4.985342919826507568e-02,2.988063963130116463e-03,3.934214182663708925e-04,4.642806947231292725e-02,4.768058657646179199e-02,-5.570345558226108551e-03,4.233158528804779053e-01,3.307609260082244873e-02,-1.286187302321195602e-02,-7.685350775718688965e-01,1.708422228693962097e-02,8.918231353163719177e-03,4.585282132029533386e-02,1.032443810254335403e-02,6.841705739498138428e-02,-1.812450028955936432e-02,-7.474953681230545044e-02,1.235604524612426758e+00,8.465803414583206177e-02,2.047589607536792755e-02,-5.216176435351371765e-02,1.176208071410655975e-02,3.000440821051597595e-02,2.639648690819740295e-02,-2.474879659712314606e-02,1.511320751160383224e-02,-1.286557875573635101e-02,-3.647416457533836365e-02,4.005332477390766144e-03,-2.247291430830955505e-02,9.722066111862659454e-03,1.879452168941497803e-02,-6.464176625013351440e-02,8.925980329513549805e-01,8.765421225689351559e-04,-2.758496440947055817e-02,-1.329688191413879395e+00,-6.839225441217422485e-02,-4.704190418124198914e-03,-1.722504734992980957e+00,-5.186473578214645386e-02,-4.525551944971084595e-02,7.887819409370422363e-02,9.062729775905609131e-02,1.512839645147323608e-02,-5.440271645784378052e-02,1.921279914677143097e-02,3.317256867885589600e-01,1.985240280628204346e-01,3.124067746102809906e-02,-3.217685967683792114e-02,-3.880175203084945679e-02,3.339721262454986572e-02,-2.203752472996711731e-02,-1.947862468659877777e-02,-6.029092147946357727e-02,2.476346679031848907e-02,1.692597270011901855e-01,-8.754679001867771149e-03,4.312634840607643127e-02,-4.540397226810455322e-02,-4.223128408193588257e-02,1.015726104378700256e-02,1.530672423541545868e-03,-5.974035859107971191e-01,-1.116610646247863770e+00,4.949370026588439941e-01,5.612060055136680603e-02,-9.036522824317216873e-04,8.691350370645523071e-02,-6.926976609975099564e-03,-8.090370893478393555e-02,-2.049449598416686058e-03,-2.896203845739364624e-02,1.084313541650772095e-01,-5.028690397739410400e-02,5.285566300153732300e-02,2.566620707511901855e-03,1.033409684896469116e-02,-6.707955598831176758e-01,3.296620398759841919e-02,-3.966220188885927200e-03,-7.441166788339614868e-03,-2.051662281155586243e-02,1.537371706217527390e-02,-6.302835345268249512e-01,-2.174025028944015503e-02,-3.227376192808151245e-02,-1.240948867052793503e-02,5.384880304336547852e-02,-1.006705965846776962e-02,-1.433674544095993042e-01,-1.864004284143447876e-01,6.821066886186599731e-02,-1.064245402812957764e-02,-6.443566083908081055e-01,-4.935969412326812744e-02,-4.939794540405273438e-02,3.365705907344818115e-02,5.773529410362243652e-02,-6.596325896680355072e-03,-9.329721331596374512e-02,-2.920342423021793365e-02,2.645472995936870575e-02,-9.937608614563941956e-03,-2.187047898769378662e-02,4.301980137825012207e-03,3.697590902447700500e-02,-3.004957363009452820e-02,4.383655637502670288e-02,-1.429462552070617676e+00,-5.410045385360717773e-02,2.530121058225631714e-02,-2.781448327004909515e-02,5.437959432601928711e-01,2.310939133167266846e-03,3.769757598638534546e-02,-7.072604726999998093e-03,-3.837377205491065979e-02,1.163867115974426270e-02,-3.431115299463272095e-02,5.428650975227355957e-02,1.970014721155166626e-02,-3.032326698303222656e-03,-1.608364097774028778e-02,-6.349804997444152832e-02,3.371787443757057190e-02,3.297734260559082031e-02,-5.925633385777473450e-02,3.621054440736770630e-02,5.305528044700622559e-01,2.229528576135635376e-01,-4.484178125858306885e-02,-2.951575070619583130e-02,-6.580349872820079327e-04,-7.668497413396835327e-02,5.941864475607872009e-02,7.750942371785640717e-03,-2.023315429687500000e-02,4.094115644693374634e-02,-7.016583532094955444e-02,-1.336050499230623245e-02,-2.132887393236160278e-02,4.948800802230834961e-02,1.842750608921051025e-02,-4.838012531399726868e-02,-1.560024172067642212e-02,4.549270868301391602e-02,-1.927926577627658844e-02,5.642505735158920288e-02,4.972936213016510010e-02,-9.592934250831604004e-01,1.049802184104919434e+00,-9.559638500213623047e-01,1.076839685440063477e+00,-4.406537115573883057e-02,3.415799140930175781e-02,5.030094087123870850e-02,-6.064689904451370239e-02,-3.710633888840675354e-02,-3.404948860406875610e-02,-3.996669314801692963e-03,-3.696683943271636963e-01,-1.617451198399066925e-02,4.897762462496757507e-02,-4.305116832256317139e-02,3.387689590454101562e-03,4.545071721076965332e-02,-5.217692349106073380e-03,-2.126029506325721741e-02,-3.325508534908294678e-01,3.459201008081436157e-02,-3.424003720283508301e-03,-1.508943084627389908e-02,-3.258067369461059570e-02,8.078555017709732056e-02,5.475324392318725586e-01,-2.882269583642482758e-02,1.091958489269018173e-02,1.239539962261915207e-02,7.231998443603515625e-02,-2.155894786119461060e-02,-2.141852676868438721e-02,-5.640087127685546875e-01,-6.912462115287780762e-01,-2.417358011007308960e-02,-2.164597064256668091e-02,-1.138322710990905762e+00,2.806629426777362823e-02,1.070544216781854630e-02,2.368215471506118774e-02,5.105853676795959473e-01,1.759502291679382324e-02,3.984469175338745117e-01,-2.684383839368820190e-02,5.075987800955772400e-02,-5.389476194977760315e-03,1.946608163416385651e-02,8.521047420799732208e-04,-4.108655732125043869e-03,-6.014419794082641602e-01,5.229579657316207886e-02,5.800068378448486328e-03,-1.095695327967405319e-02,-2.529133856296539307e-02,-1.283969543874263763e-02,4.381030797958374023e-02,2.568642795085906982e-02,-9.183757356368005276e-06,-5.597778409719467163e-02,1.052718982100486755e-02,-4.073876142501831055e-02,-2.261351235210895538e-02,-1.307934988290071487e-02,-6.994041055440902710e-02,5.224202759563922882e-03,-4.560858011245727539e-01,2.162590436637401581e-02,-2.174060419201850891e-02,-4.991078004240989685e-02,1.316065434366464615e-02,-1.526193767786026001e-01,5.126758664846420288e-02,-5.101124942302703857e-02,-3.317698836326599121e-03,-4.334234073758125305e-02,-3.929048031568527222e-02,-2.688047848641872406e-02,-4.388490691781044006e-02,1.552108488976955414e-02,-5.692087113857269287e-02,-5.620945990085601807e-02,-1.536642480641603470e-02,4.172620549798011780e-02,1.459118723869323730e-02,-1.851064711809158325e-02,2.581464499235153198e-02
3.280990570783615112e-02,-5.249483138322830200e-02,-2.452574111521244049e-02,8.826091885566711426e-03,5.722270160913467407e-02,1.910693012177944183e-02,-1.708386698737740517e-03,1.336085703223943710e-02,-5.506103038787841797e-01,5.677545815706253052e-02,-9.029505774378776550e-03,-1.431658398360013962e-02,4.865753650665283203e-02,3.557068482041358948e-02,3.438407182693481445e-02,-4.566092789173126221e-02,1.565936952829360962e-02,4.771149158477783203e-02,-4.433849826455116272e-03,3.539079427719116211e-01,-6.893263757228851318e-02,-6.222777068614959717e-03,-5.614321678876876831e-02,6.788600585423409939e-04,-4.924420267343521118e-03,-3.562650084495544434e-02,3.768154233694076538e-02,-7.578168064355850220e-02,-4.609057605266571045e-01,-5.411887168884277344e-02,4.608406499028205872e-02,2.763181366026401520e-02,2.687283605337142944e-02,-5.261109769344329834e-02,-5.517802387475967407e-02,-2.448939904570579529e-02,-1.747402667999267578e+00,-1.377890538424253464e-02,4.588538408279418945e-02,1.017646640539169312e-01,-1.191402599215507507e-02,-4.933089762926101685e-02,3.374967724084854126e-02,4.300674796104431152e-02,-2.054631523787975311e-02,3.019531816244125366e-02,4.371347650885581970e-02,6.572212092578411102e-03,-3.792782500386238098e-02,-5.973906442523002625e-02,-1.394661888480186462e-02,-4.512235894799232483e-02,-7.444810867309570312e-01,-1.487662177532911301e-02,5.472364276647567749e-02,1.778791844844818115e-01,-6.899767555296421051e-03,3.964286670088768005e-02,-1.852593541145324707e+00,-4.561745002865791321e-02,7.441399502567946911e-04,7.513154298067092896e-03,-3.590700626373291016e-01,1.246380992233753204e-02,6.110791862010955811e-02,-5.087030306458473206e-02,-3.542749583721160889e-01,5.423195362091064453e-01,-1.576700014993548393e-03,-5.455724895000457764e-03,-2.297733724117279053e-02,2.030670642852783203e-03,6.493859691545367241e-04,-1.802585460245609283e-02,-6.366233527660369873e-02,1.209315378218889236e-02,2.332059890031814575e-01,9.846801310777664185e-02,2.136497944593429565e-02,4.946798086166381836e-02,5.563897639513015747e-02,-3.510095551609992981e-02,-6.721787154674530029e-02,-2.771260499954223633e+00,3.672927618026733398e-02,1.169164061546325684e+00,-3.393276035785675049e-02,2.636158838868141174e-02,-2.293187081813812256e-01,-4.318777471780776978e-03,-1.055065765976905823e-01,6.267518550157546997e-02,2.903683483600616455e-02,3.449642565101385117e-03,2.285704016685485840e-02,-4.392438381910324097e-02,1.830092072486877441e-02,-3.362413495779037476e-02,-9.336042404174804688e-01,3.643299639225006104e-02,-4.782316461205482483e-02,1.501325890421867371e-02,-6.110364571213722229e-02,-5.289213731884956360e-02,-1.585317134857177734e+00,9.540837258100509644e-02,-2.529124356806278229e-02,3.415901958942413330e-02,-7.510147988796234131e-03,3.021540492773056030e-02,8.436182737350463867e-01,4.164759814739227295e-01,-3.699539229273796082e-02,-8.116051554679870605e-03,-1.491940975189208984e+00,2.918010950088500977e-02,8.320788294076919556e-02,-4.227905720472335815e-02,5.878545343875885010e-02,-1.880672946572303772e-02,3.560530543327331543e-01,-2.495300769805908203e-02,2.437620609998703003e-02,-3.345743939280509949e-02,-3.481458127498626709e-02,3.308962285518646240e-02,2.419431880116462708e-02,7.693015038967132568e-02,1.941710524260997772e-02,-2.185089886188507080e-01,-7.787874899804592133e-03,-1.416673418134450912e-02,-1.485485397279262543e-02,-7.070372253656387329e-02,-6.519081443548202515e-02,-3.080588579177856445e-02,1.261230744421482086e-02,-8.317215368151664734e-03,-2.078847400844097137e-02,1.609790138900279999e-02,4.009298980236053467e-03,-2.642344497144222260e-02,4.068040102720260620e-02,-1.886751130223274231e-02,-4.158212989568710327e-02,2.419850602746009827e-02,-2.851983904838562012e-02,-1.920392177999019623e-02,2.093648910522460938e-02,1.706732660531997681e-01,-4.246522188186645508e-01,-2.991561591625213623e-02,-1.782963238656520844e-02,1.100782025605440140e-02,1.685923081822693348e-03,-1.674648001790046692e-02,-4.917301982641220093e-02,5.492885783314704895e-02,2.210927009582519531e-02,-2.844804897904396057e-02,3.030998259782791138e-02,1.003005309030413628e-03,-4.126121848821640015e-02,-6.387652456760406494e-02,-6.450560688972473145e-02,-2.838976681232452393e-02,-2.530696615576744080e-02,5.204241722822189331e-02,5.679805576801300049e-02,4.569072276353836060e-02,-5.104315876960754395e-01,-5.655812025070190430e-01,-1.339705228805541992e+00,-1.324058771133422852e+00,-1.522633790969848633e+00,-2.772950381040573120e-02,4.331411793828010559e-02,-3.544445633888244629e-01,2.194509841501712799e-02,-4.817659780383110046e-02,-5.567910894751548767e-02,-2.141707092523574829e-01,4.214326664805412292e-02,-1.199561054818332195e-03,5.330225825309753418e-02,-3.040038049221038818e-03,-5.786760151386260986e-02,1.879208348691463470e-02,3.570620343089103699e-02,-4.520264863967895508e-01,5.740187317132949829e-02,-6.162058562040328979e-02,1.645728945732116699e-02,-4.583683237433433533e-02,6.238222122192382812e-02,-9.413775205612182617e-01,4.058906435966491699e-02,-1.023374218493700027e-02,-3.868912532925605774e-02,7.611183822154998779e-02,-3.001267462968826294e-02,1.043218653649091721e-02,-2.792292535305023193e-01,-1.148239448666572571e-01,-3.025000682100653648e-03,1.424620952457189560e-02,-3.320746719837188721e-01,4.858854226768016815e-03,3.461015224456787109e-02,2.195764333009719849e-01,-1.874851584434509277e+00,2.291732281446456909e-02,4.358193650841712952e-02,-1.835653558373451233e-02,-1.301764231175184250e-02,2.065582014620304108e-02,3.890984505414962769e-02,3.187822923064231873e-02,-4.547566547989845276e-02,-7.758705615997314453e-01,1.283355709165334702e-02,-5.680798552930355072e-03,-5.083833355456590652e-03,-5.331096798181533813e-02,1.101354882121086121e-01,-3.799474984407424927e-02,-6.477440893650054932e-02,2.381675131618976593e-02,-4.693117737770080566e-02,-1.262440159916877747e-02,-4.195509105920791626e-02,9.336206316947937012e-01,-1.239949651062488556e-02,2.199390344321727753e-02,-1.041986867785453796e-01,-1.140787124633789062e+00,3.309712931513786316e-02,2.417144738137722015e-02,3.795255720615386963e-02,4.857510328292846680e-02,-5.810808539390563965e-01,-5.156670883297920227e-02,-4.326077178120613098e-02,-2.768554911017417908e-02,4.860506951808929443e-01,-6.208201870322227478e-02,-9.600812569260597229e-03,-2.625869028270244598e-02,-4.931245464831590652e-03,-5.646467953920364380e-02,-2.101282775402069092e-02,9.858392924070358276e-02,-5.016047880053520203e-02,-6.687052547931671143e-02,-3.652931004762649536e-02,-4.372577369213104248e-02
-5.090044066309928894e-02,7.216693833470344543e-03,3.855166258290410042e-03,-3.198432922363281250e-02,4.115211963653564453e-02,-2.040429413318634033e-02,-2.619160711765289307e-02,-5.438242480158805847e-02,-8.576660603284835815e-02,3.868815302848815918e-02,1.672164071351289749e-04,-3.285928443074226379e-02,-1.656029559671878815e-02,1.398358121514320374e-02,5.361632630228996277e-02,-1.657878607511520386e-02,-1.967583224177360535e-02,3.441902622580528259e-02,-4.590210318565368652e-02,-9.488991647958755493e-02,-6.203207001090049744e-02,-6.398350000381469727e-03,-5.608947481960058212e-03,-1.079387217760086060e-02,-2.484612911939620972e-02,-6.573575735092163086e-02,1.528315246105194092e-02,-4.331980645656585693e-02,1.709907874464988708e-02,5.539219081401824951e-02,-1.535060163587331772e-02,3.974597528576850891e-02,-2.832888625562191010e-02,-6.005004048347473145e-03,-2.608810551464557648e-02,-4.788686707615852356e-02,-4.485633596777915955e-02,-3.941022232174873352e-02,3.984189406037330627e-02,1.108863018453121185e-02,-8.277561515569686890e-03,1.542835030704736710e-02,3.964498639106750488e-02,5.430507287383079529e-02,5.081979557871818542e-02,2.481043338775634766e-03,-4.094286635518074036e-02,-2.160733379423618317e-02,1.134184747934341431e-02,-2.792637050151824951e-02,-3.381394222378730774e-02,-2.071439102292060852e-02,5.006608553230762482e-03,4.626860097050666809e-02,3.072624653577804565e-02,4.000227153301239014e-02,4.296543193049728870e-04,-2.554967254400253296e-02,-1.607493609189987183e-01,-2.093091607093811035e-03,-4.670046269893646240e-02,-1.359626930207014084e-02,-8.373749256134033203e-02,4.436433315277099609e-03,-3.517140075564384460e-02,2.073282934725284576e-02,-2.900809422135353088e-02,-5.142176523804664612e-02,4.942872747778892517e-02,4.519061744213104248e-02,2.782014384865760803e-02,8.564740419387817383e-04,-2.495943196117877960e-02,-5.286173522472381592e-02,-3.546492010354995728e-02,-2.322756685316562653e-02,-2.514581382274627686e-02,5.889091640710830688e-03,3.765325620770454407e-02,-2.761017531156539917e-02,1.225250959396362305e-02,3.587903082370758057e-02,-6.489086896181106567e-02,-5.573627352714538574e-02,4.709787317551672459e-04,-6.123688071966171265e-02,-5.412111058831214905e-02,-4.671564698219299316e-02,-4.735685884952545166e-03,3.533602878451347351e-02,-3.553660586476325989e-02,-5.511374771595001221e-02,4.170313477516174316e-02,-5.211483314633369446e-02,7.203578948974609375e-03,5.046165734529495239e-02,1.738553121685981750e-02,-1.745915040373802185e-02,-6.890840828418731689e-02,4.278155043721199036e-02,-6.435775756835937500e-02,-3.304872661828994751e-02,-4.473243653774261475e-02,-4.947748780250549316e-02,-7.337985187768936157e-02,-3.628255426883697510e-02,4.147987812757492065e-02,1.174572203308343887e-02,-3.764268755912780762e-02,1.411742717027664185e-02,-1.857202686369419098e-02,-4.922088701277971268e-03,-7.830359041690826416e-03,1.408803462982177734e-02,-4.134988784790039062e-02,2.213852107524871826e-02,-4.208955541253089905e-02,-6.801354140043258667e-02,-2.473184093832969666e-02,3.539218381047248840e-02,-1.631558127701282501e-02,3.659806400537490845e-02,-1.289716269820928574e-02,-5.637132376432418823e-02,-1.195085793733596802e-02,5.953463912010192871e-02,6.391904316842556000e-03,6.030581891536712646e-02,-2.149145351722836494e-03,8.907454088330268860e-03,-4.363497346639633179e-02,3.393121296539902687e-03,2.499849162995815277e-02,-3.792999684810638428e-02,6.233618478290736675e-04,-5.544119328260421753e-02,-6.450167391449213028e-03,5.061994493007659912e-02,2.110722474753856659e-02,4.671316593885421753e-02,4.457928985357284546e-02,3.659144788980484009e-02,1.574303209781646729e-02,2.740603871643543243e-02,-1.787342247553169727e-03,-3.136979043483734131e-02,-3.467644006013870239e-02,-7.465671282261610031e-03,-2.241416275501251221e-02,-4.676575213670730591e-02,-4.822572693228721619e-02,1.666463911533355713e-03,4.234977811574935913e-02,-4.091052338480949402e-03,-3.482372313737869263e-02,-1.553898025304079056e-02,-2.316418569535017014e-03,1.739560998976230621e-02,-5.884319171309471130e-02,-3.688746690750122070e-02,-4.525048658251762390e-02,3.088394552469253540e-02,-5.062584578990936279e-02,1.259024441242218018e-02,-5.584190785884857178e-02,3.977343440055847168e-03,3.009945340454578400e-02,1.904964260756969452e-02,-5.153325200080871582e-02,9.302713908255100250e-03,-1.952258050441741943e-01,1.985660009086132050e-02,1.801354624330997467e-02,-1.677566915750503540e-01,-5.373182892799377441e-02,3.110504895448684692e-02,3.000130644068121910e-03,-1.841310225427150726e-02,-3.695260360836982727e-02,-4.824370890855789185e-02,-8.397019468247890472e-03,-5.082240328192710876e-02,-4.237923398613929749e-02,-6.231160461902618408e-02,-3.858298063278198242e-03,4.535679519176483154e-02,5.518896877765655518e-02,4.184367135167121887e-03,5.401097238063812256e-03,-5.233576521277427673e-02,-2.095822989940643311e-02,2.740222029387950897e-02,3.631621599197387695e-03,4.576994478702545166e-02,-1.248444337397813797e-02,-4.895318765193223953e-03,5.926781892776489258e-02,4.813786223530769348e-02,6.465804297477006912e-03,2.627173438668251038e-02,4.959154874086380005e-02,-2.542132697999477386e-02,-9.679186344146728516e-02,-1.069184467196464539e-01,-1.355342450551688671e-03,4.861597344279289246e-02,-1.156567633152008057e-01,6.325339525938034058e-02,9.207783266901969910e-03,1.861022785305976868e-02,-7.895529270172119141e-02,1.493109762668609619e-02,-5.271324515342712402e-02,2.747219987213611603e-02,5.417001992464065552e-02,-3.352974727749824524e-02,9.127000346779823303e-03,4.091674461960792542e-02,3.815605491399765015e-02,-1.514942795038223267e-01,-2.166995545849204063e-03,2.372517809271812439e-02,-4.600711911916732788e-02,-4.711713269352912903e-02,1.978740096092224121e-03,4.503511637449264526e-02,-1.709936745464801788e-02,5.885750055313110352e-02,-4.385703057050704956e-02,2.029379457235336304e-02,-7.033080328255891800e-03,-1.123686209321022034e-01,-4.014093428850173950e-02,-4.033324122428894043e-02,2.288554795086383820e-02,-3.977808356285095215e-02,-5.213120207190513611e-02,3.713603131473064423e-03,-2.153269015252590179e-02,2.038430422544479370e-02,5.265722516924142838e-03,-3.492370992898941040e-02,-2.462099492549896240e-02,3.377948328852653503e-02,-2.299301326274871826e-02,-2.782296575605869293e-02,1.759124221280217171e-03,8.266339078545570374e-03,-2.675185352563858032e-02,-3.345511853694915771e-02,9.067133069038391113e-04,4.547749832272529602e-02,-2.937229350209236145e-03,4.479297995567321777e-02,-5.453831702470779419e-02,-3.594356030225753784e-02
-5.495490878820419312e-02,-5.402860790491104126e-02,5.757138505578041077e-02,1.301518827676773071e-02,2.273381501436233521e-02,-6.353160366415977478e-03,7.016140222549438477e-02,4.994672909379005432e-02,3.087961487472057343e-02,-3.398655727505683899e-02,-1.225249841809272766e-02,2.725115045905113220e-02,8.774094283580780029e-03,-5.545185878872871399e-03,5.955006927251815796e-03,2.959215641021728516e-02,6.161572411656379700e-02,6.035304814577102661e-02,1.225871033966541290e-02,-5.887791514396667480e-01,-6.360280513763427734e-02,2.093102596700191498e-02,-2.053072489798069000e-02,1.735911518335342407e-02,-1.325321197509765625e-02,7.069860696792602539e-01,4.709803313016891479e-02,-3.817784786224365234e-02,-2.531688213348388672e-01,-4.691452160477638245e-02,1.935757137835025787e-02,-2.135133370757102966e-02,2.397887408733367920e-03,-3.754054009914398193e-02,-6.954509764909744263e-02,-1.801217906177043915e-02,3.406288027763366699e-01,7.435113191604614258e-02,4.752558469772338867e-02,-1.611920893192291260e-01,-2.062039449810981750e-03,3.090029954910278320e-02,4.519863426685333252e-02,-2.831684239208698273e-02,4.370689019560813904e-02,2.107678353786468506e-02,-1.697128266096115112e-02,-8.947462192736566067e-04,6.811860948801040649e-02,4.571665450930595398e-02,8.314798772335052490e-02,5.746752396225929260e-02,2.625562846660614014e-01,-4.384324327111244202e-02,-4.203214496374130249e-02,-1.530480291694402695e-02,-3.973280265927314758e-02,3.564594313502311707e-02,-3.582552969455718994e-01,-3.774528950452804565e-02,-3.928958252072334290e-02,6.268187612295150757e-02,5.232210457324981689e-02,-4.002619534730911255e-02,-5.304497666656970978e-03,-1.082733552902936935e-02,-1.063269153237342834e-01,4.227454587817192078e-02,7.018400356173515320e-03,1.490540150552988052e-02,1.259189378470182419e-02,2.602729946374893188e-02,-5.847447086125612259e-03,-1.376981660723686218e-02,-3.839582204818725586e-02,1.913591288030147552e-02,-5.294221043586730957e-01,2.172482199966907501e-02,1.499681454151868820e-02,4.161138087511062622e-02,-5.354376882314682007e-02,3.578059002757072449e-02,2.320699021220207214e-02,-4.116218984127044678e-01,9.604105353355407715e-02,-6.704947352409362793e-01,3.217294439673423767e-02,-2.648914605379104614e-02,-9.971844404935836792e-02,-3.115953691303730011e-02,-1.688893698155879974e-02,1.141730174422264099e-01,1.937328837811946869e-02,-3.170140087604522705e-02,-8.218534290790557861e-03,1.821879670023918152e-02,-2.028710767626762390e-02,6.150315050035715103e-03,-2.887743711471557617e-01,2.604195103049278259e-02,4.125373810529708862e-02,1.503632031381130219e-02,-7.116285618394613266e-03,-3.781193122267723083e-02,-4.748830795288085938e-01,-1.733759418129920959e-02,5.000875890254974365e-02,1.355497725307941437e-02,-3.961097449064254761e-02,5.380543321371078491e-02,1.364930123090744019e-01,5.126309394836425781e-02,-5.509078502655029297e-02,-3.740434348583221436e-02,-3.689323067665100098e-01,4.500088840723037720e-02,1.620805077254772186e-02,2.265062183141708374e-02,-2.057096362113952637e-02,3.182256966829299927e-02,2.297144383192062378e-02,1.939868927001953125e-02,-5.160124599933624268e-02,3.830796480178833008e-02,-3.773129731416702271e-02,-2.392858639359474182e-02,4.494254942983388901e-03,-1.128945406526327133e-02,2.753417752683162689e-02,-3.831051588058471680e-01,4.769052937626838684e-02,5.550267547369003296e-02,-2.804495021700859070e-02,6.102229356765747070e-01,-2.812488004565238953e-02,-5.948397517204284668e-02,-5.683931987732648849e-03,4.099891334772109985e-02,2.527396008372306824e-02,2.826393023133277893e-02,-1.722350716590881348e-04,4.707583039999008179e-02,-4.966953396797180176e-02,4.636830464005470276e-02,7.584040053188800812e-03,1.301709562540054321e-01,2.708382089622318745e-04,-2.576936222612857819e-02,-3.221223503351211548e-02,4.403676688671112061e-01,-2.696084976196289062e-01,-4.260477423667907715e-02,-2.065867371857166290e-02,-2.878893865272402763e-04,6.691201776266098022e-02,-6.678318232297897339e-02,-1.060455199331045151e-02,2.002430148422718048e-02,3.720806911587715149e-02,-2.926608733832836151e-02,5.125123541802167892e-03,-1.683840900659561157e-02,2.690384536981582642e-02,-4.578334919642657042e-04,-1.236075442284345627e-02,-2.810782939195632935e-02,3.137342259287834167e-02,-2.015207521617412567e-02,6.068272143602371216e-02,-8.551887236535549164e-03,-1.084463477134704590e+00,9.802658855915069580e-02,-1.694926917552947998e-01,6.825642585754394531e-01,-1.211316227912902832e+00,-4.598443210124969482e-02,1.604284718632698059e-02,-8.404161036014556885e-02,-1.213644724339246750e-02,2.142088487744331360e-02,-3.734809532761573792e-02,-2.284994572401046753e-01,-1.489704009145498276e-02,-3.080291487276554108e-02,4.012047499418258667e-02,-9.196581318974494934e-03,8.432806283235549927e-02,8.404995314776897430e-03,-1.193681173026561737e-02,9.609191119670867920e-02,3.391067683696746826e-02,4.696397855877876282e-02,3.905134648084640503e-02,5.912399291992187500e-02,-3.893020004034042358e-02,-7.590317726135253906e-02,-6.717950105667114258e-03,1.648107916116714478e-02,3.732141479849815369e-02,-2.303523709997534752e-03,2.612179145216941833e-02,-4.200812429189682007e-02,3.725804090499877930e-01,-3.293454051017761230e-01,-3.657803311944007874e-02,1.461125817149877548e-02,-4.240399897098541260e-01,-8.179677650332450867e-03,1.974182017147541046e-02,-1.314985454082489014e-01,2.690053880214691162e-01,-4.465696215629577637e-02,4.224293828010559082e-01,-8.815074339509010315e-03,-4.143947735428810120e-02,-2.778175473213195801e-02,3.770765662193298340e-02,-1.072046607732772827e-01,-3.107131831347942352e-02,-4.308624565601348877e-01,2.628940716385841370e-02,-2.078376151621341705e-02,6.571076065301895142e-02,4.833395406603813171e-02,3.916266560554504395e-02,-3.025206364691257477e-02,1.756842061877250671e-02,-3.774281218647956848e-02,4.465433955192565918e-02,-3.155022487044334412e-02,-1.603174582123756409e-02,-5.628066658973693848e-01,2.469190210103988647e-02,1.002822257578372955e-02,3.408650308847427368e-02,-4.922690689563751221e-01,-1.805655471980571747e-02,-2.931971289217472076e-02,-6.807734817266464233e-02,-4.843875393271446228e-02,2.755408585071563721e-01,1.517135463654994965e-02,1.264867559075355530e-02,3.848459944128990173e-02,4.243925809860229492e-01,-1.469178777188062668e-02,4.266038164496421814e-02,-4.720373824238777161e-02,-1.318776980042457581e-02,-5.407143384218215942e-02,-3.001624345779418945e-02,8.056978136301040649e-02,1.339710783213376999e-02,4.668370261788368225e-02,-5.328391492366790771e-02,3.708277642726898193e-02
3.720648819580674171e-03,-5.253670364618301392e-02,-2.448026323691010475e-03,6.884571630507707596e-03,5.493485927581787109e-02,-6.534475833177566528e-02,5.952652543783187866e-02,3.788393735885620117e-02,1.197052076458930969e-01,-9.657084941864013672e-02,-1.016108691692352295e-02,-7.097230758517980576e-03,-1.110933534801006317e-02,-3.335090726613998413e-02,-1.456540543586015701e-02,-1.731237210333347321e-02,1.860013976693153381e-02,1.680499315261840820e-02,5.102868378162384033e-02,-1.645897746086120605e+00,6.029286235570907593e-02,-3.305681794881820679e-02,-3.840870037674903870e-02,1.596632413566112518e-03,2.148308418691158295e-02,-5.134674310684204102e-01,-6.239421665668487549e-03,5.848190560936927795e-02,-1.372662901878356934e+00,1.303112804889678955e-01,5.121285468339920044e-02,-8.255933970212936401e-02,-5.773345381021499634e-02,-6.980574876070022583e-02,-1.254357746802270412e-03,-2.970439195632934570e-02,-1.742309927940368652e+00,8.125571161508560181e-02,1.860599033534526825e-03,1.242410317063331604e-01,1.652975566685199738e-02,-4.370833747088909149e-03,4.209463298320770264e-02,7.451450079679489136e-02,-5.263490229845046997e-02,1.294573117047548294e-02,2.992231165990233421e-04,9.759378619492053986e-03,1.006004866212606430e-02,4.535128176212310791e-02,-8.329343795776367188e-02,7.507788483053445816e-03,-5.336823463439941406e-01,9.247859567403793335e-02,7.621569186449050903e-02,7.895826697349548340e-01,-1.346805412322282791e-02,-1.466319803148508072e-02,7.838048934936523438e-01,-4.849817976355552673e-02,-2.178906276822090149e-02,-4.294805973768234253e-02,1.110234141349792480e+00,4.987493902444839478e-02,-2.711771754547953606e-03,1.903872936964035034e-02,9.043266177177429199e-01,-6.156416535377502441e-01,2.895180322229862213e-02,3.983151167631149292e-03,1.641468703746795654e-02,4.289751499891281128e-02,5.828833207488059998e-02,2.579216286540031433e-02,9.773835539817810059e-03,5.099534522742033005e-03,5.670171976089477539e-01,8.581079542636871338e-03,-1.487985998392105103e-02,-1.075240969657897949e-02,3.335970640182495117e-02,3.384928777813911438e-02,-3.800365841016173363e-03,6.334010362625122070e-01,9.832735359668731689e-02,1.403256893157958984e+00,1.309003215283155441e-02,-6.351917237043380737e-02,-2.534824907779693604e-01,-8.730584383010864258e-02,-2.879339456558227539e-02,-4.536775127053260803e-02,-7.153625134378671646e-03,-6.921054329723119736e-03,-2.471447549760341644e-02,1.128664892166852951e-02,-3.625578433275222778e-02,2.474537305533885956e-02,-6.328239440917968750e-01,1.903799548745155334e-02,-1.989971101284027100e-02,1.868977583944797516e-02,-4.799427464604377747e-02,2.505717799067497253e-02,-5.785340070724487305e-02,-9.480132907629013062e-02,2.204428054392337799e-02,-5.686818435788154602e-02,-2.637186087667942047e-02,-3.630450740456581116e-02,-3.165366053581237793e-01,3.542594611644744873e-01,-3.579726209864020348e-03,-4.793186113238334656e-02,-4.608553349971771240e-01,-5.909958481788635254e-02,7.508020382374525070e-03,-2.870528842322528362e-04,3.914467245340347290e-02,3.176181763410568237e-02,1.101382374763488770e-01,2.248434908688068390e-02,1.109195277094841003e-01,6.135516334325075150e-03,-6.229937449097633362e-02,-2.207671105861663818e-02,3.430154547095298767e-02,2.629338949918746948e-02,1.332973036915063858e-02,2.141618430614471436e-01,-1.855834014713764191e-02,4.246098548173904419e-02,1.427298691123723984e-02,-3.431588113307952881e-01,4.741988331079483032e-02,-6.184689700603485107e-02,2.638593316078186035e-02,-1.635599136352539062e-02,2.293067611753940582e-02,-1.545286178588867188e-02,-3.919013217091560364e-02,-9.112717211246490479e-02,-3.361709043383598328e-02,5.012287199497222900e-02,-1.099757999181747437e-01,9.843217581510543823e-02,-7.774327695369720459e-02,4.784647375345230103e-02,3.794633317738771439e-03,1.243058681488037109e+00,-1.243999600410461426e+00,-1.239636167883872986e-02,2.065546065568923950e-02,2.861944027245044708e-02,4.303610697388648987e-02,-7.663440704345703125e-02,-4.829698055982589722e-02,-5.371627211570739746e-02,5.643024668097496033e-02,-1.793805509805679321e-02,5.792958196252584457e-03,8.580263704061508179e-03,3.033191524446010590e-02,-4.136415198445320129e-02,-3.686273237690329552e-03,-1.402723044157028198e-02,2.480182796716690063e-03,-3.277186676859855652e-02,2.479548193514347076e-02,4.536735266447067261e-02,5.413087010383605957e-01,-1.303303003311157227e+00,1.146023035049438477e+00,-5.446640253067016602e-01,9.014233946800231934e-02,-4.434636235237121582e-02,2.620032429695129395e-02,-9.392961263656616211e-01,-1.369478832930326462e-02,6.518996506929397583e-02,1.372980419546365738e-02,1.386785864830017090e+00,-5.874931067228317261e-02,-1.930347830057144165e-02,4.191216453909873962e-02,-1.012237463146448135e-02,-4.538050387054681778e-03,-1.306502986699342728e-02,-3.296385332942008972e-02,2.248628854751586914e+00,-1.354797556996345520e-02,6.702040135860443115e-02,2.477124892175197601e-02,1.220418605953454971e-03,2.327068150043487549e-01,-2.796656191349029541e-01,2.536927908658981323e-02,-7.025504857301712036e-02,-2.216082625091075897e-02,6.277873180806636810e-03,-7.217414677143096924e-03,5.678345635533332825e-02,-9.076356291770935059e-01,1.138034462928771973e+00,3.063219599425792694e-02,1.408203784376382828e-02,-3.133921325206756592e-01,-4.805124551057815552e-02,-4.815993458032608032e-02,-1.834059804677963257e-01,-3.476879298686981201e-01,2.181419171392917633e-02,6.341849267482757568e-02,6.237594038248062134e-02,-3.460529074072837830e-02,-8.682851493358612061e-02,1.279451604932546616e-02,-4.801633208990097046e-02,4.364275932312011719e-02,6.596332043409347534e-02,6.508956104516983032e-02,2.042572572827339172e-02,-3.937446977943181992e-03,3.142876178026199341e-02,-3.345409780740737915e-02,3.514720126986503601e-02,1.762518472969532013e-02,5.482137203216552734e-02,-2.677004085853695869e-03,2.890433557331562042e-02,7.178213447332382202e-02,1.705857872962951660e+00,6.209529004991054535e-03,-5.395959317684173584e-02,-7.950491458177566528e-02,-3.157282769680023193e-01,-1.410862430930137634e-02,9.214335121214389801e-03,-3.328507393598556519e-02,2.028380706906318665e-02,-6.561256051063537598e-01,-2.638710476458072662e-02,-2.375721372663974762e-02,-3.058608621358871460e-02,-3.578575253486633301e-01,-2.472894825041294098e-02,3.453822061419487000e-02,-4.856131970882415771e-02,3.397157788276672363e-02,7.339561358094215393e-03,-2.451951056718826294e-02,5.846805572509765625e-01,-3.627866879105567932e-02,-6.302566733211278915e-03,-5.276956595480442047e-03,-4.573493823409080505e-02
-1.900576055049896240e-02,3.277928382158279419e-02,-4.574035853147506714e-02,6.163180619478225708e-02,1.307545602321624756e-02,5.175960250198841095e-03,-2.285656332969665527e-02,-3.550651669502258301e-02,-5.362449288368225098e-01,-3.653347492218017578e-02,-4.587111622095108032e-02,-5.776435881853103638e-02,-3.637857735157012939e-02,-7.047988474369049072e-03,9.675607085227966309e-03,1.093792170286178589e-02,-3.923200070858001709e-03,2.757752686738967896e-02,-2.978029102087020874e-02,-8.400422930717468262e-01,3.208217024803161621e-02,-2.142398059368133545e-02,2.662399411201477051e-02,1.743774116039276123e-02,1.008799448609352112e-01,-8.559812605381011963e-02,-4.091069102287292480e-02,-3.784077242016792297e-02,3.362385034561157227e-01,-4.359004274010658264e-02,4.899115115404129028e-02,-1.394733786582946777e-02,1.103418320417404175e-02,-1.150913536548614502e-02,-4.888276010751724243e-02,-6.066872924566268921e-02,5.553885698318481445e-01,4.849068075418472290e-02,-4.721228033304214478e-04,-1.403658688068389893e-01,3.550640121102333069e-02,-2.730961889028549194e-02,-2.613513916730880737e-02,-5.982884764671325684e-02,-2.190601080656051636e-02,-3.224726766347885132e-02,3.693027794361114502e-02,-7.844991981983184814e-03,-5.529136210680007935e-02,-1.830369234085083008e-03,-5.990032851696014404e-02,3.980267792940139771e-02,1.270558536052703857e-01,4.860005527734756470e-02,3.202132135629653931e-02,1.770640909671783447e-01,-1.392816752195358276e-02,-4.287752509117126465e-02,-3.586469590663909912e-01,-3.626371920108795166e-02,8.292309939861297607e-03,-1.499537844210863113e-02,-1.120903864502906799e-01,-1.738071441650390625e-03,-3.014177456498146057e-02,2.413310110569000244e-02,-4.758545011281967163e-02,-8.243237733840942383e-01,-4.495354741811752319e-02,-8.833265304565429688e-02,1.968003064393997192e-02,-1.345964521169662476e-02,-8.754134923219680786e-02,9.767943620681762695e-02,-1.491762930527329445e-03,-3.533929586410522461e-03,-5.628339648246765137e-01,-2.883323282003402710e-02,-1.524782180786132812e-02,3.348506987094879150e-03,3.475850820541381836e-02,2.003623545169830322e-02,5.719748139381408691e-02,-6.897156238555908203e-01,-7.926312685012817383e-01,-4.608131945133209229e-01,2.011015266180038452e-02,2.391941845417022705e-03,-3.839504718780517578e-01,-2.408427745103836060e-02,-5.159700289368629456e-02,-9.460755623877048492e-03,6.934992969036102295e-02,-8.168004453182220459e-02,-3.652025014162063599e-02,5.032642185688018799e-02,-3.637014329433441162e-02,8.246615529060363770e-03,-6.174151301383972168e-01,-7.457494735717773438e-03,4.446204006671905518e-02,-2.425625175237655640e-02,1.928709447383880615e-02,9.271206334233283997e-03,-3.029732704162597656e-01,6.232950254343450069e-04,6.032802909612655640e-02,4.538803547620773315e-02,-3.037152346223592758e-03,-3.876457735896110535e-02,-6.240689754486083984e-01,4.447408020496368408e-02,2.283298224210739136e-02,5.790385603904724121e-02,5.728288367390632629e-02,-5.933298915624618530e-02,2.900995314121246338e-02,-2.483163215219974518e-02,-2.330507338047027588e-02,4.772368818521499634e-02,-3.020357713103294373e-02,3.513427823781967163e-02,6.151455268263816833e-02,2.502353489398956299e-02,-5.097525566816329956e-02,-5.635974183678627014e-02,-3.773338347673416138e-02,-2.957278862595558167e-02,-2.027005329728126526e-02,1.348253488540649414e-01,-3.603982180356979370e-02,-8.613273501396179199e-03,1.684973016381263733e-02,8.489325046539306641e-01,3.342062234878540039e-03,-4.399301856756210327e-02,-2.751439064741134644e-02,-1.801929622888565063e-02,-6.295327097177505493e-02,2.385048381984233856e-02,4.498352855443954468e-02,2.753321453928947449e-02,-3.008569031953811646e-02,-6.177752465009689331e-02,1.280914712697267532e-02,-5.294772982597351074e-02,-1.256655901670455933e-02,2.440640330314636230e-02,-3.961458802223205566e-03,5.642431974411010742e-01,-4.073104858398437500e-01,-3.047713637351989746e-02,-2.360738813877105713e-02,-1.318718492984771729e-02,4.918517172336578369e-02,3.827443718910217285e-02,-5.039214342832565308e-02,-1.516089588403701782e-02,2.987411618232727051e-02,-9.668231010437011719e-03,-2.896621078252792358e-02,-5.898344516754150391e-02,-3.273054212331771851e-02,5.849715322256088257e-02,1.589651778340339661e-02,-5.522831529378890991e-02,4.412237554788589478e-02,-2.396085858345031738e-02,-3.936158120632171631e-02,2.652804553508758545e-02,-8.198531270027160645e-01,-5.297676101326942444e-02,4.294770304113626480e-03,-3.703745007514953613e-01,-9.358503222465515137e-01,-5.667646229267120361e-02,-5.651786923408508301e-02,3.505198359489440918e-01,-1.178750395774841309e-02,-7.581459730863571167e-02,1.886171661317348480e-02,-6.483586039394140244e-04,-3.347074985504150391e-02,-1.725887507200241089e-02,-4.464961588382720947e-03,4.116632044315338135e-02,-2.093143761157989502e-02,-3.460172191262245178e-02,-1.140137016773223877e-02,-3.500136733055114746e-01,7.877610623836517334e-03,3.383111581206321716e-02,7.786117494106292725e-03,-3.640212118625640869e-03,-3.888693451881408691e-02,-1.864433437585830688e-01,-5.339328944683074951e-02,4.821869730949401855e-02,-2.040777355432510376e-02,-1.985150575637817383e-02,1.374437659978866577e-02,1.238901913166046143e-02,-2.254275977611541748e-01,-1.454492658376693726e-01,-4.239800572395324707e-02,-6.099420785903930664e-02,-7.017856836318969727e-02,8.406572043895721436e-03,-5.007781088352203369e-02,3.287515044212341309e-02,-1.815298758447170258e-02,5.614955723285675049e-02,3.071632049977779388e-02,-5.143473297357559204e-02,2.279998362064361572e-02,2.711935713887214661e-02,-5.365495383739471436e-02,-6.097745895385742188e-02,1.852628588676452637e-02,-1.110744833946228027e+00,4.992142319679260254e-03,5.929264426231384277e-02,3.610596805810928345e-02,4.979515820741653442e-02,3.583419322967529297e-02,-1.981898024678230286e-02,2.498431503772735596e-02,-7.125966250896453857e-03,-6.150009483098983765e-02,-5.150446295738220215e-02,-5.937285721302032471e-03,-3.691357672214508057e-01,-6.224010139703750610e-02,-4.827959090471267700e-02,7.206476479768753052e-02,-9.283351302146911621e-01,-5.248405039310455322e-03,-1.324323099106550217e-02,1.835354603826999664e-02,2.229018509387969971e-02,8.896427601575851440e-02,-2.986648678779602051e-02,-5.899490043520927429e-02,-9.912081062793731689e-03,-1.530482620000839233e-01,-5.539315938949584961e-02,-2.620030194520950317e-02,-2.153307199478149414e-02,-3.838398307561874390e-02,5.054742097854614258e-03,-1.002863049507141113e-02,3.246217966079711914e-03,-4.358031600713729858e-02,3.871787339448928833e-02,2.871205657720565796e-02,-2.512160688638687134e-02
2.314440440386533737e-03,1.090031862258911133e-02,4.774114862084388733e-02,4.338324069976806641e-04,-5.860608816146850586e-02,4.863254725933074951e-03,-1.982998102903366089e-02,-4.245200380682945251e-02,-1.910212486982345581e-01,5.219504609704017639e-02,4.752164334058761597e-02,-4.750749468803405762e-02,2.389335632324218750e-02,2.631467394530773163e-02,-2.849114313721656799e-02,3.600000590085983276e-02,1.115585584193468094e-02,1.589817740023136139e-02,3.643554449081420898e-02,4.331723973155021667e-02,3.390737343579530716e-03,4.030775278806686401e-02,5.910542607307434082e-02,-3.983521461486816406e-02,3.210912644863128662e-02,-1.539613772183656693e-02,-3.099861741065979004e-02,5.767714232206344604e-02,-2.387869805097579956e-01,3.519534319639205933e-02,5.714523792266845703e-02,4.052793234586715698e-02,8.429788053035736084e-03,-5.303223431110382080e-02,2.295394660905003548e-03,1.942070201039314270e-02,7.513006776571273804e-02,2.675028052181005478e-03,1.027760934084653854e-02,-5.156555026769638062e-02,5.316895898431539536e-03,6.061573047190904617e-03,-1.475686579942703247e-02,-3.875404596328735352e-02,-1.959022320806980133e-02,1.378968358039855957e-03,3.261549025774002075e-02,-3.657486522570252419e-03,4.060146957635879517e-02,-1.520824735052883625e-03,-2.721037715673446655e-02,4.455574229359626770e-02,3.773162066936492920e-01,5.289206746965646744e-03,-5.974420905113220215e-02,-3.493234813213348389e-01,3.057428076863288879e-02,3.406539186835289001e-02,2.154389955103397369e-02,2.039898745715618134e-02,5.877853557467460632e-02,2.649486251175403595e-02,-2.024058625102043152e-02,3.925400599837303162e-02,1.998460292816162109e-02,6.501152366399765015e-02,-3.456654250621795654e-01,3.446537256240844727e-02,-3.907777741551399231e-02,-1.822488498874008656e-03,3.242473676800727844e-02,-8.195593953132629395e-03,-4.223934188485145569e-02,-4.083861131221055984e-03,-2.086110413074493408e-02,2.994863502681255341e-02,-1.671350896358489990e-01,-3.575820103287696838e-02,-2.801328897476196289e-03,1.164384186267852783e-03,-2.456639707088470459e-02,-3.327509015798568726e-02,-1.563480123877525330e-02,-1.877428144216537476e-01,-2.082138657569885254e-01,-1.014831215143203735e-01,4.860735312104225159e-02,3.548067808151245117e-02,4.959022104740142822e-01,4.284384846687316895e-02,-4.112942144274711609e-02,-1.917749270796775818e-02,-4.291241522878408432e-03,-1.756551559083163738e-03,3.692199289798736572e-02,-5.558349192142486572e-02,-1.438997127115726471e-02,1.001844368875026703e-02,-7.909697294235229492e-01,2.592413313686847687e-02,3.306733444333076477e-02,-8.249547332525253296e-03,3.584170248359441757e-03,1.508891116827726364e-03,-4.127528965473175049e-01,-3.568075597286224365e-02,2.138211391866207123e-03,-9.102695621550083160e-03,-2.197941392660140991e-02,-1.702185720205307007e-02,-2.862431108951568604e-01,2.133541554212570190e-02,-1.448014192283153534e-02,2.693542838096618652e-02,-3.700326979160308838e-01,-1.764760166406631470e-02,1.374737080186605453e-02,-3.026702441275119781e-02,-5.822409689426422119e-02,3.390479087829589844e-02,-1.972775906324386597e-01,5.988948792219161987e-02,2.046258002519607544e-02,1.565551944077014923e-02,4.217743128538131714e-02,-1.028741896152496338e-02,3.438808023929595947e-02,-6.162349879741668701e-02,-5.428662896156311035e-02,-1.211886992678046227e-03,-3.486908599734306335e-02,-2.602278813719749451e-02,-4.262180253863334656e-02,-9.508565068244934082e-02,-1.003032270818948746e-02,5.267300456762313843e-02,-5.130846425890922546e-02,9.863123297691345215e-03,-3.078923560678958893e-02,-3.447277098894119263e-02,-6.014655530452728271e-02,-3.187485039234161377e-03,1.012454181909561157e-02,3.411490097641944885e-02,3.730395063757896423e-02,-5.477123707532882690e-02,-5.203460901975631714e-02,1.416778098791837692e-02,5.556739121675491333e-02,-1.101262029260396957e-02,-2.647096216678619385e-01,4.824832826852798462e-02,-5.205540359020233154e-02,-3.826776519417762756e-02,-5.519270524382591248e-02,-1.096581108868122101e-02,-2.886781841516494751e-02,-2.560041099786758423e-02,-1.949465833604335785e-02,2.361160516738891602e-02,-2.061395347118377686e-02,4.405274987220764160e-03,5.866377800703048706e-02,-5.936067923903465271e-02,-2.765184827148914337e-02,6.224477291107177734e-02,-5.510290153324604034e-03,-4.929486662149429321e-03,3.196527808904647827e-02,5.398786626756191254e-03,9.033969789743423462e-02,2.480292916297912598e-01,3.924835100769996643e-02,2.147601917386054993e-02,9.380058199167251587e-02,3.653050959110260010e-02,1.446511130779981613e-02,5.867941975593566895e-01,1.211925968527793884e-02,7.240715203806757927e-04,-5.077981576323509216e-02,-2.238858342170715332e-01,3.288017958402633667e-02,1.075589912943542004e-03,-4.957480728626251221e-02,-3.018001466989517212e-02,4.729986190795898438e-02,-2.841758541762828827e-02,2.745463699102401733e-02,-2.548790872097015381e-01,4.365672916173934937e-02,-1.727190986275672913e-02,-5.345667898654937744e-02,3.387482464313507080e-02,2.890140935778617859e-02,-1.506538093090057373e-01,-3.150520473718643188e-02,-1.501222699880599976e-02,-9.178076870739459991e-03,-4.693013802170753479e-02,-4.123231396079063416e-02,2.515528723597526550e-02,4.147076606750488281e-01,-3.508540391921997070e-01,-8.945059962570667267e-03,-2.971413731575012207e-02,1.872667670249938965e-02,3.574813157320022583e-02,-1.358784176409244537e-02,-9.718338400125503540e-02,-2.692083362489938736e-03,8.324407041072845459e-03,-1.711028367280960083e-01,-2.459799498319625854e-02,3.716067597270011902e-02,-5.138417333364486694e-02,-1.284933649003505707e-02,2.786977402865886688e-02,-2.931054681539535522e-02,2.897182106971740723e-01,-5.977005884051322937e-02,2.941580675542354584e-02,-2.826797962188720703e-02,2.068704925477504730e-02,-4.659236967563629150e-02,-3.470558300614356995e-02,-1.161538623273372650e-02,-3.176808729767799377e-02,3.519267588853836060e-02,1.196331158280372620e-02,1.364091783761978149e-02,-2.073908299207687378e-01,8.171894587576389313e-03,-2.293428219854831696e-02,-2.670807763934135437e-03,2.270393073558807373e-01,3.845745697617530823e-02,4.879263788461685181e-02,4.468528926372528076e-02,-6.459203362464904785e-02,-5.883185565471649170e-02,-1.107835676521062851e-03,-4.862179607152938843e-02,-3.568723425269126892e-02,4.638368189334869385e-01,-8.148998022079467773e-03,3.479343652725219727e-02,1.317305024713277817e-02,-2.989527210593223572e-02,5.184971541166305542e-02,6.220082938671112061e-02,7.913889735937118530e-02,3.253977373242378235e-02,4.751144722104072571e-02,-4.076257348060607910e-03,-6.725035607814788818e-03
-3.481044620275497437e-02,1.232336834073066711e-02,-2.813276648521423340e-02,-1.934991031885147095e-02,8.724808692932128906e-03,-4.918062686920166016e-02,2.305513247847557068e-02,2.565137110650539398e-02,-6.066384539008140564e-02,-5.398761853575706482e-02,-6.253884639590978622e-04,-2.971947379410266876e-02,-4.652290046215057373e-02,1.780452392995357513e-02,-2.120551653206348419e-02,4.253996908664703369e-02,5.216955021023750305e-02,-6.282140314579010010e-02,-4.739009216427803040e-02,-5.493269860744476318e-02,-9.205116890370845795e-03,5.526684224605560303e-02,-1.769734174013137817e-02,4.143390804529190063e-02,4.645630717277526855e-02,-4.353629797697067261e-02,-1.692689955234527588e-03,-4.030591342598199844e-03,-7.727442681789398193e-02,1.833040639758110046e-02,-1.202506665140390396e-02,-6.672900915145874023e-02,5.110486596822738647e-02,3.146426379680633545e-02,9.119051508605480194e-03,3.126682713627815247e-02,-9.831305593252182007e-02,5.626517906785011292e-02,3.513441607356071472e-02,4.203176125884056091e-02,-4.933048412203788757e-02,-2.168148197233676910e-02,1.698692888021469116e-02,-2.245492767542600632e-03,3.892358392477035522e-03,4.945582151412963867e-02,-2.650223299860954285e-02,5.703558679670095444e-03,-6.000403314828872681e-02,-2.407080866396427155e-02,-1.187146082520484924e-02,4.841112717986106873e-02,-8.528886735439300537e-02,2.730344189330935478e-03,3.486800193786621094e-02,-2.318105287849903107e-02,4.915202967822551727e-03,-5.469683185219764709e-02,-5.348367616534233093e-02,-5.787375569343566895e-02,3.690819069743156433e-02,4.528227075934410095e-02,-3.533158451318740845e-02,-3.803157806396484375e-02,-4.421108588576316833e-02,-2.497501671314239502e-02,3.814397379755973816e-03,-4.728424921631813049e-02,-4.348394460976123810e-03,1.033739559352397919e-02,1.110988575965166092e-02,1.249429583549499512e-02,-3.795435279607772827e-02,3.730211406946182251e-02,-1.430583745241165161e-02,-3.400934115052223206e-02,-1.780677773058414459e-02,1.603656075894832611e-02,-3.953042998909950256e-02,-3.956221044063568115e-03,4.094822704792022705e-02,-5.147553235292434692e-02,-6.546048820018768311e-02,-5.051110684871673584e-02,-2.677132934331893921e-02,-8.567831479012966156e-03,1.121678110212087631e-02,-7.958178967237472534e-02,-4.707836732268333435e-02,3.900736197829246521e-02,-3.870612382888793945e-02,3.610703349113464355e-02,3.721049427986145020e-02,5.014836788177490234e-02,4.412286728620529175e-02,1.208625826984643936e-02,-5.604018922895193100e-03,-4.275219887495040894e-02,-1.081496756523847580e-02,2.416330855339765549e-03,-1.553376577794551849e-02,-3.705856576561927795e-02,3.136504814028739929e-02,9.319650009274482727e-03,-1.631837934255599976e-01,2.058080583810806274e-02,-6.891802698373794556e-02,-1.233534608036279678e-02,3.960327059030532837e-02,-4.967099428176879883e-02,-8.181289583444595337e-02,4.424102604389190674e-03,-4.551603645086288452e-02,-4.284692555665969849e-02,-9.533288329839706421e-02,-4.234104603528976440e-02,-6.157147884368896484e-02,-1.057561021298170090e-02,9.667009115219116211e-03,3.378941863775253296e-02,2.349997125566005707e-02,-5.189292132854461670e-02,-2.508869022130966187e-02,-3.118384815752506256e-02,5.660894513130187988e-02,-5.928891152143478394e-02,4.426185041666030884e-02,4.623129218816757202e-02,-6.124182045459747314e-02,-3.373237326741218567e-02,4.663318395614624023e-02,-3.791533038020133972e-02,-6.815503537654876709e-02,5.506159737706184387e-03,-5.393338575959205627e-02,4.886189848184585571e-02,5.026440322399139404e-02,-1.438545435667037964e-02,-7.648795843124389648e-03,-1.537203788757324219e-04,6.166875362396240234e-03,5.615563690662384033e-02,7.893979549407958984e-03,3.508792445063591003e-02,-4.889253154397010803e-02,-4.130356013774871826e-02,4.820340499281883240e-02,9.244024753570556641e-03,-3.196845948696136475e-02,-2.729479921981692314e-03,-1.794099342077970505e-03,-8.417412638664245605e-03,4.842386022210121155e-02,-5.732075870037078857e-02,2.503000944852828979e-02,9.784976951777935028e-03,-5.186000466346740723e-02,2.620247378945350647e-02,-2.339053153991699219e-02,-1.603605225682258606e-02,-6.630250811576843262e-02,2.850007265806198120e-02,-6.226919591426849365e-03,-5.821349471807479858e-02,8.616885752417147160e-04,9.910508990287780762e-03,-5.029662325978279114e-02,-4.492813721299171448e-02,-4.375302046537399292e-02,-2.645144797861576080e-02,-1.697106510400772095e-01,-3.651156276464462280e-02,-1.189517304301261902e-01,-4.918526485562324524e-02,-1.449877023696899414e-01,1.988270133733749390e-02,-4.948694258928298950e-02,-1.311227865517139435e-02,1.790503971278667450e-02,3.923318907618522644e-02,4.838286712765693665e-02,-2.933816052973270416e-02,9.012610651552677155e-03,-1.082721725106239319e-02,1.758978515863418579e-02,-5.727307125926017761e-02,-6.369695812463760376e-02,-3.378759697079658508e-02,-7.938820868730545044e-03,-8.783767931163311005e-03,-3.624752908945083618e-02,-1.662995293736457825e-02,-7.275298237800598145e-03,-5.828132480382919312e-02,3.234402090311050415e-02,-2.602231130003929138e-02,-4.714241623878479004e-02,-9.105765260756015778e-03,5.615443736314773560e-02,-6.014835461974143982e-02,-4.439819604158401489e-02,2.762995474040508270e-02,2.444971166551113129e-02,-4.106629267334938049e-02,1.363681536167860031e-02,-3.477194113656878471e-03,-9.045782685279846191e-02,2.251665480434894562e-02,4.556570947170257568e-02,-5.304868519306182861e-02,-9.282885119318962097e-03,5.239968001842498779e-02,-6.126901600509881973e-03,-5.130207166075706482e-02,-4.367917403578758240e-02,5.661951005458831787e-02,5.246525630354881287e-02,5.598979815840721130e-02,5.227032676339149475e-02,-3.140615671873092651e-02,3.226467221975326538e-02,-3.346164524555206299e-02,4.985504224896430969e-02,-6.342148780822753906e-02,-3.587570786476135254e-02,6.609999388456344604e-02,-2.529701218008995056e-02,-4.202530905604362488e-02,-4.400132596492767334e-02,-2.871385216712951660e-02,3.106921352446079254e-02,-2.739904914051294327e-03,-3.923108056187629700e-02,-3.460371494293212891e-02,-4.769205581396818161e-03,-9.922762960195541382e-02,4.193583130836486816e-02,-1.921190135180950165e-02,5.425056442618370056e-02,6.192023679614067078e-02,-7.676473259925842285e-02,5.602467060089111328e-02,-2.189007587730884552e-02,-5.628617480397224426e-02,-4.579393565654754639e-02,5.028381012380123138e-03,-3.529176488518714905e-02,-6.462536007165908813e-02,-2.049099467694759369e-02,4.192322492599487305e-02,-3.779826313257217407e-02,-6.510257720947265625e-02,3.901451081037521362e-02,1.004487858153879642e-03,-4.518289119005203247e-02,5.474150180816650391e-03
5.171494185924530029e-02,3.181030973792076111e-02,3.809017594903707504e-03,-5.033309012651443481e-02,-5.017694085836410522e-02,-5.043265596032142639e-02,4.570338502526283264e-02,-5.367137864232063293e-02,-4.482105672359466553e-01,3.013787977397441864e-02,3.693663328886032104e-02,-1.130149606615304947e-02,-6.306704878807067871e-02,5.646032281219959259e-03,-3.228852525353431702e-02,1.292984932661056519e-02,-2.148148417472839355e-02,-5.089222639799118042e-02,-3.223104774951934814e-02,-5.652155876159667969e-01,1.612609252333641052e-02,-3.226194530725479126e-02,-5.550285056233406067e-02,-1.401577889919281006e-02,-1.658796891570091248e-02,5.819996595382690430e-01,1.871950924396514893e-02,-7.369846105575561523e-03,-1.257926505059003830e-02,-5.576243996620178223e-02,-2.801688760519027710e-02,6.576177477836608887e-02,-4.473381489515304565e-02,2.610792219638824463e-02,-8.232784457504749298e-03,5.955597013235092163e-02,3.500528931617736816e-01,6.064406782388687134e-02,2.533098869025707245e-02,5.116172134876251221e-02,-5.788148846477270126e-03,1.301580201834440231e-02,3.040358424186706543e-02,-1.502357237040996552e-02,-6.234223023056983948e-02,4.217523336410522461e-02,6.175458058714866638e-02,2.449300885200500488e-02,-2.632358856499195099e-02,-7.225018739700317383e-02,6.314032524824142456e-02,2.166646998375654221e-03,7.556981444358825684e-01,2.966468222439289093e-02,5.186913162469863892e-02,3.814608603715896606e-02,5.876472219824790955e-03,1.899929344654083252e-02,-7.969636917114257812e-01,-3.621173277497291565e-02,-1.299424376338720322e-02,-5.695393308997154236e-02,-4.977337121963500977e-01,4.672282934188842773e-02,-3.554379194974899292e-02,-2.977765724062919617e-02,-3.577853739261627197e-02,9.925413876771926880e-02,3.489070758223533630e-02,4.674547538161277771e-02,-4.496667999774217606e-03,1.309503614902496338e-02,-4.483752697706222534e-02,8.119981735944747925e-03,2.308510988950729370e-02,4.912158101797103882e-02,-1.253684639930725098e+00,-1.440199743956327438e-02,2.058757469058036804e-03,1.743520796298980713e-02,-4.778323322534561157e-02,8.078916370868682861e-02,1.702800020575523376e-02,-2.920708060264587402e-01,-1.775216162204742432e-01,-4.260124564170837402e-01,-2.240898832678794861e-02,7.145399600267410278e-02,4.369992762804031372e-02,-2.752893604338169098e-02,3.434024006128311157e-02,-4.132559150457382202e-02,8.396049030125141144e-03,9.557293727993965149e-03,1.108340173959732056e-02,1.522276084870100021e-02,-3.762774914503097534e-02,4.979674518108367920e-02,-1.871658414602279663e-01,5.627721175551414490e-02,-7.527340948581695557e-02,3.745284304022789001e-02,2.323852479457855225e-02,-4.886217415332794189e-03,-7.509145140647888184e-01,-1.564043387770652771e-02,1.931057311594486237e-02,2.199599519371986389e-03,4.937780648469924927e-02,-2.070286870002746582e-02,-5.083091259002685547e-01,-1.037999168038368225e-01,-3.883757814764976501e-02,5.568015575408935547e-02,-5.417830348014831543e-01,2.543301880359649658e-02,-2.878887578845024109e-02,1.892593875527381897e-02,5.416058748960494995e-02,-3.632578626275062561e-02,-2.391020208597183228e-01,4.857473075389862061e-03,-1.341341622173786163e-02,1.596807315945625305e-02,-2.587488293647766113e-02,-6.364484131336212158e-02,3.301796317100524902e-02,4.648824036121368408e-02,1.455985847860574722e-02,-4.811970889568328857e-01,8.641981519758701324e-03,1.692638359963893890e-02,-5.417407676577568054e-02,7.892774343490600586e-01,-2.005816251039505005e-02,2.430673688650131226e-02,3.401813283562660217e-02,1.163301616907119751e-02,-7.385012693703174591e-03,-3.254139423370361328e-02,5.767425894737243652e-02,5.026437342166900635e-02,3.973770141601562500e-02,-4.114545509219169617e-02,2.488409541547298431e-02,-3.123981878161430359e-02,1.663164049386978149e-02,3.451389819383621216e-02,1.862622797489166260e-03,-7.437182068824768066e-01,-4.345742762088775635e-01,3.956792503595352173e-02,6.531451363116502762e-03,5.652409791946411133e-02,-1.236785785295069218e-03,-3.994406387209892273e-02,7.450943347066640854e-03,6.716464459896087646e-02,1.357290521264076233e-02,2.803303999826312065e-03,-5.013835430145263672e-02,-3.632602840662002563e-02,3.021701425313949585e-02,-3.194555267691612244e-02,-4.574419464915990829e-03,3.430669009685516357e-02,4.772728309035301208e-02,4.829815030097961426e-02,-2.479354292154312134e-02,3.053906932473182678e-02,-1.571309715509414673e-01,5.088804960250854492e-01,-8.120551705360412598e-02,4.143314957618713379e-01,-3.189557492733001709e-01,-3.153283894062042236e-02,-2.043028734624385834e-02,-1.350700855255126953e-01,2.790564671158790588e-02,4.473191499710083008e-02,3.905576467514038086e-02,-5.696454644203186035e-01,-1.811334677040576935e-02,4.266873933374881744e-03,2.356782555580139160e-02,-3.950928151607513428e-02,-2.066326513886451721e-02,2.944284304976463318e-02,-7.967673242092132568e-03,-1.273824274539947510e-01,1.220712065696716309e-02,5.607974529266357422e-02,-9.192176163196563721e-03,5.218470841646194458e-02,-3.884201124310493469e-02,-5.035546422004699707e-01,-1.405734010040760040e-02,3.165639191865921021e-02,5.350761488080024719e-02,-3.834736766293644905e-03,-1.370130572468042374e-02,5.463109351694583893e-03,-4.804331064224243164e-02,-3.872126042842864990e-01,-3.517683967947959900e-02,-3.605540469288825989e-02,-3.449337556958198547e-02,1.866859570145606995e-02,2.670790301635861397e-03,-7.759519387036561966e-03,2.287783771753311157e-01,-5.373205989599227905e-02,6.466205120086669922e-01,2.085110172629356384e-02,2.454212121665477753e-02,-3.484566509723663330e-02,2.767506986856460571e-02,5.867628753185272217e-02,8.667551912367343903e-03,-2.367549538612365723e-01,-4.779602587223052979e-02,5.909293424338102341e-03,3.273086156696081161e-03,-2.930377610027790070e-02,-1.719676144421100616e-02,5.489653348922729492e-02,2.699852921068668365e-02,-1.837101578712463379e-02,-3.343310207128524780e-02,4.097843915224075317e-02,-5.475333426147699356e-03,-6.465091109275817871e-01,-6.448540370911359787e-03,-1.973417773842811584e-02,7.931751012802124023e-02,-8.948639631271362305e-01,4.305099323391914368e-02,-1.183561794459819794e-02,-1.426728814840316772e-01,1.448901835829019547e-02,-2.370704561471939087e-01,7.757225073873996735e-03,1.796793006360530853e-02,1.268371660262346268e-02,-7.269309461116790771e-02,3.135708393529057503e-03,-1.423285994678735733e-02,3.797893226146697998e-02,1.964142359793186188e-02,5.067251622676849365e-03,-9.761899709701538086e-03,2.431565336883068085e-02,-7.709068246185779572e-03,-1.332387048751115799e-02,2.038934081792831421e-02,2.868341654539108276e-02
1.294645247980952263e-03,2.776562934741377831e-03,5.431592836976051331e-02,5.743166059255599976e-02,1.880781352519989014e-02,3.191694617271423340e-03,-9.926881175488233566e-04,1.686550118029117584e-02,-1.323570966720581055e+00,3.677426651120185852e-02,-5.129841715097427368e-02,1.350028719753026962e-02,4.178529232740402222e-02,-4.762701690196990967e-02,1.454532146453857422e-02,4.401018843054771423e-02,-2.664814889430999756e-02,-3.775575011968612671e-02,3.114294074475765228e-02,-1.220563769340515137e+00,-3.134568035602569580e-02,-6.096943467855453491e-02,9.488554671406745911e-03,4.097989946603775024e-02,4.417221620678901672e-02,2.789841778576374054e-02,1.474417001008987427e-02,1.022573746740818024e-02,5.372329950332641602e-01,-5.098859220743179321e-02,1.545856334269046783e-02,5.903647840023040771e-02,-1.149304397404193878e-02,-5.633216351270675659e-02,-9.670642204582691193e-03,-4.084433242678642273e-02,-5.083532333374023438e-01,1.251018233597278595e-02,-2.644577762112021446e-04,-1.183126047253608704e-01,7.384625729173421860e-03,-5.601128563284873962e-02,8.063048124313354492e-03,4.138969630002975464e-02,-1.315247174352407455e-02,3.650024533271789551e-02,-3.571192920207977295e-02,-1.907099224627017975e-02,-4.671237990260124207e-02,4.330467805266380310e-02,8.586095646023750305e-05,-6.464575231075286865e-02,2.528114616870880127e-01,-1.505473069846630096e-02,-1.389306038618087769e-02,-3.300325870513916016e-01,-1.892798580229282379e-02,-4.089669138193130493e-02,-7.296644449234008789e-01,-6.076862663030624390e-02,-4.073173273354768753e-03,-2.067684940993785858e-02,2.767828758805990219e-03,2.790409140288829803e-02,1.296989247202873230e-02,-1.145696174353361130e-02,-1.714450240135192871e+00,-4.943846166133880615e-01,5.057755857706069946e-02,2.592104300856590271e-02,-4.187300428748130798e-02,2.090790867805480957e-02,3.488874062895774841e-02,-5.351984873414039612e-02,2.954022586345672607e-02,-4.872519522905349731e-03,-3.049087822437286377e-01,3.545706719160079956e-02,-3.460532426834106445e-02,-3.987514972686767578e-02,6.003195792436599731e-02,-4.111999273300170898e-02,2.698528021574020386e-02,-4.820939898490905762e-02,-4.590523242950439453e-02,-1.428941130638122559e+00,4.521796479821205139e-02,-2.621908299624919891e-02,-3.640144467353820801e-01,5.313039757311344147e-03,7.368171960115432739e-02,-4.350596666336059570e-02,-6.237729638814926147e-02,-3.691756725311279297e-02,1.098318025469779968e-02,-1.947820372879505157e-02,-4.081326350569725037e-02,-9.458695421926677227e-04,-1.073244690895080566e+00,-5.846041068434715271e-02,1.195401325821876526e-02,1.005185674875974655e-02,5.196468159556388855e-02,-1.650647260248661041e-02,-8.886231780052185059e-01,-1.514537259936332703e-02,-6.164288893342018127e-02,-7.680300157517194748e-03,5.996416509151458740e-02,4.166052117943763733e-02,-2.537926733493804932e-01,-4.377290904521942139e-01,-5.386044830083847046e-02,3.811314702033996582e-03,5.756758451461791992e-01,2.421215176582336426e-04,2.486207149922847748e-02,-3.557491302490234375e-02,5.833196640014648438e-02,-3.655170649290084839e-02,-1.953484416007995605e-01,2.692268788814544678e-02,-1.232477948069572449e-01,-2.988692186772823334e-02,-3.252981603145599365e-02,1.040853839367628098e-02,-6.163326650857925415e-02,4.707274585962295532e-02,6.542559247463941574e-03,-7.149768620729446411e-02,-1.848933519795536995e-03,-4.720804095268249512e-02,1.183392703533172607e-01,-2.109673470258712769e-01,3.877639770507812500e-02,3.530912101268768311e-02,6.301689893007278442e-02,-1.086364686489105225e-02,3.742277622222900391e-02,-1.175699979066848755e-01,3.874666243791580200e-02,-1.182183716446161270e-02,3.395438939332962036e-02,-6.285203155130147934e-03,5.912967957556247711e-03,3.781117871403694153e-02,-8.005862124264240265e-03,2.780400775372982025e-02,-9.825378656387329102e-04,7.486810684204101562e-01,1.209849715232849121e+00,-5.730896070599555969e-02,-3.990749642252922058e-02,6.864123046398162842e-02,-5.783589929342269897e-02,3.302306309342384338e-02,-8.860385045409202576e-03,6.620317697525024414e-02,3.939121961593627930e-02,5.234071612358093262e-02,5.247820168733596802e-02,5.326183140277862549e-02,-5.757907032966613770e-02,1.917456276714801788e-02,-1.390847563743591309e-02,-2.366160601377487183e-02,4.981163889169692993e-02,-2.780802175402641296e-02,1.112560182809829712e-02,2.748807601165026426e-04,-3.186103999614715576e-01,8.491522073745727539e-01,5.307390093803405762e-01,-8.523608446121215820e-01,-3.128681182861328125e-01,1.853892952203750610e-02,1.566738449037075043e-02,1.078006982803344727e+00,-2.936440147459506989e-02,1.592957414686679840e-02,-1.645603030920028687e-02,-1.095113754272460938e-01,1.429862622171640396e-02,-5.754425749182701111e-02,3.248525410890579224e-02,3.268480300903320312e-02,8.630743622779846191e-02,4.181992262601852417e-02,-2.556194923818111420e-02,-3.523108363151550293e-01,4.522649943828582764e-02,7.108746562153100967e-03,1.653252542018890381e-02,2.729259431362152100e-03,9.034480154514312744e-02,3.605369925498962402e-01,8.091688156127929688e-03,-3.322003781795501709e-02,-5.042675510048866272e-02,1.247671712189912796e-02,7.521012332290410995e-03,1.121547725051641464e-02,3.838772177696228027e-01,-7.276600599288940430e-01,3.088922239840030670e-02,1.916692592203617096e-02,-9.223709255456924438e-02,2.351200766861438751e-02,-3.161501511931419373e-02,1.082513853907585144e-01,3.292077183723449707e-01,4.914052784442901611e-02,4.158251583576202393e-01,-2.203959971666336060e-02,3.410081937909126282e-02,4.413469508290290833e-02,-5.796505510807037354e-02,-5.213883146643638611e-02,-5.181777104735374451e-02,2.100254446268081665e-01,-2.999771013855934143e-02,-6.492121610790491104e-03,-2.237091027200222015e-02,-4.779488965868949890e-02,5.720198154449462891e-02,1.260008197277784348e-02,5.919102951884269714e-02,4.221140965819358826e-02,1.522246748208999634e-02,7.509347982704639435e-03,8.779417723417282104e-03,-8.814880996942520142e-02,4.474834352731704712e-02,-1.394524239003658295e-02,2.797404676675796509e-02,-5.960970520973205566e-01,-4.940782091580331326e-04,-5.248505249619483948e-02,4.889982566237449646e-02,2.402504161000251770e-02,9.483570232987403870e-03,-1.930990815162658691e-02,-2.395467273890972137e-02,-2.073023654520511627e-02,3.321024775505065918e-01,-3.402025252580642700e-02,-6.098987068980932236e-04,-9.478831663727760315e-03,-1.255881935358047485e-01,1.124761998653411865e-02,-4.149532318115234375e-02,3.328378796577453613e-01,-4.927717521786689758e-02,3.993441164493560791e-02,6.186190247535705566e-02,-3.451874852180480957e-02
-3.601603955030441284e-02,7.778331637382507324e-03,-5.186701565980911255e-02,-2.114751189947128296e-02,-2.643749862909317017e-02,-6.042259186506271362e-02,-9.769974648952484131e-02,1.939992606639862061e-02,-3.068278133869171143e-01,9.558348683640360832e-04,3.948120772838592529e-02,-1.956121623516082764e-02,1.797048002481460571e-02,3.701791912317276001e-02,-2.127793431282043457e-02,-5.118320882320404053e-02,-6.033380329608917236e-02,-4.541230201721191406e-02,1.600161194801330566e-02,1.034365743398666382e-01,-4.998223856091499329e-02,3.338104858994483948e-02,-5.702017992734909058e-02,4.376473277807235718e-02,-1.725316792726516724e-02,5.506303161382675171e-03,-4.633141309022903442e-02,-5.484206974506378174e-02,-1.398738265037536621e+00,2.669037692248821259e-02,5.354274809360504150e-02,3.348735347390174866e-02,3.050130046904087067e-02,-4.095435142517089844e-02,-9.545382857322692871e-02,5.405512452125549316e-02,8.485118746757507324e-01,-5.030300468206405640e-02,-5.690393969416618347e-03,1.346356719732284546e-01,2.642198652029037476e-02,-2.871376276016235352e-02,-5.681213736534118652e-02,2.837846428155899048e-02,6.178467720746994019e-02,-2.170534431934356689e-02,1.685304194688796997e-02,-3.308269381523132324e-02,-3.505067527294158936e-02,1.176319271326065063e-02,2.733925729990005493e-02,8.062832057476043701e-03,7.880230993032455444e-02,-4.861418902873992920e-02,3.703869879245758057e-02,2.818530499935150146e-01,8.234329521656036377e-03,1.147753000259399414e-02,-9.717012047767639160e-01,9.554230421781539917e-02,6.282296776771545410e-02,1.836264319717884064e-02,-9.470874071121215820e-02,5.518694967031478882e-02,2.444619685411453247e-02,1.844140142202377319e-02,6.253295540809631348e-01,2.115295976400375366e-01,1.895233988761901855e-02,-7.200881838798522949e-02,1.553076505661010742e-02,1.864863932132720947e-02,3.055649437010288239e-02,8.966845273971557617e-02,6.651602685451507568e-03,-8.557275868952274323e-03,-8.893175125122070312e-01,-4.413586109876632690e-02,-3.928519785404205322e-02,4.476921260356903076e-02,4.668213427066802979e-02,1.656435430049896240e-02,-7.495219260454177856e-02,-8.332229852676391602e-01,-3.730816245079040527e-01,-2.494394481182098389e-01,8.967295289039611816e-03,-1.727864891290664673e-02,1.208088397979736328e-01,1.019208040088415146e-02,1.267719548195600510e-03,-5.725789815187454224e-02,5.413883924484252930e-02,-6.151435431092977524e-03,-1.686158217489719391e-02,6.124058365821838379e-02,4.446370899677276611e-02,3.893481194972991943e-02,-1.173761248588562012e+00,5.261392146348953247e-02,5.383428931236267090e-02,5.563625693321228027e-02,3.634326159954071045e-02,6.024085357785224915e-02,-9.480106830596923828e-01,-1.692170202732086182e-01,5.414097756147384644e-02,2.706624567508697510e-02,4.325287044048309326e-02,4.107371717691421509e-02,2.928679287433624268e-01,6.994393467903137207e-02,5.281344801187515259e-02,5.465818196535110474e-02,2.122000753879547119e-01,-3.070397675037384033e-02,-4.232959449291229248e-02,7.635402027517557144e-03,-2.531768940389156342e-02,2.364900708198547363e-02,-1.359453082084655762e+00,-5.678309500217437744e-02,6.290347874164581299e-02,1.930782198905944824e-02,4.043546319007873535e-02,-4.552006348967552185e-02,-2.390133589506149292e-02,-2.976963669061660767e-02,-2.799107879400253296e-02,-2.441801577806472778e-01,2.022224944084882736e-03,-8.175848051905632019e-03,-3.901054337620735168e-02,5.522799491882324219e-01,-2.348266541957855225e-03,2.004805393517017365e-02,-5.234027653932571411e-02,-1.814100891351699829e-02,-9.738181531429290771e-02,-6.893383711576461792e-02,3.390672802925109863e-02,-3.510656952857971191e-02,-1.389518659561872482e-02,-4.719048738479614258e-04,2.763390354812145233e-02,-1.489061769098043442e-02,-6.147430092096328735e-02,-6.183179095387458801e-02,3.262399137020111084e-02,4.686869084835052490e-01,-6.298539042472839355e-01,-1.926422119140625000e-04,2.103599905967712402e-02,-5.879601091146469116e-02,5.778542719781398773e-03,-7.375056296586990356e-02,-1.874090917408466339e-02,1.926818862557411194e-02,-2.247412689030170441e-02,4.305148869752883911e-02,1.334897056221961975e-02,-4.068836569786071777e-04,4.836773127317428589e-02,-5.309990793466567993e-02,-2.435983903706073761e-02,-2.114991843700408936e-02,-2.653791755437850952e-02,-3.839939832687377930e-02,-3.980693966150283813e-02,-5.271047353744506836e-02,5.460719391703605652e-02,-2.947435677051544189e-01,-1.031930446624755859e-01,3.088808059692382812e-01,-6.847177743911743164e-01,3.533165901899337769e-02,5.029890686273574829e-02,-1.507361978292465210e-01,-4.251535236835479736e-02,6.801299005746841431e-02,-7.432448863983154297e-02,1.045205295085906982e-01,-2.268182672560214996e-02,8.913300931453704834e-03,3.179517015814781189e-02,1.411748677492141724e-02,-2.672093361616134644e-02,-5.641844496130943298e-02,-4.748201370239257812e-02,-1.032727003097534180e+00,-1.139141619205474854e-02,4.103428684175014496e-03,-9.285066626034677029e-04,-1.636170595884323120e-02,-1.369800120592117310e-01,-6.675060987472534180e-01,8.938893675804138184e-03,-4.310351610183715820e-02,-4.920122027397155762e-02,-4.033393412828445435e-02,-5.447072535753250122e-02,-3.766496106982231140e-02,-1.553103029727935791e-01,-1.673005819320678711e-01,1.156936679035425186e-02,-4.187526553869247437e-02,1.218108907341957092e-01,-2.518257498741149902e-02,-1.286100596189498901e-02,-2.994561791419982910e-01,-9.940195083618164062e-01,-3.003907948732376099e-02,-2.627884447574615479e-01,4.424072057008743286e-02,-2.401361614465713501e-02,-6.225670874118804932e-02,-1.431734114885330200e-02,2.881380543112754822e-02,-3.628269582986831665e-02,-2.463738992810249329e-02,-7.764877378940582275e-02,5.005087703466415405e-02,8.506864309310913086e-02,-4.862143099308013916e-02,-1.062013655900955200e-01,-1.271880418062210083e-02,1.646870374679565430e-02,4.950268566608428955e-02,2.232470363378524780e-02,-8.732229471206665039e-04,-2.028236538171768188e-02,-8.695442080497741699e-01,-2.722340077161788940e-02,4.549261182546615601e-02,1.014689207077026367e-01,-6.013093590736389160e-01,1.845457404851913452e-02,-8.999379724264144897e-02,1.225809007883071899e-02,6.818763911724090576e-03,-2.168791145086288452e-01,9.187616407871246338e-03,-3.825765103101730347e-02,1.981653273105621338e-02,2.406397610902786255e-01,4.187721014022827148e-02,-1.686586439609527588e-02,-1.216522976756095886e-02,3.001553006470203400e-02,-2.068661153316497803e-02,-5.856136977672576904e-02,-1.344475448131561279e-01,1.922693848609924316e-02,5.538433790206909180e-02,-3.332939743995666504e-02,1.132808625698089600e-02
-3.479076176881790161e-02,-3.591672703623771667e-02,4.201105982065200806e-02,3.241785615682601929e-02,-1.191370934247970581e-02,-6.368499249219894409e-02,-3.146345168352127075e-02,4.365529119968414307e-02,1.564798057079315186e-01,8.819946646690368652e-02,-2.861765213310718536e-03,-7.708453107625246048e-03,5.019866675138473511e-02,-7.792062312364578247e-02,3.677647188305854797e-02,-5.223722755908966064e-02,1.754718273878097534e-02,3.933630883693695068e-02,-4.014708846807479858e-02,-8.652152121067047119e-02,-5.812311545014381409e-02,1.395323127508163452e-02,-4.365696758031845093e-02,-5.794249475002288818e-02,6.790619343519210815e-03,1.022634096443653107e-02,-1.141158491373062134e-02,-9.875266253948211670e-02,-1.080975055694580078e+00,-2.171776257455348969e-02,-2.839152514934539795e-02,-1.236849557608366013e-02,-6.005050241947174072e-02,5.127068608999252319e-02,-5.820236634463071823e-03,-4.887037724256515503e-02,-1.448550671339035034e-01,2.985110878944396973e-02,-5.728023126721382141e-02,-7.331159710884094238e-02,-6.091178581118583679e-02,3.190166084095835686e-03,2.806843817234039307e-02,-2.358434256166219711e-03,4.242153838276863098e-02,-2.438099868595600128e-02,4.765011370182037354e-02,4.774661362171173096e-02,1.265563070774078369e-03,2.130289794877171516e-03,-5.244416743516921997e-02,-4.468395188450813293e-02,4.763930737972259521e-01,-2.356418967247009277e-02,1.395703852176666260e-02,9.797775745391845703e-02,-9.955763816833496094e-03,-4.808026552200317383e-02,-1.346468329429626465e+00,-2.224170975387096405e-02,3.204045444726943970e-02,6.649358570575714111e-02,-2.486550211906433105e-01,5.804362893104553223e-02,3.009115904569625854e-02,-6.564859300851821899e-02,2.002149373292922974e-01,8.059744238853454590e-01,-5.505409464240074158e-02,-3.003616258502006531e-02,3.425472229719161987e-02,-2.958203107118606567e-02,-4.172192513942718506e-02,-5.945773422718048096e-02,-2.068383246660232544e-02,-3.706488758325576782e-02,-4.066005349159240723e-01,-3.422800824046134949e-02,-5.959344282746315002e-02,-5.486095696687698364e-02,2.344845235347747803e-02,4.270882532000541687e-02,4.103917628526687622e-03,2.593161761760711670e-01,-4.415818452835083008e-01,4.193973168730735779e-02,2.689731121063232422e-02,-5.002014338970184326e-02,4.852844029664993286e-02,4.244361538439989090e-03,-1.585571169853210449e-01,6.465160101652145386e-02,-1.196545455604791641e-02,-2.428149245679378510e-02,5.622998625040054321e-02,-3.640223294496536255e-02,-2.033340185880661011e-02,-5.278117954730987549e-02,-1.508619546890258789e+00,5.836732685565948486e-03,5.180120095610618591e-02,2.644550055265426636e-02,-2.084399014711380005e-02,4.466670006513595581e-02,-4.250829517841339111e-01,-6.087835878133773804e-03,-2.001765929162502289e-02,-1.431623124517500401e-03,-6.208185106515884399e-02,-1.677647233009338379e-03,-1.907709479331970215e+00,-8.569845557212829590e-01,-2.939663827419281006e-03,4.637509584426879883e-02,-9.510899782180786133e-01,3.402145951986312866e-02,-2.557169646024703979e-02,6.079394370317459106e-02,1.498854905366897583e-02,-5.903217941522598267e-02,-9.305856823921203613e-01,-3.216982632875442505e-02,-3.024711087346076965e-02,-6.930605322122573853e-02,1.203703880310058594e-02,-4.623988270759582520e-02,2.534649707376956940e-02,-2.803804527502506971e-04,2.741487231105566025e-03,-3.291386961936950684e-01,4.785858094692230225e-02,4.559140279889106750e-02,1.456999033689498901e-01,5.435397028923034668e-01,-3.091438487172126770e-02,-1.376903802156448364e-02,-5.785350874066352844e-02,-6.887733936309814453e-03,-6.574492901563644409e-02,8.007667958736419678e-02,-5.618648976087570190e-02,-1.212673261761665344e-02,-6.765928864479064941e-02,-1.359726395457983017e-02,5.578375607728958130e-02,8.053418248891830444e-03,3.468833863735198975e-02,1.117413863539695740e-02,3.280305862426757812e-02,2.840861082077026367e-01,4.579078555107116699e-01,-3.058214485645294189e-02,4.528246819972991943e-03,-2.261383226141333580e-03,-1.287405192852020264e-02,5.476842820644378662e-02,-1.224821712821722031e-02,4.161866009235382080e-02,4.459750652313232422e-02,-4.465125501155853271e-03,-5.940464138984680176e-02,-5.384805798530578613e-02,7.551901042461395264e-03,-1.264695078134536743e-02,-2.139949239790439606e-02,7.294565439224243164e-04,-4.732295870780944824e-03,5.919548869132995605e-02,5.160277336835861206e-02,-1.533175259828567505e-02,-3.166719153523445129e-02,-1.561693251132965088e-01,-8.600474596023559570e-01,-1.266181170940399170e-01,2.086345106363296509e-01,-1.747649908065795898e-02,-1.934371888637542725e-03,7.069422006607055664e-01,-1.750008761882781982e-02,-3.613524883985519409e-02,-4.074609652161598206e-02,-8.551307916641235352e-01,2.937442436814308167e-02,4.494961351156234741e-02,4.292079061269760132e-02,-4.755071550607681274e-02,-4.280002415180206299e-02,-9.467585943639278412e-03,3.839186578989028931e-02,-5.439272522926330566e-01,-3.927282243967056274e-02,-6.247570365667343140e-02,1.654771715402603149e-02,-2.116065472364425659e-02,5.452848970890045166e-03,-7.928948104381561279e-02,7.111148536205291748e-02,-1.474656444042921066e-02,3.368656337261199951e-02,4.046985507011413574e-02,-3.413214534521102905e-02,1.837800256907939911e-02,-3.587260544300079346e-01,-8.086121082305908203e-01,-6.086781620979309082e-02,-8.356449194252490997e-03,3.114893734455108643e-01,3.985780477523803711e-02,-4.259747453033924103e-03,-1.332282871007919312e-01,3.739411234855651855e-01,-1.955171860754489899e-02,-1.771622538566589355e+00,1.651659607887268066e-02,-5.317794531583786011e-02,-2.324032783508300781e-02,3.893309086561203003e-02,4.408203437924385071e-02,-8.803233504295349121e-02,7.106190323829650879e-01,-5.520913749933242798e-02,-1.722949929535388947e-02,4.155415296554565430e-02,4.481784999370574951e-02,5.161526799201965332e-02,2.642419748008251190e-02,-1.394537836313247681e-02,8.921704441308975220e-02,2.901913970708847046e-02,-3.746958822011947632e-02,3.499124944210052490e-02,-1.282736659049987793e+00,-2.903382852673530579e-02,4.425048828125000000e-03,9.131851792335510254e-02,-1.617530360817909241e-02,-2.485518902540206909e-02,8.145532757043838501e-02,4.096790030598640442e-02,3.783489763736724854e-02,-2.984412908554077148e+00,3.322271257638931274e-02,-1.569337397813796997e-02,-5.644448846578598022e-02,-6.343331187963485718e-02,4.629044234752655029e-02,-2.997843176126480103e-02,-7.747463881969451904e-02,6.144331302493810654e-03,2.932809293270111084e-02,1.410566270351409912e-03,-1.734663695096969604e-01,7.691726787015795708e-04,1.780593395233154297e-02,-1.291856169700622559e-03,-5.023668706417083740e-02
