1.436416245996952057e-02,-3.489999100565910339e-02,-1.618353091180324554e-02,-3.616589307785034180e-02,-1.950488239526748657e-02,-1.655142754316329956e-02,2.577072940766811371e-02,-1.666775532066822052e-02,-1.176902279257774353e-02,2.793459780514240265e-02,-4.576801881194114685e-02,-5.104636028409004211e-02,1.132269576191902161e-02,-5.673636868596076965e-02,-8.332944475114345551e-03,-2.494998089969158173e-02,-3.476585075259208679e-02,-2.382331527769565582e-02,-2.647485584020614624e-02,-5.377924442291259766e-02,-2.147978870198130608e-03,-2.959356270730495453e-02,-6.459783762693405151e-02,1.471471786499023438e-02,-1.252324599772691727e-02,-1.629253849387168884e-02,-5.122641846537590027e-02,-1.938416995108127594e-02,-2.693406865000724792e-02,1.536933588795363903e-03,-6.225984916090965271e-02,-1.417391351424157619e-03,2.562029100954532623e-02,1.444160845130681992e-02,2.481254003942012787e-02,1.213073637336492538e-02,2.198199043050408363e-03,-4.807910695672035217e-02,-1.702263206243515015e-02,-4.622204694896936417e-03,-5.787701532244682312e-02,-4.667207133024930954e-03,8.018531836569309235e-03,-2.791512524709105492e-03,-2.436070702970027924e-02,-7.516708970069885254e-02,6.137040443718433380e-03,-1.565171591937541962e-02,-3.522044746205210686e-03,2.731872489675879478e-03,-1.837516762316226959e-02,-1.073504611849784851e-02,-1.690339297056198120e-02,-4.422583431005477905e-02,-1.064170524477958679e-02,1.133174449205398560e-02,3.361362265422940254e-03,-6.893652677536010742e-02,-2.309905551373958588e-02,-1.734810881316661835e-02,1.589967519976198673e-03,-1.889794506132602692e-02,-5.525960028171539307e-02,-3.795804455876350403e-02,-2.753336355090141296e-02,-5.292756482958793640e-02,-7.134602405130863190e-03,-5.752531811594963074e-02,2.445738017559051514e-02,-4.577999562025070190e-02,-1.479389332234859467e-02,-2.840468287467956543e-02,-3.744773939251899719e-02,-7.137276977300643921e-02,-2.680015563964843750e-02,-6.669276393949985504e-03,-3.502428904175758362e-02,-2.130861394107341766e-02,1.995256403461098671e-03,-3.579264972358942032e-03,-5.529440939426422119e-02,-5.371100082993507385e-02,-5.020750686526298523e-03,-1.668909564614295959e-02,9.030939079821109772e-03,-4.073017463088035583e-02,-6.559199839830398560e-02,7.334698457270860672e-04,-1.640332117676734924e-02,1.205318234860897064e-02,-8.008222095668315887e-03,2.631433121860027313e-02,-3.951838705688714981e-03,-7.130859047174453735e-02,-4.953348636627197266e-02,5.308972904458642006e-04,-4.994083568453788757e-02,9.592495858669281006e-03,-4.356845468282699585e-02,-7.271388173103332520e-02,-1.709270756691694260e-03,-1.952479593455791473e-02,-4.844016954302787781e-02,-4.005983471870422363e-02,-9.483884088695049286e-03,6.561869755387306213e-03,-1.899035088717937469e-02,-2.573660016059875488e-02,-2.328305272385478020e-03,-3.540061786770820618e-02,-3.963056206703186035e-02,-1.922431960701942444e-02,-3.273635357618331909e-02,6.334213539958000183e-03,-6.149976328015327454e-02,2.467405050992965698e-02,-3.340175375342369080e-02,-2.213505282998085022e-02,5.498432088643312454e-03,-6.544061470776796341e-03,-6.135907024145126343e-02,5.449862685054540634e-03,1.265259180217981339e-02,-3.061403520405292511e-02,-2.903243154287338257e-02,-5.311954300850629807e-03,-2.715538814663887024e-02,5.414633546024560928e-03,-1.031797472387552261e-02,7.791967131197452545e-03,-4.819907248020172119e-02,-5.756495147943496704e-02,-5.471076816320419312e-02,-1.949096098542213440e-02,-3.823991119861602783e-02,1.154185645282268524e-02,-5.331261456012725830e-02,-3.808809816837310791e-02,-2.877118997275829315e-02,-3.725852072238922119e-02,4.156014183536171913e-04,-6.673090904951095581e-02,-2.076553553342819214e-02,3.096173284575343132e-03,-6.384803447872400284e-03,1.177114900201559067e-03,-3.511445969343185425e-02,2.244082093238830566e-02,-4.313219338655471802e-03,-3.890002518892288208e-02,-6.804948300123214722e-02,-1.828987337648868561e-02,-6.318694353103637695e-02,-4.113833233714103699e-02,2.508176676928997040e-02,-6.702908873558044434e-02,-1.948031224310398102e-02,1.139390375465154648e-02,-1.083007548004388809e-02,-7.442032452672719955e-03,-7.018746435642242432e-02,9.363410063087940216e-03,1.073925755918025970e-03,-4.490530118346214294e-02,-2.457209303975105286e-02,6.089536473155021667e-03,-4.902901872992515564e-02,-2.028540708124637604e-02,-4.424183070659637451e-02,8.545743301510810852e-03,-6.710006855428218842e-03,-5.317092686891555786e-02,-7.448846846818923950e-02,1.430094148963689804e-02,-2.107556909322738647e-02,-3.763117594644427299e-03,-1.822082884609699249e-02,-5.754249170422554016e-02,2.511316351592540741e-02,1.245433837175369263e-02,-2.003847807645797729e-02,-2.692073211073875427e-02,-3.442083299160003662e-02,-3.202317282557487488e-02,-8.021991699934005737e-03,-7.852345705032348633e-02,-5.351883918046951294e-02,-3.070874698460102081e-02,-7.387712597846984863e-02,-3.279218450188636780e-02,-7.317608688026666641e-03,-5.106466356664896011e-03,-6.653600931167602539e-02,-6.687944382429122925e-02,-2.816489152610301971e-02,-1.901310123503208160e-02,-2.907835133373737335e-02,-4.177345428615808487e-03,-2.630658820271492004e-02,-3.562444075942039490e-02,1.515576243400573730e-02,-3.470769897103309631e-02,-4.915440827608108521e-02,-1.549252541735768318e-03,-3.656905144453048706e-02,2.399245742708444595e-03,-3.900698851794004440e-03,-1.104160491377115250e-02,-5.146702751517295837e-02,-6.322089582681655884e-03,-2.017019875347614288e-02,6.789343315176665783e-04,-6.284745037555694580e-02,4.231148865073919296e-03,1.040214672684669495e-02,1.876439712941646576e-02,-3.306274488568305969e-02,2.113942243158817291e-02,1.105004106648266315e-03,-2.219011634588241577e-02,-5.429760366678237915e-02,1.979064755141735077e-02,-3.454151749610900879e-02,-5.810258910059928894e-03,-6.854138523340225220e-02,2.625760063529014587e-02,8.144129067659378052e-03,-4.691663011908531189e-02,-7.596530765295028687e-02,-2.376764081418514252e-02,-3.174164146184921265e-02,-6.604702025651931763e-02,1.571036502718925476e-02,-1.314023882150650024e-02,-1.956079527735710144e-02,-5.978147312998771667e-02,-5.433866381645202637e-02,1.421259529888629913e-02,-7.813346385955810547e-02,-2.852885425090789795e-02,-3.657605126500129700e-02,1.526595838367938995e-02,-5.729956179857254028e-02,-6.255035847425460815e-02,-8.778409101068973541e-03,-3.995933569967746735e-03,-3.098965436220169067e-02,-6.237519159913063049e-02,-3.719969093799591064e-02,1.133321225643157959e-02,-2.018292248249053955e-02,-1.863500801846385002e-03,-1.922683231532573700e-02,-5.711241438984870911e-02,-6.992989033460617065e-02,3.976313769817352295e-02,-4.012138023972511292e-02,-3.016974218189716339e-02,-4.804297536611557007e-02,-5.189217627048492432e-02,-2.595497854053974152e-02,-5.546353012323379517e-02,5.088964942842721939e-03,-4.818697459995746613e-03,-5.109190195798873901e-02,-4.309996496886014938e-03,-5.448685213923454285e-02,-2.846355736255645752e-02,-1.061918772757053375e-02,-4.807607084512710571e-02,4.662117920815944672e-03,2.046836912631988525e-02,-5.691320076584815979e-02,1.474325731396675110e-02,-3.943235427141189575e-02,-3.259981423616409302e-02,-3.105822205543518066e-02,-6.764063239097595215e-02,-8.625611662864685059e-03,-7.406926900148391724e-02,-6.995661184191703796e-03,-4.732656106352806091e-02,-3.522901609539985657e-02,-7.566849887371063232e-02,-1.567094936035573483e-03,9.485417045652866364e-03,-2.950698696076869965e-02,2.629089169204235077e-02,2.364603802561759949e-02,-1.310113538056612015e-02,5.869891960173845291e-03,-1.915057189762592316e-02,-6.106803566217422485e-02,-2.070762775838375092e-02,-7.365670055150985718e-02,2.744361013174057007e-02,-1.494525466114282608e-02,-2.969524078071117401e-02,-6.408806890249252319e-02,-7.094469666481018066e-02,-4.307045042514801025e-02,-5.174800008535385132e-02,-4.462718591094017029e-02,-1.307831984013319016e-02,-5.140538886189460754e-02,-7.160226255655288696e-02,3.130620345473289490e-03,-2.732340432703495026e-02,-1.476977206766605377e-02,-4.995568841695785522e-02,1.203291211277246475e-02,-9.712794795632362366e-03,-3.743872418999671936e-02,-5.472171679139137268e-02,-5.397773906588554382e-02,1.797031424939632416e-02,-1.243025250732898712e-02,-2.367957262322306633e-03,2.527362667024135590e-02,-5.936063826084136963e-02,-3.386494517326354980e-02,6.916061975061893463e-03,1.965888368431478739e-04,-1.397435739636421204e-02,-4.582732450217008591e-03,-6.360796093940734863e-02,-1.052195206284523010e-02,-7.632835209369659424e-02,-4.358825832605361938e-02,2.250961586833000183e-02,-2.356620132923126221e-02,-7.075701653957366943e-02,-4.116231203079223633e-02,-5.736628547310829163e-03,-1.303392741829156876e-02,-2.571834251284599304e-02,7.024582941085100174e-03,-2.140127355232834816e-03,-5.957728624343872070e-02,-8.247051388025283813e-02,-4.281713068485260010e-02,-4.221609793603420258e-03,9.573386050760746002e-03,-5.465719848871231079e-02,-3.891839832067489624e-02,-7.489961571991443634e-03,-8.018413186073303223e-02,-1.763027347624301910e-02,-6.530049443244934082e-02,-4.460629075765609741e-02,1.022694259881973267e-02,-1.118493732064962387e-02,-6.477183103561401367e-02,-2.487129904329776764e-02,-7.514757663011550903e-02,-1.267321407794952393e-02,-2.695130556821823120e-02,-3.469380736351013184e-02,2.402566559612751007e-02,-6.081295385956764221e-02,-7.042158395051956177e-02,-4.709518700838088989e-02,-4.758386686444282532e-02,-6.122875958681106567e-02,-1.905179582536220551e-02,-3.499623015522956848e-02,-1.082255132496356964e-02,3.301040455698966980e-02,3.671093657612800598e-02,-3.663495182991027832e-02,-4.044391959905624390e-02,-5.481727421283721924e-02,-4.639432579278945923e-02,-4.164309054613113403e-02,-1.990494085475802422e-03,-4.634721577167510986e-02,1.607142761349678040e-02,-8.275234140455722809e-03,-5.264449492096900940e-02,3.984512388706207275e-02,-2.891451120376586914e-02,-6.061553582549095154e-02,-3.149127960205078125e-02,4.678562283515930176e-03,-4.907191917300224304e-02,-3.897534310817718506e-02,-4.545925557613372803e-02,1.936959102749824524e-02,-8.566469885408878326e-03,-3.381408005952835083e-02,-5.452034622430801392e-02,-3.349670395255088806e-02,-6.156133487820625305e-02,1.032016798853874207e-02,-6.854197382926940918e-02,-4.387790337204933167e-02,-1.307187415659427643e-02,-4.761088266968727112e-02,-6.595116853713989258e-02,-3.109247237443923950e-02,1.220520213246345520e-02,-3.314984217286109924e-02,-1.692583202384412289e-03,1.698835007846355438e-02,-1.628192514181137085e-02,-6.405630614608526230e-03,-4.439497739076614380e-02,1.392142288386821747e-02,-1.204263977706432343e-02,-4.459669068455696106e-02,1.532104983925819397e-02,-1.226676627993583679e-02,-2.218326926231384277e-02,-1.916216313838958740e-02,1.104065030813217163e-02,-3.106772899627685547e-03,-6.159952282905578613e-02,-4.199587926268577576e-02,-4.527673125267028809e-02,-5.298563092947006226e-02,1.233000075444579124e-03,-1.680413633584976196e-02,-4.627919942140579224e-02,6.859014742076396942e-03,-4.105581343173980713e-02,9.891940280795097351e-03,-3.222874552011489868e-02,-6.083517521619796753e-02,-8.683977648615837097e-03,1.263017207384109497e-02,-1.922898180782794952e-02,-7.252961397171020508e-02,1.744337007403373718e-02,1.257162820547819138e-02,-1.290798559784889221e-02,2.416524663567543030e-02,8.714712224900722504e-03,-3.141268715262413025e-02,-1.363688148558139801e-03,-1.225209515541791916e-02,2.944194898009300232e-02,-2.886627428233623505e-02,-3.112157247960567474e-02,1.176551356911659241e-02,-1.959031447768211365e-02,-2.096816524863243103e-02,-2.294565737247467041e-02,-9.224596433341503143e-04,-3.991791605949401855e-02,2.257087640464305878e-02,-4.426704254001379013e-03,-6.121283862739801407e-03,-1.391331385821104050e-02,-4.851152002811431885e-02,-3.975769132375717163e-02,1.758183166384696960e-02,-7.576601952314376831e-02,5.962454248219728470e-03,-2.526058256626129150e-02,-3.758144751191139221e-02,-7.056264579296112061e-02,-6.164697185158729553e-02,-1.936025172472000122e-02,-2.184376586228609085e-03,-3.795513883233070374e-02,-2.531084232032299042e-02,-4.394977539777755737e-02,-5.923412740230560303e-02,-3.877860680222511292e-02,1.073318626731634140e-02,-5.433666333556175232e-02,-1.474515534937381744e-02,-6.374072283506393433e-02,-1.542357448488473892e-02,-1.688894256949424744e-02,-1.007617078721523285e-02,-2.038668899331241846e-04,-1.651596650481224060e-02,-4.195055365562438965e-02,-2.041296102106571198e-02,-2.850001491606235504e-02,-4.800105467438697815e-02,1.828792318701744080e-02,-5.161817651242017746e-03,1.193623151630163193e-02,-2.563216723501682281e-02,-3.791887313127517700e-02,-7.943576201796531677e-03,2.940814942121505737e-03,3.326799720525741577e-02,-4.076341539621353149e-02,-3.900960087776184082e-02,-1.751776039600372314e-02,-7.915426045656204224e-03,-1.041337102651596069e-02,3.699636831879615784e-02,-2.188944816589355469e-02,5.372224375605583191e-03,-5.050546303391456604e-02,-2.604003995656967163e-02,-2.796244621276855469e-02,-7.241649180650711060e-02,-6.413802504539489746e-02,2.057814272120594978e-03,1.898167771287262440e-03,-5.096201971173286438e-02,-6.346786767244338989e-02,3.596000373363494873e-02,-1.166750676929950714e-02,3.949474170804023743e-02,-4.090470075607299805e-02,-3.287482773885130882e-03
-7.551057636737823486e-02,2.344166673719882965e-02,-1.778626814484596252e-02,2.703543379902839661e-02,-1.429689303040504456e-02,-2.243175357580184937e-02,-9.186969138681888580e-03,2.185878902673721313e-02,-4.368796199560165405e-02,-8.748409897089004517e-02,-5.162996053695678711e-02,2.896689437329769135e-02,-3.917370457202196121e-03,-6.064679846167564392e-02,3.383959457278251648e-02,-4.195033689029514790e-04,-6.157312542200088501e-02,-2.040284872055053711e-02,3.645078092813491821e-02,1.701910793781280518e-02,-7.985672913491725922e-03,-1.615968160331249237e-02,-1.503887772560119629e-02,4.725715189124457538e-05,-7.159607857465744019e-02,9.215779602527618408e-02,-3.958761319518089294e-02,4.345734603703022003e-03,-3.349011018872261047e-02,1.299659162759780884e-02,1.763073913753032684e-02,-7.532258331775665283e-02,-3.592533525079488754e-03,-5.158343538641929626e-02,2.394259534776210785e-02,-2.228211611509323120e-02,2.245070412755012512e-02,-4.002078622579574585e-02,-4.584776237607002258e-02,-7.555652409791946411e-02,-6.786453723907470703e-02,-2.224325202405452728e-02,-1.505761686712503433e-02,-3.762696310877799988e-02,-3.934500366449356079e-02,7.571600843220949173e-03,-3.519193455576896667e-02,-5.248648673295974731e-02,3.859655931591987610e-02,1.840050518512725830e-02,1.108846347779035568e-02,-8.718276396393775940e-03,-2.703437767922878265e-02,-1.285337610170245171e-03,-2.610262483358383179e-02,-3.606148809194564819e-02,-2.749850042164325714e-03,-1.218794193118810654e-02,1.636920869350433350e-02,8.164856582880020142e-03,1.046759076416492462e-02,4.351322539150714874e-03,2.360556460916996002e-02,-1.340847183018922806e-02,-7.727313321083784103e-03,-2.746662590652704239e-03,2.270462550222873688e-02,1.122568175196647644e-02,7.441697269678115845e-02,1.413372438400983810e-02,-5.563002545386552811e-03,-6.492745876312255859e-02,-9.785543195903301239e-03,-4.197967424988746643e-02,7.135678082704544067e-03,-2.390406839549541473e-02,-2.798535116016864777e-02,-4.650520160794258118e-02,-3.029467724263668060e-02,-2.103705145418643951e-02,-3.137940913438796997e-02,1.522607490187510848e-04,-4.859827458858489990e-02,-2.606000564992427826e-02,2.625579014420509338e-02,-6.601332128047943115e-02,-2.258299849927425385e-03,-1.140461023896932602e-02,-6.059025414288043976e-03,-1.356797106564044952e-02,-1.899788156151771545e-02,5.719232372939586639e-03,1.417737267911434174e-02,-1.696001365780830383e-02,-3.748432174324989319e-02,-5.297099426388740540e-02,-2.771309018135070801e-02,-4.118409380316734314e-02,-1.687252521514892578e-02,6.671467423439025879e-02,-3.907271847128868103e-02,-2.887002751231193542e-02,-5.192644149065017700e-02,2.331142686307430267e-02,-2.404231578111648560e-02,2.362893335521221161e-02,-1.488949055783450603e-03,-1.551122777163982391e-02,-2.909058239310979843e-03,-3.111167752649635077e-04,2.515197917819023132e-02,-1.669017225503921509e-02,2.487374655902385712e-02,-2.047557150945067406e-03,1.701822504401206970e-02,-2.449983917176723480e-02,-2.438037656247615814e-02,3.971766680479049683e-03,-3.384222835302352905e-02,-2.150856330990791321e-02,-3.979882597923278809e-02,6.306058727204799652e-03,-2.062015235424041748e-02,3.812305256724357605e-02,-4.847466945648193359e-02,3.495156764984130859e-02,2.172259055078029633e-02,2.652900293469429016e-03,-1.071872636675834656e-01,-6.595238298177719116e-02,2.716945484280586243e-02,-3.210020437836647034e-02,-5.809168331325054169e-03,3.945703431963920593e-02,4.828776698559522629e-03,-1.650757476454600692e-04,-2.019529789686203003e-02,4.076432064175605774e-02,-2.425748109817504883e-02,3.948595002293586731e-02,2.584899775683879852e-02,1.474338397383689880e-02,1.140084303915500641e-02,-1.226662937551736832e-02,-6.347075104713439941e-02,3.177995327860116959e-03,-2.520039118826389313e-02,3.883737698197364807e-02,-2.200674638152122498e-02,-8.353582583367824554e-03,2.660019509494304657e-02,-5.127438157796859741e-02,1.144338585436344147e-02,-1.233471278101205826e-02,-4.684275388717651367e-02,-1.902806013822555542e-02,-6.414730101823806763e-02,-2.690230682492256165e-02,4.232342913746833801e-02,-3.911628946661949158e-02,1.761000417172908783e-02,-5.030853673815727234e-02,-6.035856530070304871e-02,-1.239816658198833466e-02,-4.662094265222549438e-02,3.238450363278388977e-02,2.762915380299091339e-02,-4.492970183491706848e-02,1.670958846807479858e-02,1.645461842417716980e-02,1.005851943045854568e-02,-2.242354443296790123e-03,-3.719693049788475037e-02,3.095280146226286888e-03,-2.349059097468852997e-02,-4.161072894930839539e-02,4.159695282578468323e-02,1.424073986709117889e-02,-1.861202344298362732e-02,3.393242880702018738e-02,-4.490745719522237778e-03,7.546772807836532593e-02,-1.674836268648505211e-03,-2.638264186680316925e-02,1.033975058817304671e-04,-5.913676694035530090e-02,-5.366216879338026047e-03,-7.211919873952865601e-03,-2.154789119958877563e-02,-5.698472633957862854e-02,2.648546919226646423e-02,2.682766504585742950e-02,-2.659144811332225800e-03,1.726416125893592834e-02,-2.726216614246368408e-02,-1.171623263508081436e-02,2.529849484562873840e-02,1.571976207196712494e-02,7.660398725420236588e-03,-2.972601167857646942e-02,-3.065795265138149261e-02,-2.656711079180240631e-02,-3.928764536976814270e-02,-3.897520899772644043e-02,-7.163806259632110596e-02,-4.199569672346115112e-02,-2.047133445739746094e-02,3.418793156743049622e-02,-5.557442083954811096e-02,-4.268846288323402405e-02,-1.500116894021630287e-03,1.717153191566467285e-02,2.920350432395935059e-02,5.234059691429138184e-02,-5.601824820041656494e-02,-4.093969240784645081e-02,2.245681732892990112e-02,-2.424531057476997375e-02,4.234180226922035217e-02,-3.013111837208271027e-02,-3.913732245564460754e-02,-3.527444601058959961e-02,1.856124214828014374e-02,-3.293603658676147461e-02,2.634402923285961151e-02,2.192677184939384460e-02,1.379369385540485382e-02,-4.003730416297912598e-02,-4.694192856550216675e-02,-6.316452473402023315e-02,3.846672177314758301e-02,1.281433086842298508e-02,-6.128524988889694214e-02,-4.460651054978370667e-02,3.563166782259941101e-02,-6.962849199771881104e-02,-2.058466710150241852e-02,-1.367984246462583542e-02,-1.618928648531436920e-02,-4.810969904065132141e-02,-5.107463151216506958e-02,2.510874159634113312e-02,-4.017483908683061600e-03,-2.194464905187487602e-03,-3.011870197951793671e-02,2.962169423699378967e-02,1.156780309975147247e-02,-3.579093515872955322e-02,-4.473901540040969849e-02,-1.417387975379824638e-03,4.759983159601688385e-03,3.828463703393936157e-02,-1.633936353027820587e-02,-3.018214739859104156e-02,2.887235023081302643e-02,2.000714093446731567e-02,-3.963337838649749756e-02,-6.497710198163986206e-02,-5.062998086214065552e-02,2.132321521639823914e-02,-7.461727131158113480e-03,-1.209442503750324249e-02,-8.160644769668579102e-02,2.649297006428241730e-02,2.641890896484255791e-03,1.248902757652103901e-03,-2.077869139611721039e-02,2.273169718682765961e-02,3.029454872012138367e-02,1.481269393116235733e-02,1.877542585134506226e-02,-1.401851512491703033e-02,-3.390836343169212341e-02,1.279048714786767960e-02,-4.929334670305252075e-02,2.707893960177898407e-02,-3.412912413477897644e-02,-3.616923838853836060e-02,-2.692963182926177979e-02,1.560490054544061422e-04,-1.257297489792108536e-02,-2.438861504197120667e-02,4.124986007809638977e-02,2.681135199964046478e-03,1.363588683307170868e-02,-1.007779594510793686e-02,-1.769359968602657318e-02,-5.450924858450889587e-03,-6.244374904781579971e-03,-4.718297347426414490e-02,-1.084305066615343094e-02,6.136443698778748512e-04,-2.467750944197177887e-02,-1.615825295448303223e-02,-1.978357881307601929e-02,2.065774798393249512e-02,-4.471771419048309326e-02,9.199187159538269043e-03,1.544107217341661453e-02,-5.586381256580352783e-02,-4.027218371629714966e-02,-6.496626138687133789e-02,-3.677080571651458740e-02,-1.829141564667224884e-02,-4.567759484052658081e-02,-6.173682957887649536e-02,-2.164559438824653625e-03,2.220557816326618195e-02,-2.124894596636295319e-02,-3.179004415869712830e-02,3.641659393906593323e-02,-1.018684543669223785e-02,-2.412307634949684143e-02,7.782565895467996597e-03,-2.568610245361924171e-03,1.822368055582046509e-02,-6.581743806600570679e-02,-7.432933896780014038e-02,4.447063431143760681e-03,1.613066159188747406e-02,-3.311910480260848999e-02,-3.840943053364753723e-02,-1.623504608869552612e-01,3.579568117856979370e-02,-1.698310300707817078e-02,-4.076241329312324524e-02,-5.807141214609146118e-02,3.587221354246139526e-02,-3.872122988104820251e-02,4.524537548422813416e-02,-1.438560429960489273e-02,-1.885266276076436043e-03,1.713826321065425873e-03,3.359844535589218140e-02,1.963638467714190483e-03,-1.276836078613996506e-02,-8.197345584630966187e-02,-9.230439551174640656e-03,-9.236003458499908447e-02,-6.968586705625057220e-03,-2.584728784859180450e-02,3.673854097723960876e-02,-1.137853711843490601e-01,-2.393636479973793030e-02,2.995756268501281738e-02,-1.555026392452418804e-03,2.505758590996265411e-02,6.221184972673654556e-03,4.737711977213621140e-03,1.652969233691692352e-02,-2.600615099072456360e-02,4.092879965901374817e-02,-1.850776560604572296e-02,-6.625860184431076050e-02,-9.343807585537433624e-03,-3.701742738485336304e-03,-5.711306259036064148e-02,-8.978818543255329132e-03,-6.089748442173004150e-02,-1.519293058663606644e-02,2.743561379611492157e-02,1.243457384407520294e-02,1.783039979636669159e-02,-1.315326523035764694e-02,-3.264878317713737488e-02,-4.457683302462100983e-03,-4.228651057928800583e-03,-5.085182934999465942e-02,-4.044400528073310852e-02,-6.132006272673606873e-02,-8.000910282135009766e-03,-4.629161208868026733e-02,-4.230041801929473877e-02,2.690109983086585999e-02,-2.676900662481784821e-02,-4.599764943122863770e-02,3.127486258745193481e-02,-3.612882224842905998e-03,-1.830242015421390533e-02,4.081352055072784424e-02,-1.195064280182123184e-02,-2.806870033964514732e-03,-2.339632622897624969e-02,-3.631806001067161560e-02,3.735726326704025269e-02,2.037119865417480469e-02,2.946925722062587738e-02,1.362901553511619568e-02,-2.941519767045974731e-02,-1.467674598097801208e-02,2.168208919465541840e-02,-4.979483038187026978e-02,3.431340306997299194e-02,-2.482467703521251678e-02,-3.153299912810325623e-02,-3.856773674488067627e-02,-6.804129481315612793e-02,-1.015002839267253876e-02,1.862733066082000732e-02,-3.679146990180015564e-02,-2.952504158020019531e-02,2.739090472459793091e-03,4.523610696196556091e-03,-5.905854329466819763e-02,-3.121118620038032532e-02,-4.037644714117050171e-02,9.071226231753826141e-03,-3.401428088545799255e-02,-1.973676308989524841e-02,3.577038645744323730e-02,-3.305076807737350464e-02,-7.415346335619688034e-04,-3.526965156197547913e-02,-1.080662235617637634e-01,-3.223920986056327820e-02,-2.808610349893569946e-02,8.467923849821090698e-03,8.030607365071773529e-03,3.711307421326637268e-02,-3.466581553220748901e-02,2.929200604557991028e-02,1.862428151071071625e-02,4.045152664184570312e-02,-1.128887291997671127e-02,1.985658600460737944e-04,-1.280656177550554276e-02,-1.154630165547132492e-02,-3.779664263129234314e-02,-4.000137746334075928e-02,-5.515567213296890259e-02,3.652586834505200386e-03,3.774898126721382141e-03,-5.205217003822326660e-02,-3.773565217852592468e-02,-9.412455372512340546e-03,-2.438020147383213043e-02,-2.106036432087421417e-02,-3.523496910929679871e-02,-3.203867375850677490e-02,-2.184573933482170105e-02,-5.001178011298179626e-02,-1.796961948275566101e-02,2.583518996834754944e-02,1.508388295769691467e-02,-5.106076970696449280e-02,8.812954649329185486e-03,1.578235067427158356e-02,-4.512066021561622620e-02,2.487092837691307068e-02,3.526560962200164795e-02,-5.307346954941749573e-02,-2.818403020501136780e-02,-3.206092491745948792e-02,-2.036912739276885986e-02,-2.516843378543853760e-02,8.103040978312492371e-03,1.895174942910671234e-02,-3.936749324202537537e-02,-6.311115343123674393e-03,-3.010869212448596954e-02,2.240395918488502502e-02,-6.169332563877105713e-02,-4.310887679457664490e-02,-1.669692248106002808e-02,3.584078978747129440e-03,1.896308362483978271e-02,-1.483929157257080078e-02,-2.959922514855861664e-02,1.896299421787261963e-02,-3.386611863970756531e-02,-7.223008666187524796e-03,-3.061651252210140228e-02,-3.594654379412531853e-03,-1.427996344864368439e-02,-8.543439954519271851e-02,-6.082354858517646790e-02,-9.990736842155456543e-03,1.613358594477176666e-02,-1.706133224070072174e-02,1.065628230571746826e-02,-1.108905207365751266e-02,3.132829442620277405e-02,-5.118482559919357300e-02,2.018683776259422302e-02,1.312825977802276611e-01,7.853441685438156128e-02,-1.562050450593233109e-02,-3.155177459120750427e-02,4.906280711293220520e-02,2.407001145184040070e-02,-8.336357027292251587e-02,-5.531352479010820389e-03,-1.101055741310119629e-01,-2.665129490196704865e-03,-6.976017612032592297e-04,-9.878766722977161407e-03,-6.383771542459726334e-03,-3.538292273879051208e-02,2.115774340927600861e-02,-2.775072865188121796e-02,2.900852076709270477e-02,-5.819568410515785217e-02,-4.054063558578491211e-02,-9.887393563985824585e-02,1.233325246721506119e-02,-6.201329827308654785e-02,1.485052239149808884e-02,-1.191352214664220810e-02,2.536435239017009735e-02,1.850929483771324158e-02,-8.657094836235046387e-02,-5.088844895362854004e-02
3.015660447999835014e-03,-2.994706295430660248e-02,-3.332113847136497498e-02,-3.906156122684478760e-02,6.125675141811370850e-02,7.473483216017484665e-03,-2.394888363778591156e-02,3.198884893208742142e-03,-3.294769302010536194e-02,-4.157386254519224167e-03,5.050358548760414124e-02,-4.056890960782766342e-03,-3.529128059744834900e-02,-2.962454035878181458e-02,-6.854950916022062302e-04,-2.022428624331951141e-02,-2.344693802297115326e-02,4.385875537991523743e-03,-1.368035748600959778e-02,-5.072758346796035767e-02,-7.015313021838665009e-03,-1.136422902345657349e-02,-5.312658380717039108e-03,4.545481875538825989e-03,-6.499799340963363647e-02,-7.489445060491561890e-02,-3.445180132985115051e-03,-1.861859858036041260e-02,-6.404075026512145996e-02,-8.099076896905899048e-02,2.007713541388511658e-02,3.028065338730812073e-02,-3.544109314680099487e-02,-2.937624976038932800e-02,-1.314501557499170303e-02,6.519768387079238892e-02,-4.471617285162210464e-03,-5.199623480439186096e-02,-2.159868553280830383e-02,-2.154571376740932465e-02,-6.754207611083984375e-02,-7.435654290020465851e-03,-7.110869884490966797e-02,-2.397292852401733398e-02,-3.365400433540344238e-02,-2.223953418433666229e-02,1.227470859885215759e-02,-1.549369934946298599e-02,-2.516729757189750671e-02,-4.027410969138145447e-02,-6.259437650442123413e-02,-7.078436762094497681e-02,-4.047907516360282898e-02,-2.797216735780239105e-02,7.432401762343943119e-04,-1.141279563307762146e-02,-5.917226523160934448e-02,-4.666307196021080017e-02,8.259112015366554260e-03,4.849442280828952789e-03,-4.303813725709915161e-02,1.103423442691564560e-02,2.637386880815029144e-02,3.852684283629059792e-03,-7.370208203792572021e-02,-2.658300474286079407e-02,-4.428672417998313904e-02,-3.699617460370063782e-02,-1.132952421903610229e-02,-1.752066053450107574e-02,-2.274440042674541473e-02,-6.163409724831581116e-02,-4.877204447984695435e-02,-2.819889923557639122e-03,-6.441206485033035278e-02,-6.592209637165069580e-02,2.715622633695602417e-02,-5.844511836767196655e-02,-4.318829998373985291e-02,-6.325063854455947876e-02,-8.229523152112960815e-02,-1.589537225663661957e-02,-3.031843341886997223e-02,-1.266744080930948257e-02,-1.311846170574426651e-02,7.790823001414537430e-03,-2.820709720253944397e-02,-7.646526396274566650e-02,5.697897286154329777e-04,1.585148973390460014e-03,1.990342512726783752e-02,3.916275501251220703e-02,-6.893634051084518433e-02,-4.548730328679084778e-02,-2.529532462358474731e-02,-7.080377638339996338e-02,-2.032520482316613197e-03,-9.519882500171661377e-02,7.713900879025459290e-03,-1.617386005818843842e-03,-3.871554881334304810e-02,8.223419077694416046e-03,-4.755778238177299500e-02,2.635421697050333023e-03,-9.256849996745586395e-03,-7.023090124130249023e-02,1.573698222637176514e-02,-6.890004873275756836e-02,2.487626299262046814e-02,-3.602889925241470337e-02,-5.623026192188262939e-02,-4.053603485226631165e-02,5.051889922469854355e-03,3.745783120393753052e-02,-4.139991104602813721e-02,-2.869249321520328522e-02,4.718888178467750549e-02,-9.363991208374500275e-03,-5.118139833211898804e-02,-1.224163454025983810e-02,1.911751367151737213e-02,-1.957982592284679413e-02,-6.803414970636367798e-02,-4.010413587093353271e-02,-5.445701628923416138e-02,-3.006127080880105495e-04,-3.687502071261405945e-02,-1.440288126468658447e-02,-3.226798772811889648e-02,-3.633027896285057068e-03,1.981685124337673187e-02,-5.564586818218231201e-02,-4.012354090809822083e-02,3.178327158093452454e-02,-4.312565550208091736e-02,2.120644086971879005e-03,-9.026177972555160522e-02,-2.109746634960174561e-02,-5.999966338276863098e-02,-4.203703999519348145e-02,-6.750898063182830811e-02,-3.854893893003463745e-02,-4.194791615009307861e-02,-4.802267253398895264e-02,-3.593372181057929993e-02,-1.828973367810249329e-02,-7.475370913743972778e-02,3.265989571809768677e-02,-6.399198435246944427e-03,-2.949757268652319908e-03,2.644030191004276276e-02,-5.482272803783416748e-02,3.187781199812889099e-02,-3.652660921216011047e-02,-6.834881752729415894e-02,2.505108341574668884e-02,-7.487914711236953735e-02,-3.658210486173629761e-02,2.850503288209438324e-02,-3.687730524688959122e-03,-1.761919818818569183e-02,-1.193268317729234695e-02,-1.709255576133728027e-02,2.165132574737071991e-02,2.477671019732952118e-02,3.870851825922727585e-03,-6.782005727291107178e-02,-2.442290075123310089e-02,-6.616453081369400024e-02,3.210924938321113586e-02,-3.344298899173736572e-02,3.439859673380851746e-02,-4.909937828779220581e-02,-7.348728924989700317e-02,7.827649824321269989e-03,1.503331027925014496e-02,-6.187680363655090332e-02,1.504763588309288025e-02,-2.519469335675239563e-02,-1.841413974761962891e-02,-5.007741041481494904e-03,-2.064877748489379883e-02,-1.528737973421812057e-02,2.837384352460503578e-03,-5.894626304507255554e-02,-3.571645915508270264e-02,-2.824667096138000488e-02,-7.588887587189674377e-03,-6.408805958926677704e-03,-4.217259213328361511e-02,-3.917571622878313065e-03,-8.864561095833778381e-03,-4.257956519722938538e-02,-3.906175121665000916e-02,-4.016168043017387390e-02,-1.320469565689563751e-02,-5.809705471619963646e-04,-3.428992058616131544e-04,-7.751417811959981918e-03,-9.322622790932655334e-04,2.232827246189117432e-02,-3.439370170235633850e-02,-7.400573045015335083e-02,-1.805895939469337463e-02,-2.621233463287353516e-02,9.998193010687828064e-03,-4.438135027885437012e-02,-4.932700842618942261e-02,-1.504679210484027863e-02,-1.621858333237469196e-03,-2.643553912639617920e-02,1.980597525835037231e-02,7.318349182605743408e-02,1.886120066046714783e-02,-9.226212278008460999e-03,1.942444965243339539e-02,-2.486994862556457520e-02,-1.069246046245098114e-02,-4.795576632022857666e-02,9.666499681770801544e-03,-4.440877586603164673e-02,-2.639111597090959549e-03,-7.394113391637802124e-02,5.948931211605668068e-04,-4.397663846611976624e-02,1.671325997449457645e-03,-2.957107871770858765e-02,-3.535004332661628723e-02,-3.117559850215911865e-02,-3.787564486265182495e-02,-1.938576227985322475e-03,-3.605779632925987244e-02,-3.080089017748832703e-02,-2.894425764679908752e-03,-6.444180011749267578e-02,6.083045527338981628e-02,-9.317563846707344055e-03,-5.790720880031585693e-02,-7.475699484348297119e-02,-5.427135154604911804e-02,-8.498718589544296265e-02,-1.925926096737384796e-02,-3.035680274479091167e-04,-6.398168951272964478e-02,5.471323383972048759e-04,-3.607211261987686157e-02,4.520749673247337341e-02,-9.836279787123203278e-03,5.988148972392082214e-03,3.062953241169452667e-02,-3.884999081492424011e-02,6.656241137534379959e-03,4.615376889705657959e-02,-2.380952425301074982e-02,1.700530946254730225e-02,-5.176876857876777649e-02,-6.256403401494026184e-03,-9.205451607704162598e-02,-7.766085863113403320e-02,-4.328671097755432129e-02,-3.847725456580519676e-03,1.270487206056714058e-03,-3.773501887917518616e-02,1.261633541435003281e-02,-2.989467792212963104e-02,-5.169894918799400330e-02,2.298794500529766083e-02,-1.078126113861799240e-02,1.879154145717620850e-02,-4.189571738243103027e-02,-4.186215624213218689e-02,-6.945186853408813477e-02,-4.581574350595474243e-02,8.528303354978561401e-03,-2.224699966609477997e-02,-3.756328718736767769e-03,8.295514620840549469e-03,-8.189631998538970947e-02,-4.689726233482360840e-02,-7.467400282621383667e-02,-5.476203188300132751e-02,1.550387870520353317e-02,-1.354243024252355099e-03,-7.913131266832351685e-02,-5.004724115133285522e-02,-3.075754828751087189e-02,6.589948199689388275e-03,-4.841922968626022339e-02,-2.984084747731685638e-02,-2.764675766229629517e-03,-2.285557985305786133e-02,-2.427583001554012299e-02,1.330437604337930679e-03,-9.624346275813877583e-04,7.399607449769973755e-02,-2.183692343533039093e-02,-6.475973129272460938e-02,-4.016594961285591125e-03,2.908402308821678162e-02,9.914440102875232697e-03,-1.423466950654983521e-02,-9.465550072491168976e-03,-9.127122908830642700e-02,-7.159260660409927368e-02,-3.455916792154312134e-02,-2.073662914335727692e-02,-1.995116099715232849e-02,5.321826785802841187e-03,-8.222605683840811253e-04,-2.185732871294021606e-02,-7.264811079949140549e-03,-4.274168983101844788e-02,-7.623554021120071411e-02,-4.011051356792449951e-02,-1.899337023496627808e-02,-2.751052193343639374e-02,-8.248895406723022461e-03,2.406092919409275055e-02,-2.723341342061758041e-03,7.958313077688217163e-02,-9.845157153904438019e-03,-3.532479330897331238e-02,-1.504452154040336609e-02,-4.279581084847450256e-02,-1.105171162635087967e-02,-4.978857934474945068e-02,-5.063917487859725952e-02,1.089628506451845169e-02,-6.171907857060432434e-02,-4.048435762524604797e-02,-1.405508257448673248e-02,-2.512709703296422958e-03,-3.704073280096054077e-02,-5.207820981740951538e-02,6.021955050528049469e-03,-8.794918656349182129e-03,-6.215234287083148956e-03,-2.266723662614822388e-02,-5.030759423971176147e-02,-4.455871134996414185e-02,-4.268864169716835022e-03,9.272990864701569080e-04,2.287650853395462036e-02,6.744853407144546509e-02,5.130956321954727173e-02,1.320449914783239365e-02,-4.207969456911087036e-02,-1.281850598752498627e-02,-9.700721129775047302e-03,-1.423777546733617783e-02,-4.815585911273956299e-02,-5.017550662159919739e-02,-5.174492020159959793e-03,2.544420398771762848e-02,-2.551625482738018036e-02,-2.714356034994125366e-02,-8.098153769969940186e-02,-8.501124382019042969e-02,-1.653409749269485474e-02,5.387213546782732010e-03,-7.048796862363815308e-03,-6.915161758661270142e-02,-2.076638489961624146e-02,-6.041171029210090637e-03,7.355846464633941650e-02,-4.392677173018455505e-02,-4.267866536974906921e-02,-4.125629365444183350e-02,-6.450855731964111328e-02,-5.666525661945343018e-02,1.379155460745096207e-02,-5.908193811774253845e-02,-7.994267344474792480e-02,6.507560145109891891e-03,-6.936955451965332031e-02,-3.227802738547325134e-02,8.853846229612827301e-03,-7.616733759641647339e-02,-3.896800056099891663e-02,-3.110503219068050385e-02,-1.659973151981830597e-02,-6.003964692354202271e-02,-3.715008869767189026e-02,-3.979638591408729553e-02,-2.295480482280254364e-02,-6.201580166816711426e-03,-4.744515940546989441e-02,-9.426977485418319702e-03,-4.575854539871215820e-02,-1.099288463592529297e-02,2.188017778098583221e-02,-9.290703386068344116e-02,4.349104594439268112e-03,-2.385687269270420074e-02,3.113883920013904572e-02,-2.330913022160530090e-02,3.106818301603198051e-03,-8.646171540021896362e-02,-9.226425737142562866e-02,2.427903190255165100e-02,1.932541094720363617e-02,-8.064971864223480225e-02,-4.847051203250885010e-02,-6.421779096126556396e-02,1.276103220880031586e-02,-6.368251889944076538e-02,-5.746557936072349548e-02,-3.827564418315887451e-02,3.232920169830322266e-02,-3.761404007673263550e-02,-2.428719773888587952e-02,-1.381869893521070480e-02,-7.790645211935043335e-02,-4.697107896208763123e-02,-3.475770726799964905e-02,-5.537441931664943695e-03,1.142809167504310608e-02,-3.188636898994445801e-02,-4.285274446010589600e-02,-2.666296064853668213e-02,-4.373747110366821289e-02,-5.469981580972671509e-02,4.705460369586944580e-02,-1.715957373380661011e-02,-1.328894286416471004e-04,-3.686558827757835388e-02,-6.427067518234252930e-02,-3.671706467866897583e-02,-3.859841078519821167e-02,-1.581597700715065002e-02,-6.000896170735359192e-02,2.553823217749595642e-02,-3.305688872933387756e-02,2.668560110032558441e-02,-1.596943102777004242e-02,-1.344176940619945526e-03,4.954132810235023499e-02,-8.935315534472465515e-03,-5.580954626202583313e-02,-3.400342911481857300e-02,6.175781041383743286e-02,2.511440310627222061e-03,-3.529992327094078064e-02,1.737623848021030426e-02,-4.903919249773025513e-02,-1.965520903468132019e-02,-7.459667325019836426e-02,-5.191744863986968994e-02,-6.623595207929611206e-02,-2.048110123723745346e-03,-8.000721782445907593e-02,-5.523901805281639099e-02,-6.344881653785705566e-02,-4.509312286972999573e-02,-2.078044414520263672e-02,-7.956804335117340088e-02,3.909971565008163452e-03,-3.186143003404140472e-03,-3.440843895077705383e-02,7.198609877377748489e-03,2.471950463950634003e-02,-1.141508482396602631e-02,7.427085191011428833e-03,-2.848917990922927856e-02,-2.391986735165119171e-02,-1.852704770863056183e-02,3.157052397727966309e-02,-5.601086840033531189e-02,-4.746457189321517944e-02,1.422141585499048233e-02,-3.572573140263557434e-02,1.595672406256198883e-02,-2.751840651035308838e-02,-1.291953679174184799e-02,-6.108276546001434326e-02,-1.426711585372686386e-02,1.594715402461588383e-03,-5.363899096846580505e-02,-8.858008310198783875e-03,-5.480144172906875610e-02,5.418552830815315247e-02,-7.049364503473043442e-03,1.681389659643173218e-02,-1.682020490989089012e-03,-6.992249190807342529e-02,-4.205459356307983398e-02,-3.149466961622238159e-02,-3.039666265249252319e-02,-4.800176247954368591e-02,3.734337165951728821e-03,-5.553280469030141830e-03,2.027359604835510254e-02,-1.615326479077339172e-02,-4.116805270314216614e-02,-5.853309109807014465e-02,-2.200114913284778595e-02,-7.227364182472229004e-02,-3.514663875102996826e-02,-5.447318032383918762e-02,-4.286741092801094055e-02,-2.495607361197471619e-02,-1.980583742260932922e-02,-4.384376481175422668e-02,-1.982952281832695007e-02,-5.339528247714042664e-02,3.495800867676734924e-02,-2.229013107717037201e-02,-8.824595250189304352e-03,-1.649866811931133270e-02,2.914909273386001587e-02,-2.663038484752178192e-02,-9.399211965501308441e-03
-5.734791234135627747e-02,-1.686900667846202850e-02,-2.173436619341373444e-02,-1.806958578526973724e-02,3.729627234861254692e-03,-4.388267546892166138e-02,-5.732669308781623840e-02,9.026301093399524689e-03,-2.654519164934754372e-03,-9.479128755629062653e-03,6.187152117490768433e-03,-1.708099618554115295e-03,-3.336106240749359131e-02,-5.935523658990859985e-02,-6.676013115793466568e-03,3.029815666377544403e-02,-3.162868693470954895e-02,2.238928526639938354e-02,1.154904253780841827e-02,-2.396440319716930389e-02,2.285571955144405365e-02,-4.299483820796012878e-02,-3.604433313012123108e-02,-4.238997772336006165e-02,-1.540848333388566971e-02,-4.231214150786399841e-02,-1.147524546831846237e-02,-3.501501679420471191e-02,-9.694303385913372040e-03,2.035851962864398956e-02,-6.287845969200134277e-02,-2.705351822078227997e-02,-3.437687084078788757e-02,-2.997345291078090668e-02,5.359498318284749985e-03,1.956714875996112823e-02,1.140725566074252129e-03,1.386223640292882919e-02,-3.303522616624832153e-02,-1.779110729694366455e-02,2.335269376635551453e-02,-2.198954857885837555e-02,-1.895436085760593414e-02,-3.273453563451766968e-02,-3.432486578822135925e-02,-6.246345117688179016e-02,3.682081773877143860e-02,-5.035824701189994812e-02,-2.073528477922081947e-03,-3.603893890976905823e-02,-1.585978828370571136e-02,-2.075157128274440765e-03,-4.490758106112480164e-02,-3.799453750252723694e-02,-3.933921921998262405e-03,-3.030217625200748444e-02,3.447775496169924736e-03,3.989814594388008118e-02,-2.624226920306682587e-02,1.350203808397054672e-02,-5.071224272251129150e-02,-2.829577401280403137e-02,-2.489560097455978394e-02,-1.804667897522449493e-02,-4.022742621600627899e-03,2.164592966437339783e-02,1.664607040584087372e-02,-1.455458160489797592e-02,1.329277176409959793e-02,-5.665584281086921692e-02,-4.948627948760986328e-02,5.342076066881418228e-03,-3.804692253470420837e-02,-6.195771694183349609e-02,-3.254096955060958862e-02,2.844776958227157593e-03,4.311160650104284286e-03,-3.196837380528450012e-02,-1.738085970282554626e-02,2.972718887031078339e-02,-4.600711911916732788e-02,-2.258480526506900787e-02,-1.521730702370405197e-02,3.490769863128662109e-02,-5.397092550992965698e-02,4.333562683314085007e-03,-2.092090807855129242e-02,8.129241876304149628e-03,-2.165325731039047241e-02,1.631937921047210693e-02,2.515695802867412567e-02,2.133697830140590668e-02,3.141706064343452454e-02,-3.824157267808914185e-02,1.847759936936199665e-03,-4.158765822649002075e-02,-6.032208725810050964e-02,-4.353033006191253662e-02,1.447246409952640533e-02,-2.413520775735378265e-02,4.493449348956346512e-03,-2.856573276221752167e-02,2.261246554553508759e-02,-3.216601163148880005e-02,-1.889575459063053131e-02,-2.016310580074787140e-02,-1.363217271864414215e-02,-3.945480287075042725e-02,-5.098114162683486938e-02,-1.831929013133049011e-02,6.851292215287685394e-03,3.331382200121879578e-02,3.021018579602241516e-02,2.662288397550582886e-02,-2.306919731199741364e-02,1.838182099163532257e-03,-3.690678998827934265e-02,-2.926332131028175354e-02,2.414621971547603607e-02,2.009951509535312653e-03,1.383567787706851959e-02,7.238510297611355782e-04,-5.076030269265174866e-02,-2.336669713258743286e-02,-2.047008462250232697e-02,-3.754971176385879517e-02,-3.347265766933560371e-03,-5.480765551328659058e-02,-1.126223336905241013e-02,-9.282115846872329712e-03,2.316546626389026642e-02,-6.064554303884506226e-02,-2.671915106475353241e-03,-2.894336730241775513e-02,3.182843700051307678e-02,-1.318443845957517624e-02,-1.916963420808315277e-02,-3.665290027856826782e-02,-5.859401077032089233e-02,-2.105727978050708771e-02,3.415491431951522827e-02,-2.249285019934177399e-02,-1.946863532066345215e-02,9.292942471802234650e-03,-7.425720803439617157e-03,-1.311719510704278946e-02,-6.172799691557884216e-02,4.260956775397062302e-03,-4.626587033271789551e-02,1.433185767382383347e-02,-3.171410784125328064e-02,2.022625133395195007e-02,-4.686995875090360641e-03,-3.626892715692520142e-02,7.838777266442775726e-03,-4.279651865363121033e-02,-2.690592035651206970e-02,3.964232280850410461e-03,-1.750514097511768341e-02,-4.959641396999359131e-02,-5.116188526153564453e-02,-1.287484541535377502e-02,-2.433029003441333771e-02,2.059846557676792145e-02,-4.645483195781707764e-02,3.932753950357437134e-02,-9.673860622569918633e-04,2.060405537486076355e-02,-2.887195535004138947e-02,-3.747737035155296326e-02,-1.292269211262464523e-02,-7.286784239113330841e-03,-3.805107995867729187e-02,-5.209842324256896973e-02,-3.525410220026969910e-02,2.360794460400938988e-03,8.252068422734737396e-03,5.604024045169353485e-03,-6.656673736870288849e-03,-1.637497171759605408e-02,-3.446525335311889648e-02,-3.258328512310981750e-02,8.617402054369449615e-03,-2.952412702143192291e-02,-3.621524199843406677e-02,-3.188919974491000175e-03,-5.558320786803960800e-03,2.196793910115957260e-03,1.054845470935106277e-02,3.350273519754409790e-02,-1.983770541846752167e-02,1.035771984606981277e-02,1.979076676070690155e-02,-4.611326381564140320e-03,-4.267943650484085083e-02,-2.385014668107032776e-02,-2.299484051764011383e-02,1.519656740128993988e-02,-2.907245419919490814e-02,-5.168351344764232635e-03,4.443315789103507996e-03,-5.051150545477867126e-02,6.253500469028949738e-03,-3.573130816221237183e-03,-4.573830869048833847e-03,-4.552316386252641678e-03,2.269160933792591095e-02,-4.517884179949760437e-02,-5.395893380045890808e-02,-3.447885438799858093e-02,4.901630803942680359e-03,-3.875858336687088013e-02,-3.464385494589805603e-02,1.877336576581001282e-02,-5.095358192920684814e-02,-3.596311062574386597e-02,-1.384729985147714615e-02,-2.318092435598373413e-02,1.803896762430667877e-02,-3.589804098010063171e-02,-1.912493072450160980e-02,1.083337934687733650e-03,-6.080151535570621490e-03,-1.127221621572971344e-02,-3.413714095950126648e-02,1.264776568859815598e-02,-9.323567152023315430e-03,-2.605621330440044403e-02,1.653314754366874695e-02,-4.366562515497207642e-02,-7.582493592053651810e-03,4.131606779992580414e-03,-2.573111094534397125e-02,-1.222244114615023136e-03,2.086874842643737793e-02,-3.866912052035331726e-02,-3.775948658585548401e-02,2.585758082568645477e-02,1.003840123303234577e-03,-3.638824447989463806e-02,5.760376341640949249e-03,1.048189494758844376e-02,4.052071832120418549e-03,-2.001075074076652527e-02,-1.470797136425971985e-02,-2.926928922533988953e-02,-1.606274396181106567e-02,-5.149380862712860107e-02,1.969367638230323792e-02,-2.276843786239624023e-02,-2.091953717172145844e-02,-5.004402622580528259e-02,5.780499894171953201e-03,9.435257874429225922e-03,-5.089281126856803894e-02,-2.873287536203861237e-03,-2.328675426542758942e-02,-1.326852478086948395e-02,3.611805383116006851e-03,-2.564536035060882568e-02,-1.332805212587118149e-02,-3.925573080778121948e-02,-2.509954199194908142e-02,-8.408223278820514679e-03,3.652901574969291687e-02,8.062107488512992859e-03,4.201287776231765747e-02,3.956888243556022644e-02,5.808367859572172165e-03,-2.541048079729080200e-02,5.040190648287534714e-03,-2.701232582330703735e-02,-2.364696562290191650e-02,-5.245921760797500610e-02,-2.209175936877727509e-02,-1.373225171118974686e-02,-5.940665304660797119e-02,-1.186791993677616119e-02,2.063207328319549561e-02,-1.349097955971956253e-02,2.052433416247367859e-02,1.092088595032691956e-02,-4.756418988108634949e-02,1.621889322996139526e-02,-4.592254757881164551e-02,1.321527548134326935e-02,4.128720611333847046e-02,-3.256744891405105591e-02,-4.130197223275899887e-03,7.188803516328334808e-03,-4.237199574708938599e-02,-2.998341247439384460e-02,-4.973143339157104492e-02,-2.763806656002998352e-02,-3.592248633503913879e-02,-1.553681865334510803e-02,3.562165051698684692e-02,-1.531567773781716824e-03,-3.486157627776265144e-03,-2.449196577072143555e-02,-7.020153570920228958e-03,3.168374998494982719e-03,-1.318425592035055161e-02,1.710926182568073273e-02,-4.592870920896530151e-02,-1.443109847605228424e-02,3.638621792197227478e-02,-1.793774031102657318e-02,-1.122499629855155945e-02,-5.366836488246917725e-02,4.208696261048316956e-02,1.117198634892702103e-02,-2.737163752317428589e-02,-3.481090813875198364e-02,2.216641791164875031e-02,-1.924644783139228821e-02,-2.757290005683898926e-02,-2.187640592455863953e-02,-1.249261666089296341e-02,-4.248506203293800354e-02,-2.595080994069576263e-02,1.687211357057094574e-02,-3.072749637067317963e-02,-3.780361439567059278e-04,-2.862683497369289398e-02,-4.977796226739883423e-02,-4.841645713895559311e-03,2.436405047774314880e-02,-3.945346549153327942e-02,-5.548888817429542542e-02,-4.378202185034751892e-02,-1.088542118668556213e-02,2.131560072302818298e-02,3.049488738179206848e-02,-5.612304434180259705e-02,1.545229926705360413e-02,1.293667498975992203e-02,2.500419504940509796e-02,1.619603298604488373e-02,-5.275908485054969788e-02,2.494483813643455505e-02,-4.338830336928367615e-02,-3.971290960907936096e-02,3.101405315101146698e-02,-3.268534317612648010e-02,-3.292273730039596558e-02,3.018250130116939545e-02,-2.200018055737018585e-02,1.162911579012870789e-02,-1.220598164945840836e-02,7.845581509172916412e-03,-2.322426624596118927e-02,2.006117254495620728e-02,-2.098183520138263702e-02,-3.679309785366058350e-02,2.080573886632919312e-02,8.396332152187824249e-03,8.753902278840541840e-03,-7.876305840909481049e-03,-2.774040773510932922e-02,8.867427706718444824e-03,2.017996273934841156e-03,-4.684972018003463745e-02,-2.462833188474178314e-02,-4.610775504261255264e-03,-4.253805428743362427e-02,-8.993009105324745178e-03,7.546448614448308945e-03,-3.146978840231895447e-02,-3.588330373167991638e-02,2.882672101259231567e-02,4.118564724922180176e-02,-3.360399976372718811e-02,1.946114934980869293e-02,2.186367288231849670e-02,-2.275056205689907074e-02,4.169436916708946228e-02,-3.065957315266132355e-02,3.003423847258090973e-02,-2.331914566457271576e-02,-3.520643338561058044e-02,-3.820181265473365784e-02,-6.070784479379653931e-02,-6.088716536760330200e-02,2.004044875502586365e-02,-5.231545772403478622e-03,1.165529713034629822e-03,-1.373368967324495316e-02,-3.530617430806159973e-02,-3.812674805521965027e-02,2.242498286068439484e-02,-6.034475192427635193e-02,-5.959893018007278442e-02,-1.809435896575450897e-02,-1.515549048781394958e-02,-2.251815982162952423e-02,-2.337666787207126617e-02,-5.032999441027641296e-02,9.424867108464241028e-03,-3.287569060921669006e-02,3.129527438431978226e-03,-2.977140061557292938e-02,-5.022862553596496582e-02,-3.292755037546157837e-02,-1.479856856167316437e-02,-4.642137885093688965e-02,7.481644861400127411e-04,-4.633738100528717041e-02,2.677645534276962280e-02,1.557170040905475616e-02,2.517307363450527191e-02,-4.915461316704750061e-02,9.143726900219917297e-03,-4.026502370834350586e-02,1.752034015953540802e-02,-6.100376695394515991e-02,-2.110012993216514587e-02,1.474014855921268463e-02,-1.248070877045392990e-02,1.390970312058925629e-02,-1.334815472364425659e-02,2.117987722158432007e-02,4.217266396153718233e-04,2.674114704132080078e-02,-1.466323621571063995e-02,-3.420785441994667053e-02,-4.946913942694664001e-02,-7.479537744075059891e-03,2.400058321654796600e-02,2.200709655880928040e-02,-2.666219137609004974e-02,-3.254183009266853333e-02,1.924656145274639130e-02,3.601755201816558838e-02,-1.365270745009183884e-02,-5.447869189083576202e-03,-3.019410185515880585e-02,7.997733191587030888e-04,-2.918849140405654907e-02,1.112887170165777206e-02,1.605877652764320374e-02,-3.484340384602546692e-02,2.364202588796615601e-02,3.392042592167854309e-02,1.701504550874233246e-02,-5.678447708487510681e-02,2.177500352263450623e-02,9.086941368877887726e-03,-1.187134440988302231e-02,4.473124165087938309e-03,1.475429814308881760e-02,-7.494892925024032593e-03,-3.104567993432283401e-03,1.764933392405509949e-02,8.462892845273017883e-03,-3.620887291617691517e-04,-2.644449099898338318e-02,-1.879316382110118866e-02,9.829766117036342621e-03,-1.559094339609146118e-02,-1.188597455620765686e-02,1.366288401186466217e-03,3.892227541655302048e-03,-4.247105866670608521e-02,-2.189460396766662598e-02,-3.746373578906059265e-02,-1.243838295340538025e-02,-1.204897370189428329e-02,-1.472430396825075150e-02,-6.410365458577871323e-03,-1.444783434271812439e-02,1.677944511175155640e-02,1.797236502170562744e-02,3.639283776283264160e-02,-9.795714169740676880e-03,1.382928155362606049e-02,-4.773931112140417099e-03,-3.905411809682846069e-02,-5.230244621634483337e-02,-8.357825572602450848e-04,1.594686880707740784e-02,2.956837415695190430e-02,1.296573877334594727e-02,1.907265000045299530e-02,3.873744234442710876e-02,-2.669610083103179932e-02,-3.953943401575088501e-02,7.355555891990661621e-03,5.904773206566460431e-05,-4.246463999152183533e-02,-2.039458788931369781e-02,-4.224494565278291702e-03,4.199800640344619751e-02,-1.427145488560199738e-02,-2.487496286630630493e-02,-4.651406779885292053e-02,-4.671740904450416565e-02,-4.118651524186134338e-02,-1.265787146985530853e-02,6.374363321810960770e-03,3.062277287244796753e-02,1.852922327816486359e-02,-2.401934191584587097e-02,2.295579761266708374e-02,8.158381097018718719e-03,-3.232423588633537292e-02,-5.602802708745002747e-02,2.163718268275260925e-02,-5.228959023952484131e-03,7.606046739965677261e-03,1.719843037426471710e-02,-7.007252424955368042e-03
2.392005361616611481e-02,-2.588987164199352264e-02,9.184140362776815891e-04,-3.442872688174247742e-02,-3.017083741724491119e-02,3.911504521965980530e-02,-3.952569887042045593e-02,1.187119726091623306e-02,-4.270898178219795227e-03,8.421640843152999878e-03,-2.403757721185684204e-02,2.015134878456592560e-02,1.439023483544588089e-02,-5.940017104148864746e-02,-1.805754378437995911e-02,9.357754141092300415e-03,-3.495630621910095215e-02,-2.715892903506755829e-02,5.752633791416883469e-03,-3.556490689516067505e-02,-4.384020715951919556e-02,2.620406448841094971e-03,-2.603341825306415558e-02,9.956823661923408508e-03,1.112932339310646057e-02,3.911425173282623291e-02,-3.140057250857353210e-02,-8.827025303617119789e-04,-5.445153266191482544e-02,-1.538995001465082169e-02,-4.146916326135396957e-03,-2.335327304899692535e-02,4.291081335395574570e-03,-4.280548170208930969e-02,-1.772455684840679169e-02,-2.027210721280425787e-04,3.526353044435381889e-03,-1.590911764651536942e-03,-1.846410706639289856e-02,1.403446216136217117e-02,1.814200542867183685e-02,-2.258352376520633698e-02,-6.201491877436637878e-02,-4.685637727379798889e-02,-6.636134639848023653e-05,-8.745827712118625641e-03,-4.207303747534751892e-02,-4.233923926949501038e-02,-4.163615405559539795e-02,8.647611364722251892e-03,2.268227934837341309e-02,-4.338712245225906372e-02,-2.170182764530181885e-02,-3.961682319641113281e-03,-5.851605162024497986e-02,-2.913171052932739258e-02,-4.841091111302375793e-02,-2.851885929703712463e-02,-4.521592706441879272e-02,8.646468631923198700e-03,-9.113706648349761963e-03,-1.266779843717813492e-02,1.464995462447404861e-02,-9.863316081464290619e-03,-1.239718962460756302e-02,-1.197554636746644974e-02,1.742693968117237091e-02,2.420980297029018402e-02,3.365294262766838074e-02,-5.924042686820030212e-02,2.265321323648095131e-03,1.887958124279975891e-02,-8.604741655290126801e-03,-3.664851188659667969e-02,-3.240097314119338989e-02,-4.512361250817775726e-03,-9.334090165793895721e-03,-3.452245518565177917e-02,-6.476047635078430176e-02,1.734245382249355316e-02,-4.330711066722869873e-02,-2.237674221396446228e-02,1.084147114306688309e-02,2.387703210115432739e-02,-4.094924032688140869e-02,1.351223234087228775e-02,-6.231295689940452576e-02,-4.297274723649024963e-02,-4.953324794769287109e-02,-4.809927940368652344e-02,-1.377026550471782684e-02,-1.481543388217687607e-02,-1.498920470476150513e-02,-2.817122079432010651e-02,3.304158523678779602e-02,-4.656934761442244053e-04,1.904760859906673431e-02,-3.217176720499992371e-02,-3.834587708115577698e-02,1.731361635029315948e-02,-3.205196186900138855e-02,-3.823191672563552856e-02,-2.033708617091178894e-02,-3.404700383543968201e-02,-1.821251213550567627e-02,-6.227379664778709412e-02,-1.366475317627191544e-02,7.209006231278181076e-03,1.371472608298063278e-02,2.371517755091190338e-02,-2.370188012719154358e-02,-1.484586857259273529e-02,4.409471526741981506e-03,-4.279860481619834900e-02,-3.271378204226493835e-02,2.724432758986949921e-02,-5.189321469515562057e-03,1.383856590837240219e-02,-3.524748235940933228e-02,-2.305119112133979797e-02,1.300600636750459671e-02,-2.720265649259090424e-02,-1.649224013090133667e-02,-4.415728896856307983e-02,-6.239026784896850586e-02,4.625384695827960968e-03,-3.660101443529129028e-02,-3.359744325280189514e-02,4.051110148429870605e-02,-3.833150491118431091e-02,-7.041262928396463394e-03,5.940130911767482758e-03,2.094599790871143341e-02,1.291355211287736893e-02,-1.501246448606252670e-02,-4.595896229147911072e-02,9.120828472077846527e-03,4.952412564307451248e-04,3.419394604861736298e-03,-6.098806113004684448e-02,-5.039293318986892700e-03,-2.492673136293888092e-02,2.030038274824619293e-02,3.009258583188056946e-02,-3.327864408493041992e-02,-5.472365766763687134e-02,2.929803356528282166e-02,-2.914948202669620514e-02,-9.599165990948677063e-03,-4.644504189491271973e-02,1.200124621391296387e-02,-5.075391009449958801e-02,-5.496042966842651367e-02,-2.469770051538944244e-02,-4.952360689640045166e-02,-2.945424057543277740e-02,-1.627199165523052216e-02,9.925120510160923004e-03,8.092000149190425873e-03,4.239796474575996399e-02,8.065634407103061676e-03,3.047437779605388641e-02,-5.073688551783561707e-02,-9.465918876230716705e-03,-3.977333009243011475e-02,-4.049431160092353821e-02,-3.075295314192771912e-02,2.888927236199378967e-02,1.081234682351350784e-02,-5.081823468208312988e-02,-1.256855390965938568e-02,-1.721945218741893768e-02,-5.667913332581520081e-02,-4.332679137587547302e-02,-3.113177604973316193e-03,-3.849020600318908691e-02,-3.532267734408378601e-02,2.295403741300106049e-02,4.346020985394716263e-03,4.251917451620101929e-02,6.566352676600217819e-03,2.080694586038589478e-02,-6.072755903005599976e-02,-2.563812769949436188e-02,2.170673385262489319e-02,1.647995412349700928e-02,-4.593859612941741943e-02,-8.704957435838878155e-04,9.153452701866626740e-03,-2.479116059839725494e-02,2.638304233551025391e-02,-2.884670905768871307e-02,1.346247550100088120e-02,8.876637555658817291e-03,-3.475498035550117493e-02,1.675124280154705048e-02,-4.876923933625221252e-02,-1.902941800653934479e-02,7.760181091725826263e-03,-3.000744245946407318e-02,3.939050715416669846e-03,-6.446956098079681396e-02,4.074736032634973526e-03,-3.159788250923156738e-02,1.324503123760223389e-02,-5.430513620376586914e-02,2.537449449300765991e-02,2.086685784161090851e-02,-3.978788107633590698e-02,-6.288842763751745224e-03,3.942142240703105927e-03,7.964421063661575317e-03,1.591381803154945374e-02,3.249023109674453735e-02,2.622564509510993958e-02,7.824536412954330444e-03,1.088842004537582397e-02,-2.007092721760272980e-02,-3.852543234825134277e-02,2.947443164885044098e-03,-1.174957212060689926e-02,-3.893237933516502380e-02,-2.607557456940412521e-03,1.370578655041754246e-03,1.451420504599809647e-02,3.558620437979698181e-02,-3.822559863328933716e-02,-3.728138655424118042e-02,1.710068993270397186e-02,5.128960590809583664e-03,-2.600749768316745758e-02,-2.932728454470634460e-02,-1.505762338638305664e-02,-1.591562479734420776e-02,-1.792020723223686218e-02,-1.857937499880790710e-02,-4.047986492514610291e-02,-4.132936149835586548e-02,-4.098938032984733582e-02,-1.317473035305738449e-02,-2.108527161180973053e-02,-2.425670623779296875e-02,1.165355555713176727e-02,-4.743458703160285950e-02,-4.446746781468391418e-02,-5.236446857452392578e-03,-1.137451268732547760e-02,-6.203163415193557739e-02,3.821898484602570534e-03,9.289575740694999695e-03,-1.339041814208030701e-02,-1.336158718913793564e-02,-2.829340472817420959e-02,6.559350993484258652e-03,-2.231505885720252991e-02,6.899038795381784439e-03,-8.418359793722629547e-03,-4.371168091893196106e-02,4.911310039460659027e-03,-4.826525598764419556e-02,-5.946971476078033447e-02,1.110659725964069366e-02,5.549896974116563797e-03,4.709686618298292160e-03,-2.910502813756465912e-02,-2.304969541728496552e-02,1.060933526605367661e-02,6.329882424324750900e-03,-8.811583742499351501e-03,-9.734188206493854523e-03,-2.339974045753479004e-02,-4.411160200834274292e-02,-1.285860314965248108e-02,-6.537352502346038818e-02,-2.859889063984155655e-04,1.966168917715549469e-02,-2.922058850526809692e-02,1.160741434432566166e-03,-4.792761802673339844e-02,-1.329435314983129501e-02,3.466872125864028931e-02,-6.369061022996902466e-02,-5.468200892210006714e-02,1.404683571308851242e-02,5.265843123197555542e-03,-1.915707811713218689e-02,-2.196941291913390160e-03,-2.665598876774311066e-03,-4.099526628851890564e-02,-1.120790001004934311e-02,2.960561588406562805e-02,2.185791358351707458e-02,-6.510277092456817627e-02,-4.679000936448574066e-03,-2.983208745718002319e-02,3.680905327200889587e-02,-2.136303670704364777e-02,-5.089988932013511658e-02,-5.401043966412544250e-02,1.808689348399639130e-02,4.197437688708305359e-02,1.544871274381875992e-02,-3.346620826050639153e-03,2.260963432490825653e-02,9.388513863086700439e-03,8.644958026707172394e-03,-5.143281444907188416e-02,-1.151532493531703949e-02,2.023628354072570801e-02,-1.755448430776596069e-02,-1.658044569194316864e-02,-9.755478240549564362e-03,3.057846613228321075e-02,-5.830111727118492126e-02,-5.835545435547828674e-02,2.329309843480587006e-02,-6.203433498740196228e-02,-1.619008369743824005e-02,-3.016461431980133057e-02,-6.273540109395980835e-02,-3.961522877216339111e-02,-5.831073224544525146e-02,-7.289213128387928009e-03,-1.000415999442338943e-02,-5.140455812215805054e-02,-3.550107404589653015e-02,-6.308054178953170776e-02,3.290341235697269440e-03,-7.265336811542510986e-03,-4.380166530609130859e-02,-3.658937662839889526e-02,-1.130450703203678131e-02,1.888290792703628540e-02,-2.794749103486537933e-02,-4.846030473709106445e-02,-1.420840341597795486e-02,2.654612809419631958e-02,-3.564153565093874931e-03,-2.028986625373363495e-02,-5.685787275433540344e-02,-3.271044790744781494e-02,2.945144847035408020e-02,-1.168087776750326157e-02,-2.503725141286849976e-02,-3.598326444625854492e-02,-5.187963694334030151e-02,-3.352565690875053406e-02,1.202905271202325821e-02,-3.774778544902801514e-02,-3.696162952110171318e-03,6.711955938953906298e-05,-4.232549294829368591e-02,3.014652244746685028e-02,2.316448651254177094e-02,1.153754186816513538e-03,4.412036761641502380e-02,-1.040274929255247116e-02,-6.893775891512632370e-03,-1.004023756831884384e-02,1.487093046307563782e-02,-3.906842321157455444e-02,-6.436269730329513550e-02,-3.873553499579429626e-02,1.974743604660034180e-02,-1.766982302069664001e-02,4.086993634700775146e-02,1.900165900588035583e-02,1.890133507549762726e-02,4.043543711304664612e-02,-2.886517159640789032e-02,2.428456582129001617e-02,-1.000073552131652832e-02,-2.826140820980072021e-02,3.163600340485572815e-03,-6.928417365998029709e-03,3.155895322561264038e-02,-1.111233257688581944e-03,-6.320482492446899414e-02,-5.067762732505798340e-02,4.299466684460639954e-02,-6.883001886308193207e-03,-2.337642945349216461e-03,-6.043888255953788757e-02,-2.073620632290840149e-02,-8.716089650988578796e-03,-2.188252657651901245e-02,-1.841182634234428406e-02,2.799283247441053391e-03,-3.254381939768791199e-02,-4.199654608964920044e-02,-1.134194340556859970e-02,2.191021479666233063e-02,2.236820384860038757e-02,6.522466894239187241e-03,-1.533348672091960907e-02,1.062469836324453354e-02,-1.894423924386501312e-02,-6.211702898144721985e-02,-2.789699845016002655e-02,-4.430310055613517761e-02,1.619651727378368378e-02,1.052157115191221237e-02,-4.294060915708541870e-02,-6.080156890675425529e-04,6.997761782258749008e-03,-5.552119389176368713e-02,-7.928975857794284821e-03,1.098421867936849594e-02,8.684832602739334106e-03,-3.805144876241683960e-02,-2.309104613959789276e-02,1.349507085978984833e-02,-2.096025971695780754e-03,3.933823481202125549e-02,3.706767410039901733e-02,-6.421040743589401245e-02,3.093893080949783325e-02,-2.160034887492656708e-02,-1.307447347790002823e-02,-9.126989170908927917e-03,-1.327885966747999191e-02,-1.317616365849971771e-02,-3.534391894936561584e-02,4.151729494333267212e-02,3.608518280088901520e-03,-1.478396239690482616e-03,2.977842278778553009e-02,-3.417651355266571045e-02,-4.370232671499252319e-02,-4.299832880496978760e-02,-3.246068209409713745e-02,-1.638874970376491547e-02,-3.154258430004119873e-02,1.011123997159302235e-03,-2.836253680288791656e-02,-4.332198575139045715e-02,2.054895460605621338e-02,-4.145456105470657349e-02,-1.262088865041732788e-02,-3.247650712728500366e-02,-6.710249464958906174e-03,1.639459095895290375e-02,3.119653277099132538e-02,-4.111999180167913437e-03,-5.424700304865837097e-02,-7.271706126630306244e-03,4.376420006155967712e-02,2.028038911521434784e-02,2.142573520541191101e-02,4.101381450891494751e-02,-2.574109844863414764e-02,-3.934551775455474854e-02,-1.841817284002900124e-04,6.460065487772226334e-03,1.648486405611038208e-02,1.067429129034280777e-02,2.519053779542446136e-02,-9.723609313368797302e-03,9.392009116709232330e-03,3.522684052586555481e-02,-2.926977351307868958e-02,1.100927311927080154e-02,-4.812796413898468018e-02,1.175461336970329285e-02,-6.350094079971313477e-02,-1.338510680943727493e-02,1.148707116954028606e-03,-4.544793069362640381e-02,-2.122135460376739502e-02,-5.928334221243858337e-02,2.561090048402547836e-03,-4.781507304869592190e-04,-1.235305145382881165e-02,2.310970053076744080e-02,-2.632479555904865265e-02,1.661368086934089661e-02,-3.549827262759208679e-02,-6.523736752569675446e-03,-2.933512441813945770e-02,-2.003560587763786316e-02,2.104072645306587219e-02,2.032577060163021088e-02,-3.699503466486930847e-02,3.199405223131179810e-02,-1.151030417531728745e-02,-6.456863880157470703e-02,-1.538940006867051125e-03,5.104450043290853500e-03,1.516564190387725830e-02,2.762027271091938019e-02,-3.047154285013675690e-02,1.376589760184288025e-02,-3.443194320425391197e-03,-4.061713442206382751e-02,-1.505161914974451065e-02,-1.168880145996809006e-02,-1.709148846566677094e-02,5.305808503180742264e-03,-3.283129259943962097e-02,-3.633174672722816467e-02,-5.715607851743698120e-02,-3.272730484604835510e-02,3.383978456258773804e-02,3.115131519734859467e-02,6.881937384605407715e-03,-2.465449459850788116e-02,-2.707885950803756714e-02,1.434639003127813339e-02,2.279063872992992401e-02,3.718383610248565674e-02,-6.011025980114936829e-03,-2.755429130047559738e-03
9.967705234885215759e-03,-6.922937929630279541e-02,5.537887569516897202e-03,1.613203249871730804e-02,-5.171437188982963562e-02,-5.997345782816410065e-03,-4.083306062966585159e-03,8.473073132336139679e-03,-9.374416619539260864e-02,-3.067711740732192993e-02,2.181233279407024384e-02,-5.496430024504661560e-02,-2.659509889781475067e-02,1.097525469958782196e-02,-6.975821405649185181e-02,-2.859064005315303802e-02,5.517916008830070496e-02,-1.035027392208576202e-02,9.778221137821674347e-03,-9.683886170387268066e-02,-9.907306730747222900e-02,-3.469891101121902466e-02,-9.980884380638599396e-03,-2.954736910760402679e-02,5.294659640640020370e-03,8.706586231710389256e-05,1.261098869144916534e-02,-5.571120977401733398e-02,-1.331125199794769287e-02,-5.061174184083938599e-02,2.997837727889418602e-03,-9.174916893243789673e-02,8.637610822916030884e-03,-6.725354492664337158e-02,-7.884854078292846680e-02,1.441192440688610077e-02,-6.487450003623962402e-02,7.060403469949960709e-03,-3.880235925316810608e-02,-7.042749971151351929e-02,-5.335474386811256409e-02,-3.542979061603546143e-02,-5.868019163608551025e-02,7.887367974035441875e-04,-1.335922349244356155e-02,6.760096549987792969e-02,-5.284384265542030334e-02,4.422356374561786652e-03,8.355148020200431347e-04,1.832138933241367340e-02,-7.755116373300552368e-02,-5.427818372845649719e-02,-3.480686806142330170e-03,-2.862828597426414490e-02,4.610433802008628845e-02,-2.922296896576881409e-02,-2.709620445966720581e-02,-4.762538895010948181e-02,-2.839528024196624756e-02,-1.183551996946334839e-01,-4.170979559421539307e-02,-5.212299525737762451e-02,-8.484262041747570038e-03,-2.821780368685722351e-02,3.848560526967048645e-02,-6.339038163423538208e-02,-1.248198188841342926e-02,-5.691569671034812927e-02,-4.971977323293685913e-02,-7.620203495025634766e-02,-1.158916279673576355e-01,-7.003922760486602783e-02,-7.539182901382446289e-02,1.644118875265121460e-02,-2.214131178334355354e-03,-6.276179850101470947e-02,-4.774777218699455261e-02,3.467805683612823486e-02,-7.598812878131866455e-02,-3.693255037069320679e-02,-4.854009300470352173e-02,-7.437346875667572021e-02,-6.386817246675491333e-02,-9.257904440164566040e-02,-2.832874469459056854e-02,-6.467480957508087158e-02,-5.584967136383056641e-02,5.603855475783348083e-03,-2.567657269537448883e-02,-3.338866308331489563e-02,-3.995452821254730225e-02,-4.301733803004026413e-03,-7.467029988765716553e-02,-7.586511783301830292e-03,2.190473861992359161e-02,-6.479612737894058228e-02,-1.106691956520080566e-01,-6.843457370996475220e-02,-6.047584861516952515e-02,-7.124622911214828491e-02,2.012724243104457855e-02,-1.366900186985731125e-02,-3.082833066582679749e-02,-5.043965950608253479e-02,-1.011702977120876312e-02,-2.640915475785732269e-02,-1.152239181101322174e-02,-3.314808383584022522e-02,-8.585345000028610229e-03,-5.957636237144470215e-02,3.085806034505367279e-03,-1.293960586190223694e-02,-8.762952685356140137e-02,-7.185137271881103516e-02,4.127324093133211136e-03,-4.524714499711990356e-02,5.806602421216666698e-04,-5.933618918061256409e-02,-4.735057428479194641e-02,-4.740596562623977661e-02,-7.143948227167129517e-02,-4.496023803949356079e-02,9.903477039188146591e-04,-3.863956779241561890e-02,-9.621174074709415436e-03,-2.738533541560173035e-02,-3.870945423841476440e-02,-4.836639389395713806e-03,-5.359081178903579712e-02,2.077654190361499786e-02,3.143781796097755432e-02,-7.171357423067092896e-02,-6.033487617969512939e-02,-8.456905186176300049e-02,-5.827604234218597412e-02,-6.944207102060317993e-02,-3.591937944293022156e-02,-2.715225331485271454e-02,-5.424110591411590576e-02,-8.016681298613548279e-03,-3.429196029901504517e-02,4.705666506197303534e-04,-5.777186527848243713e-02,-1.040211170911788940e-01,-4.780210088938474655e-03,-2.412841841578483582e-02,-6.329756230115890503e-02,1.844378933310508728e-02,-4.795440658926963806e-02,-2.588199451565742493e-02,4.458499699831008911e-02,-1.495239045470952988e-02,2.274146117269992828e-02,-2.157191187143325806e-02,-1.610887236893177032e-02,-3.611364588141441345e-02,5.382155068218708038e-03,-1.174184754490852356e-01,-1.381118502467870712e-02,-2.911834046244621277e-02,-1.468148920685052872e-02,-7.624965161085128784e-02,-4.895947128534317017e-02,-7.135713845491409302e-02,-1.872212626039981842e-02,6.348618119955062866e-02,-6.105731427669525146e-02,1.986478827893733978e-02,6.332819908857345581e-02,-5.410419404506683350e-02,-2.813591249287128448e-02,-8.508960157632827759e-02,-5.136307328939437866e-02,-3.590208664536476135e-02,-2.408147975802421570e-02,-9.650792926549911499e-03,-1.976291835308074951e-02,-2.144066616892814636e-03,-4.009810090065002441e-02,-8.907663077116012573e-02,-4.054658114910125732e-02,-1.660031382925808430e-03,-4.109575878828763962e-03,-1.343140378594398499e-02,-3.386141499504446983e-03,4.160000942647457123e-03,1.902706548571586609e-02,-7.066868990659713745e-02,-5.054170265793800354e-02,-3.265971317887306213e-02,-4.744267836213111877e-02,1.261601131409406662e-02,-1.467143185436725616e-02,-3.606689721345901489e-02,-1.043452508747577667e-02,-6.068230792880058289e-02,-2.274858951568603516e-02,-4.385942965745925903e-02,-4.437122493982315063e-02,-9.618147276341915131e-03,-6.143515929579734802e-04,-5.886772274971008301e-02,-3.598048165440559387e-02,-3.207802399992942810e-02,-5.969155207276344299e-02,-5.842284858226776123e-02,5.449506267905235291e-02,-5.294290184974670410e-02,-3.125890344381332397e-02,-4.688298329710960388e-02,2.413634583353996277e-02,-1.418058853596448898e-02,-3.997150808572769165e-02,-4.018430784344673157e-02,-9.362275898456573486e-02,-3.579574450850486755e-02,2.104613557457923889e-02,-6.083422154188156128e-02,-4.354117065668106079e-02,-2.993975020945072174e-02,6.401852704584598541e-03,-2.410954795777797699e-02,3.976508602499961853e-02,4.393053427338600159e-02,-5.071288347244262695e-02,-7.389377057552337646e-02,4.124616272747516632e-03,-2.376287989318370819e-02,3.799469396471977234e-02,-3.510710969567298889e-02,-4.951572790741920471e-02,-5.536955315619707108e-03,-5.056603113189339638e-04,-6.209506839513778687e-02,-2.813842892646789551e-02,-4.700147733092308044e-02,-3.075744956731796265e-03,-1.949573308229446411e-02,-5.040898919105529785e-02,-5.771984532475471497e-02,9.725554846227169037e-03,-3.205806761980056763e-02,-2.227846346795558929e-02,1.136295497417449951e-03,-3.151392564177513123e-02,-6.681679189205169678e-02,-4.125751554965972900e-02,3.454971127212047577e-03,1.701435772702097893e-03,-4.322849586606025696e-02,-1.724868081510066986e-02,-3.415198251605033875e-02,3.827237756922841072e-03,-1.622681692242622375e-02,-2.756207622587680817e-02,9.879326680675148964e-04,-3.960809111595153809e-02,-1.573281921446323395e-02,-4.002949967980384827e-02,-9.658364206552505493e-02,-3.288981318473815918e-02,-5.179201066493988037e-02,-6.197104975581169128e-02,-6.924177706241607666e-02,2.949965372681617737e-02,2.013210952281951904e-02,-7.262719422578811646e-02,-2.481597475707530975e-02,-2.226617943961173296e-04,-6.928892433643341064e-02,-4.617920517921447754e-02,-4.335017502307891846e-02,-2.123221568763256073e-02,1.077106129378080368e-02,-6.968441605567932129e-02,7.191547192633152008e-03,-2.611214667558670044e-02,-1.512519642710685730e-02,-4.558726679533720016e-03,-2.390374056994915009e-02,-9.385121986269950867e-03,3.604852408170700073e-02,1.318778493441641331e-03,-2.943580970168113708e-02,-5.137137696146965027e-02,-4.112525656819343567e-02,-1.246392354369163513e-02,4.735133051872253418e-02,1.876559108495712280e-02,-9.272905299440026283e-04,-8.787238039076328278e-03,-2.954191155731678009e-02,-2.250386215746402740e-02,-9.294874034821987152e-03,5.083734914660453796e-02,4.149765521287918091e-02,-2.528445236384868622e-02,-1.881365850567817688e-02,-1.084064245223999023e-01,-5.247807875275611877e-02,-1.612825877964496613e-02,-5.841646809130907059e-03,-1.045710314065217972e-02,-9.584689512848854065e-03,-4.500352311879396439e-03,6.791391223669052124e-02,-5.044327676296234131e-02,-3.024501539766788483e-02,-4.548476263880729675e-02,-5.065205972641706467e-03,-6.286118179559707642e-02,-7.571379095315933228e-02,-4.167483001947402954e-02,-5.574325099587440491e-02,3.537902375683188438e-03,-1.111830025911331177e-02,4.345702752470970154e-02,-7.993090152740478516e-02,-6.472703069448471069e-02,-2.387349680066108704e-02,-2.844414301216602325e-02,3.248998895287513733e-02,2.745488286018371582e-02,2.648414112627506256e-02,6.718796212226152420e-03,1.605737581849098206e-02,-2.543267421424388885e-02,-6.927754729986190796e-02,2.320323372259736061e-03,-2.904507517814636230e-02,-6.470008287578821182e-03,-4.886347800493240356e-03,-4.031744226813316345e-02,-4.517300985753536224e-03,-2.816193550825119019e-02,5.775166675448417664e-02,-3.620849549770355225e-02,-5.680713802576065063e-02,-1.864326931536197662e-02,-1.876389235258102417e-02,2.604966796934604645e-02,-9.173077344894409180e-02,-2.595592057332396507e-03,-7.932745665311813354e-02,3.439841046929359436e-02,-2.797965705394744873e-02,-6.083079800009727478e-02,-4.741317778825759888e-02,-3.416590765118598938e-02,3.410646319389343262e-02,-1.402675267308950424e-02,-3.097597695887088776e-02,-2.787508256733417511e-02,2.658984158188104630e-03,-1.340248435735702515e-02,-3.545924648642539978e-02,1.040842570364475250e-02,-1.137008052319288254e-02,3.475931286811828613e-02,-4.959656507708132267e-04,-4.803721234202384949e-02,-1.763696782290935516e-02,-2.416910976171493530e-02,-5.133144184947013855e-02,-5.974074453115463257e-02,-1.470937952399253845e-02,-5.305532738566398621e-02,-5.031319335103034973e-02,-1.186210755258798599e-02,-3.973077610135078430e-02,-2.987365610897541046e-02,-8.245022594928741455e-02,3.264646232128143311e-02,4.204306751489639282e-02,-3.439241647720336914e-02,-2.104043774306774139e-02,-9.901148267090320587e-03,-2.751727774739265442e-02,-1.535642147064208984e-02,-6.453483365476131439e-03,-7.909940928220748901e-02,-1.715356111526489258e-02,-5.532775446772575378e-02,4.939026385545730591e-02,4.161105677485466003e-02,-1.736066117882728577e-02,-3.704013302922248840e-02,-5.705692246556282043e-02,-8.198597468435764313e-03,1.443373970687389374e-02,-5.734960734844207764e-02,-5.562837049365043640e-02,-6.203777343034744263e-02,-1.133886049501597881e-03,-7.507276535034179688e-02,-6.697171181440353394e-02,-2.631325833499431610e-02,-7.473245263099670410e-02,-7.175530493259429932e-02,-5.747319385409355164e-02,5.344148352742195129e-02,-3.833676688373088837e-03,-3.635811805725097656e-02,-1.102262735366821289e-02,-5.220736563205718994e-02,-2.543890848755836487e-02,-2.450972981750965118e-02,-2.719537727534770966e-02,-2.994710765779018402e-02,-1.023485604673624039e-02,-1.119922497309744358e-03,4.936124198138713837e-03,-2.710322104394435883e-02,-2.123327367007732391e-02,3.695603460073471069e-02,-5.079598724842071533e-02,-6.219825521111488342e-02,-2.504047937691211700e-02,-2.508152648806571960e-02,-5.446460843086242676e-02,-1.946867443621158600e-02,-3.544080257415771484e-02,-8.984280377626419067e-02,-4.555040597915649414e-02,-6.158200278878211975e-02,-6.556862592697143555e-02,-4.316250979900360107e-02,4.576401785016059875e-03,-3.344012051820755005e-02,-2.959845215082168579e-02,-8.016138523817062378e-02,2.937359735369682312e-02,-1.053662155754864216e-03,-4.620244354009628296e-02,-4.881095513701438904e-02,6.026342976838350296e-03,1.718974858522415161e-02,3.503002924844622612e-03,-5.506365373730659485e-02,-6.640360504388809204e-02,-1.063606962561607361e-01,-3.226377442479133606e-02,-5.576922744512557983e-02,-4.955712333321571350e-02,-9.965299628674983978e-03,-2.713792957365512848e-03,-2.452940912917256355e-03,7.092507090419530869e-03,2.007223106920719147e-02,8.939979597926139832e-03,-4.807970300316810608e-02,2.498048357665538788e-02,-1.002779155969619751e-01,-6.695020943880081177e-02,-9.224078804254531860e-02,-1.464882865548133850e-02,-3.552045673131942749e-02,-1.344617642462253571e-02,-3.109296038746833801e-02,-3.872910514473915100e-02,-3.128940984606742859e-02,-5.416654795408248901e-02,-5.279175192117691040e-02,-3.587217256426811218e-02,-5.614671483635902405e-02,-3.992799669504165649e-02,-1.462155673652887344e-02,5.399307608604431152e-02,-2.428586594760417938e-02,-2.763564139604568481e-02,3.668677806854248047e-02,3.371814265847206116e-02,5.559293553233146667e-02,-3.094453364610671997e-03,4.906877502799034119e-02,-1.341773755848407745e-02,-1.556419534608721733e-03,-7.946338504552841187e-02,-7.005233317613601685e-02,-3.550797700881958008e-02,1.465427130460739136e-02,-6.540901958942413330e-02,8.910269476473331451e-03,-1.570247299969196320e-02,-6.763634085655212402e-02,-1.045804191380739212e-02,-1.752259768545627594e-02,-2.141762711107730865e-02,-2.045771852135658264e-02,2.863144874572753906e-02,-4.065080359578132629e-02,-2.438038028776645660e-02,-1.695743948221206665e-02,-6.611639261245727539e-02,-3.226907923817634583e-02,-3.667443618178367615e-02,-4.647120833396911621e-03,-2.855533733963966370e-02,-4.626906290650367737e-02,1.295365020632743835e-02,2.412272850051522255e-03,-6.040317565202713013e-02,-4.491950571537017822e-02,-9.745107963681221008e-03,-4.979206994175910950e-02,-1.535470876842737198e-02,-5.677416548132896423e-02,9.851315058767795563e-03,-2.226907759904861450e-03,1.384688820689916611e-02,-3.491981327533721924e-02,9.047939442098140717e-03
-9.433373063802719116e-02,-2.812606748193502426e-03,-1.921719871461391449e-02,1.072608027607202530e-02,-1.510842237621545792e-02,-7.239852100610733032e-02,-2.021966269239783287e-03,-5.443334951996803284e-02,1.050353702157735825e-02,-7.192005217075347900e-02,-4.788692295551300049e-02,4.010680317878723145e-02,-6.679932773113250732e-02,-4.952456429600715637e-02,-4.968681186437606812e-02,-2.212038822472095490e-02,-4.076552018523216248e-02,-4.983306676149368286e-02,1.986181922256946564e-02,-7.807015441358089447e-03,4.918249323964118958e-03,-1.038040034472942352e-02,-1.193898543715476990e-01,-4.280395433306694031e-02,-7.865173369646072388e-02,5.028397217392921448e-02,-1.056507602334022522e-01,-6.035242229700088501e-02,-4.373725503683090210e-02,-5.885927006602287292e-03,6.214526947587728500e-03,-1.005111113190650940e-01,-1.027936022728681564e-02,-3.400088846683502197e-02,-1.686267927289009094e-02,-4.308741167187690735e-02,-5.170732364058494568e-02,-2.361813001334667206e-02,-2.950840163975954056e-03,-4.831594973802566528e-02,-5.356823280453681946e-02,-9.146336466073989868e-02,-5.959136411547660828e-02,-1.413282239809632301e-03,-4.226586222648620605e-02,-3.149132803082466125e-02,6.559155881404876709e-03,-6.033360213041305542e-02,-1.092725712805986404e-02,-5.207178369164466858e-02,-4.311219602823257446e-02,-3.128116205334663391e-02,-6.859652698040008545e-02,-1.710478588938713074e-02,-1.142510306090116501e-02,-3.244321793317794800e-02,-3.814557567238807678e-02,-4.574661701917648315e-02,-5.012409016489982605e-02,-4.711161926388740540e-02,-1.391801983118057251e-02,-3.706906735897064209e-02,-4.586640745401382446e-02,-1.661766087636351585e-03,-7.512874156236648560e-02,-6.343301385641098022e-02,-1.836686953902244568e-02,-1.382214762270450592e-02,3.736151009798049927e-02,-1.148104295134544373e-02,-2.075307769700884819e-03,-1.307727247476577759e-01,-2.539166621863842010e-02,-4.738668352365493774e-02,-2.291030809283256531e-02,-1.297353655099868774e-01,-9.386107325553894043e-02,-2.494323812425136566e-02,-3.871956095099449158e-02,-1.111785694956779480e-02,-6.796424835920333862e-02,-8.076474070549011230e-02,-4.420784302055835724e-03,-4.393827542662620544e-02,-6.956721842288970947e-02,-9.978502243757247925e-02,-7.475841790437698364e-02,-4.694938659667968750e-02,-5.600196868181228638e-02,-5.724266543984413147e-02,-4.829709604382514954e-02,2.398804388940334320e-02,-1.312679890543222427e-02,-8.892291784286499023e-02,2.353080548346042633e-02,-4.872433841228485107e-02,-2.038016915321350098e-02,-6.616577506065368652e-02,-2.698486298322677612e-02,1.352050341665744781e-02,-1.456303335726261139e-02,-3.646546683739870787e-04,-1.781919598579406738e-02,-1.734778098762035370e-02,-3.795471042394638062e-02,-5.753126740455627441e-02,-8.872462809085845947e-02,-4.361773282289505005e-02,5.777785554528236389e-03,-5.177278444170951843e-02,-3.788412082940340042e-03,-6.299742031842470169e-03,1.369733549654483795e-02,-4.415724053978919983e-02,2.402927167713642120e-02,-9.414797276258468628e-02,-5.188006535172462463e-02,-3.021217882633209229e-02,-2.122720144689083099e-02,-6.700424104928970337e-02,-3.850310668349266052e-02,-3.643551468849182129e-02,-1.953884586691856384e-02,4.328472912311553955e-02,-1.780747249722480774e-02,-8.212352171540260315e-03,-1.964138634502887726e-02,-4.527274891734123230e-02,-1.895920783281326294e-01,-1.259063333272933960e-01,-3.439690172672271729e-02,3.352003544569015503e-02,7.142499554902315140e-03,-3.913760557770729065e-02,1.052873395383358002e-02,-5.641027167439460754e-02,-7.342866808176040649e-02,-5.115241184830665588e-02,-8.521889336407184601e-03,-1.037397235631942749e-02,-5.270956084132194519e-02,4.814504086971282959e-02,-8.164164610207080841e-04,-3.165179118514060974e-02,-1.491389982402324677e-02,-8.624501526355743408e-02,-5.095249786972999573e-02,3.638349846005439758e-02,-3.371810540556907654e-03,-7.260931283235549927e-02,-4.385210946202278137e-02,-4.206552356481552124e-02,-3.598826378583908081e-02,-5.554844811558723450e-02,-8.988894522190093994e-02,-5.634322389960289001e-02,-6.688088923692703247e-02,-3.504151105880737305e-02,-9.476107545197010040e-03,-9.310925751924514771e-02,7.157585117965936661e-03,-4.637089744210243225e-02,-6.026719883084297180e-02,1.409885007888078690e-02,-9.327331930398941040e-02,2.368500083684921265e-02,-1.672915928065776825e-02,-6.518345791846513748e-03,1.596489734947681427e-02,8.477012626826763153e-03,-1.358653325587511063e-02,-4.411410074681043625e-03,-5.589856952428817749e-02,-1.769482903182506561e-02,4.057835415005683899e-02,-3.813600167632102966e-02,-7.460543513298034668e-02,-6.389252841472625732e-02,-1.810408011078834534e-02,-3.213621675968170166e-02,-4.777036607265472412e-02,1.420041173696517944e-02,-5.285085737705230713e-02,-9.074937552213668823e-02,8.592825382947921753e-03,-5.313915386795997620e-02,-6.074113026261329651e-02,3.922331333160400391e-02,-7.099483907222747803e-02,2.821605652570724487e-02,-2.777589671313762665e-02,9.083868353627622128e-04,3.478477243334054947e-03,-4.043126851320266724e-02,-5.134220048785209656e-02,-4.058745503425598145e-02,-6.293513812124729156e-03,-3.691897913813591003e-02,-3.211520239710807800e-02,4.139079712331295013e-03,-8.461135439574718475e-03,-5.989979952573776245e-02,-5.264577642083168030e-02,-4.378179088234901428e-02,-1.063173040747642517e-01,-5.918241664767265320e-02,-2.694610320031642914e-02,-7.999466359615325928e-02,-4.860585555434226990e-02,-8.632452040910720825e-02,2.994546107947826385e-02,-6.012583523988723755e-02,8.807969279587268829e-03,-1.426530070602893829e-02,-1.061662659049034119e-01,-4.182805493474006653e-02,8.166217012330889702e-04,-6.972534582018852234e-03,-5.155421048402786255e-02,-3.863383317366242409e-03,-8.265239000320434570e-02,-1.612268947064876556e-02,8.065184229053556919e-04,4.932258278131484985e-03,-1.777997426688671112e-02,3.158627543598413467e-03,-2.242553606629371643e-02,-8.994543924927711487e-03,-8.870749175548553467e-02,-8.977638185024261475e-02,2.929023932665586472e-03,-8.784778416156768799e-03,-4.749626293778419495e-02,-5.703762173652648926e-02,-4.244293272495269775e-02,-1.626975089311599731e-01,-5.963690951466560364e-02,-4.148490726947784424e-02,-3.342015296220779419e-02,-5.092803854495286942e-03,-5.367249622941017151e-02,1.047436706721782684e-02,-3.745850548148155212e-02,-6.773636490106582642e-02,-5.396398250013589859e-03,-4.292982071638107300e-02,-3.560846671462059021e-02,-2.580163441598415375e-02,-5.331654101610183716e-03,-2.461756207048892975e-02,-6.135594844818115234e-02,-2.217715978622436523e-02,-4.662541300058364868e-02,-3.993095830082893372e-02,-7.054633926600217819e-03,8.676864206790924072e-03,3.869448555633425713e-04,-3.860911354422569275e-03,-1.151918806135654449e-02,-1.974685303866863251e-02,-2.924428507685661316e-02,1.313285902142524719e-02,-8.030972629785537720e-02,-3.128185123205184937e-02,-7.848907262086868286e-03,1.362889818847179413e-02,1.268396503292024136e-03,-2.034262940287590027e-02,8.413338102400302887e-03,-4.273045808076858521e-02,-6.305716931819915771e-02,-6.693331152200698853e-02,-7.785043865442276001e-02,1.070170029997825623e-01,-9.018699079751968384e-02,-3.483289107680320740e-02,1.209591142833232880e-02,-1.912263594567775726e-02,-1.088263466954231262e-02,-4.714477434754371643e-02,-6.051732227206230164e-02,1.217922009527683258e-02,1.617610454559326172e-02,-5.269235745072364807e-02,-4.735752940177917480e-03,2.344335429370403290e-02,7.854428142309188843e-03,-1.399732846766710281e-02,-6.547636538743972778e-02,-9.363085031509399414e-02,-5.096717923879623413e-02,-1.035036798566579819e-02,2.540618181228637695e-02,-4.685607552528381348e-02,2.945839613676071167e-02,-1.777970045804977417e-02,1.125059742480516434e-02,-4.134329780936241150e-02,-3.265652433037757874e-02,-9.836409240961074829e-02,2.046846784651279449e-02,-1.081218272447586060e-01,6.651376839727163315e-03,-1.408413401804864407e-03,-7.931485772132873535e-02,-4.707941785454750061e-02,-4.934375360608100891e-02,-3.200792521238327026e-02,-6.605519354343414307e-02,-6.451955065131187439e-03,-5.750444158911705017e-02,-1.291939429938793182e-02,-2.123454958200454712e-02,-3.959047421813011169e-02,-8.015985041856765747e-02,-7.487339526414871216e-02,1.707460172474384308e-02,-1.125435978174209595e-01,-9.734762832522392273e-03,-6.878396868705749512e-02,2.579833846539258957e-03,-8.784467354416847229e-03,-1.743298470973968506e-01,-1.955634914338588715e-02,-2.830472774803638458e-02,-6.387670338153839111e-02,-6.077732145786285400e-02,-8.793282322585582733e-03,-1.948818936944007874e-02,4.913645982742309570e-02,-7.446050643920898438e-02,-1.227934379130601883e-02,2.672269707545638084e-03,-2.783321775496006012e-02,-5.371894221752882004e-03,9.156952053308486938e-02,-9.889703243970870972e-02,-6.983138620853424072e-02,-8.298797905445098877e-02,-3.139755502343177795e-02,-7.600890845060348511e-02,-6.607973575592041016e-02,-9.181173890829086304e-02,-2.660457044839859009e-02,-2.608845382928848267e-02,4.105320572853088379e-02,-2.235746476799249649e-03,-5.929157603532075882e-03,-9.561875835061073303e-03,4.106547310948371887e-02,-4.362608119845390320e-02,5.035869777202606201e-03,-2.512847073376178741e-03,1.006306614726781845e-03,-7.917536050081253052e-02,-7.978259772062301636e-02,-6.095546856522560120e-02,-8.660355955362319946e-02,3.799536079168319702e-02,3.636325895786285400e-02,3.194697201251983643e-03,1.192198507487773895e-02,2.324391715228557587e-02,6.522787269204854965e-03,3.477560728788375854e-02,-2.407141216099262238e-02,3.412591060623526573e-03,-2.605467662215232849e-02,-3.102977201342582703e-02,-1.035278812050819397e-01,-4.941382631659507751e-02,-2.142958343029022217e-02,6.608020514249801636e-02,3.238916769623756409e-02,-8.276581764221191406e-02,-5.240682885050773621e-02,-1.124304137192666531e-03,2.577344886958599091e-03,1.274500507861375809e-02,-1.601452194154262543e-02,2.434143051505088806e-02,1.891193725168704987e-02,1.408411003649234772e-02,-7.499049603939056396e-02,2.545757405459880829e-02,1.121835317462682724e-02,-4.253758490085601807e-02,-5.968653783202171326e-02,-4.500373825430870056e-02,-8.330076932907104492e-03,-2.147092483937740326e-02,-1.653401926159858704e-02,-7.511673867702484131e-02,2.621228434145450592e-02,7.991243153810501099e-03,-1.825348474085330963e-02,-1.474007312208414078e-02,-5.899883806705474854e-02,1.784481480717658997e-02,-6.558346003293991089e-02,-3.713707998394966125e-02,-2.330181375145912170e-02,-2.650089561939239502e-02,-2.342029847204685211e-02,2.089238911867141724e-02,-7.794997096061706543e-02,-2.377607859671115875e-02,-5.703249946236610413e-02,-8.498822338879108429e-03,-3.178159147500991821e-02,-7.735201716423034668e-02,-1.458549592643976212e-02,-2.496801689267158508e-02,-3.472728654742240906e-02,-4.455364495515823364e-02,3.172859316691756248e-03,2.527311444282531738e-02,-6.541542708873748779e-02,1.429745927453041077e-02,-8.067630551522597671e-05,2.786311693489551544e-02,-4.092283174395561218e-02,-3.227199893444776535e-03,-2.960243495181202888e-03,-1.579476334154605865e-02,-2.281856164336204529e-02,-2.600981295108795166e-02,-6.644767522811889648e-02,-6.779578328132629395e-02,-1.199226919561624527e-02,-3.970545530319213867e-02,4.395487904548645020e-02,-3.873981535434722900e-02,2.443834394216537476e-02,4.291107133030891418e-02,-2.380320243537425995e-02,5.360332876443862915e-02,-5.195108428597450256e-02,-2.495804801583290100e-02,-8.335361629724502563e-02,-8.603779971599578857e-02,-2.175785787403583527e-02,-6.408586353063583374e-02,-2.802809700369834900e-03,-8.437397889792919159e-03,-6.652083992958068848e-02,-5.758294463157653809e-02,-4.375975579023361206e-03,-1.413301331922411919e-03,-1.995200850069522858e-02,-8.004131913185119629e-02,-6.710276752710342407e-02,-6.502527743577957153e-02,-7.632768154144287109e-02,-2.281458675861358643e-02,-2.121870778501033783e-02,-4.668832570314407349e-02,-1.336863450706005096e-02,-4.413137584924697876e-02,-4.077052697539329529e-02,-7.444170117378234863e-02,-5.054689943790435791e-02,-1.892571523785591125e-02,-1.231038663536310196e-02,-2.670861594378948212e-02,-4.917648434638977051e-02,-6.756440550088882446e-02,-3.889136016368865967e-02,-3.767678886651992798e-02,2.495261654257774353e-02,-5.571684241294860840e-02,-2.715964987874031067e-02,-2.059544995427131653e-02,2.366772294044494629e-02,-7.310456782579421997e-02,-3.149273619055747986e-02,4.224067553877830505e-03,-5.174208804965019226e-02,-4.141978174448013306e-02,-5.367701407521963120e-03,-8.644384145736694336e-02,-4.851370304822921753e-02,1.897129113785922527e-03,-2.078166790306568146e-02,3.542529419064521790e-02,4.740359634160995483e-02,-2.805312536656856537e-02,-2.796369232237339020e-02,7.651235908269882202e-02,1.478409208357334137e-02,2.840152196586132050e-02,-1.091956393793225288e-03,-1.111891642212867737e-01,2.916248887777328491e-02,-4.903022944927215576e-02,-7.784450054168701172e-02,-3.774614632129669189e-02,2.263386361300945282e-02,-2.335585281252861023e-02,-3.110811859369277954e-02,-2.929961681365966797e-02,-9.760193526744842529e-03,2.927702292799949646e-02,-1.195954382419586182e-01,-2.025202475488185883e-02,-7.957272976636886597e-02,-4.704501107335090637e-02,-4.260920360684394836e-02,1.099534239619970322e-02,2.514893934130668640e-02,-7.090893387794494629e-02,-4.179604351520538330e-02
