1.472380906343460083e-01
-2.773708850145339966e-02
-5.753883719444274902e-02
-1.793666393496096134e-03
-2.651941031217575073e-02
2.285027951002120972e-01
2.360006794333457947e-02
6.743649393320083618e-02
-1.182801127433776855e-01
5.634680762887001038e-02
-6.152477860450744629e-02
1.945438422262668610e-02
1.433507818728685379e-02
1.203075237572193146e-02
-2.152590751647949219e-01
-1.434564869850873947e-02
1.357035152614116669e-02
-7.276350259780883789e-02
2.421626150608062744e-01
4.270288348197937012e-01
1.594627499580383301e-01
2.423522621393203735e-02
2.564265131950378418e-01
-1.602984666824340820e-01
-1.113912686705589294e-01
9.815721213817596436e-02
1.455942541360855103e-01
-1.224777474999427795e-01
-2.324278280138969421e-02
1.957402192056179047e-02
-2.861586511135101318e-01
-6.679534167051315308e-02
-9.257093816995620728e-02
-1.926092617213726044e-02
2.671945840120315552e-03
-1.770063489675521851e-01
1.575872898101806641e-01
-4.494088888168334961e-02
-1.101878285408020020e-01
-1.390685513615608215e-02
2.326865941286087036e-01
-1.185147836804389954e-01
-9.259686619043350220e-02
-1.342529207468032837e-01
6.478989124298095703e-02
-3.905569761991500854e-02
-2.079477608203887939e-01
-8.168816566467285156e-02
6.714666634798049927e-02
-8.620888739824295044e-02
-4.026255570352077484e-03
2.515426464378833771e-02
-1.781922578811645508e-02
9.264703840017318726e-02
-3.765083104372024536e-02
-1.679681837558746338e-01
1.006197370588779449e-02
2.814310491085052490e-01
2.061413377523422241e-01
7.766159251332283020e-03
3.415402397513389587e-02
2.007670551538467407e-01
-2.896203994750976562e-01
8.322389796376228333e-03
-7.638742774724960327e-02
-2.727994322776794434e-01
5.448366329073905945e-02
-9.347256273031234741e-02
-9.403832256793975830e-02
-4.259799122810363770e-01
-6.267713010311126709e-02
-5.095741748809814453e-01
-1.093874569050967693e-03
-7.741114497184753418e-02
1.818837821483612061e-01
-1.549644321203231812e-01
-8.634813129901885986e-02
4.640208929777145386e-02
-1.000077426433563232e-01
9.608498960733413696e-02
-4.975855723023414612e-02
-1.056553050875663757e-01
1.412281543016433716e-01
2.771541476249694824e-02
1.373375207185745239e-02
6.541140377521514893e-02
-3.930450230836868286e-02
-9.694852679967880249e-02
-1.569189280271530151e-01
7.489872723817825317e-02
3.628846956416964531e-03
-1.227487549185752869e-01
-4.548327997326850891e-03
-5.153175815939903259e-02
-8.286226540803909302e-02
-1.235355064272880554e-01
-4.107594490051269531e-03
-4.427440464496612549e-02
4.059272259473800659e-02
-3.278672695159912109e-02
1.101059690117835999e-01
-7.421015948057174683e-02
-1.008838713169097900e-01
-8.759931474924087524e-02
-4.920770972967147827e-02
-1.772908493876457214e-03
-5.148031562566757202e-02
5.801498191431164742e-04
2.021556496620178223e-01
5.486018657684326172e-01
-8.498896658420562744e-02
-1.960709877312183380e-02
-1.084615588188171387e-01
3.364104926586151123e-01
7.315293699502944946e-02
1.902282424271106720e-02
-1.223495081067085266e-01
-4.038958251476287842e-02
-5.083790048956871033e-02
3.810193762183189392e-02
3.122961223125457764e-01
-6.128229945898056030e-02
-5.232246965169906616e-02
-9.069081395864486694e-02
-1.196368858218193054e-01
4.617142379283905029e-01
-1.157162114977836609e-01
-2.157460451126098633e-01
-8.201535046100616455e-02
-5.058438330888748169e-02
3.739323914051055908e-01
-1.243963763117790222e-01
5.767434835433959961e-01
-3.615851048380136490e-03
2.624789066612720490e-02
1.815265789628028870e-02
1.316662132740020752e-01
-5.488534271717071533e-02
-5.789596214890480042e-02
3.718442618846893311e-01
-2.284077405929565430e-01
-1.681955158710479736e-01
-5.397731438279151917e-02
-8.488032221794128418e-02
9.041217155754566193e-03
-8.095295727252960205e-02
-9.108851104974746704e-02
-1.411587372422218323e-02
1.849602535367012024e-02
-1.552450954914093018e-01
-4.207323491573333740e-02
3.347225859761238098e-02
-2.454955130815505981e-02
2.239662706851959229e-01
-5.147919058799743652e-02
-3.513188660144805908e-01
-1.000376343727111816e-01
-1.633767411112785339e-02
-1.007603257894515991e-01
-1.155190095305442810e-01
5.886939167976379395e-02
-4.276493936777114868e-02
-2.090650983154773712e-02
-1.071516871452331543e-01
2.786666899919509888e-02
2.099198102951049805e-02
-1.915238052606582642e-01
1.097398996353149414e-01
-3.278829902410507202e-02
8.249837905168533325e-02
-1.176305301487445831e-02
2.080854028463363647e-01
-1.532683074474334717e-01
-2.614988572895526886e-02
9.447591006755828857e-02
-1.702127903699874878e-01
1.819258742034435272e-02
-1.362951993942260742e-01
1.314466539770364761e-02
-8.516025543212890625e-02
-6.173700559884309769e-03
7.065618038177490234e-02
-1.109610348939895630e-01
-8.414629846811294556e-02
3.168235719203948975e-02
-2.237504115328192711e-03
-1.169722229242324829e-01
1.528930813074111938e-01
-2.560937032103538513e-02
-5.576031398959457874e-04
8.564816415309906006e-02
-9.266762435436248779e-02
1.340184919536113739e-02
1.351028382778167725e-01
-3.918389976024627686e-01
-9.121291339397430420e-02
-2.353016845881938934e-02
1.234386265277862549e-01
1.400304399430751801e-02
-1.778532378375530243e-02
1.422440912574529648e-02
-1.398694366216659546e-01
2.073230892419815063e-01
-7.659675925970077515e-02
-1.330794394016265869e-01
-9.638004004955291748e-03
6.302684196271002293e-04
2.271069586277008057e-01
1.732840687036514282e-01
-3.213182464241981506e-02
-2.940631285309791565e-02
-6.086325272917747498e-02
1.934977769851684570e-01
-6.859517307020723820e-04
3.264065086841583252e-01
5.414207577705383301e-01
5.278554931282997131e-02
-5.675856024026870728e-02
9.889965876936912537e-03
-1.038566231727600098e-01
2.913100719451904297e-01
-1.080451533198356628e-01
-2.339800298213958740e-01
-7.826704531908035278e-02
-8.389939367771148682e-02
-8.871715515851974487e-02
-1.122434530407190323e-02
3.431346267461776733e-02
-3.559884801506996155e-02
-1.546928100287914276e-02
-4.831054806709289551e-01
9.936311095952987671e-02
-6.413819640874862671e-02
-3.090855479240417480e-01
1.118784770369529724e-01
-5.833239480853080750e-02
-4.521368816494941711e-02
-8.032739162445068359e-02
-9.361416846513748169e-02
1.855149865150451660e-02
2.330987155437469482e-01
-9.071030467748641968e-02
2.826440334320068359e-02
-3.576589524745941162e-01
1.224592328071594238e-02
-1.062573343515396118e-01
-1.498668342828750610e-01
1.306917667388916016e-01
2.772347033023834229e-01
-1.384577434509992599e-02
-8.236286789178848267e-02
3.247374296188354492e-02
2.509743571281433105e-01
-8.376683294773101807e-02
8.849211968481540680e-03
-1.066871136426925659e-01
