-1.937940903007984161e-02,-4.352065920829772949e-02,-3.289937973022460938e-02,5.627100914716720581e-02,2.594032092019915581e-03,7.568610310554504395e-01,2.243085950613021851e-02,-1.581282615661621094e+00,6.699938792735338211e-03,1.926654428243637085e-01,-3.345613926649093628e-02,-4.332882165908813477e-02,3.030818654224276543e-03,-5.096109583973884583e-02,-2.933211326599121094e+00,-3.300244212150573730e-01,-4.712187945842742920e-01,4.903787001967430115e-02,-7.145774960517883301e-01,-8.200523853302001953e-01,3.196256607770919800e-02,5.741772055625915527e-02,-5.634921789169311523e-01,-1.932211816310882568e-01,-3.978334367275238037e-02,-2.310888171195983887e-01,4.879331099800765514e-04,-3.921101614832878113e-02,-1.241148188710212708e-01,-2.871168963611125946e-02,1.744534820318222046e-01,3.864933922886848450e-02,7.098980993032455444e-02,5.297196563333272934e-03,-3.417041599750518799e-01,-2.817136347293853760e-01,-2.876703143119812012e-01,6.821123510599136353e-02,2.920579165220260620e-02,6.028963625431060791e-02,-5.522656440734863281e-01,-2.829188480973243713e-02,-5.299307405948638916e-02,2.001120895147323608e-01,7.544668912887573242e-01,-3.960085660219192505e-02,-1.427987098693847656e+00,-1.458460744470357895e-02,3.875862574204802513e-03,7.622859627008438110e-02,2.698453329503536224e-02,1.921501755714416504e-02,3.772214055061340332e-02,-1.453728377819061279e-01,2.852623350918292999e-02,-2.031744718551635742e-01,1.103602815419435501e-02,-1.546880304813385010e-01,-1.271264851093292236e-01,4.562765359878540039e-02,-5.862502008676528931e-02,-4.064659178256988525e-01,7.079220563173294067e-02,-2.225279062986373901e-02,5.906853824853897095e-02,-4.159650504589080811e-01,-1.335323508828878403e-02,-2.198070287704467773e-02,-6.358850747346878052e-03,7.395545840263366699e-01,2.372139692306518555e-02,-1.972126811742782593e-01,-9.940548334270715714e-04,2.818818762898445129e-02,1.263725757598876953e-01,-6.040835380554199219e-02,1.010981854051351547e-02,-2.897548079490661621e-01,-1.732651516795158386e-02,-8.894975483417510986e-02,1.293078344315290451e-02,1.994177885353565216e-02,5.138166546821594238e-01,2.576582133769989014e-01,-6.748168915510177612e-02,-2.193547964096069336e+00,-3.591671586036682129e-02,-3.166771307587623596e-02,1.423831880092620850e-01,2.433592528104782104e-01,-7.932056188583374023e-01,-6.088772416114807129e-02,2.725212089717388153e-02,5.194007605314254761e-02,-1.073407903313636780e-01,-3.049318492412567139e-01,6.166070699691772461e-02,-5.656120181083679199e-02,-3.087584394961595535e-03,-4.250686988234519958e-02,1.166639328002929688e-01,8.849165169522166252e-04,-8.587482571601867676e-01,5.164355784654617310e-02,3.652054816484451294e-02,7.596568018198013306e-02,-6.466349959373474121e-02,7.077100127935409546e-02,-7.067825794219970703e-01,-9.755582213401794434e-01,-1.179507851600646973e+00,-2.750536426901817322e-03,4.606579244136810303e-02,-6.788616776466369629e-01,-3.594821989536285400e-01,-4.556441679596900940e-02,3.264629095792770386e-02,4.755941033363342285e-02,-6.753797084093093872e-02,3.232676088809967041e-01,4.449685513973236084e-01,-2.939485944807529449e-02,2.863832749426364899e-02,-1.796044781804084778e-02,-4.468838870525360107e-02,-2.895514726638793945e+00,3.392579033970832825e-02,4.758536517620086670e-01,-2.773873694241046906e-02,3.280137479305267334e-02,3.070751428604125977e-01,6.031467020511627197e-02,-1.472302198410034180e+00,-6.574951857328414917e-02,3.160925582051277161e-02,6.232067197561264038e-02,7.055785655975341797e-01,2.162229456007480621e-02,7.562406826764345169e-03,3.295724391937255859e-01,-2.528583705425262451e-01,1.855603903532028198e-01,1.954797655344009399e-02,-4.360084235668182373e-02,2.501318156719207764e-01,-1.129431184381246567e-02,2.560348510742187500e-01,-2.555620158091187477e-03,7.725110650062561035e-02,1.067969918251037598e+00,-1.751395990140736103e-03,2.425250411033630371e-02,-3.523391485214233398e-02,-5.979460477828979492e-02,-5.420576781034469604e-02,-7.027280926704406738e-01,-1.267357915639877319e-02,1.619825512170791626e-02,5.820662528276443481e-02,1.342020779848098755e-01,2.216717414557933807e-02,4.708869755268096924e-02,-5.421648733317852020e-03,-2.533750236034393311e-02,-5.194883048534393311e-02,2.109743282198905945e-02,-1.262252032756805420e-02,4.967274367809295654e-01,3.535933792591094971e-02,-1.926489621400833130e-01,6.598085761070251465e-01,4.187006354331970215e-01,-7.283723447471857071e-03,-2.527362480759620667e-02,4.106774628162384033e-01,5.071645975112915039e-01,4.270480200648307800e-02,1.033165585249662399e-02,9.848406538367271423e-03,2.788413874804973602e-02,-8.895936422049999237e-03,-5.998709201812744141e-01,-2.853143215179443359e-02,-7.848292589187622070e-02,-4.219769686460494995e-02,-3.155068308115005493e-02,6.108758505433797836e-03,-4.960075020790100098e-01,4.833708703517913818e-02,-6.302691996097564697e-02,-3.964141607284545898e-01,-1.935871317982673645e-03,3.042833805084228516e-01,-3.604909777641296387e-01,-3.432890772819519043e-01,3.956365585327148438e-02,1.540953665971755981e-02,1.664131581783294678e-01,-2.272084355354309082e-02,2.897679060697555542e-02,8.978500030934810638e-03,-1.434617675840854645e-02,-3.491403460502624512e-01,1.515995059162378311e-02,-4.115917906165122986e-02,3.914150595664978027e-02,1.692683063447475433e-02,-4.123917520046234131e-01,2.844340503215789795e-01,-4.679990932345390320e-03,2.724440395832061768e-02,-6.248702853918075562e-02,-2.870385535061359406e-02,-5.666147172451019287e-02,6.308720111846923828e-01,3.089162409305572510e-01,-5.580270290374755859e-02,-3.075612336397171021e-02,-7.895448803901672363e-01,8.123680949211120605e-02,1.065148860216140747e-01,2.584869861602783203e-01,6.292670965194702148e-02,4.731471240520477295e-01,-7.120591402053833008e-02,4.363014921545982361e-02,4.526684060692787170e-02,-1.153336405754089355e+00,2.513955533504486084e-02,-1.169643178582191467e-02,1.701669394969940186e-01,7.101005315780639648e-01,-3.907860815525054932e-02,2.315455824136734009e-01,2.860582172870635986e-01,3.752678632736206055e-03,2.445796318352222443e-02,3.404380381107330322e-02,-3.828112035989761353e-02,-8.184856735169887543e-03,1.241210699081420898e+00,-2.004484087228775024e-02,-6.391274183988571167e-02,-2.783202409744262695e+00,-7.644893974065780640e-02,-6.683603674173355103e-02,1.234812289476394653e-01,-7.131198048591613770e-01,-7.058786749839782715e-01,9.833849221467971802e-02,-4.367607086896896362e-02,3.392536565661430359e-02,-4.856499135494232178e-01,-9.181899949908256531e-03,-5.242271721363067627e-02,1.200383994728326797e-02
1.153393983840942383e-01,-1.245279423892498016e-02,1.978890784084796906e-02,2.041948027908802032e-02,6.953060626983642578e-03,-2.436743974685668945e-01,1.779187284409999847e-02,2.669856548309326172e-01,3.311761654913425446e-03,5.700615048408508301e-01,-4.674620926380157471e-02,3.390466421842575073e-02,-8.730909228324890137e-02,-4.292467981576919556e-02,-6.881731003522872925e-02,-1.056143999099731445e+00,3.620159327983856201e-01,6.103169918060302734e-02,2.126143127679824829e-01,7.803562283515930176e-01,-1.100120425224304199e+00,2.718646079301834106e-02,5.588693618774414062e-01,-3.492894396185874939e-02,-1.253077946603298187e-02,-3.312116563320159912e-01,1.841147989034652710e-01,-1.133034471422433853e-02,-7.834625989198684692e-02,-2.096522785723209381e-02,6.602973490953445435e-02,4.221425205469131470e-02,6.815549731254577637e-02,-6.877011805772781372e-02,1.134278476238250732e-01,1.717718839645385742e-01,-7.585214078426361084e-02,1.893038488924503326e-02,-2.691059373319149017e-02,-3.859590040519833565e-03,1.519945263862609863e-01,-4.050881415605545044e-02,7.251307368278503418e-02,-2.523005604743957520e-01,-1.937730908393859863e-01,-1.341341733932495117e-01,-7.359700202941894531e-01,8.526435494422912598e-02,-1.576238721609115601e-01,2.516218088567256927e-02,-2.148848026990890503e-02,3.525984287261962891e-02,-6.026199087500572205e-03,-5.696802139282226562e-01,1.854331232607364655e-02,6.635055541992187500e-01,7.340195775032043457e-02,-4.563049376010894775e-01,1.868766248226165771e-01,-5.737955868244171143e-02,-1.056640222668647766e-02,-1.332764476537704468e-01,1.206709519028663635e-01,-7.980811409652233124e-03,3.103625774383544922e-02,-9.654898643493652344e-01,-1.170606732368469238e+00,4.516062885522842407e-02,-7.885222136974334717e-02,-9.859318733215332031e-01,-5.132802575826644897e-02,3.389783799648284912e-01,-4.956750571727752686e-02,1.153633091598749161e-02,3.114244639873504639e-01,4.430408403277397156e-02,-1.910554245114326477e-02,-2.025248110294342041e-01,2.423522993922233582e-02,-2.189960889518260956e-02,-9.128988534212112427e-02,-5.157330632209777832e-02,5.560613274574279785e-01,5.239798426628112793e-01,3.229601681232452393e-02,-4.852097630500793457e-01,4.782270174473524094e-03,6.770833581686019897e-02,1.958122700452804565e-01,1.232949569821357727e-01,4.207503497600555420e-01,-8.033124357461929321e-02,-5.287557467818260193e-02,-2.444181591272354126e-02,2.096761949360370636e-02,-1.081457138061523438e+00,4.358529672026634216e-02,6.549528799951076508e-03,-4.836541600525379181e-03,1.064484268426895142e-01,-1.773001194000244141e+00,-5.800332874059677124e-02,-1.161824584007263184e+00,4.258393868803977966e-02,2.123340778052806854e-02,-8.933711796998977661e-03,-5.527038872241973877e-02,9.789037518203258514e-03,1.724497973918914795e-01,1.828984916210174561e-01,8.711172342300415039e-01,8.428336679935455322e-02,-3.637288697063922882e-03,-2.847133576869964600e-01,1.337539553642272949e+00,-1.019123103469610214e-02,3.111637011170387268e-02,-6.835695821791887283e-03,6.083622574806213379e-02,2.996157109737396240e-01,-1.180206835269927979e-01,-6.073657423257827759e-02,-2.739699743688106537e-02,8.376622945070266724e-02,2.290473505854606628e-02,-3.091733455657958984e-01,7.517702877521514893e-02,-5.407984852790832520e-01,-3.326707333326339722e-02,-2.691642753779888153e-02,-5.520236492156982422e-01,-1.837083883583545685e-02,4.824999570846557617e-01,3.069721162319183350e-02,3.007590211927890778e-02,-3.271069005131721497e-02,-3.146209716796875000e-01,2.389137446880340576e-02,-4.000187292695045471e-02,-5.548022687435150146e-02,1.072228312492370605e+00,2.246071398258209229e-01,-2.301838435232639313e-02,-5.170068144798278809e-02,3.571411222219467163e-02,-5.941226333379745483e-02,3.225137591361999512e-01,2.334671840071678162e-02,-2.159374393522739410e-02,1.446509361267089844e+00,-8.277045935392379761e-02,-1.085559464991092682e-02,8.470321446657180786e-02,-1.256363391876220703e+00,-5.994228273630142212e-02,2.127133309841156006e-01,-1.645456068217754364e-02,-3.159312158823013306e-02,-5.647873505949974060e-02,-2.986679375171661377e-01,2.729365110397338867e+00,2.121351100504398346e-02,1.389671768993139267e-02,-5.273032188415527344e-02,-5.730241909623146057e-02,-1.607939600944519043e-02,3.387362509965896606e-02,-5.454218015074729919e-02,-6.910242605954408646e-03,7.996455579996109009e-02,-2.113401331007480621e-02,1.799649238586425781e+00,3.608766943216323853e-02,-2.144840359687805176e-02,5.561470389366149902e-01,1.310394883155822754e+00,-6.423148512840270996e-02,-2.368594892323017120e-02,-5.777768325060606003e-03,-3.813731297850608826e-02,1.780868694186210632e-02,4.981136023998260498e-01,-3.709498327225446701e-03,1.023630332201719284e-02,1.408542040735483170e-02,5.027305707335472107e-02,2.610190957784652710e-02,-2.128000110387802124e-01,-5.829332396388053894e-03,-3.815022855997085571e-02,-6.861209273338317871e-01,3.588489023968577385e-03,7.409635782241821289e-01,-5.725320577621459961e-01,-7.923385500907897949e-01,1.001432538032531738e-03,-6.104487553238868713e-02,-4.572686925530433655e-02,-2.245362661778926849e-02,-8.863400667905807495e-02,1.099262945353984833e-02,-9.087800048291683197e-03,-6.823568940162658691e-01,-2.281635999679565430e-02,-2.562777511775493622e-02,5.788042768836021423e-02,-2.206633239984512329e-02,-7.486836314201354980e-01,-8.796714544296264648e-01,-3.377749770879745483e-02,-5.639281868934631348e-02,-2.950633689761161804e-02,9.286957234144210815e-02,-3.017381764948368073e-02,8.379093557596206665e-02,-6.542635560035705566e-01,-3.622817108407616615e-03,1.238784869201481342e-03,-9.777756333351135254e-01,-3.715771734714508057e-01,5.693890452384948730e-01,9.830225110054016113e-01,-5.828919410705566406e-01,-1.456677019596099854e-01,-3.012642031535506248e-03,-4.600157961249351501e-02,-3.380683660507202148e-01,-5.632583796977996826e-02,-2.238885685801506042e-02,-1.468442194163799286e-02,-8.369718492031097412e-02,8.617474436759948730e-01,-4.732879251241683960e-02,-6.091830730438232422e-01,-2.411524057388305664e-01,-8.397930115461349487e-02,4.247460514307022095e-02,3.212366625666618347e-02,-5.181569140404462814e-03,2.906834520399570465e-02,1.021821498870849609e+00,6.396612152457237244e-04,2.536264359951019287e-01,8.100697398185729980e-01,4.979736730456352234e-02,4.152895510196685791e-02,-3.861840367317199707e-01,-5.649321079254150391e-01,-2.237450927495956421e-01,1.573896221816539764e-02,1.227436121553182602e-02,6.271100789308547974e-02,-2.057150006294250488e-01,5.083469673991203308e-03,1.889047585427761078e-02,-2.444580011069774628e-02
-4.594067111611366272e-02,2.284169197082519531e-03,4.865627735853195190e-02,4.956670105457305908e-03,5.364825204014778137e-02,-2.968517504632472992e-02,-1.418086513876914978e-02,-1.178087666630744934e-03,4.867603257298469543e-02,-2.829540148377418518e-02,-4.105657339096069336e-03,-3.950493782758712769e-02,-2.696481300517916679e-03,-5.488593131303787231e-03,-5.987446010112762451e-02,-1.967816054821014404e-02,-2.727757953107357025e-02,-5.141165480017662048e-02,-7.878379523754119873e-02,-4.913298785686492920e-02,9.648683480918407440e-03,3.969003260135650635e-02,-3.438125178217887878e-02,1.876877062022686005e-02,2.577690035104751587e-02,-4.756748676300048828e-04,-6.249317526817321777e-02,-4.588678851723670959e-02,5.246847122907638550e-02,2.300651930272579193e-02,-7.832587510347366333e-02,3.777959942817687988e-02,4.574927687644958496e-02,-6.764291226863861084e-02,-5.837626755237579346e-02,-6.707639992237091064e-02,-8.246355503797531128e-02,4.089011996984481812e-02,1.257107406854629517e-02,8.623212575912475586e-03,-1.117677614092826843e-02,9.953677654266357422e-03,-5.879963189363479614e-02,-4.748748615384101868e-02,-3.541334718465805054e-02,4.328568279743194580e-02,-5.625705700367689133e-03,4.545770585536956787e-03,-2.617625333368778229e-02,3.082036226987838745e-02,2.931050211191177368e-02,5.161540582776069641e-02,-6.214780360460281372e-02,4.358554631471633911e-02,-5.964364111423492432e-02,-7.067140936851501465e-02,1.126924157142639160e-02,2.420216426253318787e-02,-6.003566086292266846e-03,-4.437150806188583374e-02,3.536481410264968872e-02,-5.089582875370979309e-03,1.836177892982959747e-02,-1.906212419271469116e-02,-1.300781220197677612e-02,-6.770910322666168213e-02,-4.265278205275535583e-02,-4.652369022369384766e-02,2.461108565330505371e-02,2.461015433073043823e-02,-3.431827202439308167e-02,-2.670989558100700378e-02,-2.584443427622318268e-02,2.321098931133747101e-02,-8.300027251243591309e-02,5.520095676183700562e-02,-9.109099628403782845e-04,-2.583409845829010010e-02,-2.440309524536132812e-02,5.245381593704223633e-02,-2.797539532184600830e-02,3.310739994049072266e-04,1.356361992657184601e-02,-4.267385974526405334e-02,-5.500037223100662231e-02,-2.481410838663578033e-02,4.625665396451950073e-02,-3.207422792911529541e-02,-5.738678947091102600e-02,-6.748180836439132690e-02,-8.443421125411987305e-02,-5.293338745832443237e-02,2.999129146337509155e-02,4.160720854997634888e-02,-6.745678931474685669e-02,-2.184898965060710907e-02,-5.191708356142044067e-02,-1.278349012136459351e-02,4.802514985203742981e-02,-3.246206417679786682e-02,4.682904575020074844e-03,1.015878468751907349e-02,3.842994570732116699e-02,3.094239905476570129e-02,-5.549671128392219543e-02,-1.808931678533554077e-02,-7.672673091292381287e-04,5.509306117892265320e-02,-4.699661210179328918e-02,9.747304953634738922e-03,1.125747524201869965e-02,-1.781176775693893433e-02,-5.953260138630867004e-02,-8.879505330696702003e-04,-5.282375961542129517e-02,-5.638319253921508789e-02,2.215368300676345825e-02,4.224897176027297974e-02,5.520245432853698730e-02,2.023287862539291382e-02,2.366225793957710266e-02,-4.789508879184722900e-03,2.024607732892036438e-02,-3.342813998460769653e-02,-1.768474280834197998e-02,-4.028376191854476929e-02,5.370053258957341313e-05,-7.378454506397247314e-02,1.424163579940795898e-02,-4.896751046180725098e-02,-4.287647083401679993e-03,4.423967003822326660e-02,-9.312036633491516113e-02,1.610886189155280590e-03,-6.468458473682403564e-02,9.212789125740528107e-03,-5.739680677652359009e-02,5.330011248588562012e-02,2.682667039334774017e-02,2.121142577379941940e-03,-7.617293298244476318e-02,-6.798974424600601196e-02,3.599204123020172119e-03,5.335582047700881958e-02,-4.874929413199424744e-02,-5.409239605069160461e-02,-2.336994931101799011e-02,3.844939917325973511e-02,-2.166524156928062439e-02,1.935779349878430367e-03,2.279505878686904907e-02,-3.392727673053741455e-02,-6.105330586433410645e-02,-4.815300926566123962e-02,-2.016192302107810974e-02,-4.251750931143760681e-02,6.090778857469558716e-02,2.137309312820434570e-02,4.592882841825485229e-02,-1.633099466562271118e-02,-1.673826761543750763e-02,6.196344643831253052e-02,2.542315609753131866e-02,4.944318160414695740e-02,-5.999178439378738403e-02,5.267322435975074768e-02,-5.525620281696319580e-02,-2.477991022169589996e-02,4.958083480596542358e-02,-3.219605982303619385e-02,1.943881064653396606e-02,-1.864420063793659210e-02,4.935444146394729614e-02,3.392111510038375854e-02,2.529243752360343933e-02,-1.802157843485474586e-03,1.830284297466278076e-02,5.106264352798461914e-02,4.748245701193809509e-02,-8.542722091078758240e-03,-1.458216458559036255e-02,8.090961491689085960e-04,3.713592141866683960e-02,-3.733004629611968994e-02,1.688485965132713318e-02,2.015739679336547852e-02,-4.016957245767116547e-03,-1.385624241083860397e-02,-3.287238255143165588e-02,-1.331801293417811394e-03,1.871429942548274994e-02,5.480556935071945190e-02,2.031149156391620636e-02,-2.641714364290237427e-02,-2.691667526960372925e-03,4.719992727041244507e-02,-3.329860046505928040e-02,-3.940067440271377563e-02,-1.028195489197969437e-02,4.682924225926399231e-02,-3.131856024265289307e-02,-5.274846404790878296e-02,1.319964695721864700e-02,4.579449445009231567e-02,-4.515815153717994690e-02,1.456859800964593887e-02,3.287629783153533936e-02,-2.853758633136749268e-03,-2.512880228459835052e-02,-1.507642492651939392e-02,-5.026405304670333862e-02,-3.438203036785125732e-02,8.905648253858089447e-03,-5.626076459884643555e-02,-8.203406631946563721e-02,1.225017569959163666e-02,5.660489946603775024e-02,-3.184893354773521423e-02,-9.280928643420338631e-04,-5.842272564768791199e-02,2.213218249380588531e-02,5.887815263122320175e-03,1.647556573152542114e-02,2.142287790775299072e-02,2.985256165266036987e-02,-4.788211733102798462e-02,-1.431231014430522919e-02,2.025741524994373322e-02,5.606044828891754150e-02,1.567335613071918488e-02,-3.990354761481285095e-02,2.093260176479816437e-02,-3.088250756263732910e-03,-2.969275787472724915e-02,-8.504780381917953491e-02,1.482148468494415283e-02,3.043361566960811615e-02,-6.542809307575225830e-02,-6.554087996482849121e-02,5.836329888552427292e-03,-7.813076674938201904e-02,3.024771437048912048e-02,4.027029499411582947e-02,-3.840528056025505066e-02,-1.203951612114906311e-02,-4.788542538881301880e-02,3.896615654230117798e-02,-4.152958095073699951e-02,-3.343983739614486694e-02,2.767648175358772278e-02,-4.968845844268798828e-02,2.034607715904712677e-02,2.306742221117019653e-02,2.195252105593681335e-02,-1.544244680553674698e-02,-5.630112811923027039e-02
-7.672504782676696777e-01,-5.364133976399898529e-03,-1.720642670989036560e-02,5.478385835886001587e-02,6.178189814090728760e-02,-6.810108423233032227e-01,-1.182726100087165833e-01,5.344458222389221191e-01,6.833331286907196045e-02,1.145072221755981445e+00,-1.666856557130813599e-02,1.120563596487045288e-03,5.269453395158052444e-03,-4.079690575599670410e-02,-8.610033243894577026e-02,-1.491509795188903809e+00,-6.917407512664794922e-01,-2.975237183272838593e-02,-3.768045306205749512e-01,2.998766601085662842e-01,1.598746776580810547e-01,-4.404294668347574770e-05,1.878375709056854248e-01,6.731598377227783203e-01,-5.154516082257032394e-03,2.208213806152343750e-01,1.786809116601943970e-01,-2.926658280193805695e-02,3.964594751596450806e-02,1.082153394818305969e-01,-5.419042706489562988e-01,3.189494460821151733e-02,-4.677338525652885437e-02,-4.260423779487609863e-02,1.971873492002487183e-01,-6.042335927486419678e-02,-2.005798965692520142e-01,3.782460093498229980e-02,1.978480629622936249e-02,-3.769002109766006470e-02,3.649101555347442627e-01,3.539078682661056519e-02,2.835042774677276611e-01,1.461934089660644531e+00,2.332769334316253662e-01,-6.801974028348922729e-02,2.366650253534317017e-01,2.331656217575073242e-02,4.032244682312011719e-01,1.403161138296127319e-02,3.516293689608573914e-02,7.407146040350198746e-03,1.347179408185184002e-03,-2.200897932052612305e+00,1.373641490936279297e-01,3.710693120956420898e-01,-3.077582642436027527e-02,5.705416202545166016e-02,-8.147691190242767334e-02,2.935819327831268311e-02,-4.587896168231964111e-02,3.075979650020599365e-01,-4.049978554248809814e-01,5.043572559952735901e-02,-3.209637850522994995e-02,-2.862407565116882324e-01,-1.986942648887634277e+00,-1.034770905971527100e-02,5.141492560505867004e-02,-3.077890157699584961e+00,-3.381735458970069885e-02,-6.265703439712524414e-01,-2.564824558794498444e-02,-1.116141444072127342e-03,1.116170883178710938e-01,1.619959995150566101e-02,3.447654470801353455e-02,-2.134575605392456055e+00,1.122363377362489700e-02,-4.397182166576385498e-01,2.077436074614524841e-02,-1.011969335377216339e-02,-3.718371987342834473e-01,2.595583498477935791e-01,8.751694858074188232e-02,4.636696875095367432e-01,-2.868773043155670166e-02,-3.605765104293823242e-02,4.044941440224647522e-02,2.358473986387252808e-01,2.997767627239227295e-01,1.042270939797163010e-02,5.529210902750492096e-03,3.807447105646133423e-02,1.970620900392532349e-01,-4.823275208473205566e-01,1.981054246425628662e-02,-2.024058252573013306e-02,-6.355451792478561401e-02,8.427512645721435547e-02,-3.083329677581787109e+00,-7.719084620475769043e-02,2.103253602981567383e+00,-1.120149251073598862e-02,-5.251306667923927307e-02,-7.489443570375442505e-02,7.941138744354248047e-02,-2.768613211810588837e-02,1.286208331584930420e-01,1.214955970644950867e-01,-6.203984618186950684e-01,7.240517996251583099e-03,-1.420705486088991165e-02,5.060315132141113281e-01,2.808743417263031006e-01,9.137632697820663452e-02,3.488534316420555115e-02,-5.459527298808097839e-02,6.216550990939140320e-02,9.957074373960494995e-02,-7.576855272054672241e-02,-2.910450100898742676e-03,6.467766128480434418e-03,-5.217461381107568741e-03,5.711788684129714966e-02,3.258474767208099365e-01,9.915160015225410461e-03,-6.226831078529357910e-01,-5.409736186265945435e-02,-1.340128947049379349e-02,3.130698800086975098e-01,5.403805524110794067e-02,2.352640777826309204e-01,-5.366748571395874023e-02,-4.611981101334095001e-03,7.999285124242305756e-03,-1.305238842964172363e+00,-8.355768397450447083e-03,-3.275532647967338562e-02,3.983258605003356934e-01,-7.856608033180236816e-01,-6.529860496520996094e-01,1.931252889335155487e-02,-1.289333309978246689e-02,1.844321489334106445e-01,6.333956122398376465e-02,-9.849838912487030029e-02,-1.451364625245332718e-02,-1.540637481957674026e-02,-2.247886806726455688e-01,-4.545671492815017700e-02,-3.662606701254844666e-02,-2.882271632552146912e-02,3.851299583911895752e-01,3.193163871765136719e-02,1.142573803663253784e-01,1.017127931118011475e-02,1.623297482728958130e-02,3.587371110916137695e-02,-3.461273014545440674e-01,2.456210613250732422e+00,1.214967458508908749e-03,4.588093981146812439e-02,2.090229280292987823e-02,-2.058559469878673553e-02,-3.207183629274368286e-02,1.176880672574043274e-01,1.650380045175552368e-01,-9.125098586082458496e-03,-2.267814576625823975e-01,7.447808384895324707e-01,1.672748029232025146e-01,-3.161511570215225220e-02,5.333198234438896179e-02,8.377814888954162598e-01,-1.475361734628677368e-01,4.002624377608299255e-02,8.956022560596466064e-02,2.209296077489852905e-02,-8.222122676670551300e-03,-2.014294452965259552e-02,3.100045323371887207e-01,-1.063116267323493958e-02,-1.943783648312091827e-02,-3.377730399370193481e-02,7.176239788532257080e-02,6.184250488877296448e-02,1.508718580007553101e-01,-3.221260383725166321e-02,4.551846906542778015e-02,-3.996782898902893066e-01,1.027674693614244461e-02,-6.295971870422363281e-01,-1.780439496040344238e+00,6.768262386322021484e-02,1.934054493904113770e-02,-2.032340690493583679e-02,-4.571781158447265625e-01,-6.299751251935958862e-02,8.210207521915435791e-02,1.773702539503574371e-02,4.861488193273544312e-02,4.127375781536102295e-01,8.015864342451095581e-02,1.828526891767978668e-02,2.101743593811988831e-02,-6.686587631702423096e-02,-1.087787151336669922e+00,-2.936619281768798828e+00,5.746960267424583435e-02,-2.978156507015228271e-02,1.106439623981714249e-02,2.759584486484527588e-01,-2.411733195185661316e-02,2.500247955322265625e-01,5.646361410617828369e-02,-5.470394715666770935e-02,-3.744500502943992615e-02,-4.988048970699310303e-01,-3.895434439182281494e-01,3.377681970596313477e-02,-3.282719105482101440e-02,-2.295484244823455811e-01,1.594535708427429199e+00,4.747492074966430664e-02,4.331220686435699463e-02,4.018757343292236328e-01,7.326112389564514160e-01,-2.900470793247222900e-02,-7.741608656942844391e-03,-2.010173499584197998e-01,2.609624266624450684e-01,-1.898742467164993286e-02,-6.752879619598388672e-01,1.313120245933532715e+00,5.119681823998689651e-03,-3.293439745903015137e-02,-2.445181272923946381e-02,7.620287593454122543e-03,9.673803299665451050e-02,5.090560913085937500e-01,-1.853146776556968689e-02,-1.171986103057861328e+00,1.806294173002243042e-01,1.329671964049339294e-02,-1.501899212598800659e-02,-4.343958497047424316e-01,3.385212719440460205e-01,-8.655654788017272949e-01,-5.761210620403289795e-02,1.864349469542503357e-02,-1.797606050968170166e-02,-9.047079086303710938e-01,7.015720009803771973e-02,-7.029701769351959229e-02,-2.238392084836959839e-02
-5.020350217819213867e-01,-2.591048739850521088e-02,-1.380158937536180019e-03,6.099249050021171570e-02,4.266652092337608337e-02,9.007394909858703613e-01,2.003074437379837036e-02,1.780421659350395203e-02,-5.561546236276626587e-02,-6.163414218463003635e-04,1.193786412477493286e-02,-4.027743265032768250e-02,3.561783209443092346e-02,-4.606629163026809692e-02,-1.236150979995727539e+00,-7.040986418724060059e-01,-8.932861089706420898e-01,4.557679593563079834e-02,3.705267235636711121e-02,1.487473398447036743e-01,-4.202977716922760010e-01,2.069029398262500763e-02,-2.103168368339538574e-01,-5.018607378005981445e-01,-5.386671051383018494e-03,2.747894525527954102e-01,5.600674152374267578e-01,-4.207454621791839600e-02,-6.266615819185972214e-03,2.836538292467594147e-02,6.658816933631896973e-01,-2.997781895101070404e-02,-2.472733706235885620e-02,-3.235831484198570251e-02,9.454734325408935547e-01,-2.456658035516738892e-01,2.545595467090606689e-01,-2.233395166695117950e-02,1.858827844262123108e-02,4.889432340860366821e-02,-1.910470724105834961e+00,9.580341167747974396e-03,7.225861549377441406e-01,5.529233217239379883e-01,-1.464615345001220703e+00,-1.929942518472671509e-02,-2.154783159494400024e-01,2.209128066897392273e-02,3.451310098171234131e-01,-5.367147922515869141e-02,-4.438783973455429077e-02,-1.274880580604076385e-02,4.752422496676445007e-02,-8.601010441780090332e-01,3.653581254184246063e-03,5.461727380752563477e-01,-1.234972756356000900e-02,3.691775798797607422e-01,3.218632563948631287e-02,2.829447574913501740e-02,5.774388089776039124e-02,-5.506974831223487854e-02,-2.352643162012100220e-01,-2.103018946945667267e-02,-5.692767351865768433e-02,-2.075067520141601562e+00,-8.641439676284790039e-02,2.544934861361980438e-02,-6.117053702473640442e-02,-1.401003301143646240e-01,-1.346701849251985550e-02,-5.003835558891296387e-01,-6.816441565752029419e-02,-5.897166579961776733e-02,-9.501651674509048462e-02,1.309805642813444138e-02,3.204537555575370789e-02,1.001116111874580383e-01,-4.465908184647560120e-02,-1.191961169242858887e-01,2.552960813045501709e-02,-7.082287222146987915e-02,2.493689507246017456e-01,-6.802096366882324219e-01,-2.488977462053298950e-02,-5.199775695800781250e-01,-3.189747035503387451e-02,-3.552061691880226135e-02,9.204922616481781006e-02,-1.691569387912750244e-01,-5.415069460868835449e-01,-3.615432232618331909e-02,1.790214143693447113e-02,4.548807442188262939e-02,-1.096926927566528320e+00,-1.770600914955139160e+00,4.222868010401725769e-02,-3.250458836555480957e-01,5.913375411182641983e-03,9.269489347934722900e-02,-6.826568245887756348e-01,2.605784684419631958e-02,-7.207061648368835449e-01,3.194354474544525146e-02,3.460730239748954773e-02,3.987076133489608765e-02,4.363371059298515320e-02,-3.870426490902900696e-02,9.780221432447433472e-02,-2.520682215690612793e-01,-2.680063545703887939e-01,-3.455365821719169617e-02,1.876000128686428070e-02,3.907783329486846924e-01,7.947637438774108887e-01,3.094463981688022614e-02,-4.897002875804901123e-02,2.324462495744228363e-02,-3.069669380784034729e-02,-1.106711104512214661e-01,3.457516729831695557e-01,4.633536934852600098e-02,5.376062542200088501e-02,7.288995664566755295e-03,5.478901788592338562e-02,-1.265757918357849121e+00,4.228946939110755920e-02,-8.965123891830444336e-01,8.572608232498168945e-03,5.661763623356819153e-02,5.686084628105163574e-01,-4.123551305383443832e-03,-4.079012274742126465e-01,-5.516374483704566956e-03,1.250899583101272583e-02,-6.823861598968505859e-02,-3.700607120990753174e-01,-7.223487645387649536e-02,-1.506561785936355591e-02,-4.841406643390655518e-01,-7.099961042404174805e-01,-1.284256815910339355e+00,-3.003088198602199554e-02,-3.273290023207664490e-02,-2.537654638290405273e-01,2.005477435886859894e-02,2.064028531312942505e-01,-7.493694126605987549e-02,6.515859067440032959e-02,6.037616133689880371e-01,3.007379174232482910e-02,2.617913705762475729e-04,5.760561674833297729e-02,-2.166620254516601562e+00,2.553364727646112442e-03,-2.118466496467590332e-01,-4.781780391931533813e-02,1.725829392671585083e-02,1.729700714349746704e-02,-2.911869287490844727e-01,1.242447614669799805e+00,-5.437470972537994385e-02,3.054532222449779510e-02,-6.821982562541961670e-02,2.377732470631599426e-02,-5.227569490671157837e-02,-4.242221638560295105e-02,2.332481145858764648e-01,-4.925394803285598755e-02,7.920898497104644775e-02,4.886203408241271973e-01,-2.450180292129516602e+00,-6.476957350969314575e-02,-1.713402383029460907e-02,-2.387591123580932617e+00,3.185142874717712402e-01,2.693067491054534912e-02,5.365873128175735474e-02,4.238973185420036316e-02,-2.102766185998916626e-02,-4.632959514856338501e-02,-7.880728840827941895e-01,8.911509066820144653e-03,2.555116266012191772e-02,-5.830541625618934631e-02,4.949882626533508301e-02,1.659090630710124969e-02,-1.362319469451904297e+00,-7.511956989765167236e-02,-4.345943778753280640e-02,-2.269299775362014771e-01,1.777121797204017639e-02,5.044888257980346680e-01,-6.640195846557617188e-02,-5.452160835266113281e-01,1.848906278610229492e-02,-1.335757039487361908e-02,-9.665802121162414551e-02,-5.762227252125740051e-02,-2.601224742829799652e-02,4.028585553169250488e-02,1.344747096300125122e-02,-1.531545281410217285e+00,-8.498638123273849487e-02,-2.118507586419582367e-02,4.109495878219604492e-02,-5.293704569339752197e-02,-1.915910392999649048e-01,4.035792052745819092e-01,-4.517443105578422546e-02,-2.256289869546890259e-02,-6.496888399124145508e-02,3.056213855743408203e-01,3.531480953097343445e-02,4.483407139778137207e-01,4.821617603302001953e-01,-1.007863506674766541e-02,7.335268892347812653e-03,-1.126593947410583496e+00,-3.502885103225708008e-01,-3.804455399513244629e-01,-3.557179570198059082e-01,-1.371804594993591309e+00,8.082415461540222168e-01,-5.143004003912210464e-03,-1.193431764841079712e-02,-1.007820725440979004e+00,-4.310984611511230469e-01,-4.769454151391983032e-02,2.394291572272777557e-02,2.696629166603088379e-01,6.099589467048645020e-01,-3.523863852024078369e-02,-9.915847182273864746e-01,3.679411411285400391e-01,2.851706929504871368e-02,4.165482521057128906e-02,-7.566685229539871216e-02,-4.793795198202133179e-02,-1.497771032154560089e-02,2.714785002171993256e-02,4.393098130822181702e-02,4.896533787250518799e-01,-9.085519313812255859e-01,-1.663856953382492065e-01,-3.740917518734931946e-02,-5.064964890480041504e-01,4.119364917278289795e-01,-2.169980108737945557e-01,9.671960026025772095e-02,-6.122522987425327301e-03,4.406586661934852600e-02,-3.161343187093734741e-02,-8.401160128414630890e-03,-3.640026226639747620e-02,3.860477358102798462e-02
-4.690168499946594238e-01,-2.451506257057189941e-02,3.819493111222982407e-03,-3.805065527558326721e-02,7.831652183085680008e-04,1.321056392043828964e-02,-2.234646864235401154e-02,-9.480288624763488770e-02,1.120597403496503830e-02,7.541520595550537109e-01,5.728903412818908691e-02,-2.699275314807891846e-02,-1.795922964811325073e-02,3.398816287517547607e-02,-4.801285266876220703e-01,1.702370196580886841e-01,7.192429900169372559e-02,6.245899945497512817e-02,-4.499058723449707031e-01,-1.454966813325881958e-01,2.811776399612426758e-01,4.564628005027770996e-03,-7.522555589675903320e-01,3.934885933995246887e-02,-9.822352789342403412e-03,2.283723801374435425e-01,-1.027533292770385742e+00,6.139671802520751953e-02,-2.013630606234073639e-02,-3.779802843928337097e-02,-3.863213062286376953e-01,1.519382745027542114e-02,7.884054630994796753e-02,4.994576796889305115e-02,-7.817959785461425781e-02,-3.632203042507171631e-01,1.369683891534805298e-01,3.362231701612472534e-02,-3.708774596452713013e-02,-4.365491867065429688e-02,-2.378976345062255859e-01,4.783372581005096436e-02,-1.218707084655761719e+00,4.959032535552978516e-01,1.774678975343704224e-01,5.684629082679748535e-03,9.876079857349395752e-03,-9.000606834888458252e-03,-4.714750945568084717e-01,2.842936664819717407e-02,-5.712316930294036865e-02,-4.821680486202239990e-02,-2.873929589986801147e-02,-1.344897150993347168e-01,6.026178598403930664e-03,-8.454330563545227051e-01,-1.492682844400405884e-02,2.964948713779449463e-01,7.193336635828018188e-02,1.189087331295013428e-02,-1.804403215646743774e-02,-6.899219751358032227e-02,-5.682117938995361328e-01,-2.586043998599052429e-02,2.181123197078704834e-02,3.536516726016998291e-01,1.935087144374847412e-01,-2.281579561531543732e-02,8.979424834251403809e-03,1.128820031881332397e-01,-4.959337785840034485e-02,4.415749758481979370e-02,4.030440002679824829e-02,9.457250125706195831e-03,1.740066558122634888e-01,-6.990592926740646362e-02,-3.382519260048866272e-02,1.904646307229995728e-01,2.977007627487182617e-02,-6.552799791097640991e-02,-4.390621930360794067e-02,-4.608400166034698486e-02,-2.742031514644622803e-01,-8.240119367837905884e-02,9.861862659454345703e-02,2.395203560590744019e-01,5.862592905759811401e-02,-4.920178093016147614e-03,1.321808695793151855e-01,-7.207132875919342041e-02,-3.622347116470336914e-01,5.857934802770614624e-02,4.294881597161293030e-02,3.619573265314102173e-02,-8.506039977073669434e-01,-1.142555400729179382e-01,-6.189807504415512085e-02,1.179164052009582520e-01,-2.667687460780143738e-02,-3.739653825759887695e-01,2.037072926759719849e-01,4.265087842941284180e-02,2.528631091117858887e-01,-9.070187807083129883e-03,-2.165846526622772217e-03,1.792026497423648834e-02,5.172965303063392639e-02,5.844595655798912048e-02,-1.516517847776412964e-01,-7.940809130668640137e-01,-3.808685839176177979e-01,5.029769986867904663e-02,2.236821502447128296e-02,-8.214019984006881714e-02,4.040868878364562988e-01,4.056846350431442261e-02,3.012523800134658813e-02,2.420952916145324707e-02,-1.262185908854007721e-02,-8.897631764411926270e-01,-8.674918413162231445e-01,-5.524333566427230835e-02,2.394722215831279755e-02,9.775638580322265625e-03,8.676931262016296387e-03,-7.487047314643859863e-01,5.255288630723953247e-02,9.074873477220535278e-02,3.846669942140579224e-02,-5.175541620701551437e-03,-5.876895189285278320e-01,-6.076710671186447144e-02,3.708104193210601807e-01,3.151823952794075012e-02,-1.091239601373672485e-02,-5.774572025984525681e-03,-7.825547456741333008e-02,-5.144250020384788513e-02,-8.785143494606018066e-03,5.875751003623008728e-02,2.011325508356094360e-01,-1.094890117645263672e+00,3.950531780719757080e-02,3.224117681384086609e-02,-1.211596876382827759e-01,3.137402236461639404e-02,-2.572328150272369385e-01,-1.641921699047088623e-03,-2.558830427005887032e-03,-4.248797893524169922e-01,-6.538346409797668457e-03,3.207720816135406494e-03,6.810563802719116211e-02,1.695394963026046753e-01,-1.768408715724945068e-02,-5.527666211128234863e-02,-2.089481800794601440e-02,-3.758393973112106323e-02,-2.615688741207122803e-02,-6.420695781707763672e-01,5.255568027496337891e-01,4.874195903539657593e-02,8.463733829557895660e-03,-7.766155060380697250e-03,3.295728191733360291e-02,-4.437422007322311401e-02,-2.785754203796386719e-02,2.934356406331062317e-02,-4.394880682229995728e-02,-2.977022528648376465e-02,2.191572636365890503e-02,-4.506065845489501953e-01,2.855551615357398987e-02,-4.065213724970817566e-02,1.813339442014694214e-01,8.670823276042938232e-02,-2.709325216710567474e-02,-1.223102211952209473e-03,2.679155580699443817e-02,-1.122248731553554535e-02,1.050711609423160553e-03,9.311509877443313599e-02,-1.440548337996006012e-02,-4.551443271338939667e-03,2.484456636011600494e-02,2.665414661169052124e-02,-6.877817213535308838e-03,-1.364191323518753052e-01,6.117299199104309082e-02,4.249867051839828491e-02,-1.313877224922180176e+00,-4.314153268933296204e-02,8.181860446929931641e-01,-1.043457016348838806e-01,1.766542047262191772e-01,-5.673619359731674194e-02,6.574673205614089966e-02,-1.045463442802429199e+00,-3.248000890016555786e-02,3.060925751924514771e-02,-4.193717241287231445e-02,3.077727556228637695e-02,-1.571300327777862549e-01,-2.901681512594223022e-02,-2.492799609899520874e-02,-9.856723248958587646e-03,4.612158238887786865e-02,2.375419288873672485e-01,3.067218065261840820e-01,3.826959431171417236e-02,4.118122160434722900e-02,1.224566902965307236e-02,5.066260695457458496e-01,-5.519387871026992798e-02,-3.117224574089050293e-01,-1.665645003318786621e+00,7.148664444684982300e-02,1.522125490009784698e-02,-4.096269309520721436e-01,4.466297328472137451e-01,1.242853775620460510e-01,8.281832933425903320e-02,-7.661308646202087402e-01,1.480413973331451416e-01,3.584913909435272217e-02,-3.575494140386581421e-02,-1.250212788581848145e-01,3.403301239013671875e-01,4.028329625725746155e-02,6.091922149062156677e-02,1.495258882641792297e-03,-5.369463190436363220e-02,-4.948762804269790649e-02,-5.197653174400329590e-01,1.067459464073181152e+00,-5.830153822898864746e-03,3.234761953353881836e-02,-5.281826853752136230e-02,3.086432814598083496e-03,-8.464192040264606476e-03,2.509418427944183350e-01,1.769104599952697754e-02,-8.365378975868225098e-01,-6.409524083137512207e-01,7.209977507591247559e-02,-5.610377341508865356e-02,-5.305617451667785645e-01,-1.487604081630706787e-01,2.529782950878143311e-01,-1.358979195356369019e-02,7.357425987720489502e-02,7.807947229593992233e-03,2.281964570283889771e-01,1.349689811468124390e-02,-1.887691766023635864e-02,-5.007029697299003601e-02
-8.163031935691833496e-02,-4.839801788330078125e-02,5.674366652965545654e-02,5.357682704925537109e-03,-2.455953508615493774e-02,-3.559442982077598572e-02,5.269159004092216492e-02,-2.782059833407402039e-02,-4.419618099927902222e-02,-4.720325767993927002e-02,-4.442253708839416504e-02,-4.592387750744819641e-02,3.844446688890457153e-02,9.500601328909397125e-03,-5.601297691464424133e-02,-4.491677135229110718e-02,-4.355276003479957581e-03,-1.560342032462358475e-02,-3.494961187243461609e-02,-7.719438523054122925e-02,-1.841792650520801544e-02,-2.720075845718383789e-02,-1.377672702074050903e-01,-1.713141426444053650e-02,2.269635535776615143e-02,-4.511600825935602188e-03,-2.959108911454677582e-02,2.314951829612255096e-02,7.508141919970512390e-03,-2.214170806109905243e-02,-7.686970755457878113e-03,-5.116959661245346069e-02,-5.366749316453933716e-02,-5.826901644468307495e-02,-4.131728410720825195e-02,-9.965172410011291504e-02,-3.205089643597602844e-02,5.623860657215118408e-02,-1.354315131902694702e-02,4.849034547805786133e-02,-5.461705848574638367e-02,3.212504088878631592e-03,-1.172457449138164520e-02,-3.102692775428295135e-02,4.033507779240608215e-02,-3.662096709012985229e-02,5.191693082451820374e-02,3.089468181133270264e-02,4.155844449996948242e-02,3.280805051326751709e-02,-3.208341449499130249e-02,3.321862593293190002e-02,-6.403946131467819214e-02,-9.283326566219329834e-03,1.670985855162143707e-02,-1.101305931806564331e-01,5.167564749717712402e-02,1.424570288509130478e-02,3.618007153272628784e-02,-1.014739274978637695e-03,-6.156110204756259918e-03,-1.460543461143970490e-02,-8.431498706340789795e-02,-1.125370059162378311e-02,-3.263087570667266846e-02,8.555553853511810303e-02,-9.247628599405288696e-02,2.874516695737838745e-02,2.169562876224517822e-02,-2.877597883343696594e-02,1.851004548370838165e-02,-5.189800169318914413e-03,2.005228400230407715e-02,-5.750942230224609375e-02,-5.207655206322669983e-02,3.442556411027908325e-02,-5.617196671664714813e-03,1.283764373511075974e-02,-2.533350139856338501e-02,6.580194458365440369e-04,-5.841951817274093628e-02,-1.515661180019378662e-02,-1.815045811235904694e-02,-9.391086176037788391e-03,4.343601316213607788e-02,-3.602046892046928406e-02,-1.662391424179077148e-02,1.814883202314376831e-02,-2.850542590022087097e-02,-8.186070621013641357e-02,-1.342882122844457626e-02,-5.711319297552108765e-02,-3.026184998452663422e-02,-4.317902773618698120e-02,3.630848973989486694e-02,4.663416370749473572e-02,3.250028565526008606e-02,4.521488770842552185e-02,-2.128344774246215820e-02,-5.375250056385993958e-02,1.059274654835462570e-02,8.881814777851104736e-03,2.414186298847198486e-02,1.406209263950586319e-02,-6.175867095589637756e-02,-2.492710947990417480e-02,-4.073955491185188293e-02,8.358500897884368896e-03,-3.945678472518920898e-03,2.369321696460247040e-02,-5.531185120344161987e-02,1.629259204491972923e-03,5.939183291047811508e-03,4.723074287176132202e-02,-8.762405812740325928e-02,1.354863308370113373e-02,-6.189049780368804932e-02,-4.291285201907157898e-02,4.614104330539703369e-02,-1.181232184171676636e-01,-1.078623812645673752e-02,-2.353160083293914795e-02,-4.966936632990837097e-02,-1.386666949838399887e-02,-1.152519416064023972e-02,-8.002036064863204956e-02,-4.392028972506523132e-02,-1.354618668556213379e-01,4.300458729267120361e-02,2.199139446020126343e-02,-4.593601915985345840e-04,2.193632721900939941e-02,-5.650246888399124146e-02,2.274480462074279785e-02,1.603058911859989166e-02,2.872757054865360260e-02,9.054276160895824432e-03,1.926351711153984070e-02,3.624628856778144836e-02,-1.557824946939945221e-02,-2.040451765060424805e-02,-8.166920393705368042e-02,5.104265734553337097e-02,5.873981863260269165e-02,1.286521740257740021e-02,-5.446721985936164856e-02,1.518737245351076126e-02,2.793072164058685303e-02,-1.926328800618648529e-02,-3.662934154272079468e-02,-5.410686880350112915e-02,-1.817033253610134125e-02,-2.774877846240997314e-02,-3.878489509224891663e-02,-5.680336058139801025e-02,-2.313454868271946907e-03,3.704167902469635010e-03,7.771328091621398926e-03,-5.445688217878341675e-02,-1.272557228803634644e-01,-2.575199864804744720e-02,6.129489839076995850e-02,3.964784368872642517e-02,2.568461932241916656e-02,4.702189192175865173e-02,-2.715059556066989899e-03,1.998889073729515076e-02,8.998221717774868011e-03,1.577378809452056885e-02,-2.616241388022899628e-02,-3.900659829378128052e-02,-2.481829002499580383e-02,4.486697539687156677e-02,-4.766526073217391968e-02,-7.832001149654388428e-02,-6.458237022161483765e-02,3.394564613699913025e-02,8.306277915835380554e-03,-3.652155399322509766e-02,4.887529183179140091e-03,4.751640558242797852e-02,-4.982574656605720520e-02,-2.492787688970565796e-02,-6.067264825105667114e-02,-8.434833027422428131e-03,5.317264050245285034e-02,2.740681171417236328e-02,3.444422036409378052e-02,4.634431004524230957e-02,-5.693896487355232239e-02,-3.595298901200294495e-02,-6.195567548274993896e-03,-9.411819279193878174e-02,-3.485812246799468994e-02,4.143678769469261169e-02,1.281579583883285522e-02,1.966557651758193970e-02,3.125629574060440063e-02,2.655743993818759918e-02,-5.202497541904449463e-02,-3.396939486265182495e-02,2.681359648704528809e-02,2.944212965667247772e-02,-4.117900133132934570e-02,2.457264810800552368e-02,-5.053602904081344604e-02,-2.339348196983337402e-03,-1.124280989170074463e-01,4.906881228089332581e-02,4.772286489605903625e-02,6.219284981489181519e-02,5.612175539135932922e-02,-8.359228074550628662e-02,2.875641547143459320e-02,1.637198030948638916e-02,-4.947361070662736893e-03,-3.561464697122573853e-02,-5.914201214909553528e-02,-8.601316250860691071e-03,-6.209658458828926086e-03,-2.691540867090225220e-02,-2.869379892945289612e-02,-5.470309779047966003e-02,-1.113309562206268311e-01,4.179263859987258911e-02,5.718999356031417847e-02,3.573027998208999634e-02,-1.713162637315690517e-03,-3.137692064046859741e-02,3.389109671115875244e-02,8.581876754760742188e-03,-2.471207641065120697e-02,-4.996181279420852661e-02,-6.548705697059631348e-02,2.119451062753796577e-03,7.465258706361055374e-03,-5.664418265223503113e-02,5.167129635810852051e-02,-2.033925056457519531e-02,-5.587516725063323975e-02,-5.701069906353950500e-02,-5.624955892562866211e-02,1.108836568892002106e-02,4.937715362757444382e-03,-2.644845098257064819e-02,5.562855303287506104e-02,-3.371347486972808838e-02,-1.452212780714035034e-02,-2.266627550125122070e-02,5.278488621115684509e-02,2.996367216110229492e-02,3.342390060424804688e-02,-4.648847877979278564e-02,-3.701573610305786133e-02,-1.265074126422405243e-02,-4.923338815569877625e-02
-1.430783793330192566e-02,-3.748273104429244995e-02,-1.454492658376693726e-02,-3.619290888309478760e-03,2.751368284225463867e-02,-4.136921837925910950e-02,-6.183962523937225342e-02,-6.484145764261484146e-03,-5.098850931972265244e-03,-4.897217452526092529e-02,4.166872054338455200e-02,-4.186090454459190369e-02,-2.632319554686546326e-02,-8.532111532986164093e-03,-2.108753472566604614e-02,-4.886449873447418213e-02,1.815239712595939636e-02,-2.969166263937950134e-02,1.121732126921415329e-02,-5.049272906035184860e-03,2.940373867750167847e-02,-4.763084650039672852e-02,-3.020875714719295502e-02,-6.196048855781555176e-02,-4.621337354183197021e-02,1.587136089801788330e-02,3.441389277577400208e-02,1.728451624512672424e-02,3.431180119514465332e-02,-6.016505882143974304e-03,3.485065326094627380e-02,-1.874130964279174805e-02,-3.179685771465301514e-02,-6.002535112202167511e-03,-3.732302784919738770e-02,-1.159786805510520935e-01,-1.435738056898117065e-02,-3.403503075242042542e-02,-1.467765867710113525e-02,3.649702668190002441e-02,-8.229998499155044556e-02,3.855568915605545044e-02,-3.333865106105804443e-02,-7.317071314901113510e-03,-7.865931838750839233e-02,5.325398594141006470e-02,4.913484212011098862e-03,-4.375538229942321777e-02,-6.935129873454570770e-03,5.280154198408126831e-02,5.062390491366386414e-02,-4.315667599439620972e-02,1.016025524586439133e-02,-4.017844051122665405e-02,-4.205051064491271973e-02,-3.086271882057189941e-02,5.649482458829879761e-02,-3.874257579445838928e-02,3.311271965503692627e-02,-3.007174283266067505e-02,-4.017047584056854248e-02,-4.081269353628158569e-02,-6.482911854982376099e-02,-4.364606738090515137e-02,3.492444753646850586e-02,-7.392901927232742310e-03,-1.893752999603748322e-02,-2.803224511444568634e-02,6.066136807203292847e-02,1.641731709241867065e-02,3.625720366835594177e-02,-9.740515798330307007e-02,-1.362939272075891495e-02,4.096218571066856384e-02,-9.930230677127838135e-03,1.104038953781127930e-02,2.544966526329517365e-02,-2.996874600648880005e-02,1.994445919990539551e-03,7.767754141241312027e-03,-4.063129425048828125e-02,-6.178246438503265381e-02,-3.800425678491592407e-02,-5.698934942483901978e-02,-4.232041537761688232e-02,-2.977235417347401381e-04,1.734474301338195801e-02,5.905831605195999146e-02,3.437887877225875854e-02,-6.066052615642547607e-02,-3.623197227716445923e-02,-5.191572010517120361e-02,1.661591231822967529e-02,-4.858587682247161865e-02,-1.093095317482948303e-01,-1.074432507157325745e-01,-1.726280897855758667e-02,-3.804024681448936462e-02,5.699298530817031860e-02,3.225933387875556946e-02,1.259727869182825089e-02,2.504013478755950928e-02,-6.858440488576889038e-02,5.617169663310050964e-02,4.686005786061286926e-02,5.334702134132385254e-02,-1.336439047008752823e-02,-1.074746251106262207e-03,-7.965534925460815430e-02,-5.208173394203186035e-02,-3.010011650621891022e-02,-4.022035002708435059e-02,5.282160639762878418e-02,4.633537959307432175e-03,-3.239794401451945305e-03,8.522143587470054626e-03,-8.506931364536285400e-03,2.203919179737567902e-02,-5.790717899799346924e-02,-8.696001768112182617e-02,9.073697961866855621e-03,4.869236797094345093e-02,-8.212000131607055664e-02,-1.042055618017911911e-02,4.249978810548782349e-02,9.650516323745250702e-03,3.449071571230888367e-02,-1.004775427281856537e-02,-5.891353636980056763e-02,-5.734317004680633545e-03,-4.559281095862388611e-02,-2.751696109771728516e-02,-6.086330115795135498e-02,-2.353939227759838104e-02,4.164051637053489685e-02,2.188055776059627533e-02,1.104972511529922485e-02,1.279729790985584259e-02,-6.323704868555068970e-02,-1.167844794690608978e-02,-4.456316679716110229e-02,1.688318513333797455e-02,3.343776613473892212e-02,-8.219324052333831787e-03,7.784724235534667969e-03,-2.130246534943580627e-02,-1.032591313123703003e-01,1.865847408771514893e-02,-3.709070011973381042e-02,5.215199664235115051e-02,-5.204827338457107544e-02,4.577147960662841797e-02,-1.779319345951080322e-02,-2.985695376992225647e-02,-4.188795760273933411e-02,1.171376206912100315e-03,-4.857359826564788818e-02,3.236493468284606934e-02,1.065433770418167114e-02,-5.916473641991615295e-02,-3.074231185019016266e-02,4.494728893041610718e-02,3.476979583501815796e-02,-1.251043565571308136e-02,2.070977725088596344e-02,4.672145098447799683e-02,1.156774628907442093e-02,-3.249916806817054749e-02,5.901443213224411011e-02,4.992221016436815262e-03,1.250933576375246048e-02,-8.079400658607482910e-02,-3.676520287990570068e-02,2.894577942788600922e-02,-3.362087905406951904e-02,-8.256786316633224487e-02,-3.924532327800989151e-03,-1.803731359541416168e-02,2.571676671504974365e-02,9.444381110370159149e-03,-2.215638756752014160e-03,2.634473517537117004e-02,6.045602262020111084e-02,-3.688796609640121460e-02,-6.207355484366416931e-02,1.630447059869766235e-02,-4.135955497622489929e-02,-2.013009414076805115e-02,-4.026954621076583862e-02,-4.536700621247291565e-02,-4.944672808051109314e-02,4.929728806018829346e-03,-2.484611608088016510e-02,-1.522440579719841480e-03,-5.050173401832580566e-02,-8.995130658149719238e-03,4.655768722295761108e-02,-6.894589960575103760e-02,-5.390546470880508423e-02,-5.770997609943151474e-03,6.142309308052062988e-02,9.779922664165496826e-03,-6.745445728302001953e-02,4.359374940395355225e-02,1.324441283941268921e-02,-3.359181433916091919e-02,2.798684686422348022e-02,-5.689256638288497925e-02,-6.176796741783618927e-03,-5.205819383263587952e-02,-6.111975014209747314e-02,-3.599205985665321350e-02,-2.579560317099094391e-02,4.888613894581794739e-02,-5.105221644043922424e-02,-3.272587060928344727e-02,3.169700503349304199e-03,6.345234811305999756e-02,-6.939311325550079346e-02,-1.467695273458957672e-02,-6.409619748592376709e-02,-3.134409710764884949e-02,-4.166693985462188721e-02,-1.615254208445549011e-02,3.959447145462036133e-03,4.314432293176651001e-02,-7.827655971050262451e-02,-4.618182312697172165e-03,-1.353352516889572144e-02,5.482638254761695862e-02,-5.997490882873535156e-02,-1.965822739293798804e-04,8.894994854927062988e-03,-8.062034845352172852e-03,2.145254984498023987e-02,5.757339671254158020e-02,5.699753016233444214e-02,4.337116330862045288e-02,2.993805706501007080e-02,5.328145623207092285e-02,4.347816854715347290e-02,8.189533837139606476e-03,-6.157329771667718887e-03,-2.729037031531333923e-02,1.748923957347869873e-02,3.590839356184005737e-02,7.595013827085494995e-03,-6.771427392959594727e-02,-5.744867958128452301e-03,1.616347394883632660e-02,-3.676644712686538696e-02,-3.894615545868873596e-02,-6.889244168996810913e-02,3.866399405524134636e-03,3.023724071681499481e-03,5.838771164417266846e-02
4.955235496163368225e-02,4.131510853767395020e-03,3.302469849586486816e-04,-1.163330674171447754e-02,-1.828933507204055786e-02,-4.815911129117012024e-02,-6.777807138860225677e-03,-9.142355993390083313e-03,-5.873999325558543205e-04,-3.626464749686419964e-04,3.356876969337463379e-02,-3.190160728991031647e-03,3.968382999300956726e-02,2.898003906011581421e-02,-8.134828507900238037e-02,-6.831531226634979248e-02,2.805984392762184143e-02,-1.860796846449375153e-02,-1.923151500523090363e-02,3.419230924919247627e-03,3.059823252260684967e-02,-2.593395859003067017e-02,1.763868704438209534e-02,6.284110713750123978e-03,-4.083932191133499146e-02,-2.111473865807056427e-02,-5.533572658896446228e-02,-1.749134063720703125e-02,-1.540171942906454206e-04,1.888315007090568542e-02,3.660098090767860413e-02,2.755078673362731934e-02,5.292888730764389038e-02,-2.094870246946811676e-02,1.439203508198261261e-02,-5.042469501495361328e-02,2.899391204118728638e-02,-1.177495694719254971e-03,-3.840439766645431519e-02,2.873027324676513672e-02,-3.550027497112751007e-03,1.273644715547561646e-02,-6.365875899791717529e-02,2.819180116057395935e-02,-6.214910652488470078e-03,-5.257277190685272217e-02,-4.196202754974365234e-02,-5.580127239227294922e-03,2.673906832933425903e-02,-3.481163084506988525e-02,-2.249231562018394470e-02,-4.343303665518760681e-02,-5.522701516747474670e-02,2.385111898183822632e-02,2.476321533322334290e-02,1.252552028745412827e-02,5.639209598302841187e-02,-9.327331185340881348e-02,-1.651845127344131470e-02,-6.022979319095611572e-02,-1.521325297653675079e-02,-3.214855119585990906e-02,-3.620620071887969971e-02,1.239866670221090317e-02,-3.387529402971267700e-02,-6.484844535589218140e-02,-6.729470938444137573e-02,-9.992300532758235931e-03,-7.145695388317108154e-03,7.374167442321777344e-03,-1.493782550096511841e-02,-3.258939087390899658e-02,-5.223436653614044189e-02,2.546328119933605194e-02,-5.655355006456375122e-02,4.153562337160110474e-02,-5.147671326994895935e-02,-4.941423982381820679e-02,-7.943063974380493164e-05,-7.376543246209621429e-03,3.119967877864837646e-03,5.143076181411743164e-03,3.808177635073661804e-02,9.125200100243091583e-03,-3.359930962324142456e-02,2.888369560241699219e-02,-7.014140486717224121e-03,-2.753378450870513916e-02,-2.026079781353473663e-02,2.958148531615734100e-02,-3.501553088426589966e-02,6.343349814414978027e-03,-7.207146845757961273e-03,-5.054040253162384033e-02,-1.059933751821517944e-01,-6.821116805076599121e-02,1.050080265849828720e-02,-3.083771467208862305e-02,1.228410936892032623e-02,1.908829994499683380e-02,1.449658069759607315e-02,7.728725671768188477e-03,9.459293447434902191e-03,-3.769994899630546570e-02,4.573354870080947876e-02,5.433195829391479492e-02,2.877410314977169037e-02,3.430201485753059387e-02,2.084296755492687225e-02,-9.316724538803100586e-02,7.495531346648931503e-03,1.279848068952560425e-02,2.031894959509372711e-02,-6.442385725677013397e-03,-3.540159016847610474e-02,-6.274162232875823975e-02,-7.194802165031433105e-04,-6.354995816946029663e-02,5.397211760282516479e-02,-6.707542389631271362e-02,-7.580804079771041870e-02,-3.366953879594802856e-02,-4.315133392810821533e-02,8.663632906973361969e-04,4.425771161913871765e-02,6.211618310771882534e-04,5.223288759589195251e-02,-3.484860807657241821e-02,-3.258693963289260864e-02,-1.253920048475265503e-02,-1.161994636058807373e-01,-2.924787625670433044e-02,-8.843233436346054077e-02,-2.388892136514186859e-02,2.901984564960002899e-02,-6.803518533706665039e-02,8.001487702131271362e-03,-5.691467784345149994e-03,4.615545331034809351e-04,-6.636516004800796509e-02,-8.323191106319427490e-02,-2.271022275090217590e-02,-6.195919960737228394e-02,-2.064243704080581665e-02,-1.581250689923763275e-02,-8.551794104278087616e-03,2.929721958935260773e-02,-5.465031415224075317e-02,1.372220739722251892e-02,-2.332210354506969452e-02,-2.983559668064117432e-02,-3.477116674184799194e-02,-2.366587519645690918e-03,-5.658535659313201904e-02,2.314508706331253052e-02,-5.796485021710395813e-02,-5.020746588706970215e-02,-5.870229005813598633e-02,-2.525359392166137695e-03,-5.680097267031669617e-02,-6.069021299481391907e-02,4.885280877351760864e-02,-2.485939860343933105e-02,-6.003041192889213562e-02,3.194106742739677429e-02,-4.034013301134109497e-02,-3.893025219440460205e-02,-5.467257648706436157e-02,4.987180233001708984e-02,-1.870775222778320312e-02,-1.498680002987384796e-02,-9.946292266249656677e-03,-4.252965748310089111e-02,-5.195180326700210571e-02,-5.763178691267967224e-02,-5.683359131217002869e-02,-5.305720865726470947e-02,3.088125027716159821e-02,5.143968388438224792e-02,-6.411302089691162109e-02,-7.961809635162353516e-03,4.803046956658363342e-02,3.314114362001419067e-02,3.968206793069839478e-02,-2.963449433445930481e-02,-3.216687589883804321e-02,2.571536041796207428e-02,-1.906861178576946259e-02,2.093043178319931030e-02,2.980815060436725616e-02,-9.024950861930847168e-02,4.356685280799865723e-02,-9.955553337931632996e-03,-4.153317585587501526e-02,2.404870837926864624e-02,5.816433578729629517e-02,-2.253685332834720612e-02,-7.818892598152160645e-03,-3.713280428200960159e-03,-3.917374089360237122e-02,-5.463997274637222290e-02,4.054839164018630981e-02,-3.650696575641632080e-02,-4.081212729215621948e-02,-4.950431734323501587e-02,2.812310680747032166e-02,-3.893639892339706421e-02,3.509534150362014771e-02,3.918592631816864014e-02,-2.987110055983066559e-02,-4.813049733638763428e-02,2.425600588321685791e-02,-3.260519728064537048e-02,-4.479243420064449310e-03,-8.572012302465736866e-04,-3.119363635778427124e-02,1.824985444545745850e-02,-4.477235674858093262e-02,-2.802737616002559662e-02,-4.345303028821945190e-02,-4.970182478427886963e-02,-3.361820057034492493e-02,-4.177858307957649231e-02,3.259702399373054504e-02,-1.142522692680358887e-02,2.699375152587890625e-03,-4.294459149241447449e-02,-1.964208111166954041e-02,4.139316827058792114e-02,-2.993537345901131630e-03,-4.171144217252731323e-02,-4.867136478424072266e-03,-1.046682894229888916e-02,-3.482229658402502537e-04,-6.822598725557327271e-02,2.675052545964717865e-02,4.634514078497886658e-02,5.374132469296455383e-02,-3.870281577110290527e-02,2.465368621051311493e-02,-6.806097924709320068e-02,4.897170513868331909e-02,-5.742477253079414368e-02,1.001617312431335449e-02,-7.211986184120178223e-02,3.069114685058593750e-02,-3.614319115877151489e-02,1.684289192780852318e-03,-4.872079193592071533e-02,-5.622008442878723145e-02,4.407502710819244385e-02,1.473201811313629150e-02,-6.335707753896713257e-02,-7.040610071271657944e-04,3.904521465301513672e-02,-3.713072836399078369e-02
-6.258592009544372559e-02,-3.370286151766777039e-02,-2.379286289215087891e-02,-1.585466414690017700e-02,-1.428188197314739227e-02,-6.447997689247131348e-02,3.873324394226074219e-02,-2.708303555846214294e-02,5.273542180657386780e-02,9.671196341514587402e-03,2.234228700399398804e-02,3.119377046823501587e-02,-1.931020058691501617e-02,-1.082169171422719955e-02,-9.652223438024520874e-02,3.338020667433738708e-02,-3.789620846509933472e-02,-9.774606674909591675e-03,-5.715446919202804565e-02,-1.666223257780075073e-02,-5.118494108319282532e-02,3.179981932044029236e-02,-6.322984397411346436e-02,1.329058408737182617e-02,5.152562633156776428e-03,-9.093894809484481812e-02,-6.602419167757034302e-02,1.205119211226701736e-02,2.281917259097099304e-02,3.691441193222999573e-02,-1.245144307613372803e-01,1.232847571372985840e-03,1.838754117488861084e-02,-1.198012195527553558e-02,-5.223968625068664551e-02,-7.034665439277887344e-03,-6.713252514600753784e-02,-1.515760831534862518e-02,-4.553672671318054199e-02,3.910493105649948120e-02,1.724720746278762817e-02,9.182631969451904297e-03,-4.674341902136802673e-02,-6.365454941987991333e-02,-8.876001834869384766e-02,-6.145387887954711914e-02,2.425799029879271984e-04,5.919609963893890381e-02,-1.404787227511405945e-02,-3.590358048677444458e-02,-2.315512672066688538e-02,-4.975470155477523804e-02,8.783274679444730282e-04,3.063675574958324432e-02,-4.633130505681037903e-02,5.345364660024642944e-02,8.964553475379943848e-03,-4.719225689768791199e-02,-5.372301489114761353e-02,2.422108501195907593e-02,-3.139612078666687012e-02,-8.217926323413848877e-02,-2.785102836787700653e-02,2.331982366740703583e-02,9.311541914939880371e-03,-3.406321257352828979e-02,-6.085061281919479370e-02,2.730279602110385895e-02,4.517799615859985352e-02,-4.857913404703140259e-02,1.612830348312854767e-02,-2.229486405849456787e-02,4.449614882469177246e-02,4.941638093441724777e-03,-1.516219321638345718e-02,-1.087942719459533691e-02,-2.886168658733367920e-03,-9.092847257852554321e-02,-1.534890499897301197e-03,3.938025329262018204e-03,2.742059528827667236e-03,4.275707155466079712e-02,-3.143311291933059692e-02,1.098106335848569870e-02,5.029994994401931763e-02,1.683306763879954815e-03,-4.473077505826950073e-02,-9.990386664867401123e-03,3.600351884961128235e-02,-3.258746117353439331e-02,-7.601938396692276001e-02,-2.640693634748458862e-02,-7.259332109242677689e-03,4.571254551410675049e-02,2.532421844080090523e-03,-2.141241729259490967e-02,9.689139202237129211e-03,-4.860295355319976807e-02,5.823072418570518494e-02,1.354339299723505974e-03,-2.511110901832580566e-02,3.289722651243209839e-02,4.448642581701278687e-02,-4.311681911349296570e-02,-2.403121069073677063e-02,-1.362518221139907837e-02,-4.117912612855434418e-03,4.055101051926612854e-02,-3.956029191613197327e-02,-2.546289563179016113e-02,-2.674323506653308868e-02,-3.229415416717529297e-02,1.159123145043849945e-02,-1.883091777563095093e-02,-6.687464565038681030e-02,-5.270324647426605225e-02,-1.351728290319442749e-02,3.917952254414558411e-02,-6.691306829452514648e-02,-7.832621037960052490e-02,-1.382009242661297321e-03,1.220630854368209839e-02,-6.354007869958877563e-02,4.744118824601173401e-02,4.461026936769485474e-02,-4.751567170023918152e-02,-4.733164981007575989e-02,1.894700399134308100e-04,2.336666733026504517e-02,2.218096703290939331e-02,-3.730409592390060425e-02,3.310443460941314697e-02,-6.644254922866821289e-02,-3.719495236873626709e-02,-4.840780980885028839e-03,-1.521323341876268387e-02,-8.555896580219268799e-02,-2.769436314702033997e-02,-5.035450309514999390e-02,-3.351414948701858521e-02,-3.521533682942390442e-02,2.575191669166088104e-02,4.415220767259597778e-02,1.672872528433799744e-02,-4.097271338105201721e-02,-2.778731053695082664e-03,-5.834215879440307617e-02,-4.741346091032028198e-02,-1.324711833149194717e-02,-1.616306602954864502e-02,-6.153293699026107788e-02,7.493043690919876099e-02,3.835975751280784607e-02,-1.077409312129020691e-01,-2.078375220298767090e-02,-6.631975620985031128e-02,1.967057585716247559e-02,3.980756923556327820e-02,-2.394928783178329468e-02,-8.126490563154220581e-02,-3.529907390475273132e-02,3.381296992301940918e-04,3.436493128538131714e-02,5.631123203784227371e-04,-4.832150414586067200e-03,-4.504030942916870117e-02,-2.043129131197929382e-02,-3.377526253461837769e-02,3.275027871131896973e-02,-2.190398797392845154e-02,5.916102789342403412e-03,-5.523409694433212280e-02,6.048931181430816650e-02,-4.045329988002777100e-02,9.180667810142040253e-03,2.743348665535449982e-02,1.606289297342300415e-02,-6.474155187606811523e-02,-1.969842053949832916e-02,1.616642437875270844e-02,5.698513984680175781e-02,8.732114918529987335e-03,-5.324427783489227295e-02,-5.392368882894515991e-02,-6.028408929705619812e-02,1.254124194383621216e-02,-3.422238305211067200e-02,-1.150732636451721191e-01,2.417239360511302948e-03,-5.681627243757247925e-02,7.645105011761188507e-03,-3.054858744144439697e-02,-7.598245888948440552e-02,-5.798463523387908936e-02,1.227988954633474350e-02,5.276028066873550415e-02,-1.751634106040000916e-02,7.384207128779962659e-05,-5.528761819005012512e-02,9.706257842481136322e-03,3.366370499134063721e-02,4.228171706199645996e-02,-3.686717525124549866e-02,5.505054444074630737e-02,-1.019853353500366211e-02,4.309649020433425903e-02,1.683036983013153076e-02,-5.531422793865203857e-02,4.742122069001197815e-02,3.776894509792327881e-02,4.552929848432540894e-02,4.131572321057319641e-02,-5.381525307893753052e-02,1.344408560544252396e-02,-1.604839786887168884e-02,6.857996806502342224e-03,-5.257030483335256577e-03,3.747392073273658752e-02,-5.247978493571281433e-02,-5.454249680042266846e-02,8.933560922741889954e-03,-9.373782575130462646e-02,-3.185518831014633179e-02,-3.408608958125114441e-02,-6.134820729494094849e-02,-6.915889680385589600e-03,-3.769029164686799049e-03,-6.479335576295852661e-02,2.080276608467102051e-04,1.990923099219799042e-02,-4.226082563400268555e-02,-5.359901860356330872e-02,-1.451334170997142792e-02,-1.853520050644874573e-02,5.082063749432563782e-02,4.166883230209350586e-02,-3.906283900141716003e-02,-3.880366683006286621e-02,3.699508681893348694e-02,6.309416610747575760e-03,-5.881546810269355774e-02,-2.046377025544643402e-02,-7.601662073284387589e-03,-3.530160337686538696e-02,-4.490014538168907166e-02,2.467371523380279541e-02,-9.996323287487030029e-02,1.355215348303318024e-02,-2.498558536171913147e-02,-1.312673650681972504e-02,-4.030368477106094360e-02,-1.933453418314456940e-02,-3.456796985119581223e-03,4.915932565927505493e-02,-3.990526311099529266e-03,-1.337294094264507294e-02
7.886901497840881348e-01,4.921539500355720520e-02,3.357687965035438538e-03,4.669026285409927368e-02,-4.874595254659652710e-02,-1.331851363182067871e+00,8.344888687133789062e-02,8.199333548545837402e-01,-1.351858209818601608e-02,-3.258930891752243042e-02,3.037165105342864990e-02,-3.311582654714584351e-02,-4.489680007100105286e-02,-3.071580640971660614e-02,-1.098523139953613281e+00,-3.596929609775543213e-01,-1.786768585443496704e-01,-1.152968313544988632e-02,-5.900084972381591797e-01,4.072675108909606934e-01,-3.241232037544250488e-01,4.953695461153984070e-02,-1.469461083412170410e+00,-2.655003368854522705e-01,3.100723028182983398e-02,9.167806506156921387e-01,-3.154898583889007568e-01,-4.746815934777259827e-02,-3.611554577946662903e-02,-6.844756007194519043e-02,-6.620632112026214600e-02,-5.640069395303726196e-02,1.473311893641948700e-02,2.434505522251129150e-02,-1.074953153729438782e-01,-5.730891227722167969e-01,-3.577353060245513916e-01,2.577412500977516174e-02,3.671163925901055336e-03,-5.582898110151290894e-02,5.903109312057495117e-01,3.706761926878243685e-04,-4.363139346241950989e-02,3.246706426143646240e-01,-9.213192015886306763e-02,-3.569012880325317383e-02,4.903969466686248779e-01,-6.870263721793889999e-03,-3.656867146492004395e-02,1.478141080588102341e-02,-7.310637831687927246e-02,-6.695017963647842407e-02,-3.129840269684791565e-02,-7.864511609077453613e-01,7.878898084163665771e-02,-2.455062419176101685e-02,7.363583892583847046e-02,-3.379383683204650879e-02,-2.713711559772491455e-02,1.046779751777648926e-02,4.008541628718376160e-02,-1.064016819000244141e+00,1.525567471981048584e-01,-9.415915119461715221e-04,-2.221199870109558105e-02,-5.776276588439941406e-01,-3.013661801815032959e-01,-2.867683395743370056e-02,1.108968537300825119e-02,-1.576132535934448242e+00,-7.632301747798919678e-02,1.624440997838973999e-01,3.941743820905685425e-02,9.158034622669219971e-02,-6.985182762145996094e-01,-1.123655121773481369e-02,-1.567329652607440948e-02,-1.030640721321105957e+00,-8.859664946794509888e-02,6.052429601550102234e-02,1.043536700308322906e-03,-4.473055154085159302e-02,-3.816149383783340454e-02,1.884371340274810791e-01,2.236245945096015930e-02,4.702605605125427246e-01,4.453781992197036743e-03,2.060023881494998932e-02,-2.730771526694297791e-02,-8.458075672388076782e-02,-1.062602758407592773e+00,1.109948940575122833e-02,5.454446747899055481e-02,-5.236253608018159866e-03,-1.420747637748718262e-01,-1.081547021865844727e+00,-1.343532651662826538e-02,1.608413085341453552e-02,7.608950603753328323e-03,6.299702823162078857e-02,-7.881993651390075684e-01,-5.511721968650817871e-02,6.343872845172882080e-02,-3.354649618268013000e-02,2.311011403799057007e-02,1.943613030016422272e-02,1.661499030888080597e-03,-3.480064123868942261e-02,3.616904020309448242e-01,-1.861970871686935425e-01,3.188278079032897949e-01,2.706994768232107162e-03,-5.629039555788040161e-02,2.308026850223541260e-01,4.467105567455291748e-01,-5.346820224076509476e-03,-8.857526630163192749e-02,1.024067960679531097e-02,-9.458139538764953613e-02,1.665089726448059082e-01,7.318469882011413574e-01,-6.789840757846832275e-03,-4.322868958115577698e-02,1.568534178659319878e-03,-5.166373774409294128e-02,2.644014656543731689e-01,3.392900153994560242e-02,-1.783319711685180664e-01,-1.485255640000104904e-02,-2.954374067485332489e-02,5.230465531349182129e-01,-5.614792462438344955e-03,-3.015668392181396484e-01,5.112696439027786255e-02,-1.304141525179147720e-02,2.378603070974349976e-02,-9.791437983512878418e-01,-3.819786384701728821e-02,1.317417714744806290e-02,1.115079373121261597e-01,-1.711338162422180176e-01,-4.278335347771644592e-02,-6.385117769241333008e-02,-4.534634947776794434e-02,-2.178912609815597534e-01,3.936338424682617188e-02,-9.072884321212768555e-01,3.849396482110023499e-02,-1.213599462062120438e-02,-3.894916176795959473e-01,-2.281899563968181610e-02,8.895113132894039154e-03,-5.164534784853458405e-03,1.740656495094299316e-01,-3.022558242082595825e-02,3.029324412345886230e-01,-1.240401715040206909e-02,5.913099274039268494e-02,4.023304954171180725e-02,-3.290370479226112366e-02,1.952471375465393066e+00,3.631407395005226135e-02,-4.071394912898540497e-03,-8.619010448455810547e-03,3.292247653007507324e-02,5.328533425927162170e-02,-3.632073104381561279e-02,2.840676307678222656e-01,-1.417899690568447113e-02,8.151249587535858154e-02,6.636781990528106689e-02,-1.468852013349533081e-01,5.356210097670555115e-02,4.334176704287528992e-02,-2.353774458169937134e-01,5.002944916486740112e-02,1.391003094613552094e-02,-2.099096588790416718e-02,-2.361496165394783020e-02,5.150084197521209717e-02,1.760973781347274780e-02,4.919240176677703857e-01,4.393117874860763550e-02,1.975989714264869690e-02,3.275029733777046204e-02,6.174270063638687134e-03,-2.313876897096633911e-02,3.127961158752441406e-01,-4.966565966606140137e-02,-2.218073792755603790e-02,-4.095921814441680908e-01,5.245198681950569153e-02,-4.243613183498382568e-01,1.178238689899444580e-01,-9.175267815589904785e-01,7.801102101802825928e-02,-3.618812561035156250e-02,-1.242695093154907227e+00,2.743913792073726654e-02,1.867849566042423248e-02,-4.922462254762649536e-02,-7.117350120097398758e-03,-5.929903388023376465e-01,3.498331084847450256e-02,-7.370414584875106812e-02,-5.327892675995826721e-02,1.677934080362319946e-02,-4.584027826786041260e-01,-5.498496294021606445e-01,3.225179389119148254e-02,-7.855363190174102783e-03,-5.620739236474037170e-02,1.333765506744384766e+00,1.531280204653739929e-02,3.067941963672637939e-01,6.395854949951171875e-01,-8.007386326789855957e-02,-7.432556152343750000e-02,5.244027972221374512e-01,-4.875015094876289368e-02,-1.696595072746276855e+00,-1.987591087818145752e-01,1.175545994192361832e-02,8.036074638366699219e-01,-3.866289975121617317e-03,-2.584407664835453033e-02,4.011658430099487305e-01,2.026801258325576782e-01,6.173686310648918152e-02,-9.523715707473456860e-04,5.797532796859741211e-01,-4.649890586733818054e-02,3.824620693922042847e-02,-7.259944081306457520e-02,1.143653020262718201e-01,-6.102923769503831863e-03,1.497401017695665359e-02,9.167030453681945801e-03,-2.826874703168869019e-02,4.528079554438591003e-02,-6.764267086982727051e-01,-3.184158122166991234e-03,6.348671317100524902e-01,-2.140344083309173584e-01,-1.164119243621826172e-01,-1.649899967014789581e-02,-5.166077613830566406e-01,4.080978631973266602e-01,-1.311085186898708344e-02,3.580790013074874878e-02,-1.834583841264247894e-02,1.702535431832075119e-03,-4.930357038974761963e-01,1.710819080471992493e-02,-3.334463387727737427e-02,2.706057764589786530e-02
-2.741159871220588684e-03,2.718488126993179321e-02,-1.010714471340179443e-02,-2.322085201740264893e-03,-2.006407827138900757e-02,-5.016388744115829468e-02,3.424817929044365883e-03,-4.361182078719139099e-02,-3.612599521875381470e-02,-9.242114424705505371e-02,-5.979254096746444702e-02,-7.429210841655731201e-02,2.950624935328960419e-02,3.339426591992378235e-02,-3.670628368854522705e-02,-2.318722568452358246e-02,-1.014694571495056152e-01,-3.387502953410148621e-02,-7.380513101816177368e-02,2.722316794097423553e-02,-2.851555682718753815e-02,1.135181542485952377e-02,-5.422750860452651978e-02,-7.383596152067184448e-02,-6.947062909603118896e-03,-7.840350270271301270e-02,-7.977786660194396973e-02,-2.855918742716312408e-02,-5.237628519535064697e-02,4.258603230118751526e-02,-7.661761343479156494e-02,-1.442816108465194702e-02,-3.984782099723815918e-02,-3.762215841561555862e-03,-9.939213097095489502e-02,-7.478637248277664185e-02,-2.926719142124056816e-03,-4.131368920207023621e-02,-5.318446457386016846e-02,-4.093629121780395508e-02,-9.152241796255111694e-02,-2.429457753896713257e-02,-9.062758088111877441e-02,-3.650915995240211487e-02,-7.998953759670257568e-02,-3.396705538034439087e-02,1.537102088332176208e-02,-3.405334055423736572e-02,2.546972036361694336e-02,2.844633907079696655e-02,3.653473779559135437e-02,3.901078365743160248e-03,-5.145962908864021301e-02,6.716879550367593765e-03,-4.947537556290626526e-02,-7.852920889854431152e-02,-7.747739553451538086e-03,-5.117766559123992920e-02,9.013935923576354980e-04,-6.057821959257125854e-02,-3.157401457428932190e-02,2.564971335232257843e-03,-1.058406010270118713e-01,-4.610896855592727661e-02,-3.629054129123687744e-02,-4.668186977505683899e-02,2.850665897130966187e-02,-6.577023863792419434e-02,2.405850961804389954e-02,4.131728038191795349e-02,3.397867456078529358e-02,4.605819471180438995e-03,-5.725426971912384033e-02,1.752049848437309265e-02,-1.658265665173530579e-02,-1.445898413658142090e-02,-1.537095196545124054e-02,4.157913476228713989e-02,-5.479796975851058960e-02,4.694281145930290222e-02,5.799563974142074585e-02,5.383301526308059692e-02,-7.418738305568695068e-02,3.317304328083992004e-02,2.908009849488735199e-02,-7.376148551702499390e-02,4.760286211967468262e-02,-5.370937287807464600e-02,-2.017824165523052216e-02,-4.267505556344985962e-02,3.803115338087081909e-03,-5.762337893247604370e-02,2.035637386143207550e-02,1.050075888633728027e-02,-9.913950413465499878e-02,-1.154214260168373585e-04,-3.355596959590911865e-02,-3.548767417669296265e-02,-5.647700652480125427e-02,-8.609665185213088989e-02,-1.521325763314962387e-02,-3.245776891708374023e-02,2.903688326478004456e-02,3.588651120662689209e-02,2.129366993904113770e-02,4.468419402837753296e-02,-5.220738053321838379e-02,-3.902435302734375000e-02,-6.544578075408935547e-02,4.032055847346782684e-03,-7.654773443937301636e-02,-6.959478836506605148e-03,-4.442252591252326965e-02,-3.336453810334205627e-02,-2.231830032542347908e-03,-1.652824878692626953e-02,-4.831179976463317871e-02,-4.926402121782302856e-02,3.279433026909828186e-02,-3.562295436859130859e-02,-2.494883537292480469e-02,5.194327980279922485e-02,-4.379855096340179443e-02,1.295709703117609024e-02,3.519983962178230286e-02,-1.009854301810264587e-01,-3.442334383726119995e-02,-1.228998601436614990e-02,8.127786219120025635e-03,-2.761305868625640869e-02,-6.100532412528991699e-02,-8.919419720768928528e-03,-3.025077842175960541e-02,6.904074107296764851e-04,8.463059202767908573e-04,-1.601888053119182587e-02,3.131658211350440979e-02,-3.218268603086471558e-02,4.260706529021263123e-02,-6.536696851253509521e-02,-4.284401610493659973e-02,-9.249126166105270386e-02,-3.028301522135734558e-02,-4.404203593730926514e-02,-5.722487345337867737e-02,-3.840096667408943176e-02,-9.239940345287322998e-02,-3.292398899793624878e-02,7.023826241493225098e-02,8.790362626314163208e-03,4.005453363060951233e-02,-7.869891123846173286e-04,-5.788857489824295044e-02,-9.213737398386001587e-02,-1.440027356147766113e-02,-6.035644561052322388e-02,3.158404678106307983e-02,-3.327554557472467422e-03,4.466395080089569092e-02,-8.701322972774505615e-02,-5.806623026728630066e-02,1.345240324735641479e-02,2.677599154412746429e-02,-1.518840808421373367e-02,2.382031269371509552e-02,-4.667702317237854004e-02,3.070527222007513046e-03,2.776232780888676643e-03,4.984752833843231201e-02,-9.293360263109207153e-02,-6.760004907846450806e-02,-3.161569312214851379e-02,-3.249169141054153442e-02,3.352471627295017242e-03,-9.644985198974609375e-03,-4.462145641446113586e-02,2.782134898006916046e-02,-2.817890793085098267e-02,-1.829614117741584778e-02,4.505220428109169006e-02,-2.566059865057468414e-02,-6.436917930841445923e-02,4.023302346467971802e-02,5.450930446386337280e-02,-6.267286837100982666e-02,3.760327398777008057e-02,1.971694407984614372e-03,-3.282365575432777405e-02,-7.048713508993387222e-03,4.260069876909255981e-02,-8.570910245180130005e-02,-3.361354023218154907e-02,2.683476731181144714e-02,-1.873850822448730469e-03,-1.021614298224449158e-01,-8.868686854839324951e-03,4.635482653975486755e-02,-4.341928288340568542e-02,-4.926551133394241333e-02,-4.927368834614753723e-02,3.965460695326328278e-03,-3.978960216045379639e-03,3.507974557578563690e-03,-1.379980146884918213e-02,6.714202463626861572e-02,-5.709732323884963989e-02,2.122990787029266357e-02,-1.054007709026336670e-01,5.855802446603775024e-03,2.044986560940742493e-02,-5.662100762128829956e-02,-6.854438781738281250e-02,7.347083650529384613e-03,-7.045175135135650635e-02,-4.024736210703849792e-02,-1.817354559898376465e-02,7.173722842708230019e-04,7.630861364305019379e-04,-3.965881466865539551e-02,7.561538834124803543e-03,1.758260279893875122e-02,-1.003453880548477173e-02,-1.193884480744600296e-02,4.513233900070190430e-02,-2.785096317529678345e-02,-5.202779918909072876e-02,1.280537806451320648e-02,-2.323479019105434418e-02,-4.436518251895904541e-02,4.007134959101676941e-02,-5.446099489927291870e-02,8.311779052019119263e-02,-1.646883785724639893e-03,-2.811311185359954834e-02,2.584049105644226074e-02,9.896683506667613983e-03,5.657806247472763062e-02,2.532424870878458023e-03,2.340175956487655640e-02,-9.456951171159744263e-03,5.972518119961023331e-03,1.118681766092777252e-02,-3.559809550642967224e-02,-1.505060866475105286e-02,-4.295343533158302307e-02,3.547683358192443848e-03,-1.120170876383781433e-01,1.190665829926729202e-02,2.390229888260364532e-02,2.380171045660972595e-02,-4.039930552244186401e-02,3.135136142373085022e-02,6.187393516302108765e-02,1.919881999492645264e-02,-7.377330912277102470e-04,-5.646854639053344727e-02
5.843158066272735596e-02,2.377197891473770142e-02,6.780534982681274414e-03,-7.450342178344726562e-03,1.317175943404436111e-02,-2.564862966537475586e-01,-6.352998316287994385e-02,-5.634132027626037598e-01,-5.863398313522338867e-03,5.192093551158905029e-03,4.343595355749130249e-02,-6.183076649904251099e-02,-7.121846079826354980e-03,-5.938738584518432617e-02,-2.183096706867218018e-01,9.221369773149490356e-02,1.255285739898681641e-02,-4.378270357847213745e-02,-1.167311146855354309e-02,-6.103110909461975098e-01,5.190955102443695068e-02,-7.285251049324870110e-04,1.896339058876037598e-01,1.950022205710411072e-02,-1.070201396942138672e-02,2.252012342214584351e-01,-6.734020709991455078e-01,6.736805196851491928e-03,-3.076782450079917908e-02,1.697387546300888062e-02,1.952385455369949341e-01,1.441457122564315796e-02,3.367430716753005981e-02,1.517806202173233032e-02,-3.843106329441070557e-03,-7.733768969774246216e-02,-4.045763015747070312e-01,-1.551283337175846100e-02,-5.154248327016830444e-02,7.750563323497772217e-03,2.129735797643661499e-02,-3.834756463766098022e-02,-8.793871849775314331e-02,-1.704013906419277191e-03,-9.298700839281082153e-02,-4.060080647468566895e-02,6.869571208953857422e-01,3.494572639465332031e-02,-5.419141054153442383e-01,3.707429766654968262e-02,3.320096433162689209e-02,4.233881365507841110e-03,-6.295768171548843384e-02,-8.141162246465682983e-02,-5.987071990966796875e-02,2.045134268701076508e-02,1.820563524961471558e-02,-4.340791702270507812e-02,3.014663606882095337e-02,5.036139488220214844e-02,4.088234901428222656e-02,-7.185850739479064941e-01,-1.672476530075073242e-01,-1.614275202155113220e-02,6.220489740371704102e-05,-2.752525173127651215e-02,-3.115085959434509277e-01,2.167350426316261292e-02,-4.227592051029205322e-02,-4.289411604404449463e-01,4.984270036220550537e-02,-1.407225131988525391e-01,-4.994405806064605713e-02,-2.086474001407623291e-02,-4.747362732887268066e-01,9.146481752395629883e-03,-2.061575651168823242e-02,-3.143109977245330811e-01,1.855007559061050415e-02,-2.211465872824192047e-02,5.647219717502593994e-03,-1.073985546827316284e-02,4.544469341635704041e-02,2.685429751873016357e-01,4.387860000133514404e-02,-2.932897768914699554e-02,-1.452056318521499634e-02,-6.888665258884429932e-03,-2.584644220769405365e-02,-8.053294569253921509e-02,5.591212213039398193e-02,4.268860071897506714e-02,4.667843133211135864e-02,-1.638913899660110474e-02,5.580508150160312653e-03,9.518120437860488892e-02,1.078606862574815750e-02,-2.543881535530090332e-02,-5.643384903669357300e-02,-3.452965291216969490e-03,-4.588920250535011292e-02,2.183888852596282959e-02,-3.014292716979980469e-01,2.071452140808105469e-02,-4.906895756721496582e-02,-3.508120775222778320e-03,-1.406279020011425018e-02,1.233715284615755081e-02,-4.654842019081115723e-01,-7.435758113861083984e-01,-7.936858572065830231e-03,2.461276389658451080e-02,-6.245548650622367859e-02,-3.665156960487365723e-01,2.880901694297790527e-01,-1.304890215396881104e-02,-4.202868044376373291e-02,1.135206315666437149e-02,-3.073198022320866585e-03,1.051362678408622742e-01,-6.978871226310729980e-01,1.199154555797576904e-02,-5.177432671189308167e-02,-1.687154918909072876e-02,5.580770969390869141e-02,-1.087691426277160645e+00,2.751606702804565430e-02,1.512162685394287109e-01,-4.406055063009262085e-02,4.463564604520797729e-02,-1.740286946296691895e+00,2.285696566104888916e-02,-8.116529136896133423e-02,5.429994314908981323e-02,1.280368119478225708e-02,-1.592750474810600281e-02,2.489077001810073853e-01,4.725991189479827881e-02,-7.096935063600540161e-02,-1.237072825431823730e+00,-2.991139292716979980e-01,-3.728415369987487793e-01,-5.336706340312957764e-02,-3.594186902046203613e-02,6.454417854547500610e-02,-5.889610946178436279e-02,-3.466356992721557617e-01,-4.916045069694519043e-02,3.021547570824623108e-02,-2.659297175705432892e-02,1.460751891136169434e-02,-3.174348175525665283e-02,3.661024570465087891e-02,1.356938779354095459e-01,-8.314162492752075195e-03,1.675359606742858887e-01,-1.442661881446838379e-02,1.230363547801971436e-02,-3.044316172599792480e-02,-5.076414346694946289e-01,8.671995252370834351e-02,-5.146289616823196411e-02,3.143870271742343903e-03,-5.794975161552429199e-02,3.763069957494735718e-02,-3.514066338539123535e-02,-9.440331161022186279e-02,-1.145766600966453552e-01,-1.300445944070816040e-02,-1.669401079416275024e-01,4.051176086068153381e-02,-7.392475008964538574e-01,4.309772700071334839e-02,3.152269124984741211e-02,-2.628158926963806152e-01,2.023336738348007202e-01,3.229214996099472046e-02,3.584846854209899902e-03,3.039538301527500153e-02,-3.630089759826660156e-02,-3.089999407529830933e-02,3.192441165447235107e-02,2.240289002656936646e-02,-6.659291684627532959e-03,-5.511536076664924622e-02,4.008670151233673096e-02,-6.120640039443969727e-02,5.815465934574604034e-03,2.815972268581390381e-02,-4.300725460052490234e-02,-6.661043167114257812e-01,-5.282483994960784912e-03,-8.245323598384857178e-02,-6.240247562527656555e-02,-5.816018581390380859e-02,-3.306635841727256775e-02,1.778868585824966431e-02,-5.777478814125061035e-01,4.934958368539810181e-02,-2.713800035417079926e-02,4.047537967562675476e-02,-5.179673433303833008e-02,-4.025713726878166199e-02,-1.696676015853881836e-03,1.460945606231689453e-02,4.924621433019638062e-02,-3.699483722448348999e-02,-1.223832648247480392e-02,9.734062105417251587e-02,5.680954828858375549e-02,3.574427217245101929e-02,-9.545319713652133942e-03,5.284685268998146057e-02,-5.779913626611232758e-03,-9.899595975875854492e-01,2.268485277891159058e-01,-3.889761865139007568e-03,4.809467587620019913e-03,-8.374961465597152710e-02,-6.379032880067825317e-02,2.153973579406738281e-01,1.245880797505378723e-01,1.044310927391052246e-01,4.655164182186126709e-01,5.319891124963760376e-02,7.383674383163452148e-04,3.195272088050842285e-01,-7.143161445856094360e-02,3.663316369056701660e-02,-2.140295878052711487e-02,5.119473934173583984e-01,2.863765656948089600e-01,3.213968873023986816e-02,3.601568192243576050e-02,4.394774883985519409e-02,-7.486015558242797852e-03,-9.744524955749511719e-03,4.152505844831466675e-02,5.711950361728668213e-02,4.219000414013862610e-02,-1.551689803600311279e-01,2.385330200195312500e-02,-1.428117454051971436e-01,-5.945701152086257935e-02,-3.539975360035896301e-02,5.904670059680938721e-02,-5.540394186973571777e-01,-4.935818314552307129e-01,-1.460689902305603027e-01,-2.761560492217540741e-02,4.129456728696823120e-02,4.981628805398941040e-02,6.829686462879180908e-02,4.986449331045150757e-02,9.345896542072296143e-03,-2.879533916711807251e-02
-5.110676884651184082e-01,-1.113928738050162792e-03,6.681426614522933960e-02,-1.759603247046470642e-02,-4.467425122857093811e-02,-1.492417454719543457e-01,-1.235933694988489151e-02,1.158913448452949524e-01,3.588411957025527954e-02,-8.028135895729064941e-01,-3.992944583296775818e-02,-1.052249222993850708e-02,4.176241811364889145e-03,5.789379030466079712e-02,5.571343898773193359e-01,1.496083140373229980e+00,1.084118843078613281e+00,4.852521233260631561e-03,2.598107159137725830e-01,1.482402831315994263e-01,-2.339769303798675537e-01,-5.696646124124526978e-02,4.424770772457122803e-01,5.453764796257019043e-01,-4.219273477792739868e-02,2.536933124065399170e-01,4.544456899166107178e-01,4.620541632175445557e-02,1.743908156640827656e-03,5.349985323846340179e-03,9.622921347618103027e-01,-1.553338486701250076e-02,-3.765663504600524902e-02,-4.261590167880058289e-02,-5.746308341622352600e-02,9.308985471725463867e-01,6.493396162986755371e-01,1.403203420341014862e-02,-3.646072745323181152e-02,-6.344775110483169556e-02,5.298249721527099609e-01,6.722074002027511597e-02,3.207905590534210205e-01,-1.003577709197998047e+00,-6.010574288666248322e-03,6.828745454549789429e-02,4.837931096553802490e-01,2.530990540981292725e-02,-6.688474416732788086e-01,1.389561686664819717e-03,-7.787162065505981445e-02,6.992910057306289673e-02,2.985328063368797302e-02,2.000615119934082031e+00,2.639603242278099060e-02,2.656673192977905273e-01,8.614395745098590851e-03,1.896783262491226196e-01,1.020180732011795044e-01,-1.789147406816482544e-02,2.128265984356403351e-02,-3.149254992604255676e-02,-1.752882003784179688e-01,-3.856598585844039917e-02,2.805939875543117523e-02,4.395972788333892822e-01,6.810544133186340332e-01,3.220966458320617676e-02,3.086281754076480865e-02,1.872025847434997559e+00,3.682848438620567322e-02,8.406812697649002075e-02,2.643271349370479584e-02,4.830387979745864868e-02,-7.856597304344177246e-01,4.129453748464584351e-02,-5.976154282689094543e-02,1.399799823760986328e+00,4.801103100180625916e-02,-8.337955921888351440e-02,1.908445544540882111e-02,7.158886641263961792e-02,-4.356929361820220947e-01,2.864447832107543945e-01,1.211708411574363708e-02,-5.528601408004760742e-01,-7.287900894880294800e-02,9.238552302122116089e-03,2.352457195520401001e-01,-5.926732718944549561e-02,9.293596148490905762e-01,6.911808252334594727e-02,2.143639698624610901e-02,-4.135740548372268677e-02,-1.158883795142173767e-01,4.695122241973876953e-01,4.751313105225563049e-02,-3.872928768396377563e-02,-4.720332473516464233e-02,6.121174618601799011e-02,1.903050422668457031e+00,3.878482803702354431e-02,-8.137881755828857422e-03,1.419831160455942154e-02,6.189135019667446613e-04,6.629532575607299805e-02,4.114803671836853027e-02,5.628251656889915466e-02,-2.827996611595153809e-01,1.306496411561965942e-01,1.178493857383728027e+00,-7.846099138259887695e-02,7.941561192274093628e-02,-3.876320645213127136e-02,2.176008373498916626e-01,1.352084917016327381e-03,1.232592016458511353e-02,1.038067135959863663e-02,5.752005800604820251e-02,-1.712145507335662842e-01,3.649264574050903320e-01,-2.363440953195095062e-02,2.280790917575359344e-02,-5.564086139202117920e-03,-3.042713925242424011e-02,-5.763681977987289429e-02,1.135435141623020172e-02,6.937094926834106445e-01,-1.198967453092336655e-02,-2.828216925263404846e-02,-1.214038059115409851e-01,4.838261753320693970e-02,3.948830664157867432e-01,7.811600342392921448e-03,5.621933937072753906e-02,-2.850051969289779663e-04,9.429286718368530273e-01,1.537026651203632355e-02,1.399174891412258148e-02,4.598482549190521240e-01,1.039500236511230469e+00,3.564237058162689209e-01,-3.250880166888237000e-02,-5.198239814490079880e-03,-7.691656798124313354e-02,2.942031063139438629e-02,-3.399141505360603333e-02,7.789141684770584106e-02,1.307472959160804749e-02,1.001201748847961426e+00,4.830938205122947693e-02,-3.654712811112403870e-02,-1.279436866752803326e-03,-1.139741986989974976e-01,3.764690458774566650e-02,-3.094846606254577637e-01,-1.493558753281831741e-02,4.871950950473546982e-03,-1.146697532385587692e-02,-1.118763312697410583e-01,3.121716022491455078e+00,4.667495936155319214e-02,-4.011637717485427856e-02,1.423923578113317490e-02,-5.750060081481933594e-02,7.035270333290100098e-02,1.184706985950469971e-01,-1.426505297422409058e-02,-4.458121489733457565e-03,8.431859016418457031e-01,4.430656880140304565e-02,2.079826116561889648e+00,-1.623896881937980652e-02,-7.691729068756103516e-02,1.785393118858337402e+00,1.873774409294128418e+00,6.411755084991455078e-02,9.298892691731452942e-03,3.296384960412979126e-02,-5.351554229855537415e-02,1.765227061696350574e-03,3.170156478881835938e-01,2.587707154452800751e-02,6.844972819089889526e-02,-2.287195064127445221e-02,2.296968549489974976e-02,4.329076502472162247e-03,-4.772787168622016907e-02,3.421343490481376648e-02,-4.212940484285354614e-02,8.818700313568115234e-01,-3.932841122150421143e-02,-2.467976361513137817e-01,1.902160286903381348e+00,1.924699991941452026e-01,1.254894863814115524e-02,-5.008530989289283752e-02,-2.654503583908081055e-01,1.778534613549709320e-03,-3.435286134481430054e-02,-4.906321316957473755e-02,-5.525424703955650330e-02,4.033485651016235352e-01,8.994074538350105286e-03,1.090289931744337082e-02,-2.979174256324768066e-02,-4.004195332527160645e-02,1.292249917984008789e+00,8.047751188278198242e-01,-2.992730215191841125e-02,2.278777770698070526e-02,3.437114134430885315e-02,-2.888307208195328712e-03,2.332225814461708069e-02,-2.951314672827720642e-02,-1.661306433379650116e-02,1.870544441044330597e-02,3.407152835279703140e-03,-5.373519062995910645e-01,-1.168301627039909363e-01,3.896309733390808105e-01,6.798305511474609375e-01,1.860426366329193115e-01,-2.988142669200897217e-01,2.110333554446697235e-02,-3.370437026023864746e-02,4.486771523952484131e-01,-5.183264017105102539e-01,-3.252123296260833740e-02,-3.218795359134674072e-02,5.897084474563598633e-01,-5.061926841735839844e-01,2.290591783821582794e-02,7.309672981500625610e-02,-1.318396329879760742e+00,-6.396422535181045532e-02,4.108210653066635132e-02,3.733811900019645691e-02,4.066831618547439575e-02,3.517533652484416962e-03,1.524035781621932983e-01,-2.931668236851692200e-02,-1.215898320078849792e-01,1.469186842441558838e-01,6.717342883348464966e-02,-5.444272886961698532e-03,1.172588020563125610e-01,-3.035759627819061279e-01,1.594772785902023315e-01,-7.742916047573089600e-02,3.494508564472198486e-02,-4.407463967800140381e-02,-1.731052696704864502e-01,2.980527281761169434e-02,3.868281096220016479e-02,3.934223577380180359e-02
4.772839844226837158e-01,3.349959477782249451e-02,-3.282951563596725464e-02,-3.674555337056517601e-03,-4.148835688829421997e-02,1.838942021131515503e-01,7.955003529787063599e-02,-2.116420269012451172e-01,-5.250897258520126343e-02,9.296810626983642578e-01,8.542199619114398956e-03,-6.449878681451082230e-03,3.776002675294876099e-02,1.893740147352218628e-02,-1.633519679307937622e-01,1.197692677378654480e-01,7.033701241016387939e-02,3.943809121847152710e-02,-3.521861433982849121e-01,-8.261829018592834473e-01,1.237149313092231750e-01,-2.005651593208312988e-03,-6.087459921836853027e-01,-2.094201743602752686e-01,3.995632380247116089e-02,1.842119693756103516e-01,-5.766109228134155273e-01,-2.691133320331573486e-02,2.625593729317188263e-02,3.803671151399612427e-02,-1.496430933475494385e-01,-1.697303541004657745e-02,-5.656639486551284790e-02,2.252541482448577881e-03,7.519899010658264160e-01,-2.957287728786468506e-01,4.393220841884613037e-01,3.070878237485885620e-02,-1.109877042472362518e-02,3.897132724523544312e-02,1.606486588716506958e-01,-6.051417440176010132e-02,-6.815018057823181152e-01,5.882343649864196777e-01,7.634095847606658936e-02,1.421484351158142090e-02,3.913171961903572083e-02,-3.010524809360504150e-02,-6.656109094619750977e-01,-1.369675248861312866e-02,1.028386503458023071e-02,-5.634451657533645630e-02,-8.384793996810913086e-03,-1.086633801460266113e-01,4.158049076795578003e-02,-7.117667794227600098e-01,2.330054342746734619e-02,5.469155311584472656e-01,5.852495133876800537e-02,-4.247644543647766113e-02,5.161357671022415161e-02,9.350851178169250488e-02,-1.355565905570983887e+00,-2.533974498510360718e-02,5.361479520797729492e-02,6.859011203050613403e-02,2.044051736593246460e-01,-4.856330901384353638e-02,2.471983432769775391e-02,-1.092774629592895508e+00,2.488420158624649048e-02,-3.713960051536560059e-01,-2.207201719284057617e-02,6.202928721904754639e-03,3.263282775878906250e-01,-2.910753153264522552e-02,-9.533912688493728638e-02,-9.588839411735534668e-01,3.579119592905044556e-02,5.615401268005371094e-02,-6.199914216995239258e-02,-2.618577331304550171e-02,-4.506696388125419617e-02,7.438314706087112427e-02,-2.297837985679507256e-03,-3.251489102840423584e-01,-2.710060775279998779e-02,-2.640134841203689575e-02,-3.254989534616470337e-02,-1.159226372838020325e-01,-3.243175446987152100e-01,-7.329434156417846680e-03,-4.389055818319320679e-02,-6.634216755628585815e-02,-1.829239368438720703e+00,1.730011999607086182e-01,5.106679350137710571e-02,4.371036775410175323e-03,5.961939692497253418e-02,-2.846481502056121826e-01,-9.361859411001205444e-02,-5.925588309764862061e-02,4.126252233982086182e-01,4.343850165605545044e-02,-3.697815909981727600e-02,-5.012775212526321411e-02,9.181799739599227905e-02,-3.013458102941513062e-02,-3.196405172348022461e-01,-9.618018567562103271e-02,-1.813421845436096191e-01,-4.187148809432983398e-02,-5.816453695297241211e-02,-9.369582682847976685e-02,6.162246465682983398e-01,4.669032990932464600e-03,4.712911695241928101e-02,-2.000477910041809082e-02,-3.736856952309608459e-02,-1.771270334720611572e-01,-2.769015431404113770e-01,-2.092805318534374237e-02,9.779606945812702179e-03,-5.556310713291168213e-02,-2.006068080663681030e-02,-5.549218654632568359e-01,5.336525663733482361e-02,-7.489595413208007812e-01,-2.595033496618270874e-02,-4.282432422041893005e-02,-3.538337051868438721e-01,-3.849735856056213379e-02,3.942713737487792969e-01,5.237812292762100697e-04,4.379127174615859985e-02,2.082298696041107178e-02,-7.924188375473022461e-01,-5.102883279323577881e-02,-6.398372352123260498e-02,-2.636647820472717285e-01,-1.041748151183128357e-01,-7.845503687858581543e-01,-3.492178022861480713e-02,-9.315661154687404633e-03,8.996769040822982788e-02,-1.590839028358459473e-02,-2.137457132339477539e-01,-6.396879255771636963e-02,1.924803294241428375e-02,-1.567058712244033813e-01,8.438367396593093872e-03,-4.587931931018829346e-02,-3.670536354184150696e-02,4.665539264678955078e-01,-5.105458199977874756e-03,-2.552981674671173096e-01,-4.848191142082214355e-02,3.749714791774749756e-02,-6.597384810447692871e-03,-6.095921397209167480e-01,2.541044950485229492e-01,5.840752273797988892e-02,-4.919777810573577881e-02,-1.737850904464721680e-02,1.026066392660140991e-02,-2.011696249246597290e-02,-3.022441081702709198e-02,-5.462979152798652649e-02,-3.951233625411987305e-02,-5.555259585380554199e-01,3.874382078647613525e-01,-1.829264014959335327e-01,-2.118026092648506165e-02,1.188628375530242920e-02,4.259133040904998779e-01,-5.390241742134094238e-01,-3.496227785944938660e-02,-3.230908513069152832e-02,1.541212201118469238e-02,-2.865041792392730713e-02,-3.196827322244644165e-02,1.176500320434570312e-01,-4.758214205503463745e-02,-2.754487097263336182e-02,4.503088071942329407e-02,6.109432876110076904e-02,-3.482739627361297607e-02,-5.423877835273742676e-01,1.828297413885593414e-02,-4.230943322181701660e-02,-6.199206411838531494e-02,1.420636475086212158e-01,-4.513751268386840820e-01,1.617302745580673218e-01,2.665648609399795532e-02,-2.486249059438705444e-02,-3.121672943234443665e-02,-1.979456096887588501e-01,1.332865934818983078e-02,-2.249024063348770142e-02,6.268745660781860352e-02,1.619768887758255005e-02,-5.725292563438415527e-01,-7.596799638122320175e-03,1.211326848715543747e-02,3.347137570381164551e-02,-1.483302563428878784e-02,3.531770706176757812e-01,2.920457422733306885e-01,1.554158329963684082e-02,3.128604590892791748e-02,-5.101807415485382080e-02,5.540857911109924316e-01,5.735337734222412109e-03,-5.207742452621459961e-01,-2.686413228511810303e-01,1.166427433490753174e-01,1.578266918659210205e-02,-1.035122349858283997e-01,3.902942538261413574e-01,2.153034061193466187e-01,-7.961406707763671875e-01,-1.639793395996093750e+00,5.213852524757385254e-01,2.572046220302581787e-02,-1.212565600872039795e-02,-1.458644960075616837e-02,4.933889210224151611e-01,-4.794614762067794800e-02,-5.010698735713958740e-02,-1.286109983921051025e-01,2.137031257152557373e-01,7.326874765567481518e-04,-7.711511850357055664e-01,2.497732341289520264e-01,-2.864656597375869751e-02,-2.531622909009456635e-02,2.648425102233886719e-02,5.469696223735809326e-02,4.105992242693901062e-02,5.775631070137023926e-01,3.148108720779418945e-02,-1.785296201705932617e-01,-2.938182353973388672e-01,7.860969752073287964e-02,-4.066460579633712769e-02,-1.356513261795043945e+00,-2.162253707647323608e-01,1.979290097951889038e-01,2.481450885534286499e-02,-4.354882240295410156e-02,-5.523912608623504639e-03,-2.055276632308959961e-01,5.607993155717849731e-02,9.932464919984340668e-03,1.183900982141494751e-02
