-7.657240033149719238e-01
2.961724996566772461e-01
3.293433412909507751e-02
9.067627787590026855e-02
-5.188112854957580566e-01
2.144311740994453430e-02
1.086461097002029419e-01
9.874618798494338989e-02
1.626670509576797485e-01
-4.471831023693084717e-02
-1.072445392608642578e+00
4.245713651180267334e-01
2.452757358551025391e-01
-1.133258938789367676e+00
1.962751150131225586e-01
1.366835236549377441e-01
1.514806300401687622e-01
-2.798823416233062744e-01
-2.862190008163452148e-01
1.326129138469696045e-01
-1.121267318725585938e+00
-3.521197140216827393e-01
-1.112675666809082031e-01
2.015277892351150513e-01
2.557093501091003418e-01
3.812199458479881287e-02
-1.714716553688049316e-01
-4.342089891433715820e-01
3.789131045341491699e-01
-6.253224611282348633e-02
-1.276754260063171387e+00
1.092453449964523315e-01
3.484037518501281738e-01
2.241603434085845947e-01
-1.522710621356964111e-01
-5.146253108978271484e-02
-6.608601659536361694e-02
3.759237229824066162e-01
-6.861405074596405029e-02
1.523644775152206421e-01
-5.533161759376525879e-01
-1.466868370771408081e-01
4.013682901859283447e-01
1.939049512147903442e-01
-1.770449131727218628e-01
6.780887395143508911e-02
3.781014680862426758e-02
-1.497669219970703125e-01
3.976546227931976318e-01
1.270221173763275146e-01
-3.334224522113800049e-01
-6.283488869667053223e-01
-5.433259531855583191e-02
-3.248280286788940430e-02
-9.049636125564575195e-02
1.779424399137496948e-02
-2.370802313089370728e-01
1.811779290437698364e-01
-2.801553718745708466e-02
-2.651570737361907959e-01
3.028256297111511230e-01
-3.446165919303894043e-01
-3.445041477680206299e-01
-2.786160679534077644e-03
-3.817751705646514893e-01
-1.128499135375022888e-01
6.680460274219512939e-02
-5.179786086082458496e-01
-9.425603151321411133e-01
-8.884835839271545410e-01
-2.358267754316329956e-01
3.246397525072097778e-02
-1.884226649999618530e-01
5.241373926401138306e-02
-1.049340724945068359e+00
-1.329618878662586212e-02
4.848392680287361145e-02
-5.764108896255493164e-01
9.873900562524795532e-02
-3.565422296524047852e-01
2.579124867916107178e-01
-3.556855916976928711e-01
-8.387496471405029297e-01
-6.519068479537963867e-01
-9.670508503913879395e-01
-3.369102254509925842e-03
3.474118411540985107e-01
6.438041478395462036e-02
1.370188295841217041e-01
-3.484677374362945557e-01
-2.735562324523925781e-01
2.348010092973709106e-01
-4.394849762320518494e-02
-1.825800389051437378e-01
3.001746535301208496e-01
4.969380423426628113e-02
-5.377824902534484863e-01
2.161206007003784180e-01
-6.744572520256042480e-01
3.120223581790924072e-01
1.454267501831054688e-01
1.510964483022689819e-01
5.947201978415250778e-03
-1.279634833335876465e-01
-5.713391304016113281e-01
-9.907408803701400757e-02
-2.851405143737792969e-01
-8.377994298934936523e-01
-2.221369147300720215e-01
-7.094186544418334961e-02
-3.684403002262115479e-01
-8.838934898376464844e-01
-3.626784384250640869e-01
-7.656164765357971191e-01
-8.500960469245910645e-02
2.845925688743591309e-01
-5.284472703933715820e-01
-1.807841658592224121e-02
-1.678664386272430420e-01
3.810925483703613281e-01
-1.540430188179016113e-01
7.880523055791854858e-02
-2.180780619382858276e-01
3.137809932231903076e-01
-7.922763377428054810e-02
-1.904926747083663940e-01
-3.365467786788940430e-01
-2.128137797117233276e-01
