3.372367024421691895e-01,1.917328312993049622e-02,4.084529578685760498e-01,-1.098175570368766785e-01,-3.627826273441314697e-01,-2.162130355834960938e+00,4.862312972545623779e-01,1.108073070645332336e-02,-2.519449293613433838e-01,-1.313484191894531250e+00,-2.289421111345291138e-01,-7.627124190330505371e-01,-7.218272089958190918e-01,-1.557774305343627930e+00,-5.809503421187400818e-02,2.440041750669479370e-01,2.626211941242218018e-01,-2.581168115139007568e-01,9.585770964622497559e-02,-2.042130231857299805e+00,-9.227330684661865234e-01,8.983869105577468872e-02,-2.588793635368347168e-01,1.130492687225341797e-01,-2.165035903453826904e-01,3.541425168514251709e-01,1.524906009435653687e-01,1.870547235012054443e-02,-2.591568231582641602e-01,1.656213402748107910e-01,-3.103003799915313721e-01,-2.122942954301834106e-01,2.470392882823944092e-01,-4.443057179450988770e-01,-6.324190646409988403e-02,-1.578285932540893555e+00,-1.382894277572631836e+00,6.558747887611389160e-01,8.441735059022903442e-02,-9.084115028381347656e-01,-1.379184842109680176e+00,-9.457437396049499512e-01,-2.726629376411437988e-01,-1.231042504310607910e+00,-1.238730788230895996e+00,-4.667028412222862244e-02,1.893015801906585693e-01,-6.038039922714233398e-01,-3.158557415008544922e-01,3.449649550020694733e-03,-8.286211639642715454e-03,-6.678614020347595215e-01,-8.105896115303039551e-01,-1.620951108634471893e-02,-5.654544234275817871e-01,-2.370750755071640015e-01,-9.093239307403564453e-01,-2.115520238876342773e-01,-3.035480380058288574e-01,-1.576110959053039551e+00,3.220808506011962891e-01,-1.328595280647277832e+00,2.366623729467391968e-01,-2.668534278869628906e+00,-7.855246067047119141e-01,9.996137022972106934e-02,-4.290077388286590576e-01,-5.738969426602125168e-03,1.051623746752738953e-01,2.579367347061634064e-02,3.291148543357849121e-01,-4.283239245414733887e-01,6.307937502861022949e-01,-8.862670511007308960e-02,1.029482483863830566e-01,2.534415125846862793e-01,-2.439331769943237305e+00,6.912060827016830444e-02,-8.462331891059875488e-01,1.849892288446426392e-01,-2.564388811588287354e-01,2.313035875558853149e-01,2.483311146497726440e-01,-1.799284070730209351e-01,-2.690462172031402588e-01,-1.077955588698387146e-03,-1.581312179565429688e+00,-6.580373272299766541e-03,4.169620871543884277e-01,-6.262986063957214355e-01,-1.004869222640991211e+00,3.453517556190490723e-01,3.684624731540679932e-01,-4.775464832782745361e-01,-4.561043679714202881e-01,-9.963053464889526367e-02,-3.504454791545867920e-01,1.134859681129455566e+00,2.637231349945068359e-01,-2.038504928350448608e-01,4.203430116176605225e-01,-4.776733368635177612e-02,2.765282094478607178e-01,-1.886578649282455444e-01,4.207905232906341553e-01,-9.448668360710144043e-02,-1.266650110483169556e-01,-2.424726029857993126e-03,4.336042702198028564e-01,-1.326629996299743652e+00,-7.150766253471374512e-01,-2.530919313430786133e-01,-2.607938051223754883e-01,-3.576594591140747070e-01,2.866110801696777344e-01,-2.723571956157684326e-01,-1.862100362777709961e-01,4.096256494522094727e-01,-2.316182106733322144e-01,-1.681258231401443481e-01,-8.623669147491455078e-01,-3.549172878265380859e-01,5.126906931400299072e-02,-8.239484392106533051e-03,1.418996334075927734e+00,1.910268366336822510e-01,-4.167817831039428711e-01,-1.365826368331909180e+00
-3.077481500804424286e-02,-2.330470271408557892e-02,-6.601746659725904465e-03,4.040233045816421509e-02,-1.167943179607391357e-01,1.364357117563486099e-02,6.827007234096527100e-02,1.412657741457223892e-02,-7.285501807928085327e-02,-7.118882983922958374e-02,-8.030325919389724731e-02,-2.327458700165152550e-03,-3.728028014302253723e-02,-9.184498339891433716e-02,-3.542532026767730713e-02,-9.977023303508758545e-02,-3.299687430262565613e-02,2.314127609133720398e-02,-9.849262423813343048e-03,1.058364287018775940e-02,3.206880763173103333e-02,-8.585826307535171509e-02,-1.337302476167678833e-01,-1.078372374176979065e-01,-7.532927393913269043e-02,-1.124865636229515076e-01,-5.312765762209892273e-02,8.172484487295150757e-02,-1.313404142856597900e-01,6.613045185804367065e-02,2.772626280784606934e-02,-1.233746409416198730e-01,-1.149444952607154846e-01,-1.200377121567726135e-01,1.110313273966312408e-02,-7.938434183597564697e-02,-6.174323335289955139e-02,6.148032471537590027e-02,-1.264632940292358398e-01,-2.116040885448455811e-02,-6.202066317200660706e-02,7.892852276563644409e-02,-2.667905949056148529e-02,3.420712053775787354e-02,4.619324579834938049e-02,2.500305697321891785e-02,1.556013152003288269e-02,-7.793082296848297119e-02,4.571554437279701233e-02,-8.544479310512542725e-02,-2.098712697625160217e-02,-3.788051381707191467e-02,-1.405557058751583099e-02,1.879067276604473591e-04,-9.425188601016998291e-02,-4.775889217853546143e-02,-3.503379970788955688e-02,-2.197611331939697266e-02,-1.050051599740982056e-01,-1.608407646417617798e-01,-1.099569872021675110e-01,1.342271268367767334e-02,-8.875514566898345947e-02,2.279021218419075012e-02,2.601782232522964478e-02,-4.179720580577850342e-02,1.037865038961172104e-02,1.970292441546916962e-02,-4.707694798707962036e-02,-5.259300768375396729e-02,-2.229284960776567459e-03,2.308792434632778168e-02,-7.618961483240127563e-02,-5.171426758170127869e-02,-5.899837985634803772e-02,-1.058309227228164673e-01,3.848602250218391418e-02,-7.984920591115951538e-02,-3.484743461012840271e-02,-5.560070648789405823e-02,-2.454333752393722534e-02,1.934763975441455841e-02,-6.006445270031690598e-03,-4.647343605756759644e-02,-1.037096828222274780e-01,-4.378778859972953796e-02,-5.539891496300697327e-02,-7.771357893943786621e-02,-5.830306559801101685e-02,-1.266307085752487183e-01,-6.265340745449066162e-02,-2.722408436238765717e-02,-4.894007369875907898e-02,1.407738309353590012e-02,-1.186515763401985168e-02,-3.293084725737571716e-02,4.746780171990394592e-02,-7.073535025119781494e-02,7.846917957067489624e-02,-3.128107264637947083e-02,-8.160199970006942749e-02,1.495976932346820831e-02,-1.191650703549385071e-01,-9.165509790182113647e-02,-7.090323418378829956e-02,-3.865770995616912842e-02,-4.042526707053184509e-02,-3.506982326507568359e-02,-2.097951062023639679e-02,-3.467777371406555176e-02,1.012418121099472046e-01,6.023892387747764587e-02,-3.068870306015014648e-02,1.033585425466299057e-02,-4.417655989527702332e-02,-8.291693031787872314e-02,-1.090847179293632507e-01,-2.119898796081542969e-02,-3.101567551493644714e-02,-1.077690720558166504e-01,-2.172526717185974121e-02,-2.229342609643936157e-02,-1.034493967890739441e-01,-5.797359347343444824e-02,5.789606645703315735e-02,-5.497683957219123840e-02,7.280996534973382950e-03,-9.372328966856002808e-02
-5.687444284558296204e-02,-2.146273478865623474e-02,-3.333567455410957336e-02,7.541842758655548096e-03,-1.755520701408386230e-02,-3.713224548846483231e-03,-3.046988882124423981e-02,-4.282300546765327454e-02,-3.857294842600822449e-02,-1.063143312931060791e-01,8.699145168066024780e-02,5.113249644637107849e-03,-9.985149651765823364e-02,7.402186840772628784e-02,5.691054090857505798e-02,-9.786563366651535034e-02,6.137843802571296692e-02,-7.524030655622482300e-02,-8.132626116275787354e-02,6.999639421701431274e-02,-6.768213957548141479e-02,-3.449832275509834290e-02,6.084644421935081482e-02,4.604060575366020203e-02,2.052817493677139282e-02,-1.029806956648826599e-01,-5.418104305863380432e-02,1.191340666264295578e-02,2.532576583325862885e-02,-4.007442295551300049e-02,-8.671788871288299561e-02,4.726228490471839905e-02,-6.953242421150207520e-02,-8.226512372493743896e-02,-9.402455389499664307e-02,-2.897109836339950562e-02,4.586092382669448853e-02,-4.469883441925048828e-02,-3.728540381416678429e-03,4.287431389093399048e-02,7.636027783155441284e-02,-4.207085818052291870e-03,3.698673471808433533e-02,-9.815899282693862915e-02,7.491968572139739990e-02,-1.207654923200607300e-01,-9.141969680786132812e-02,3.496225550770759583e-02,-8.825756609439849854e-02,-2.746015973389148712e-02,3.080799616873264313e-02,-1.697070337831974030e-02,-8.099979907274246216e-02,-1.876156218349933624e-02,7.431424409151077271e-02,-8.297579735517501831e-02,-3.666424751281738281e-02,-9.908980131149291992e-02,3.309511393308639526e-02,5.440608039498329163e-02,-9.036679565906524658e-02,2.935945987701416016e-02,-2.749952860176563263e-02,-9.079084545373916626e-02,-1.088626682758331299e-01,7.691689580678939819e-02,-7.118444424122571945e-03,-6.494030356407165527e-02,-6.685870233923196793e-03,-1.293625682592391968e-02,4.106125608086585999e-02,-4.315305128693580627e-02,3.674349933862686157e-02,-3.008508309721946716e-02,-6.440178304910659790e-02,6.974394619464874268e-02,3.959093987941741943e-02,-4.853216931223869324e-02,-1.031634658575057983e-01,-5.502096191048622131e-02,4.253230616450309753e-02,6.191861350089311600e-03,1.463764929212629795e-03,3.081724606454372406e-02,7.925165444612503052e-02,5.899506807327270508e-02,4.705449566245079041e-02,-3.941215574741363525e-02,3.921391442418098450e-02,4.393205512315034866e-03,-6.916315108537673950e-02,-1.180041357874870300e-01,-4.278305172920227051e-02,-1.270650979131460190e-02,3.699130378663539886e-03,-3.932530432939529419e-02,-6.759290397167205811e-02,-5.664846301078796387e-02,6.422272417694330215e-03,-4.659757763147354126e-02,-4.785307124257087708e-02,-9.765538387000560760e-03,-5.049098655581474304e-02,-6.597677618265151978e-02,-8.631560206413269043e-02,-1.002003550529479980e-01,-8.451628684997558594e-02,-4.492196254432201385e-03,-4.418033733963966370e-02,-8.431889116764068604e-02,2.926136739552021027e-02,4.711808636784553528e-03,5.614913254976272583e-02,-7.655857503414154053e-02,-1.128681376576423645e-01,-5.415426194667816162e-02,-2.814815193414688110e-02,-5.631797015666961670e-02,7.203152775764465332e-02,2.402397990226745605e-02,-2.012442052364349365e-02,2.232757396996021271e-02,-3.325388301163911819e-03,-9.558071196079254150e-02,-5.787045881152153015e-02,3.462256491184234619e-02,-9.779364615678787231e-02,-1.137967556715011597e-01
-5.337068066000938416e-02,-9.277188777923583984e-02,3.429565206170082092e-02,-9.514853358268737793e-02,-2.808111457852646708e-05,5.559166148304939270e-02,5.091819539666175842e-02,1.382168289273977280e-02,6.819933652877807617e-03,1.386836823076009750e-02,3.389652818441390991e-02,-5.247835814952850342e-02,-8.440886437892913818e-02,-7.375263422727584839e-02,-3.819716349244117737e-02,-7.813198864459991455e-02,4.176119342446327209e-02,-5.818078294396400452e-02,-8.201207220554351807e-02,5.252044275403022766e-02,1.145787909626960754e-02,4.000383242964744568e-02,1.274325652047991753e-03,3.417372331023216248e-02,-1.461380068212747574e-02,-6.385936588048934937e-02,-6.739947944879531860e-02,8.817495405673980713e-02,-9.627703577280044556e-02,-5.639740824699401855e-02,4.076633229851722717e-02,3.415965661406517029e-02,-1.889001391828060150e-02,7.846594788134098053e-03,-7.732715457677841187e-02,-3.742640465497970581e-02,1.236513908952474594e-02,-5.612063687294721603e-03,4.359434917569160461e-02,-1.111376360058784485e-01,7.278373930603265762e-03,-1.187315285205841064e-01,-8.284761756658554077e-02,-6.467463821172714233e-02,-8.592611551284790039e-02,-8.689778298139572144e-02,-7.505108416080474854e-02,2.511558867990970612e-02,-4.245735704898834229e-02,-8.765315264463424683e-02,1.199364848434925079e-02,-1.132653793320059776e-03,9.644715115427970886e-03,-8.129096776247024536e-02,-7.287199795246124268e-02,-1.005277484655380249e-01,-7.724311947822570801e-02,-9.049209207296371460e-02,7.444087415933609009e-03,6.417290866374969482e-02,-3.257134184241294861e-02,-7.585147768259048462e-02,5.380740389227867126e-02,-8.169832825660705566e-02,-9.912350028753280640e-02,-5.131959170103073120e-02,5.296769738197326660e-02,-5.728194862604141235e-02,4.886472970247268677e-02,6.608064752072095871e-03,3.982648998498916626e-02,4.262977838516235352e-02,2.989380992949008942e-02,2.480578422546386719e-02,7.890230417251586914e-02,1.456194277852773666e-02,-1.322104781866073608e-01,-9.001987427473068237e-02,-1.578357070684432983e-03,-5.803845077753067017e-02,1.910164766013622284e-02,1.074041333049535751e-02,-4.167423397302627563e-02,-6.291840970516204834e-02,4.298935458064079285e-02,7.073222845792770386e-02,-6.142814829945564270e-02,6.594583857804536819e-03,-2.261872030794620514e-02,-1.243136078119277954e-02,5.085391178727149963e-02,-1.021920666098594666e-01,-2.564607933163642883e-02,-4.923360422253608704e-02,-6.405348330736160278e-02,-1.190965622663497925e-02,-5.389085505157709122e-03,-5.663605872541666031e-03,4.872915521264076233e-02,-8.701226860284805298e-02,5.199267179705202579e-04,3.577248379588127136e-02,-1.054374035447835922e-02,-6.122826784849166870e-02,-6.012273952364921570e-02,-1.094468086957931519e-01,-5.884552001953125000e-02,7.231116294860839844e-02,-9.756986051797866821e-02,-9.041158854961395264e-02,-7.965669035911560059e-02,-8.939722180366516113e-02,-4.806740954518318176e-02,-8.907507359981536865e-02,-6.219201162457466125e-02,-3.773751435801386833e-03,1.917131803929805756e-02,-4.510719329118728638e-03,3.728976473212242126e-02,-3.819037973880767822e-02,4.521471855696290731e-04,8.284306526184082031e-02,-1.328138411045074463e-01,-3.439944982528686523e-02,-3.815515432506799698e-03,-1.051418781280517578e-01,-3.221134096384048462e-02,-3.825785359367728233e-03
8.378369733691215515e-03,-9.356780350208282471e-02,-4.585655406117439270e-02,-9.824431687593460083e-02,-6.067553535103797913e-02,-8.974719792604446411e-02,2.601500414311885834e-02,-7.258138060569763184e-02,5.491848103702068329e-03,5.166044086217880249e-02,5.876175686717033386e-02,-4.018228128552436829e-02,-5.279611051082611084e-02,6.548195146024227142e-03,-6.495918333530426025e-02,3.709477186203002930e-02,-1.258303131908178329e-02,4.085204377770423889e-02,8.389215171337127686e-02,-5.149866454303264618e-03,-5.565232411026954651e-02,-9.748648107051849365e-02,2.658253349363803864e-02,-1.252565681934356689e-01,2.820925228297710419e-02,9.042913094162940979e-03,-7.258845865726470947e-02,2.869167830795049667e-03,6.747514754533767700e-02,4.041652008891105652e-02,-1.106109842658042908e-01,1.262595597654581070e-02,-1.046606991440057755e-02,-7.445373386144638062e-02,-7.113703340291976929e-02,-1.342234313488006592e-01,-1.073950678110122681e-01,-2.651384472846984863e-02,5.845787748694419861e-02,3.082001768052577972e-02,-4.898370057344436646e-02,-6.955219060182571411e-02,5.457280576229095459e-02,-6.401816848665475845e-03,-1.784613355994224548e-02,-4.425859451293945312e-02,-2.604584768414497375e-02,-2.662608586251735687e-02,-5.165017768740653992e-02,-3.965926915407180786e-02,-1.163511350750923157e-01,4.189947247505187988e-02,-9.572937339544296265e-02,2.852641977369785309e-02,-5.825950764119625092e-03,-4.696836695075035095e-03,-1.536237262189388275e-02,1.996854692697525024e-02,-1.089024394750595093e-01,-3.143594413995742798e-02,-1.760762557387351990e-02,-1.445701867341995239e-01,1.284900587052106857e-02,-4.085226729512214661e-02,-6.763444095849990845e-02,-1.112076342105865479e-01,-2.021457534283399582e-03,-2.506979927420616150e-02,4.098887741565704346e-02,-7.873883470892906189e-03,-6.067177746444940567e-03,-1.147604882717132568e-01,-4.710937663912773132e-02,-1.056599020957946777e-01,-5.499267950654029846e-03,-1.144715473055839539e-01,-9.484038688242435455e-03,-3.243665769696235657e-02,2.546174265444278717e-02,-5.997931957244873047e-02,3.429703181609511375e-03,5.524171516299247742e-02,-8.437687158584594727e-02,-6.797003000974655151e-02,-6.919063627719879150e-02,-1.447967905551195145e-02,-2.506645768880844116e-02,4.436122253537178040e-03,-4.745974764227867126e-02,-3.137185424566268921e-02,-6.407147645950317383e-02,1.838565245270729065e-02,-9.300088137388229370e-02,6.474465876817703247e-02,-2.450132742524147034e-02,1.059537567198276520e-02,-5.815242975950241089e-02,2.224729955196380615e-02,1.111097820103168488e-02,-6.634315848350524902e-02,-7.071451749652624130e-03,-7.293957751244306564e-03,-1.901512034237384796e-02,2.747017424553632736e-03,9.038852900266647339e-02,-9.819322824478149414e-02,-1.209151232615113258e-03,2.811990119516849518e-02,-5.120674893260002136e-02,-1.170447543263435364e-01,-1.435594819486141205e-02,-1.158410981297492981e-01,-1.100179925560951233e-01,4.569562897086143494e-02,-9.717988222837448120e-02,-5.017240718007087708e-02,2.764970250427722931e-02,1.928612776100635529e-02,-7.306622713804244995e-02,-6.185097619891166687e-02,-7.292093336582183838e-02,-1.597926020622253418e-02,-2.258061431348323822e-02,-4.224387556314468384e-02,-2.896205894649028778e-02,-4.207477346062660217e-02,-7.632076740264892578e-02,-6.349571049213409424e-03
-5.226673483848571777e-01,-1.158289760351181030e-01,3.958948850631713867e-01,2.292395085096359253e-01,-4.351838827133178711e-01,-4.907787963747978210e-02,3.009055973961949348e-03,3.931038081645965576e-01,3.303804099559783936e-01,-6.026853621006011963e-02,-1.793657690286636353e-01,-3.631003797054290771e-01,-3.868663683533668518e-02,-4.412425160408020020e-01,5.148544907569885254e-02,6.851475685834884644e-02,4.817146360874176025e-01,-6.415488719940185547e-01,-1.550264060497283936e-01,-5.797966122627258301e-01,-1.466778874397277832e+00,-1.109813213348388672e+00,-3.898804187774658203e-01,-3.096158504486083984e-01,-4.051322937011718750e-01,3.649163246154785156e-01,-1.315100938081741333e-01,2.473728545010089874e-02,4.142748191952705383e-02,5.487334132194519043e-01,-2.214116156101226807e-01,3.479779064655303955e-01,5.223078131675720215e-01,-4.854225516319274902e-01,-2.230643928050994873e-01,7.723036408424377441e-02,-4.788497090339660645e-01,-4.242723286151885986e-01,1.779627054929733276e-01,-6.465841531753540039e-01,4.208244979381561279e-01,-1.801064312458038330e-01,2.193034142255783081e-01,-8.792911767959594727e-01,-1.136887669563293457e+00,3.730558454990386963e-01,2.610952556133270264e-01,1.749935150146484375e-01,-9.184423089027404785e-01,1.067030578851699829e-01,-3.151919543743133545e-01,-8.001381158828735352e-01,-7.989349775016307831e-03,-7.524223327636718750e-01,2.297584116458892822e-01,4.552305117249488831e-02,1.188723519444465637e-01,1.201530080288648605e-02,7.607997208833694458e-02,-7.360595464706420898e-01,4.853711724281311035e-01,1.265018582344055176e-01,-7.909755110740661621e-01,-1.804437339305877686e-01,-9.386811405420303345e-02,1.224998570978641510e-02,-4.575527310371398926e-01,-2.586405873298645020e-01,-9.241760522127151489e-02,-2.736555635929107666e-01,1.776344180107116699e-01,5.207963287830352783e-02,1.362042784690856934e+00,3.241218626499176025e-01,-1.076262831687927246e+00,1.980782002210617065e-01,-9.754281640052795410e-01,-3.572221100330352783e-01,-7.342005372047424316e-01,-4.293160438537597656e-01,-4.542475342750549316e-01,-1.006003245711326599e-01,-4.211104810237884521e-01,-8.875663876533508301e-01,-6.821284890174865723e-01,3.532949388027191162e-01,-5.013862252235412598e-01,-4.693646728992462158e-02,3.875641822814941406e-01,-2.806758284568786621e-01,1.069924473762512207e+00,2.913691997528076172e-01,3.931944966316223145e-01,-5.491550564765930176e-01,-2.758986949920654297e-01,1.932327076792716980e-02,7.281324863433837891e-01,2.690983116626739502e-01,-4.862788021564483643e-01,-4.503169953823089600e-01,3.073040246963500977e-01,2.703917920589447021e-01,1.556861102581024170e-01,1.067532896995544434e-01,6.532046794891357422e-01,3.759405761957168579e-02,-7.384097669273614883e-03,-6.943193674087524414e-01,1.747961193323135376e-01,-1.249409794807434082e+00,2.028574347496032715e-01,-9.153221845626831055e-01,-8.879554867744445801e-01,-1.818205118179321289e-01,2.454599551856517792e-02,5.438825488090515137e-01,-1.442758291959762573e-01,1.954772025346755981e-01,2.711378931999206543e-01,-1.659888923168182373e-01,2.194050550460815430e-01,-2.520485818386077881e-01,5.030407309532165527e-01,-6.950793266296386719e-01,8.331792354583740234e-01,1.009891867637634277e+00,-8.898879289627075195e-01,3.268855810165405273e-02
-5.592714995145797729e-02,-7.392135262489318848e-02,-1.126721203327178955e-01,-1.142890006303787231e-01,-4.413065500557422638e-03,-2.689721062779426575e-02,-7.350879255682229996e-03,-9.827155619859695435e-02,-7.107293605804443359e-02,-3.326420113444328308e-02,-2.291524223983287811e-02,-1.202617492526769638e-02,-1.971686072647571564e-02,-2.805228158831596375e-02,2.921323291957378387e-02,-2.144774608314037323e-02,-6.137618422508239746e-02,2.112745493650436401e-02,9.606688469648361206e-02,-8.445107936859130859e-02,-4.333754256367683411e-02,2.908941730856895447e-02,-1.489606052637100220e-01,-1.136151552200317383e-01,-9.613957256078720093e-03,-7.765845954418182373e-02,3.384796530008316040e-02,-8.185382187366485596e-02,-1.334233283996582031e-01,6.526570022106170654e-02,-1.662059724330902100e-01,4.834690690040588379e-02,-6.995217502117156982e-02,-1.282627731561660767e-01,-1.247094497084617615e-01,-8.190259337425231934e-02,-9.382662177085876465e-02,-8.027741312980651855e-02,-2.109501324594020844e-02,2.105068974196910858e-02,-3.265811130404472351e-02,7.478945702314376831e-02,-6.827268749475479126e-02,-8.620993047952651978e-02,2.181947976350784302e-02,-8.551976084709167480e-02,-5.033884197473526001e-02,5.281763523817062378e-02,9.327372536063194275e-04,-1.642407625913619995e-01,2.284211479127407074e-02,-1.062559932470321655e-01,5.560038611292839050e-02,8.187939971685409546e-02,-1.109500229358673096e-01,-1.216131299734115601e-01,6.990998238325119019e-02,-4.057198390364646912e-02,-7.354898005723953247e-02,-4.399420693516731262e-02,-1.569368876516819000e-02,-3.753656521439552307e-02,-4.943548887968063354e-02,-2.922828681766986847e-02,-5.270623043179512024e-02,-8.345864713191986084e-02,-6.055297702550888062e-02,7.224002480506896973e-02,-1.345635205507278442e-01,-1.418649554252624512e-01,-1.507903449237346649e-02,1.884613372385501862e-02,-8.089091628789901733e-02,-4.476017132401466370e-02,5.199466831982135773e-03,6.568266451358795166e-02,-1.267056018114089966e-01,6.462541222572326660e-02,-2.134663239121437073e-02,2.691226452589035034e-02,-8.251815289258956909e-02,-1.069425512105226517e-02,-5.521340668201446533e-02,-9.813484549522399902e-02,-8.161576837301254272e-02,8.773830719292163849e-03,-7.812969386577606201e-02,-8.003411442041397095e-02,-2.478750608861446381e-02,4.658835474401712418e-03,-1.664186827838420868e-02,5.631025880575180054e-02,1.006769016385078430e-02,-2.301830425858497620e-02,-1.151030585169792175e-01,-4.186942055821418762e-02,-5.389444157481193542e-02,-2.570098149590194225e-04,-2.109816111624240875e-02,-1.279696375131607056e-01,5.804114043712615967e-02,3.423248231410980225e-02,-9.113387204706668854e-03,-1.739127635955810547e-01,-1.105926781892776489e-01,-5.993084982037544250e-02,-9.360878169536590576e-02,-1.314435303211212158e-01,3.147987276315689087e-02,-3.196539357304573059e-02,-1.360335648059844971e-01,-1.532382220029830933e-01,-1.013393849134445190e-01,-1.422892790287733078e-02,-1.824233680963516235e-02,-7.554012350738048553e-03,-1.926988363265991211e-01,-8.107575029134750366e-02,-8.056110143661499023e-02,-1.965170539915561676e-02,-2.080171555280685425e-01,-2.604455314576625824e-02,-3.455263748764991760e-02,-6.492350995540618896e-02,-4.308866336941719055e-02,-2.248093113303184509e-02,-7.218714058399200439e-02,1.809035092592239380e-01
-1.358651667833328247e-01,5.920248627662658691e-01,-3.529930114746093750e-01,6.553184986114501953e-01,-3.757718205451965332e-01,6.062234044075012207e-01,-1.034483432769775391e+00,-8.124516010284423828e-01,-1.404192671179771423e-02,-2.617404460906982422e-01,2.745628952980041504e-01,-6.589652597904205322e-02,-1.478438228368759155e-01,3.271504640579223633e-01,-3.543636202812194824e-01,4.844462573528289795e-01,-3.572080135345458984e-01,7.494131475687026978e-02,-8.955071866512298584e-02,6.421196460723876953e-01,-1.217843815684318542e-01,5.896238684654235840e-01,-8.030081391334533691e-01,5.247703194618225098e-01,4.519761726260185242e-02,5.422505363821983337e-02,6.204638481140136719e-01,5.932834371924400330e-02,1.871150881052017212e-01,-5.750370025634765625e-01,-3.858862328343093395e-05,-3.106357455253601074e-01,-5.686411857604980469e-01,1.666562855243682861e-01,-4.808250665664672852e-01,6.647904962301254272e-02,6.564183235168457031e-01,-4.000164270401000977e-01,-5.741841718554496765e-02,-3.991981968283653259e-02,-4.869197905063629150e-01,-4.328697919845581055e-01,1.889817416667938232e-01,-1.424774974584579468e-01,-2.224601805210113525e-01,2.451544851064682007e-01,-1.708259880542755127e-01,2.605071663856506348e-01,5.167087316513061523e-01,-6.001815199851989746e-01,1.209743320941925049e-01,-1.381853818893432617e-01,2.551322281360626221e-01,3.463041782379150391e-01,5.088235139846801758e-01,4.634066671133041382e-02,8.313418179750442505e-02,4.634629487991333008e-01,2.030606418848037720e-01,3.481448590755462646e-01,-9.626492261886596680e-01,2.280308455228805542e-01,-7.168221473693847656e-02,-4.377660155296325684e-02,-5.323801040649414062e-01,-5.293994545936584473e-01,2.779529690742492676e-01,-1.315145194530487061e-01,4.277076423168182373e-01,-3.182757496833801270e-01,3.840281367301940918e-01,-1.251661896705627441e+00,1.540261879563331604e-02,1.166565716266632080e-01,4.675144553184509277e-01,-4.588006436824798584e-01,-5.684831365942955017e-02,5.797649025917053223e-01,-5.158138871192932129e-01,5.161266922950744629e-01,-4.264438152313232422e-01,-4.132692515850067139e-01,7.688961625099182129e-01,1.795867979526519775e-01,-2.995208799839019775e-01,6.155812740325927734e-02,-2.970451861619949341e-02,-4.706811010837554932e-01,-3.470861017704010010e-01,-1.868757903575897217e-01,1.177364364266395569e-01,4.141288697719573975e-01,4.648014903068542480e-01,1.333858817815780640e-01,7.165041565895080566e-02,-7.620127871632575989e-03,-1.305613517761230469e-01,1.736557930707931519e-01,-2.385462634265422821e-02,5.015635490417480469e-01,5.029258877038955688e-02,7.894817739725112915e-02,-9.198533892631530762e-01,-4.279119968414306641e-01,-8.807723522186279297e-01,4.585088044404983521e-02,9.760170429944992065e-02,-1.708948969841003418e+00,8.105254173278808594e-02,-1.419726610183715820e-01,3.281397819519042969e-01,2.263400331139564514e-02,2.360107153654098511e-01,-3.777539730072021484e-01,-2.031300663948059082e-01,8.039987683296203613e-01,-8.208875544369220734e-03,-5.151877999305725098e-01,-1.693591624498367310e-01,-2.104163616895675659e-01,7.339841127395629883e-01,3.779189586639404297e-01,-1.911967545747756958e-01,-3.262227773666381836e-01,-1.755822151899337769e-01,-4.270976483821868896e-01,-9.043907523155212402e-01,7.708792388439178467e-02
-2.861609309911727905e-02,-1.143462657928466797e-01,-2.762952074408531189e-02,1.694271154701709747e-02,-4.582141712307929993e-02,-1.004537716507911682e-01,-5.456435680389404297e-02,-4.756269231438636780e-02,-1.123021245002746582e-01,-6.514136493206024170e-02,-1.314301788806915283e-02,1.897500082850456238e-02,-1.290769428014755249e-01,2.853496000170707703e-02,-2.927490696310997009e-02,-3.985794726759195328e-03,-8.804392069578170776e-02,-1.711216382682323456e-02,-1.175204887986183167e-01,-6.800512224435806274e-02,-1.123335808515548706e-01,-7.084432989358901978e-02,-1.459114998579025269e-02,-3.166703134775161743e-02,-8.589617162942886353e-02,2.373159117996692657e-02,2.487978152930736542e-02,4.041085019707679749e-02,-1.296899914741516113e-01,-3.111342899501323700e-02,1.990491151809692383e-02,-3.814493864774703979e-02,-5.478483438491821289e-02,-1.534000225365161896e-02,-9.665993601083755493e-02,-3.271970897912979126e-02,-8.851831406354904175e-02,-2.185628004372119904e-02,-1.004014462232589722e-01,3.762888163328170776e-02,-3.152242675423622131e-02,6.147810444235801697e-02,-7.373723387718200684e-02,-2.329787984490394592e-02,1.490013767033815384e-02,-1.653019152581691742e-02,4.831856582313776016e-03,2.511940151453018188e-02,1.374982856214046478e-02,2.594177378341555595e-03,-1.218875199556350708e-01,-5.039790645241737366e-02,-5.617949366569519043e-02,4.747727885842323303e-02,-6.360799819231033325e-02,-1.142852604389190674e-01,-1.165703684091567993e-01,-1.344073861837387085e-01,-5.123059079051017761e-02,-1.474611163139343262e-01,4.085507243871688843e-02,-2.890397422015666962e-02,5.713604390621185303e-02,1.902445219457149506e-02,-9.470307081937789917e-02,1.422259770333766937e-02,-1.175239905714988708e-01,-2.473683841526508331e-02,-3.132304549217224121e-02,5.224116519093513489e-02,-6.274960190057754517e-02,-6.396596878767013550e-02,-9.105815738439559937e-02,-8.775131404399871826e-02,3.838475793600082397e-02,1.508559193462133408e-02,2.721773646771907806e-02,-7.417641580104827881e-03,1.683565601706504822e-02,4.808646440505981445e-02,1.584291830658912659e-02,8.332984871231019497e-04,-1.404274161905050278e-02,-7.081229984760284424e-02,-8.102820068597793579e-02,-9.316200762987136841e-02,-3.005833178758621216e-02,1.717584393918514252e-02,2.082273177802562714e-02,-1.390398945659399033e-02,-8.902862668037414551e-02,-1.004762798547744751e-01,-1.492441445589065552e-01,-8.055483549833297729e-02,-5.998846143484115601e-02,-7.689598202705383301e-02,1.542217005044221878e-02,3.133749589323997498e-02,-2.041635103523731232e-02,-1.644072085618972778e-01,8.013683557510375977e-02,-2.542355656623840332e-02,1.078366581350564957e-02,-1.099852696061134338e-01,-2.275317441672086716e-03,-2.633265592157840729e-02,-5.783274397253990173e-02,-6.999836117029190063e-02,-9.036692976951599121e-02,-8.815798163414001465e-02,-1.385494619607925415e-01,5.966186523437500000e-02,-3.627043217420578003e-02,-4.189295321702957153e-02,-1.015907973051071167e-01,1.458769547753036022e-04,-1.314290612936019897e-01,-8.094247430562973022e-03,-5.743900686502456665e-02,3.398663178086280823e-02,-1.757904305122792721e-03,-1.205236762762069702e-01,-1.804914511740207672e-02,9.890585206449031830e-03,-9.346428513526916504e-02,-4.039070382714271545e-02,-8.516074717044830322e-02,-5.232387408614158630e-02
-6.710320711135864258e-01,3.250045478343963623e-01,6.666995584964752197e-02,3.650780618190765381e-01,-4.527242183685302734e-01,2.347989529371261597e-01,4.465058445930480957e-01,-4.276896119117736816e-01,6.260816007852554321e-02,5.552413314580917358e-02,-9.558844566345214844e-01,1.524969041347503662e-01,2.240544408559799194e-01,-1.018183112144470215e+00,5.096326023340225220e-02,4.895234107971191406e-01,3.832131624221801758e-01,-1.304321140050888062e-01,1.342875957489013672e-01,-8.015643358230590820e-01,-1.054810166358947754e+00,-7.784792184829711914e-01,-3.451879024505615234e-01,-1.536787152290344238e-01,-5.747242569923400879e-01,-3.272662162780761719e-01,-7.880380153656005859e-01,1.090933978557586670e-01,3.324782550334930420e-01,-1.184253454208374023e+00,-6.110938787460327148e-01,1.105041708797216415e-02,3.658489882946014404e-01,1.990473829209804535e-02,-3.650892972946166992e-01,-7.011001110076904297e-01,7.906505465507507324e-02,1.725047081708908081e-01,-1.888429075479507446e-01,-2.206357419490814209e-01,-3.366849720478057861e-01,-4.357041418552398682e-01,2.440978586673736572e-01,-4.437563419342041016e-01,-6.439400911331176758e-01,9.978003054857254028e-02,-1.435277760028839111e-01,-2.876526862382888794e-02,-2.238923460245132446e-01,-7.251519709825515747e-02,-7.570714950561523438e-01,-1.141497969627380371e+00,4.252959489822387695e-01,-1.808373779058456421e-01,-7.028783559799194336e-01,4.563561975955963135e-01,-3.745967149734497070e-01,-3.571243584156036377e-02,-2.511119544506072998e-01,-1.101414442062377930e+00,1.421581953763961792e-01,-9.831681251525878906e-01,-4.714589715003967285e-01,-8.960753679275512695e-01,-4.193058609962463379e-02,-4.366614520549774170e-01,3.285101950168609619e-01,4.896275326609611511e-02,-4.839606583118438721e-01,8.345829695463180542e-02,-8.511810302734375000e-01,1.507382690906524658e-01,-7.479564547538757324e-01,3.755862116813659668e-01,-6.602419614791870117e-01,-8.438557386398315430e-01,-8.097440600395202637e-01,4.396856129169464111e-01,-8.193555474281311035e-01,-4.977703392505645752e-01,4.739819467067718506e-01,-6.185206174850463867e-01,-6.862480044364929199e-01,-1.374937653541564941e+00,-4.301388859748840332e-01,3.896708488464355469e-01,5.273994430899620056e-02,-1.647094637155532837e-01,3.802951276302337646e-01,-1.817589640617370605e+00,-8.073642849922180176e-01,-1.943155527114868164e-01,-5.176743865013122559e-01,2.677135467529296875e-01,1.279134154319763184e-01,-7.775402069091796875e-01,-3.798123598098754883e-01,7.883252948522567749e-02,-3.835643529891967773e-01,4.710970912128686905e-03,-4.274550974369049072e-01,-6.321462392807006836e-01,1.448314986191689968e-03,3.946565985679626465e-01,1.289685130119323730e+00,-1.192270755767822266e+00,-1.210877895355224609e+00,5.165898203849792480e-01,-7.708902359008789062e-01,-8.167006969451904297e-01,4.973560869693756104e-01,-9.950670003890991211e-01,-1.110707879066467285e+00,-7.042302936315536499e-02,-1.013440012931823730e+00,3.545890152454376221e-01,-3.908558189868927002e-01,4.464212432503700256e-02,6.283132731914520264e-02,2.185589075088500977e-01,1.329433470964431763e-01,-2.116947025060653687e-01,-6.908254623413085938e-01,-3.263733685016632080e-01,-4.056750535964965820e-01,-5.206809639930725098e-01,-4.081937074661254883e-01,2.731007337570190430e-01
-1.587241888046264648e-02,-4.203834384679794312e-02,-8.731496334075927734e-02,-1.203046925365924835e-02,3.969023376703262329e-02,4.844594746828079224e-02,3.366923704743385315e-02,-2.092172764241695404e-02,4.633770324289798737e-03,8.179500699043273926e-03,-5.085681099444627762e-03,-5.909978225827217102e-02,-5.087799206376075745e-02,-2.867147885262966156e-02,9.066669270396232605e-03,5.115863680839538574e-02,-2.113108709454536438e-02,-8.113745599985122681e-03,-2.447412349283695221e-02,5.610539391636848450e-02,-3.380649536848068237e-02,-7.388184312731027603e-03,2.298666536808013916e-02,-8.170134574174880981e-02,-7.300312817096710205e-02,1.819125562906265259e-02,-5.554315447807312012e-02,6.719589233398437500e-02,-9.479383379220962524e-02,6.362515036016702652e-03,-9.003891050815582275e-02,6.600757688283920288e-02,-6.413630396127700806e-02,-7.897076010704040527e-02,-8.669341355562210083e-02,7.488007843494415283e-02,5.875929817557334900e-02,4.752032458782196045e-02,-3.944346681237220764e-02,-4.246204346418380737e-02,-6.986191868782043457e-02,-8.556576073169708252e-02,-2.516619488596916199e-02,1.215764204971492290e-03,4.056929424405097961e-02,-1.999418996274471283e-02,-1.231398060917854309e-02,-6.893695145845413208e-02,7.992732338607311249e-03,-6.770941615104675293e-02,-6.020428985357284546e-02,5.095688998699188232e-02,-6.692670285701751709e-03,-6.469976156949996948e-02,3.851429373025894165e-02,4.423096030950546265e-02,1.046075299382209778e-02,4.112116247415542603e-02,-1.540665421634912491e-02,-7.826016843318939209e-02,-4.898043349385261536e-03,-1.454754639416933060e-02,8.231029659509658813e-02,-5.700897425413131714e-02,6.185737624764442444e-02,-2.755664661526679993e-02,-7.162167131900787354e-02,4.181670024991035461e-02,-1.137545518577098846e-02,-4.902854189276695251e-02,5.110586062073707581e-02,3.931217268109321594e-02,2.638743072748184204e-02,3.926002234220504761e-02,-4.451561719179153442e-02,-9.742131829261779785e-02,5.080017820000648499e-02,-4.252574220299720764e-02,-1.988622359931468964e-02,4.559483751654624939e-02,-4.681565612554550171e-02,-3.139562904834747314e-02,-9.430020302534103394e-02,-6.336957681924104691e-03,-1.044884622097015381e-01,-8.645529299974441528e-02,-5.804288084618747234e-04,-4.934481158852577209e-02,-7.944753766059875488e-02,-5.807870998978614807e-02,-2.091229707002639771e-02,-8.212078362703323364e-02,1.506356801837682724e-02,-7.121825218200683594e-02,5.975478794425725937e-03,1.590822264552116394e-02,-5.770273134112358093e-02,-8.760941773653030396e-02,4.948979616165161133e-02,1.989205926656723022e-02,-6.606815010309219360e-02,-6.910626590251922607e-02,2.193842455744743347e-02,3.889207169413566589e-02,4.015295580029487610e-02,-1.023829802870750427e-01,8.579889684915542603e-02,-9.463930875062942505e-02,5.566366016864776611e-03,-8.829737454652786255e-02,-5.429523438215255737e-02,-1.088238656520843506e-01,4.645599110517650843e-04,-8.614073693752288818e-02,-1.597612723708152771e-02,-9.902309626340866089e-02,-2.852802164852619171e-02,-1.353356055915355682e-03,1.223933417350053787e-02,5.702424421906471252e-02,4.880683869123458862e-02,-6.634663790464401245e-02,4.652275890111923218e-02,-8.479382097721099854e-02,5.283867195248603821e-02,-1.057053282856941223e-01,-2.401974052190780640e-02,8.556674420833587646e-02
-5.696952715516090393e-02,2.146782167255878448e-02,-4.136017337441444397e-02,3.248527646064758301e-02,7.568940520286560059e-03,1.845323108136653900e-02,4.231000319123268127e-02,3.499569743871688843e-02,-5.606778711080551147e-02,5.466096475720405579e-02,-4.653201624751091003e-02,-8.520111441612243652e-02,3.684633597731590271e-02,3.205173090100288391e-02,-2.415116690099239349e-02,-6.341443955898284912e-02,-6.617514789104461670e-02,2.862681448459625244e-02,8.237543515861034393e-03,-7.261201739311218262e-02,9.546190500259399414e-03,-6.058714934624731541e-04,-7.672910392284393311e-02,-1.914960518479347229e-02,-9.651021659374237061e-02,-6.006059795618057251e-02,-2.481923624873161316e-02,-4.600435867905616760e-02,1.392771396785974503e-02,-1.037269085645675659e-01,-7.850262522697448730e-02,4.857163876295089722e-02,1.852406188845634460e-02,-9.225952625274658203e-02,-1.699205301702022552e-02,-2.548793517053127289e-02,6.721261888742446899e-02,6.838072091341018677e-02,5.691072717308998108e-02,-4.081116989254951477e-02,-7.391814887523651123e-02,-3.531352803111076355e-02,6.423346698284149170e-02,-4.005943238735198975e-02,3.802188858389854431e-02,7.062810473144054413e-03,-1.843446865677833557e-02,-6.175639107823371887e-02,-6.447388976812362671e-02,-3.075117617845535278e-02,-2.872232906520366669e-02,2.582269161939620972e-02,3.220558166503906250e-02,-2.748456038534641266e-02,2.535465545952320099e-02,-7.307073473930358887e-02,-1.423165760934352875e-02,-2.691990230232477188e-03,-4.629040136933326721e-03,5.864237621426582336e-02,5.859288945794105530e-02,-7.613534480333328247e-02,3.341149166226387024e-02,4.462566226720809937e-02,-5.092490836977958679e-02,2.386604435741901398e-02,1.339006237685680389e-02,7.933019846677780151e-02,1.489315740764141083e-02,6.336572766304016113e-02,-4.114487022161483765e-02,2.559527941048145294e-02,-4.974397271871566772e-02,-9.754478931427001953e-02,-2.572871185839176178e-02,-1.051181927323341370e-01,-6.687868852168321609e-03,-8.551885932683944702e-02,-6.406224519014358521e-02,-1.736906357109546661e-02,-2.652326598763465881e-02,-5.552319809794425964e-02,-3.714568912982940674e-02,-2.482975088059902191e-02,-2.941322699189186096e-02,7.210629060864448547e-03,3.474767878651618958e-02,-1.812698692083358765e-02,-6.163725629448890686e-03,-4.272947087883949280e-02,-1.334708463400602341e-02,-4.149209707975387573e-02,-2.330416440963745117e-02,-7.295831292867660522e-02,4.618227481842041016e-02,-1.048164721578359604e-02,2.611163631081581116e-02,-9.514662623405456543e-02,-3.499063104391098022e-02,-6.644510664045810699e-03,-1.067379489541053772e-02,-3.850742429494857788e-02,-6.306604295969009399e-02,-7.282111048698425293e-02,-4.865360632538795471e-02,-9.141887724399566650e-02,-7.813604921102523804e-02,-8.562465757131576538e-02,-2.968361228704452515e-02,-1.068601980805397034e-01,8.627477288246154785e-02,-4.108645394444465637e-02,1.680232770740985870e-02,-1.025483533740043640e-01,-5.429671704769134521e-02,-8.121598511934280396e-02,-8.900877088308334351e-02,4.855588823556900024e-02,-7.748851925134658813e-02,5.436606332659721375e-02,-8.948458731174468994e-02,3.693531081080436707e-02,-3.822337836027145386e-02,-5.590672139078378677e-03,3.657997027039527893e-02,3.946747630834579468e-02,6.493514776229858398e-02,-1.037157420068979263e-02
-2.052040398120880127e-02,-8.941504359245300293e-02,-2.873149700462818146e-03,2.744727768003940582e-02,-1.653011888265609741e-02,-5.240564420819282532e-02,-1.051815524697303772e-01,1.443872810341417789e-03,3.535609692335128784e-02,4.613837227225303650e-02,-8.538075536489486694e-02,-1.016952097415924072e-02,4.643363505601882935e-02,-8.409316837787628174e-02,6.158841028809547424e-02,-5.701225623488426208e-02,-4.952156916260719299e-02,-5.368430633097887039e-03,-7.968280464410781860e-02,-5.262408405542373657e-02,4.530128091573715210e-02,-8.954244852066040039e-02,-7.794315367937088013e-02,6.738844513893127441e-02,5.412928760051727295e-02,-1.101395860314369202e-01,-3.689889237284660339e-02,1.030186936259269714e-02,2.937414124608039856e-02,-1.178662553429603577e-01,6.553409621119499207e-03,-5.693869665265083313e-02,6.116466224193572998e-02,-3.381602093577384949e-02,-1.196026653051376343e-01,-1.374768558889627457e-02,-1.071875263005495071e-02,-6.338769569993019104e-03,-8.640784770250320435e-03,3.602043166756629944e-02,-2.511237189173698425e-02,-8.797763288021087646e-02,-6.925847381353378296e-02,-6.365988403558731079e-02,2.460366673767566681e-02,6.117026135325431824e-02,-9.553686529397964478e-02,-9.875652939081192017e-02,3.783920407295227051e-02,2.291062474250793457e-02,-1.363113988190889359e-02,-6.272814422845840454e-02,6.542849540710449219e-02,-5.296374112367630005e-02,-2.115465002134442329e-03,-6.647890806198120117e-02,-2.039673551917076111e-02,-1.442271983250975609e-03,-8.035767078399658203e-02,-2.006431296467781067e-02,4.305002093315124512e-02,-6.341091543436050415e-02,6.273593008518218994e-02,-7.022792845964431763e-02,5.804534256458282471e-02,-7.871912792325019836e-03,-5.439088121056556702e-02,-2.123612165451049805e-02,-3.639559494331479073e-03,-1.850885339081287384e-02,-9.964999556541442871e-02,-8.620436489582061768e-02,-8.510980010032653809e-02,-5.637439340353012085e-02,3.029689192771911621e-02,-3.065550327301025391e-02,-1.703505031764507294e-02,1.692912727594375610e-02,-6.193644180893898010e-02,3.015235438942909241e-02,6.916709989309310913e-02,4.259799793362617493e-02,-7.519201934337615967e-02,2.912654355168342590e-02,-7.378698885440826416e-02,-1.058165132999420166e-01,-7.354395836591720581e-02,-2.364703267812728882e-02,1.386410836130380630e-02,4.896317049860954285e-02,-5.201128497719764709e-02,-1.392172873020172119e-01,1.803575828671455383e-02,-9.308668226003646851e-02,-1.292217224836349487e-01,4.351278766989707947e-02,-2.636962756514549255e-02,-5.082339048385620117e-02,3.265607729554176331e-02,-9.232222288846969604e-02,3.656075149774551392e-02,-3.649167716503143311e-02,-1.366639435291290283e-01,-9.391538053750991821e-02,1.266101840883493423e-03,2.969997934997081757e-02,7.518801838159561157e-02,3.475850680842995644e-04,-1.339336112141609192e-02,-9.733533859252929688e-02,-3.970430046319961548e-02,-1.603814028203487396e-02,2.257313579320907593e-02,4.108032211661338806e-03,-4.495284333825111389e-02,-5.079425871372222900e-03,3.834458068013191223e-02,-7.482111454010009766e-02,-9.222262352705001831e-02,-4.667342081665992737e-02,-1.138162165880203247e-01,-7.639722526073455811e-02,-1.246012151241302490e-01,-8.096336573362350464e-02,-3.687041997909545898e-02,-8.311481028795242310e-02,-8.055619150400161743e-02,-9.079886227846145630e-02
5.077444761991500854e-02,-5.179587379097938538e-02,1.504577323794364929e-02,-4.848690330982208252e-02,-8.599942177534103394e-02,-4.254747554659843445e-02,-3.133300319314002991e-02,-4.339599609375000000e-02,-1.147492974996566772e-01,-5.747037380933761597e-02,2.128949947655200958e-02,-8.584161102771759033e-02,8.833879232406616211e-02,-1.926930621266365051e-02,5.482178553938865662e-02,3.087899833917617798e-02,-1.157629787921905518e-01,6.917101889848709106e-02,7.141564274206757545e-04,-5.993137508630752563e-02,1.242154370993375778e-02,-4.400932043790817261e-02,5.113657563924789429e-02,1.458358578383922577e-02,3.268004220444709063e-04,1.411035773344337940e-03,-8.544158935546875000e-02,-7.664375007152557373e-02,8.627650141716003418e-02,-1.317537575960159302e-01,-3.029160760343074799e-02,-1.197611242532730103e-01,-2.208818681538105011e-02,-3.722306340932846069e-02,-1.009459942579269409e-01,8.314712345600128174e-02,-9.161744266748428345e-02,-6.232309341430664062e-02,4.781769216060638428e-02,-2.368061803281307220e-02,-4.709682613611221313e-02,6.444389373064041138e-02,-2.327558584511280060e-02,2.378560416400432587e-02,-4.479470849037170410e-02,-2.580264024436473846e-02,-2.912664413452148438e-02,-4.548567533493041992e-02,3.748440369963645935e-02,-8.367086201906204224e-02,3.840582445263862610e-02,-7.351281493902206421e-02,4.013782367110252380e-02,-9.914088994264602661e-02,8.370070159435272217e-02,3.402101248502731323e-02,-1.030463725328445435e-01,-1.885274052619934082e-02,-9.708053618669509888e-02,-2.481971494853496552e-02,-1.586971990764141083e-02,-1.037529259920120239e-01,2.817427180707454681e-02,-1.338791847229003906e-01,2.895341068506240845e-02,9.705775231122970581e-02,-4.594246670603752136e-02,-6.950698047876358032e-02,-1.000849157571792603e-01,-1.888702437281608582e-02,-1.074188053607940674e-01,-1.794050820171833038e-02,-6.398540455847978592e-03,-9.924029558897018433e-02,6.316117197275161743e-02,-7.125650346279144287e-02,-1.092712115496397018e-02,-5.497768148779869080e-02,4.631701484322547913e-02,1.816843263804912567e-02,-3.129622200503945351e-03,-1.303414255380630493e-01,4.544762149453163147e-02,7.127824425697326660e-02,-3.877967223525047302e-02,-9.182675182819366455e-02,-6.153693050146102905e-02,-9.905270999297499657e-04,-1.028347387909889221e-01,-1.021403819322586060e-01,-1.881199181079864502e-01,-3.168616816401481628e-02,-2.682685852050781250e-02,4.704174771904945374e-02,3.690902842208743095e-03,3.271995112299919128e-02,2.757319947704672813e-03,-5.202259495854377747e-02,1.964376866817474365e-02,4.453296307474374771e-03,-9.319633245468139648e-02,-1.113598048686981201e-01,-2.739781700074672699e-02,-6.863278150558471680e-02,-2.536683715879917145e-02,-7.769931107759475708e-03,3.016538545489311218e-02,-4.843851923942565918e-02,-7.093137502670288086e-02,6.792273372411727905e-02,-8.681426942348480225e-02,-7.717108726501464844e-02,-8.627352863550186157e-02,-6.387691199779510498e-02,-1.721478626132011414e-02,-5.598104000091552734e-02,-2.146932929754257202e-01,-3.529120236635208130e-02,3.425768809393048286e-03,1.053437404334545135e-02,-4.359838739037513733e-02,-5.442638695240020752e-02,2.324602752923965454e-02,-2.049688994884490967e-02,-1.669272482395172119e-01,-7.650250196456909180e-02,-4.000028967857360840e-02,9.286784380674362183e-02
1.739693284034729004e-01,-4.265786334872245789e-02,-8.057727217674255371e-01,1.269354522228240967e-01,2.450032085180282593e-01,-5.719801783561706543e-01,2.910405993461608887e-01,-4.123908281326293945e-01,1.255186200141906738e-01,1.459973026067018509e-02,-6.172452569007873535e-01,-4.806098714470863342e-02,1.514769196510314941e-01,-5.440467000007629395e-01,7.713235169649124146e-02,4.691449999809265137e-01,1.127546653151512146e-01,-5.062955617904663086e-01,1.574383815750479698e-03,-2.816836535930633545e-01,-4.083254337310791016e-01,-4.039459228515625000e-01,-3.391500562429428101e-02,4.558281973004341125e-02,2.561776936054229736e-01,-2.143738120794296265e-01,1.622210592031478882e-01,-2.185369841754436493e-03,4.678834378719329834e-01,-7.750290036201477051e-01,-7.097041010856628418e-01,-7.752689719200134277e-01,-2.582021355628967285e-01,1.880637705326080322e-01,1.072272658348083496e-01,-1.597262471914291382e-01,-1.516191959381103516e-01,3.125803768634796143e-01,-4.226561188697814941e-01,-2.254805713891983032e-01,-9.085931777954101562e-01,-2.994511276483535767e-02,3.592251539230346680e-01,3.683738708496093750e-01,7.372270226478576660e-01,-8.329154551029205322e-02,-1.311845034360885620e-01,1.142525598406791687e-01,4.925560653209686279e-01,-1.398582160472869873e-01,-5.924815312027931213e-02,-6.323051452636718750e-01,3.664396107196807861e-01,4.953182041645050049e-01,5.662394687533378601e-02,5.907800048589706421e-02,-3.364565074443817139e-01,2.620927393436431885e-01,-1.657628118991851807e-01,2.864692807197570801e-01,-5.793120861053466797e-01,1.487379074096679688e-01,-6.033419966697692871e-01,-9.387484192848205566e-01,-1.339965499937534332e-02,1.465908586978912354e-01,3.683874607086181641e-01,-7.208281010389328003e-02,-3.208143711090087891e-01,-4.035970270633697510e-01,-8.050367236137390137e-01,1.489647477865219116e-01,5.992996692657470703e-01,-4.927270710468292236e-01,-7.599374651908874512e-01,-2.035849541425704956e-01,1.288878172636032104e-01,-4.052626490592956543e-01,6.400097608566284180e-01,-5.368251800537109375e-01,2.897891402244567871e-01,-4.733130037784576416e-01,9.390313029289245605e-01,-8.109351992607116699e-01,-6.098410487174987793e-01,2.074696719646453857e-01,-4.321497865021228790e-03,2.843347787857055664e-01,-3.878303468227386475e-01,-7.536019086837768555e-01,-9.256506562232971191e-01,3.545544147491455078e-01,9.015091061592102051e-01,5.312969535589218140e-02,-2.797856330871582031e-01,7.505157589912414551e-01,-5.876750946044921875e-01,-5.182964801788330078e-01,-3.288135528564453125e-01,2.506056427955627441e-01,1.837491244077682495e-01,-1.039903014898300171e-01,2.833851873874664307e-01,3.124923706054687500e-01,-5.576137900352478027e-01,-7.651638239622116089e-02,-1.177639722824096680e+00,-1.663918793201446533e-01,-1.414227128028869629e+00,-3.896106183528900146e-01,-7.531087398529052734e-01,-8.160363435745239258e-01,-3.790602982044219971e-01,-8.922354876995086670e-02,-1.099819540977478027e+00,6.464256048202514648e-01,-4.789175093173980713e-01,-2.711099684238433838e-01,3.845243453979492188e-01,-2.791396379470825195e-01,4.638690054416656494e-01,2.618959546089172363e-01,-7.167421579360961914e-01,-1.770425587892532349e-01,1.905909925699234009e-01,-5.965660810470581055e-01,3.313012719154357910e-01,4.605585709214210510e-02
-8.113296031951904297e-01,1.010267660021781921e-01,-7.621858268976211548e-02,-8.676714301109313965e-01,-4.063622355461120605e-01,-2.260539054870605469e+00,1.502381414175033569e-01,1.341226045042276382e-02,5.561909824609756470e-02,2.544205486774444580e-01,4.199280962347984314e-02,2.724247276782989502e-01,1.933020353317260742e-01,5.433510616421699524e-02,-1.676991581916809082e-01,1.355438679456710815e-01,-3.617539107799530029e-01,-2.368768006563186646e-01,-7.389806509017944336e-01,-1.236218690872192383e+00,-4.109390974044799805e-01,-1.065769791603088379e+00,-1.906449943780899048e-01,5.477424338459968567e-02,3.182504698634147644e-02,-4.681971371173858643e-01,1.201144978404045105e-01,-1.155861914157867432e-01,1.596449762582778931e-01,9.258739650249481201e-02,-1.286585777997970581e-01,-1.169037595391273499e-01,-3.147115707397460938e-01,2.728194892406463623e-01,-1.065604090690612793e+00,-8.167659044265747070e-01,-5.738701224327087402e-01,3.288699388504028320e-01,-7.441866397857666016e-01,-5.915175080299377441e-01,2.703773379325866699e-01,6.111415475606918335e-02,1.624172180891036987e-01,4.749942123889923096e-01,-1.860014200210571289e+00,-4.785040616989135742e-01,-7.706137299537658691e-01,3.280673027038574219e-01,4.787394404411315918e-01,-5.206615924835205078e-01,3.454553782939910889e-01,8.233635686337947845e-03,1.718643605709075928e-01,-1.329701781272888184e+00,-1.786082863807678223e+00,-1.132158875465393066e+00,-3.753954470157623291e-01,1.882654279470443726e-01,-3.863375484943389893e-01,-1.818549871444702148e+00,-2.556224763393402100e-01,-8.096820712089538574e-01,-4.884274899959564209e-01,-7.487159967422485352e-02,1.857665181159973145e-01,-1.223088264465332031e+00,-3.669562935829162598e-01,-7.137476652860641479e-02,-1.022833399474620819e-03,-1.457773000001907349e-01,-1.220029234886169434e+00,-4.923160001635551453e-02,-1.702005714178085327e-01,-1.986495494842529297e+00,-1.110007688403129578e-01,-5.337473154067993164e-01,2.881489992141723633e-01,-9.446877241134643555e-01,4.220732748508453369e-01,-1.177475526928901672e-01,-1.407408118247985840e-01,-6.438153982162475586e-01,-7.192048430442810059e-02,-1.267099857330322266e+00,-4.646504297852516174e-02,-9.939427375793457031e-01,2.352832257747650146e-01,4.671896398067474365e-01,-7.289993762969970703e-02,-2.403032779693603516e-01,-4.851240217685699463e-01,2.313531935214996338e-01,8.950038254261016846e-02,-4.123816192150115967e-01,-1.296447873115539551e+00,-1.572774201631546021e-01,1.400354504585266113e-01,-6.076841354370117188e-01,-3.354277908802032471e-01,2.269832640886306763e-01,3.734042942523956299e-01,-5.248823165893554688e-01,-9.600874185562133789e-01,-1.953006237745285034e-01,-1.490255236625671387e+00,2.692467905580997467e-02,-4.146249592304229736e-01,-1.202163934707641602e+00,-9.268548488616943359e-01,-1.010762214660644531e+00,2.349634170532226562e-01,-3.344195485115051270e-01,-4.247918725013732910e-01,-3.908188641071319580e-01,-4.908032119274139404e-01,1.567903012037277222e-01,-2.049169540405273438e+00,-3.421351611614227295e-01,2.832498848438262939e-01,1.556689888238906860e-01,-1.413407772779464722e-01,-4.628505408763885498e-01,1.714484095573425293e-01,-2.318399772047996521e-02,-4.592790007591247559e-01,-1.752687543630599976e-01,-4.315631985664367676e-01,7.307806611061096191e-02
-1.621851563453674316e+00,-2.571102231740951538e-02,2.230758816003799438e-01,1.842622160911560059e-01,-1.122517138719558716e-01,-5.692096352577209473e-01,-1.133185029029846191e+00,-2.223333418369293213e-01,-2.583573199808597565e-02,-4.343006312847137451e-01,-4.468145072460174561e-01,-8.778430521488189697e-02,-7.024370133876800537e-02,-1.822457462549209595e-01,2.735312283039093018e-01,-3.720281720161437988e-01,1.832138597965240479e-01,-4.859035313129425049e-01,-1.557938754558563232e-01,1.292473375797271729e-01,-8.411481380462646484e-01,-5.597846508026123047e-01,1.641528904438018799e-01,6.397292017936706543e-01,-7.081621140241622925e-02,2.322358638048171997e-01,-2.376736104488372803e-01,3.438873449340462685e-03,-3.854521214962005615e-01,-1.779804110527038574e+00,-7.914130091667175293e-01,9.211292117834091187e-02,2.273601293563842773e-01,1.218027994036674500e-01,2.934633493423461914e-01,4.608824551105499268e-01,7.570294290781021118e-02,1.644423902034759521e-01,6.243666633963584900e-02,-6.431958675384521484e-01,-2.809391021728515625e-01,-4.685654938220977783e-01,-8.346083760261535645e-02,-4.250549376010894775e-01,3.977842628955841064e-01,1.156819537281990051e-01,8.958460763096809387e-03,-8.842995762825012207e-02,3.951631486415863037e-01,-7.057011127471923828e-02,-4.198098778724670410e-01,-2.499959170818328857e-01,-3.172449469566345215e-01,-9.647699445486068726e-02,-4.916834179311990738e-03,1.774166524410247803e-01,-3.167905807495117188e-01,1.311106234788894653e-01,1.431730687618255615e-01,5.823389068245887756e-02,1.799267530441284180e-01,-3.767701387405395508e-01,-5.896710157394409180e-01,-2.893402241170406342e-02,4.427985101938247681e-02,-2.904160134494304657e-02,4.398555159568786621e-01,-7.803405821323394775e-02,1.161200031638145447e-01,-5.024763345718383789e-01,-1.340351346880197525e-02,7.343305647373199463e-02,3.634444773197174072e-01,-2.014846801757812500e-01,-6.037925481796264648e-01,-3.022201955318450928e-01,-1.206678152084350586e-01,-2.964237332344055176e-01,1.136130020022392273e-01,1.726045906543731689e-01,-1.089336991310119629e+00,9.114782512187957764e-02,7.081992030143737793e-01,-1.341590046882629395e+00,-1.609771728515625000e+00,3.538992404937744141e-01,-2.784192562103271484e-01,1.202461197972297668e-01,2.934876978397369385e-01,-6.774364709854125977e-01,-1.066404357552528381e-01,3.109909594058990479e-01,-2.519838511943817139e-01,3.625187575817108154e-01,-3.834084272384643555e-01,4.748358577489852905e-02,4.310699999332427979e-01,3.153763711452484131e-01,-5.087805390357971191e-01,3.217009603977203369e-01,-5.779836177825927734e-01,-5.780005455017089844e-01,4.696610867977142334e-01,-3.559851050376892090e-01,-2.021414756774902344e+00,-4.108660817146301270e-01,3.135494887828826904e-01,-1.155912637710571289e+00,-2.420072555541992188e-01,-3.296701610088348389e-01,6.555594801902770996e-01,-5.466550588607788086e-01,-1.432378649711608887e+00,-5.556678771972656250e-01,-5.945279002189636230e-01,7.761423289775848389e-02,-3.439402282238006592e-01,5.558660626411437988e-01,9.170882403850555420e-02,-3.147481679916381836e-01,6.439899653196334839e-02,-2.689042985439300537e-01,-1.586873978376388550e-01,-1.310600787401199341e-01,-8.278334885835647583e-02,-7.778146266937255859e-01,9.850453585386276245e-02,2.275094538927078247e-01
-4.921651631593704224e-02,-7.223267108201980591e-02,9.613784030079841614e-03,-1.801896467804908752e-02,-8.162148296833038330e-02,4.635089077055454254e-03,-4.074136726558208466e-03,-8.204221725463867188e-02,-9.634125046432018280e-03,-1.263954583555459976e-02,7.319159060716629028e-02,-4.024619236588478088e-02,-4.983934760093688965e-02,-1.323975808918476105e-02,-5.996206030249595642e-02,7.593302987515926361e-03,-9.415011107921600342e-02,2.070943452417850494e-02,-1.875924132764339447e-02,-8.832551538944244385e-02,-9.307346306741237640e-03,1.399443112313747406e-02,-8.336117118597030640e-02,7.286370545625686646e-02,-1.934339292347431183e-02,-1.155204698443412781e-01,-8.968491107225418091e-02,-1.137431710958480835e-02,-5.292080715298652649e-02,-5.761389061808586121e-02,-3.739801421761512756e-02,1.472562435083091259e-03,-3.090964071452617645e-02,-4.579545557498931885e-02,3.261823579668998718e-02,-1.712306588888168335e-02,-1.024429965764284134e-02,2.827527746558189392e-02,1.987278461456298828e-03,-9.261014312505722046e-02,-2.323983982205390930e-02,9.550794027745723724e-03,5.593683198094367981e-02,-2.493689581751823425e-02,3.513986244797706604e-02,-8.300407789647579193e-03,2.538484334945678711e-02,-1.179776117205619812e-01,9.272675029933452606e-03,2.934451913461089134e-03,2.047637291252613068e-02,-6.789074093103408813e-02,4.751797392964363098e-02,3.429688885807991028e-02,-5.026740580797195435e-02,3.827458247542381287e-02,-8.465486764907836914e-02,-1.116747874766588211e-02,-5.138920620083808899e-02,-6.770391762256622314e-02,-1.202554162591695786e-02,-8.481394499540328979e-02,-8.767753839492797852e-02,-9.086152166128158569e-02,-6.160160154104232788e-02,-7.753769308328628540e-02,4.106028005480766296e-02,3.393006697297096252e-02,4.137066006660461426e-02,-8.362911641597747803e-03,-2.298396639525890350e-02,-4.043542966246604919e-02,-9.744373708963394165e-02,1.511693000793457031e-03,-1.531098037958145142e-02,-4.662980139255523682e-02,-2.127444557845592499e-02,-4.684411361813545227e-02,-6.403266638517379761e-02,-2.887616306543350220e-02,6.743907928466796875e-02,-1.178342849016189575e-02,-4.996459931135177612e-02,-3.843540325760841370e-02,4.450530186295509338e-02,-1.256838790141046047e-03,-9.910830855369567871e-02,-2.871465496718883514e-02,1.060139108449220657e-02,-9.654995799064636230e-02,-7.727123796939849854e-02,-3.833714872598648071e-02,3.924316167831420898e-02,-6.030445173382759094e-02,-7.053203415125608444e-03,-2.926843799650669098e-02,-1.780308037996292114e-02,1.366407517343759537e-02,-9.909225255250930786e-02,3.247718140482902527e-02,-1.708121225237846375e-02,1.648959890007972717e-02,8.749685250222682953e-03,-3.797561302781105042e-02,-1.001109704375267029e-01,-3.339007869362831116e-02,-2.503004111349582672e-02,-1.839628815650939941e-02,-6.948880106210708618e-02,-4.382204636931419373e-02,5.437186360359191895e-02,-2.273499965667724609e-02,-1.219683960080146790e-01,4.374546557664871216e-02,-5.105882138013839722e-02,8.062899112701416016e-03,-2.204605750739574432e-02,2.119065262377262115e-02,-5.179844051599502563e-02,6.859232485294342041e-02,-5.939623713493347168e-02,3.221678733825683594e-02,-1.043679416179656982e-01,-6.866963207721710205e-02,-6.483939290046691895e-02,-1.000601276755332947e-01,-1.718245632946491241e-02,-1.219461392611265182e-02
-3.709796816110610962e-02,1.256777346134185791e-01,-7.255349755287170410e-01,3.900652527809143066e-01,-2.246478945016860962e-01,1.057699248194694519e-01,2.739257812500000000e-01,-2.079363763332366943e-01,-1.933628916740417480e-01,-5.926709622144699097e-03,-6.242933869361877441e-01,1.120346561074256897e-01,1.049356684088706970e-01,-4.722516238689422607e-01,-3.141140639781951904e-01,3.081186413764953613e-01,1.128706112504005432e-01,-7.905808091163635254e-01,1.179121807217597961e-01,5.678323507308959961e-01,-6.508974432945251465e-01,3.649076223373413086e-01,1.657270044088363647e-01,6.246069073677062988e-01,5.263975858688354492e-01,-8.205420523881912231e-02,-1.696016639471054077e-01,3.534004464745521545e-02,3.174500167369842529e-01,-4.382575452327728271e-01,-3.195397555828094482e-01,-4.384020268917083740e-01,-3.926680684089660645e-01,2.501558363437652588e-01,5.119337439537048340e-01,-2.199760973453521729e-01,2.040736377239227295e-01,-2.571896314620971680e-01,-2.294015139341354370e-01,3.429732844233512878e-02,3.150172829627990723e-01,-1.598028093576431274e-01,3.383030593395233154e-01,9.658151865005493164e-01,5.964538455009460449e-01,-1.771866679191589355e-01,-2.154964655637741089e-01,3.261672258377075195e-01,3.483751714229583740e-01,3.342210128903388977e-02,8.175004273653030396e-02,-5.707757472991943359e-01,1.134179830551147461e-01,4.237528443336486816e-01,1.746863722801208496e-01,1.543887108564376831e-01,6.100968122482299805e-01,2.859614789485931396e-01,-2.625406086444854736e-01,8.674347996711730957e-01,-4.226135015487670898e-01,2.845358252525329590e-01,-3.462880253791809082e-01,6.890742778778076172e-01,2.516817748546600342e-01,5.038706064224243164e-01,4.675849080085754395e-01,-1.519767940044403076e-02,6.109303236007690430e-01,-2.878705859184265137e-01,-8.695925772190093994e-02,2.793669402599334717e-01,9.711208343505859375e-01,3.061169385910034180e-01,-1.482740521430969238e+00,2.097207903861999512e-01,4.506203532218933105e-01,-4.552491009235382080e-01,3.549145758152008057e-01,6.481122374534606934e-01,1.096607372164726257e-01,-1.797287315130233765e-01,-3.488636910915374756e-01,-5.433275699615478516e-01,-2.916783392429351807e-01,1.313361972570419312e-01,2.317973524332046509e-01,3.410750329494476318e-01,-8.333951234817504883e-01,-1.510394662618637085e-01,-2.206238359212875366e-01,3.161045014858245850e-01,1.958377957344055176e-01,4.934946298599243164e-01,4.644768238067626953e-01,5.213606953620910645e-01,-1.386819720268249512e+00,2.750325798988342285e-01,-4.418808519840240479e-01,-1.051038280129432678e-01,8.283168822526931763e-02,-5.018313601613044739e-02,-1.003824695944786072e-01,-3.147770464420318604e-01,-7.988895773887634277e-01,3.790047764778137207e-02,3.950044512748718262e-02,-5.896494388580322266e-01,-6.762008666992187500e-01,-6.464009284973144531e-01,-7.947579622268676758e-01,-7.894999980926513672e-01,5.685868859291076660e-02,-1.756305843591690063e-01,-7.077122926712036133e-01,8.230233192443847656e-02,-2.474082857370376587e-01,-1.115937352180480957e+00,2.814644575119018555e-01,-2.653152644634246826e-01,1.062189415097236633e-01,1.113716438412666321e-01,4.878064393997192383e-01,1.243829503655433655e-01,6.425232291221618652e-01,-6.710909008979797363e-01,-5.063197016716003418e-01,-6.538949012756347656e-01
7.580915689468383789e-01,5.309307575225830078e-02,-5.842121243476867676e-01,2.713754773139953613e-01,-4.984329640865325928e-02,-2.692868709564208984e-01,-3.841145336627960205e-02,-4.200071394443511963e-01,-7.129166722297668457e-01,-1.041538119316101074e-01,-1.303253889083862305e+00,1.637317985296249390e-01,1.197652146220207214e-02,-1.410891294479370117e+00,-5.848261713981628418e-01,9.881368279457092285e-02,-1.502427577972412109e+00,9.059803187847137451e-02,-5.968375876545906067e-02,-6.113470792770385742e-01,-6.831369996070861816e-01,-5.207131616771221161e-04,-1.017377614974975586e+00,-1.540776938199996948e-01,3.812764585018157959e-01,3.748340904712677002e-01,4.100784659385681152e-01,-4.378383234143257141e-02,1.939454972743988037e-01,-3.200808763504028320e-01,-1.645297110080718994e-01,-3.357365727424621582e-01,-2.350861206650733948e-02,-9.544537216424942017e-02,-7.365903854370117188e-01,-3.854178190231323242e-01,-3.383309766650199890e-02,-1.181018725037574768e-01,-1.981276869773864746e-01,-1.311322450637817383e-01,-3.911256790161132812e-01,-1.996254771947860718e-01,6.359968334436416626e-02,1.207958817481994629e+00,5.243566036224365234e-01,2.450591623783111572e-01,1.348309814929962158e-01,9.462308883666992188e-02,3.180127143859863281e-01,-8.737905025482177734e-01,2.857033312320709229e-01,-7.565947175025939941e-01,3.554008007049560547e-01,-1.019917707890272141e-02,-1.371483683586120605e+00,4.446760416030883789e-01,-2.658996880054473877e-01,2.503915689885616302e-02,-1.906099617481231689e-01,-4.491589665412902832e-01,6.933002173900604248e-02,-1.114629209041595459e-01,1.171115860342979431e-01,-4.290726780891418457e-01,-1.547203809022903442e-01,-9.262229800224304199e-01,8.284620940685272217e-03,6.856580823659896851e-02,-2.299066781997680664e+00,-2.652541100978851318e-01,9.111769199371337891e-01,-6.156492978334426880e-02,3.682561218738555908e-01,-1.983691304922103882e-01,-1.191242814064025879e+00,-5.232343077659606934e-01,1.986451148986816406e-01,-4.725903570652008057e-01,8.481882214546203613e-01,-6.516005992889404297e-01,-2.590102553367614746e-01,-1.305098891258239746e+00,-5.643417313694953918e-02,7.323203980922698975e-02,-4.607106149196624756e-01,6.549077033996582031e-01,1.980324536561965942e-01,8.583623170852661133e-02,-3.113332986831665039e-01,-4.484398365020751953e-01,1.260286718606948853e-01,2.853358983993530273e-01,2.073501050472259521e-01,3.605533838272094727e-01,-5.082541108131408691e-01,-4.617391526699066162e-01,2.540532350540161133e-01,-5.230917334556579590e-01,2.306486517190933228e-01,2.571277879178524017e-02,-1.510088294744491577e-01,8.548488020896911621e-01,-6.364869475364685059e-01,-3.944737613201141357e-01,7.619467377662658691e-02,1.210634969174861908e-02,3.983629941940307617e-01,-1.468415185809135437e-02,-2.981358952820301056e-02,-2.234663218259811401e-01,-1.893722414970397949e-01,-1.415941238403320312e+00,1.015273332595825195e-01,-2.671031467616558075e-02,-3.085706532001495361e-01,1.633201539516448975e-01,-1.069070398807525635e-01,-1.137259900569915771e-01,6.912934780120849609e-02,2.447878122329711914e-01,-1.888086646795272827e-01,-9.159502387046813965e-01,-5.678572058677673340e-01,-8.359166383743286133e-01,3.380268216133117676e-01,-4.002570807933807373e-01,-6.157985329627990723e-01,-1.593062579631805420e-01
-2.766244709491729736e-01,4.856027960777282715e-01,2.595869004726409912e-01,8.368238806724548340e-02,2.251883000135421753e-01,1.210664883255958557e-01,-2.922997772693634033e-01,-1.451818179339170456e-02,-1.129562407732009888e-01,-3.309777379035949707e-01,7.009550929069519043e-02,-4.035949110984802246e-01,-4.129644855856895447e-02,-1.867936924099922180e-02,-3.123582527041435242e-02,7.432998418807983398e-01,1.645849198102951050e-01,3.953559100627899170e-01,-3.417950570583343506e-01,9.067450463771820068e-02,-1.839363425970077515e-01,-1.414895176887512207e+00,-3.761267662048339844e-01,1.859417259693145752e-01,-2.053437709808349609e+00,4.171631634235382080e-01,-8.602209687232971191e-01,-9.814836084842681885e-04,2.500372231006622314e-01,1.245368123054504395e-01,7.553654164075851440e-02,-1.287396103143692017e-01,4.001490473747253418e-01,-3.596307337284088135e-01,2.638270556926727295e-01,2.351915389299392700e-01,-3.839512588456273079e-03,1.656972169876098633e-01,9.099138528108596802e-02,-5.386980175971984863e-01,-7.697206139564514160e-01,-1.212949037551879883e+00,-8.053666353225708008e-02,1.130267679691314697e-01,-2.670457959175109863e-01,-2.169781684875488281e+00,-1.100216209888458252e-01,1.467127948999404907e-01,4.889971613883972168e-01,3.937599360942840576e-01,9.339563250541687012e-01,-4.676511883735656738e-01,1.913249045610427856e-01,-2.977287769317626953e+00,8.194649815559387207e-01,-1.589691452682018280e-02,-3.050023317337036133e-01,-3.142628967761993408e-01,-1.706595420837402344e-01,1.995344907045364380e-01,3.686405122280120850e-01,-2.013260871171951294e-01,-7.918086051940917969e-01,3.122416436672210693e-01,1.967013180255889893e-01,-2.253832370042800903e-01,1.573782116174697876e-01,-1.077569723129272461e-01,-2.120276242494583130e-01,1.434248592704534531e-02,-1.621450424194335938e+00,-2.980521917343139648e-01,-8.017535805702209473e-01,1.762723326683044434e-01,2.192484140396118164e-01,1.118043422698974609e+00,5.810281261801719666e-02,-2.247848780825734138e-03,8.072338700294494629e-01,-6.579173803329467773e-01,-1.218755170702934265e-01,-3.806838095188140869e-01,-4.689110815525054932e-01,2.914282381534576416e-01,8.211974054574966431e-02,2.298870235681533813e-01,-2.174053899943828583e-02,-4.397958815097808838e-01,5.580965876579284668e-01,-7.266189455986022949e-01,-1.135483607649803162e-01,-3.820646107196807861e-01,-5.678615570068359375e-01,1.956751197576522827e-01,1.343452930450439453e-01,2.747391164302825928e-01,-3.193756639957427979e-01,3.922006785869598389e-01,-6.086929440498352051e-01,-8.811420947313308716e-02,-1.392131328582763672e+00,-5.843313336372375488e-01,3.549961745738983154e-01,-9.963757544755935669e-02,-1.232393860816955566e+00,-1.438225358724594116e-01,-2.622168779373168945e+00,-2.778646945953369141e-01,-1.287586390972137451e-01,9.537208825349807739e-03,-1.078821942210197449e-01,-2.897636890411376953e-01,-9.114529192447662354e-02,-5.765597224235534668e-01,3.557183593511581421e-02,1.476933360099792480e-01,1.500598043203353882e-01,1.613083928823471069e-01,-2.472682297229766846e-01,7.723841816186904907e-02,-4.203376770019531250e-01,-1.295089274644851685e-01,1.909699589014053345e-01,6.039219442754983902e-04,-2.471385478973388672e+00,-1.938589513301849365e-01,-5.223834514617919922e-01,2.699171938002109528e-02
9.186548180878162384e-03,-8.992889896035194397e-03,3.873694455251097679e-03,-6.273467093706130981e-02,-6.887046992778778076e-02,-5.474215000867843628e-02,-1.456546504050493240e-02,-6.716961413621902466e-02,5.651389807462692261e-02,1.656905002892017365e-02,7.172846049070358276e-02,-9.282451868057250977e-02,1.564014703035354614e-02,-1.693094149231910706e-02,8.086477220058441162e-02,-8.480542153120040894e-02,2.227996103465557098e-02,6.691163033246994019e-02,-7.074167579412460327e-02,4.573271609842777252e-03,7.020733505487442017e-02,-2.301645651459693909e-02,-7.116944342851638794e-02,4.476026445627212524e-02,2.808858081698417664e-02,-8.211401291191577911e-03,-6.310825794935226440e-02,4.276209697127342224e-02,4.521821811795234680e-02,-4.622144624590873718e-02,4.217085242271423340e-02,-1.037428677082061768e-01,-8.818141371011734009e-02,-7.017329335212707520e-02,-9.949659556150436401e-02,1.043945364654064178e-02,-2.732757292687892914e-02,5.272436421364545822e-03,-5.415575206279754639e-02,5.380110070109367371e-02,6.712594535201787949e-03,1.098217442631721497e-03,6.012620031833648682e-02,-9.300849586725234985e-02,3.036878444254398346e-02,-2.670103870332241058e-02,-8.720937371253967285e-02,-9.081285446882247925e-03,5.698898062109947205e-02,-5.660174041986465454e-02,1.549427956342697144e-02,8.788093179464340210e-02,-8.472304046154022217e-02,1.714735664427280426e-02,2.133820019662380219e-02,-2.495025657117366791e-02,-1.088460162281990051e-01,-7.744474709033966064e-02,2.664642408490180969e-02,2.768789231777191162e-02,4.833453334867954254e-03,4.656474292278289795e-02,-6.216565147042274475e-02,-5.625320225954055786e-02,-5.006865039467811584e-02,-8.792885392904281616e-02,1.156881451606750488e-02,3.091766312718391418e-02,-8.091574162244796753e-02,-3.064362518489360809e-02,-3.775254637002944946e-02,-4.236171394586563110e-02,-1.767144538462162018e-02,-8.272519707679748535e-02,-3.284054994583129883e-02,-8.162925392389297485e-02,-9.762269258499145508e-02,6.168449670076370239e-02,5.386520549654960632e-02,5.234381556510925293e-02,-5.363643914461135864e-02,-8.097358793020248413e-02,2.199603617191314697e-02,1.564048416912555695e-02,-4.902772605419158936e-02,4.887834191322326660e-02,-8.881743066012859344e-03,6.216525286436080933e-02,3.590332344174385071e-02,-8.888447284698486328e-02,-2.418891899287700653e-02,-5.101009830832481384e-02,-7.396282255649566650e-02,-8.171749860048294067e-02,-7.255672663450241089e-02,-1.640406996011734009e-02,-6.467607617378234863e-02,-9.032951295375823975e-02,-5.909054353833198547e-02,-8.936537802219390869e-02,2.759638801217079163e-02,-9.679748117923736572e-02,1.571986824274063110e-02,9.522750973701477051e-03,7.544009387493133545e-02,-7.507710717618465424e-03,-5.392451956868171692e-02,-1.268976274877786636e-02,4.880314320325851440e-02,4.781883955001831055e-02,3.706928342580795288e-02,-3.672109544277191162e-02,3.014651685953140259e-02,2.334858477115631104e-02,5.397109687328338623e-02,-4.592863097786903381e-02,-6.874535977840423584e-02,-1.410657819360494614e-02,2.494633197784423828e-02,-3.397728502750396729e-02,6.985829770565032959e-02,4.898948222398757935e-02,-5.500914528965950012e-02,-2.147362567484378815e-02,-3.705796319991350174e-03,-3.292478248476982117e-02,-2.253870107233524323e-02,-7.168024033308029175e-02
-3.311527669429779053e-01,9.736574441194534302e-02,-1.074038222432136536e-01,2.119746804237365723e-01,-2.937072217464447021e-01,1.451597958803176880e-01,3.386785387992858887e-01,1.045335382223129272e-01,-4.536554217338562012e-01,-4.346983730792999268e-01,-3.202838301658630371e-01,-3.160609677433967590e-02,-2.948330529034137726e-02,-1.263092458248138428e-01,-6.387971639633178711e-01,1.873498111963272095e-01,1.188779771327972412e-01,-3.631975352764129639e-01,-1.006659865379333496e+00,6.944349408149719238e-01,4.217967391014099121e-02,-2.272481843829154968e-02,-1.699092052876949310e-02,8.177552223205566406e-01,-1.827064037322998047e+00,1.466144174337387085e-01,-2.332324087619781494e-01,-3.435010090470314026e-02,3.747748583555221558e-02,-9.921523928642272949e-01,-2.787477076053619385e-01,-6.166099309921264648e-01,6.720013171434402466e-02,3.111380934715270996e-01,7.520283013582229614e-02,-5.532262325286865234e-01,3.060324490070343018e-01,1.400349885225296021e-01,1.976478658616542816e-02,-4.596764445304870605e-01,-8.678873777389526367e-01,-9.637529253959655762e-01,2.547962069511413574e-01,8.560653924942016602e-01,6.787212491035461426e-01,-6.481882333755493164e-01,1.753497719764709473e-01,-5.885740518569946289e-01,-9.072738140821456909e-02,1.035391911864280701e-01,-2.118417471647262573e-01,-1.367959976196289062e-01,3.034314811229705811e-01,-8.641842603683471680e-01,1.716794222593307495e-01,3.887009620666503906e-01,-6.458995938301086426e-01,4.000187814235687256e-01,-7.474733591079711914e-01,4.484717845916748047e-01,-5.555694922804832458e-03,2.446066439151763916e-01,-7.438601851463317871e-01,1.582182049751281738e-01,5.805514380335807800e-02,1.010257005691528320e-01,6.121984720230102539e-01,8.963982760906219482e-02,5.114014148712158203e-01,-6.064029932022094727e-01,-2.758581638336181641e-01,-3.825465738773345947e-01,-4.456026256084442139e-01,2.258327305316925049e-01,-2.716539204120635986e-01,-2.084907293319702148e-01,-2.174790501594543457e-01,-4.687029719352722168e-01,6.281147897243499756e-02,4.227086007595062256e-01,1.123577542603015900e-02,-1.909938752651214600e-01,-1.420180797576904297e+00,5.964186787605285645e-01,-5.274579524993896484e-01,4.016750454902648926e-01,3.637234866619110107e-01,-1.019036546349525452e-01,1.500322520732879639e-01,-6.337054967880249023e-01,-1.583356261253356934e-01,-6.447212696075439453e-01,-5.805367976427078247e-02,6.513614058494567871e-01,4.168460071086883545e-01,3.778237998485565186e-01,-8.925637602806091309e-01,6.332610249519348145e-01,-2.387493371963500977e+00,1.944670267403125763e-02,-1.832073688507080078e+00,-7.557222843170166016e-01,-1.380120068788528442e-01,-3.740779161453247070e-01,-1.445135235786437988e+00,7.249195128679275513e-02,-1.620064526796340942e-01,-2.739017307758331299e-01,-1.717300266027450562e-01,-3.388122916221618652e-01,-4.511514604091644287e-01,-8.347466588020324707e-02,1.998098790645599365e-01,-9.574153423309326172e-01,-4.445372521877288818e-01,3.003084333613514900e-03,-1.926506757736206055e-01,2.989492118358612061e-01,4.082499444484710693e-01,-3.623522222042083740e-01,2.826640307903289795e-01,5.312281250953674316e-01,-5.086285062134265900e-03,-1.936862468719482422e-01,-1.503559589385986328e+00,-8.940914273262023926e-01,-7.189640998840332031e-01,-7.439489364624023438e-01
-6.087730526924133301e-01,-4.944885671138763428e-01,-1.912957727909088135e-01,-3.920543566346168518e-02,-1.010975718498229980e+00,-3.421415388584136963e-01,1.074709519743919373e-01,-8.777838349342346191e-01,-5.455378443002700806e-02,1.907190382480621338e-01,1.432745158672332764e-01,1.260589994490146637e-02,1.351153850555419922e-02,3.010721802711486816e-01,-7.793827652931213379e-01,-5.599611997604370117e-01,-4.386421442031860352e-01,-1.290390733629465103e-02,7.158916443586349487e-02,-8.022802472114562988e-01,-1.114652603864669800e-01,4.315596306696534157e-04,-6.346087157726287842e-02,-5.571392178535461426e-01,2.497385889291763306e-01,-7.288162112236022949e-01,-8.887705802917480469e-01,3.362444788217544556e-02,-2.514347434043884277e-01,-2.376472353935241699e-01,-5.238299965858459473e-01,9.863306581974029541e-02,-5.747557878494262695e-01,-3.448588773608207703e-02,-2.215402275323867798e-01,-4.549968242645263672e-02,-1.403696537017822266e-01,-4.340496957302093506e-01,-3.269306719303131104e-01,1.542903929948806763e-01,-9.692247211933135986e-02,1.936968974769115448e-02,-6.037002801895141602e-01,1.854175031185150146e-01,3.539028167724609375e-01,2.915990948677062988e-01,1.281574070453643799e-01,1.708405017852783203e-01,8.597962558269500732e-02,-2.688506841659545898e-01,-2.946312427520751953e-01,-1.802116483449935913e-01,-4.622926712036132812e-01,-1.881503760814666748e-01,-6.064398884773254395e-01,-1.770944744348526001e-01,2.959296107292175293e-01,-1.646877825260162354e-01,1.481341272592544556e-01,-1.490600500255823135e-02,-8.060199618339538574e-01,-4.838482737541198730e-01,-2.298503220081329346e-01,-2.129842936992645264e-01,2.302878648042678833e-01,-2.984381020069122314e-01,-3.054785728454589844e-01,1.003932878375053406e-01,-2.477610856294631958e-01,-4.791192412376403809e-01,-1.089829951524734497e-01,1.258918195962905884e-01,1.364577002823352814e-02,-6.821577548980712891e-01,-3.350132107734680176e-01,-2.110019326210021973e-01,6.791014969348907471e-02,-2.087153792381286621e-01,2.285880446434020996e-01,-5.245376229286193848e-01,1.192455440759658813e-01,-5.694479346275329590e-01,-3.916083276271820068e-01,-2.196016348898410797e-02,-7.797141075134277344e-01,-3.187380135059356689e-01,1.013059616088867188e-01,4.936448484659194946e-02,-5.282300710678100586e-01,-3.632802069187164307e-01,-2.415627539157867432e-01,1.433196663856506348e-01,-4.365617930889129639e-01,-1.490031182765960693e-01,-1.129309654235839844e+00,-2.298038154840469360e-01,-1.309157609939575195e+00,-6.042304039001464844e-01,-3.974308669567108154e-01,-4.934118688106536865e-01,-6.960669159889221191e-02,-2.869296669960021973e-01,-4.323851466178894043e-01,-2.929829359054565430e-01,-3.116790652275085449e-01,1.325092315673828125e-01,-3.562007844448089600e-01,-9.670882821083068848e-01,-3.554345071315765381e-01,-5.795798823237419128e-02,-3.565540313720703125e-01,-4.724583923816680908e-01,4.089592397212982178e-01,-7.050952911376953125e-01,-2.825948297977447510e-01,9.743400663137435913e-02,-1.065553188323974609e+00,-2.820276319980621338e-01,-6.473322510719299316e-01,-5.185055732727050781e-01,1.808022856712341309e-01,-6.035984754562377930e-01,2.725274264812469482e-01,-2.445943653583526611e-01,9.220569580793380737e-02,-4.879134297370910645e-01,-5.117055177688598633e-01,-8.820380568504333496e-01
-6.039919704198837280e-02,7.367701083421707153e-02,-1.086948662996292114e-01,-1.394025888293981552e-02,-7.971713691949844360e-02,5.617232248187065125e-02,-1.492951065301895142e-02,-5.557596310973167419e-02,-9.832242131233215332e-02,1.484431046992540359e-02,-7.925975322723388672e-02,3.360209241509437561e-02,4.009508714079856873e-02,-3.807373344898223877e-02,6.355760991573333740e-02,-8.342676609754562378e-02,-9.535278379917144775e-02,-9.807839244604110718e-02,6.992346048355102539e-02,-9.730304591357707977e-03,5.677649751305580139e-03,4.237931221723556519e-02,6.489469856023788452e-02,-5.384765565395355225e-02,-9.121585637331008911e-02,-1.920931413769721985e-02,-3.973566368222236633e-02,6.829791236668825150e-03,6.344066932797431946e-03,-7.099303603172302246e-02,-3.527888911776244640e-04,4.819772019982337952e-02,-3.984243422746658325e-02,-7.644431293010711670e-02,-1.891791447997093201e-02,-7.000383734703063965e-02,1.517511159181594849e-02,5.415734276175498962e-02,-3.615323081612586975e-02,2.677400596439838409e-02,-5.936714354902505875e-03,-3.718731924891471863e-02,7.091265637427568436e-03,-5.236731469631195068e-02,-6.500203162431716919e-03,-5.905453115701675415e-03,6.106899306178092957e-02,-3.530092164874076843e-02,-2.233716193586587906e-03,4.105721041560173035e-02,-1.092418376356363297e-02,-4.711378365755081177e-02,1.417626254260540009e-02,3.915813565254211426e-02,-6.216395646333694458e-02,3.965379297733306885e-02,6.194034591317176819e-02,-4.302578046917915344e-02,6.620281375944614410e-03,-8.424784988164901733e-02,-6.717814505100250244e-02,2.184461243450641632e-02,-3.654915466904640198e-02,-5.383703485131263733e-02,-8.195743896067142487e-03,2.650941908359527588e-02,1.548896660096943378e-03,4.455195739865303040e-02,1.407787948846817017e-02,-3.936611860990524292e-02,-3.727935254573822021e-02,3.316702321171760559e-03,-2.265173569321632385e-02,-9.351688623428344727e-02,-8.660411089658737183e-02,-6.165012717247009277e-02,-6.637986004352569580e-02,4.552747681736946106e-02,-3.997481241822242737e-02,8.867934346199035645e-03,-9.388299286365509033e-02,-4.947667941451072693e-02,4.735464230179786682e-02,3.714215755462646484e-02,-5.341973528265953064e-02,-4.449060559272766113e-02,3.529611509293317795e-03,6.398628652095794678e-02,-7.591903954744338989e-02,-9.336920082569122314e-02,-7.858098298311233521e-02,-2.983655035495758057e-02,-1.249945349991321564e-02,-2.594415657222270966e-02,-7.945554703474044800e-02,-5.368022248148918152e-02,3.875310346484184265e-02,3.313543274998664856e-02,-1.899201795458793640e-02,-3.116969205439090729e-02,3.807698190212249756e-02,5.008077248930931091e-03,5.100301653146743774e-02,2.191583812236785889e-02,2.503806166350841522e-02,-4.654264077544212341e-02,7.104025781154632568e-02,-2.408539131283760071e-02,-4.197874665260314941e-02,-1.098404987715184689e-03,-2.750294283032417297e-02,-1.697516813874244690e-02,-5.973128974437713623e-02,2.741045877337455750e-02,-6.078435573726892471e-03,-1.294898893684148788e-02,6.031703203916549683e-03,4.407732561230659485e-02,-1.022968068718910217e-01,-8.151601999998092651e-02,-6.318732164800167084e-03,5.854205694049596786e-03,-5.039631947875022888e-02,1.740175858139991760e-02,-5.292226001620292664e-02,4.577660188078880310e-02,-6.241707876324653625e-02,-3.730481863021850586e-02
-1.372376441955566406e+00,1.364600844681262970e-02,3.473602831363677979e-01,-5.345396399497985840e-01,-1.165480494499206543e+00,-1.715905785560607910e+00,-2.336777299642562866e-01,1.005541682243347168e-01,-2.413174360990524292e-01,-1.015698686242103577e-01,-9.532971680164337158e-02,1.273115277290344238e-01,2.327443957328796387e-01,-7.216019183397293091e-02,-2.953625097870826721e-02,-8.389672636985778809e-02,-2.293159812688827515e-01,-2.885835468769073486e-01,2.532910108566284180e-01,-1.197502374649047852e+00,-6.806399822235107422e-01,-1.401222348213195801e+00,-2.851473987102508545e-01,-5.931199789047241211e-01,-2.979765704367309809e-04,-8.084005862474441528e-02,-1.239845514297485352e+00,-3.828282654285430908e-02,-8.684596419334411621e-02,2.988708019256591797e-01,2.120142616331577301e-02,1.737458854913711548e-01,1.114671602845191956e-01,-6.830916553735733032e-02,-6.150196790695190430e-01,-3.136988878250122070e-01,-7.719414830207824707e-01,-1.117485761642456055e-01,-2.772216200828552246e-01,-8.746072649955749512e-02,-4.047180060297250748e-03,2.670839615166187286e-02,-1.167766675353050232e-01,-9.195137768983840942e-02,-6.641380190849304199e-01,3.508672714233398438e-01,-3.640671968460083008e-01,2.376211881637573242e-01,1.883495599031448364e-02,-7.229936867952346802e-02,-8.243945837020874023e-01,-7.510138750076293945e-01,8.830094337463378906e-02,-1.231818273663520813e-01,-9.194719791412353516e-01,-6.540735960006713867e-01,-1.446816772222518921e-01,-5.275259166955947876e-02,3.706600889563560486e-02,-8.407700657844543457e-01,8.695349097251892090e-02,7.081610709428787231e-02,1.349104791879653931e-01,-1.005579710006713867e+00,3.648243248462677002e-01,-5.793380141258239746e-01,1.042664498090744019e-01,-2.554922178387641907e-02,-5.478721261024475098e-01,-1.347992867231369019e-01,-3.612655401229858398e-01,1.572574973106384277e-01,-5.303201079368591309e-01,-5.972315073013305664e-01,2.124654874205589294e-02,-4.893983304500579834e-01,-1.341376006603240967e-01,-7.908753752708435059e-01,-7.556889206171035767e-02,-3.713636994361877441e-01,-4.088122770190238953e-02,-1.748565584421157837e-01,-6.836429238319396973e-01,-2.583019256591796875e+00,2.727903127670288086e-01,-4.105665981769561768e-01,3.762314841151237488e-02,1.106595173478126526e-01,3.264926075935363770e-01,2.962801456451416016e-01,-6.515262275934219360e-02,1.134346500039100647e-01,-7.515582442283630371e-01,1.140681952238082886e-01,1.897828131914138794e-01,-6.683731675148010254e-01,-1.003917865455150604e-02,-1.099075794219970703e+00,-3.864644467830657959e-01,-2.941752374172210693e-01,7.700251042842864990e-02,1.416433369740843773e-03,-1.590717285871505737e-01,-5.038936436176300049e-02,2.965346276760101318e-01,-2.401885688304901123e-01,-4.635480642318725586e-01,-1.154242157936096191e+00,-1.229152306914329529e-01,-5.423957109451293945e-01,-2.453845441341400146e-01,-8.222698420286178589e-02,-1.974751830101013184e+00,-3.503718674182891846e-01,-8.006162941455841064e-02,-1.569479554891586304e-01,-4.588862061500549316e-01,-1.879806071519851685e-01,-5.054710507392883301e-01,2.179886400699615479e-01,2.622866071760654449e-02,-1.547127813100814819e-01,-3.638976812362670898e-01,-9.110976755619049072e-02,3.581314533948898315e-02,3.783312141895294189e-01,-7.116290330886840820e-01,-2.342429459095001221e-01
9.739460051059722900e-02,2.224368005990982056e-01,-2.635892629623413086e-01,3.833255767822265625e-01,3.421733975410461426e-01,2.416988909244537354e-01,2.775150239467620850e-01,1.699538677930831909e-01,-4.552598595619201660e-01,7.604116201400756836e-02,-4.966119527816772461e-01,-5.686582997441291809e-02,-3.826647251844406128e-02,-5.452020764350891113e-01,2.148946002125740051e-02,3.644914031028747559e-01,7.978427410125732422e-02,-2.582433521747589111e-01,-5.309025645256042480e-01,6.508380174636840820e-01,-4.876291751861572266e-01,-1.248705983161926270e-01,-1.450795382261276245e-01,8.954283595085144043e-01,-8.658490180969238281e-01,-4.628506489098072052e-03,9.235706925392150879e-02,3.989947587251663208e-02,4.896814525127410889e-01,-7.882467508316040039e-01,-3.190826177597045898e-01,-2.195771634578704834e-01,1.297781169414520264e-01,5.392172336578369141e-01,4.104538559913635254e-01,-2.966108322143554688e-01,4.032838046550750732e-01,4.526536762714385986e-01,3.650186955928802490e-01,-6.742867231369018555e-01,-2.122553825378417969e+00,-1.216300129890441895e-01,5.792324542999267578e-01,8.574349284172058105e-01,1.006071448326110840e+00,-1.206668972969055176e+00,1.826738379895687103e-02,-7.115569710731506348e-02,-3.162378072738647461e-01,3.895700573921203613e-01,8.897405862808227539e-02,-2.330673038959503174e-01,2.324501574039459229e-01,-1.499446868896484375e+00,5.458756089210510254e-01,3.308408856391906738e-01,-7.181368470191955566e-01,4.755038022994995117e-01,-2.422862350940704346e-01,3.495562076568603516e-01,-1.332887709140777588e-01,1.206548437476158142e-01,-9.961332082748413086e-01,3.506045043468475342e-01,-1.681764572858810425e-01,4.024239182472229004e-01,5.554200410842895508e-01,-1.159450337290763855e-01,-5.384393930435180664e-01,1.151058226823806763e-01,5.078399181365966797e-01,3.663919270038604736e-01,-6.813384294509887695e-01,4.828025400638580322e-02,-5.533688664436340332e-01,2.025115042924880981e-01,2.887886762619018555e-01,-3.588234260678291321e-02,4.828058183193206787e-01,-2.735932767391204834e-01,7.048070430755615234e-02,3.203465044498443604e-01,5.736818313598632812e-01,5.185754299163818359e-01,-5.700724720954895020e-01,6.408495903015136719e-01,2.631535828113555908e-01,1.361563354730606079e-01,-4.787364304065704346e-01,-6.665760874748229980e-01,-4.346553683280944824e-01,-7.589551210403442383e-01,5.562131404876708984e-01,4.372391104698181152e-01,4.908747076988220215e-01,5.017319917678833008e-01,-9.384844899177551270e-01,5.254996418952941895e-01,1.351014375686645508e-01,4.050888717174530029e-01,-3.037057816982269287e-01,-1.565990567207336426e+00,4.637228548526763916e-01,-2.328046113252639771e-01,-1.359012007713317871e+00,1.182407289743423462e-01,-1.225178599357604980e+00,1.090108305215835571e-01,1.474527642130851746e-02,-3.229246139526367188e-01,-1.585587739944458008e+00,-4.998505115509033203e-01,3.448950359597802162e-03,3.191811591386795044e-02,-4.387358129024505615e-01,-1.252524703741073608e-01,1.968948394060134888e-01,-1.194903999567031860e-01,9.059635400772094727e-01,-2.383899241685867310e-01,3.017270565032958984e-01,3.547841906547546387e-01,-1.845158077776432037e-02,-9.889150410890579224e-02,5.921746790409088135e-02,-7.918827533721923828e-01,2.044421136379241943e-01,1.312350779771804810e-01
1.352017093449831009e-02,-7.097760215401649475e-03,-9.888749569654464722e-02,-1.004375368356704712e-01,-9.316794574260711670e-02,-2.470278553664684296e-02,-6.895622611045837402e-02,5.832040682435035706e-03,-2.628888748586177826e-02,-1.053566634654998779e-01,8.571803569793701172e-02,-5.639867484569549561e-02,3.204382082913070917e-04,5.654174461960792542e-02,-2.980262599885463715e-02,-1.685108058154582977e-02,-6.675717979669570923e-02,-3.335085057187825441e-04,-5.055329203605651855e-02,6.259669363498687744e-02,-5.207164585590362549e-02,-4.953005816787481308e-03,2.221735659986734390e-03,4.460628703236579895e-02,1.502463873475790024e-02,-1.303672045469284058e-01,-1.012937724590301514e-02,6.366028636693954468e-02,-8.734577894210815430e-02,-1.312280725687742233e-02,4.069940745830535889e-02,-1.176393330097198486e-01,-5.108655244112014771e-02,-1.142637878656387329e-01,4.786737263202667236e-02,-7.514560222625732422e-02,-3.131042048335075378e-02,-3.739702701568603516e-02,3.553732484579086304e-02,-1.681377924978733063e-02,4.713389556854963303e-03,-6.389496847987174988e-03,2.721890248358249664e-02,1.960367709398269653e-02,-4.876926913857460022e-02,-6.304144393652677536e-03,3.120507113635540009e-02,-5.548014491796493530e-02,2.161756157875061035e-02,1.029485929757356644e-02,7.362213917076587677e-03,-1.221254584379494190e-03,1.783371530473232269e-02,-6.842839531600475311e-03,-2.324083261191844940e-02,-9.008631110191345215e-02,-1.152505353093147278e-01,-2.287132292985916138e-02,-5.518858134746551514e-02,-1.451667677611112595e-02,-2.108628861606121063e-03,-5.823412165045738220e-02,5.211048759520053864e-03,2.280413918197154999e-02,-4.896493628621101379e-02,5.169185809791088104e-03,4.541526734828948975e-02,1.232334878295660019e-02,-4.613167420029640198e-02,-1.108926981687545776e-01,-9.533555060625076294e-02,-5.392049625515937805e-02,-1.403953433036804199e-01,-5.067078024148941040e-02,-4.069245606660842896e-02,-9.691516868770122528e-03,-3.340248763561248779e-02,6.108783558011054993e-02,-3.718490526080131531e-02,-6.833078805357217789e-03,-1.312175951898097992e-02,-3.236940503120422363e-02,-2.535088546574115753e-02,2.853102982044219971e-03,-4.694870486855506897e-02,5.801766738295555115e-02,-1.870942860841751099e-02,2.666023373603820801e-02,-2.875642105937004089e-02,-7.123584300279617310e-02,5.356637760996818542e-02,2.473823912441730499e-02,-4.524894431233406067e-02,3.883944079279899597e-02,-9.216719865798950195e-02,-8.048439770936965942e-02,-8.076919615268707275e-02,2.819276042282581329e-02,4.165749251842498779e-02,7.376865018159151077e-03,-5.234216526150703430e-02,2.572889905422925949e-03,4.708963260054588318e-02,4.447831213474273682e-02,-4.065526649355888367e-02,-1.037874147295951843e-01,-8.500473201274871826e-02,-3.785783052444458008e-02,-9.777072072029113770e-02,-6.512260995805263519e-03,-6.899756938219070435e-02,-5.623584613204002380e-03,4.982422292232513428e-02,-7.387351989746093750e-02,-6.034757569432258606e-02,-1.157082524150609970e-02,-6.596228573471307755e-03,-2.407409064471721649e-02,-5.902647599577903748e-02,-8.800371736288070679e-02,-5.988287925720214844e-02,3.016493283212184906e-02,-3.374283015727996826e-02,-6.734918057918548584e-02,-7.548334449529647827e-02,-1.243448629975318909e-01,3.010267578065395355e-02,-5.379031971096992493e-02
1.211222186684608459e-01,-4.938761517405509949e-02,-1.074603642337024212e-03,2.079863473773002625e-02,-5.260346923023462296e-03,2.500548027455806732e-02,-1.175901666283607483e-01,6.861203163862228394e-02,-7.441804558038711548e-02,5.078428983688354492e-02,-1.416003853082656860e-01,-9.171933680772781372e-02,-6.557904183864593506e-02,-1.091256365180015564e-01,7.931098341941833496e-03,-1.338043063879013062e-01,-1.170909926295280457e-01,-2.606526203453540802e-02,-1.156315505504608154e-01,-1.160963848233222961e-01,-4.485163092613220215e-02,-1.203507259488105774e-01,1.959372125566005707e-02,-5.821827054023742676e-02,-4.363366961479187012e-02,-1.191769540309906006e-01,-4.630837216973304749e-02,7.403238117694854736e-02,-1.500375270843505859e-01,-3.494916856288909912e-02,-2.344690449535846710e-02,3.905710205435752869e-02,7.578411698341369629e-02,-1.783326417207717896e-01,-1.126812770962715149e-02,7.841318100690841675e-02,-3.452728316187858582e-02,-2.099421992897987366e-02,-2.595504373311996460e-02,-1.459399014711380005e-01,-8.270168304443359375e-02,-5.958333984017372131e-02,-1.600166596472263336e-02,-1.395799517631530762e-01,1.313607674092054367e-02,-5.820259079337120056e-02,3.732389584183692932e-02,-1.176200211048126221e-01,-7.332835346460342407e-02,-1.128816157579421997e-01,-5.706398561596870422e-02,-3.741898806765675545e-03,-1.031042356044054031e-02,-9.581237286329269409e-02,1.024258136749267578e-02,2.262751804664731026e-03,-7.918331772089004517e-02,-4.832350462675094604e-02,-1.177215799689292908e-01,-9.214863926172256470e-02,9.479394555091857910e-02,-9.757902473211288452e-02,4.722435399889945984e-02,1.769353076815605164e-02,-6.701705604791641235e-02,-3.928605467081069946e-02,-2.017128095030784607e-02,8.059021085500717163e-02,9.448239579796791077e-03,-9.777885675430297852e-02,-5.307680740952491760e-02,-1.683975607156753540e-01,-9.177365899085998535e-02,-7.598904520273208618e-02,-1.090699248015880585e-02,-4.078365117311477661e-02,-1.358496844768524170e-01,-8.447987586259841919e-02,-1.125477626919746399e-01,-4.586337134242057800e-02,-7.935881614685058594e-02,4.876455664634704590e-02,-8.617462217807769775e-02,1.814224757254123688e-02,5.419691558927297592e-03,2.088894881308078766e-02,-1.497358381748199463e-01,-2.183370292186737061e-02,-8.953992277383804321e-02,-4.507223889231681824e-02,-8.780646324157714844e-02,-1.856721490621566772e-01,-8.177515119314193726e-02,-1.399111151695251465e-01,-9.920281916856765747e-02,6.687759887427091599e-03,-3.933297842741012573e-02,7.138518989086151123e-02,-1.000246871262788773e-02,2.486332133412361145e-02,-5.484430119395256042e-02,-1.142457947134971619e-01,1.067639142274856567e-02,-1.303844600915908813e-01,7.168137468397617340e-03,-5.679676681756973267e-02,2.486877888441085815e-02,-2.502499520778656006e-02,-5.309139844030141830e-03,-1.281269937753677368e-01,-4.870261996984481812e-02,4.011537134647369385e-02,-7.576560229063034058e-02,-9.129426628351211548e-02,-1.384445875883102417e-01,-5.703802779316902161e-02,-8.877908438444137573e-02,2.388688735663890839e-03,-3.699116781353950500e-02,-4.811948537826538086e-02,-2.680725418031215668e-02,-6.762169301509857178e-02,-4.000136628746986389e-02,2.301613055169582367e-02,-1.022433042526245117e-01,2.498034201562404633e-02,-4.890552163124084473e-02,-9.566600620746612549e-02
2.894703112542629242e-02,-1.363235712051391602e-01,4.600535705685615540e-02,-4.615190252661705017e-02,-1.033601015806198120e-01,-5.909748841077089310e-03,2.115883491933345795e-02,-6.651679426431655884e-02,1.634631492197513580e-02,-2.141509437933564186e-03,3.724192082881927490e-02,-5.390857160091400146e-02,-6.463878601789474487e-02,2.794170193374156952e-02,-1.439250707626342773e-01,-2.431600540876388550e-02,-6.088878214359283447e-02,1.384419505484402180e-03,4.596580192446708679e-02,-1.312671750783920288e-01,-3.434534743428230286e-02,-1.501634996384382248e-02,-3.065459616482257843e-02,-1.274381428956985474e-01,-3.356466069817543030e-02,-5.910608917474746704e-02,-8.140268176794052124e-02,6.770072132349014282e-02,1.094874739646911621e-02,-7.375935465097427368e-02,-2.381955645978450775e-02,-2.537242881953716278e-02,-4.601364210247993469e-02,-1.169480606913566589e-01,-4.236017819494009018e-03,-4.766769241541624069e-03,-1.083515468053519726e-03,-1.076797395944595337e-01,4.568135738372802734e-02,-1.087073981761932373e-01,-1.104264780879020691e-01,-4.441367462277412415e-02,1.605257578194141388e-02,-4.702377319335937500e-02,-7.085622847080230713e-02,-9.492389857769012451e-02,8.952882140874862671e-03,-4.214155953377485275e-03,2.114561572670936584e-02,5.001007113605737686e-03,-1.025020778179168701e-01,-9.533977508544921875e-02,-4.186485707759857178e-02,-3.762362897396087646e-02,-7.841635495424270630e-02,3.221807628870010376e-02,-4.445296153426170349e-02,-1.335917562246322632e-01,-1.093872636556625366e-01,-9.384642541408538818e-02,-3.853402100503444672e-03,1.670184917747974396e-02,1.702325232326984406e-02,4.166172817349433899e-03,-1.188484057784080505e-01,-9.365753829479217529e-02,8.641074411571025848e-03,7.618294656276702881e-02,-1.146841198205947876e-01,6.793009582906961441e-03,3.627473115921020508e-02,5.740775540471076965e-02,-5.686711147427558899e-02,-2.951326221227645874e-02,8.754726499319076538e-03,1.929097622632980347e-02,-4.697988182306289673e-02,-8.678556233644485474e-02,-1.190425734966993332e-02,-8.802501857280731201e-02,-6.419420987367630005e-02,-4.091275855898857117e-02,-5.662329122424125671e-02,6.120974943041801453e-02,-9.995277971029281616e-02,-3.616609424352645874e-02,-1.797500811517238617e-02,-3.332329913973808289e-02,-6.426053121685981750e-03,-2.246328629553318024e-02,2.119249664247035980e-02,-6.031253188848495483e-02,-7.700616866350173950e-02,-7.674122229218482971e-03,4.313863464631140232e-04,-9.327891469001770020e-02,-6.777628790587186813e-03,1.704403012990951538e-02,-1.527909189462661743e-02,-1.423395723104476929e-01,-2.463699690997600555e-02,-5.680989474058151245e-02,-1.277983039617538452e-01,-1.153888255357742310e-01,-9.930612891912460327e-02,-1.389573663473129272e-01,-7.941623777151107788e-02,-1.088343653827905655e-02,-9.446943551301956177e-02,-9.162794798612594604e-03,-3.732326999306678772e-02,-1.499055624008178711e-01,-8.142176270484924316e-02,-9.474868327379226685e-02,4.481691122055053711e-02,1.676342263817787170e-02,-5.407238379120826721e-02,-8.300419896841049194e-02,-2.017759345471858978e-02,-9.472255595028400421e-03,5.864933598786592484e-03,-7.638027518987655640e-02,4.307732358574867249e-02,2.981909550726413727e-03,-1.378040015697479248e-01,-6.139116734266281128e-02,4.099708050489425659e-02,-1.014796197414398193e-01
