-1.305114030838012695e-01,1.864211284555494785e-03,-5.452005937695503235e-02,-1.770558506250381470e-01,-8.288349956274032593e-02,-1.488412022590637207e-01,2.962192334234714508e-02,7.097691413946449757e-04,-4.318671301007270813e-02,-7.686994969844818115e-02,-1.310215592384338379e-01,-4.135663434863090515e-02,-3.643669188022613525e-03,-1.099578365683555603e-01,4.309386759996414185e-02,2.338896272704005241e-03,-1.422963738441467285e-01,8.519025146961212158e-02,7.922991365194320679e-02,-7.766345143318176270e-02,1.043532639741897583e-01,-1.389680504798889160e-01,-9.666752070188522339e-02,-2.973301522433757782e-02,-1.448306292295455933e-01,-5.711136013269424438e-02,-9.609236568212509155e-02,6.297376472502946854e-03,-1.974515169858932495e-01,-5.625447630882263184e-02,-1.515646725893020630e-01,-1.754553467035293579e-01,5.553023889660835266e-02,-1.099242046475410461e-01,9.352292120456695557e-02,-2.135382220149040222e-02,-9.699197858572006226e-02,7.331712543964385986e-02,5.047065019607543945e-02,-1.030986607074737549e-01,-9.457160532474517822e-02,-1.098546981811523438e-01,-1.821841746568679810e-01,-1.451898962259292603e-01,-9.191992878913879395e-02,-1.260299980640411377e-01,-1.608145423233509064e-02,4.153746180236339569e-03,-1.185899525880813599e-01,1.192377135157585144e-01,1.810412853956222534e-02,1.225350052118301392e-02,6.530878692865371704e-02,-1.008209735155105591e-01,-1.603774167597293854e-02,-1.109117642045021057e-01,8.416796475648880005e-02,-1.028239503502845764e-01,1.554633975028991699e-01,-3.457410037517547607e-01,6.494097760878503323e-04,-2.575415968894958496e-01,-6.224864721298217773e-02,-3.047295808792114258e-01,-2.686374587938189507e-03,-2.656529843807220459e-02,1.603301241993904114e-02,-4.101456608623266220e-03,-9.541415609419345856e-03,-2.185442252084612846e-03,-5.370349064469337463e-02,-2.787141203880310059e-01,1.049722135066986084e-01,-2.256992459297180176e-02,-3.972019851207733154e-01,-3.205638229846954346e-01,-1.319725364446640015e-01,3.402934223413467407e-02,-7.835790514945983887e-03,7.163942605257034302e-02,-2.003687322139739990e-01,-5.238690972328186035e-02,-2.826350741088390350e-02,-1.012376919388771057e-01,-6.249110773205757141e-02,-6.153530478477478027e-01,-1.069983989000320435e-01,2.961802482604980469e-02,9.126761928200721741e-03,-9.708587080240249634e-02,-2.421224862337112427e-01,-1.587121635675430298e-01,-2.481992542743682861e-01,-6.057232618331909180e-03,-2.058233916759490967e-01,-1.610761582851409912e-01,-4.672378897666931152e-01,6.001008301973342896e-02,-9.496667981147766113e-02,4.037789534777402878e-03,1.478008087724447250e-02,-1.597235053777694702e-01,-3.524753823876380920e-02,-1.129627153277397156e-01,-1.171062141656875610e-02,1.310283094644546509e-01,-8.697596937417984009e-02,-2.073292620480060577e-03,-6.015526503324508667e-02,-1.619911193847656250e-01,1.614846736192703247e-01,8.219302445650100708e-02,-1.576948910951614380e-02,-5.912457406520843506e-02,-2.212682515382766724e-01,5.995796993374824524e-02,-2.994747646152973175e-02,-9.727165848016738892e-02,-5.415556486696004868e-03,-9.857854992151260376e-02,-9.164817631244659424e-02,-9.603620320558547974e-02,1.390094757080078125e-01,-1.403055638074874878e-01,-6.025774776935577393e-02,-2.266037277877330780e-02,-4.757238924503326416e-02,-1.129634007811546326e-01,-1.476748287677764893e-01,-8.559533953666687012e-02,1.475409418344497681e-02,-9.058807045221328735e-02,-1.182081177830696106e-01,-2.713349163532257080e-01,-2.666724920272827148e-01,4.746337980031967163e-02,-8.736641705036163330e-02,-3.721116855740547180e-02,-3.197684139013290405e-02,4.055931698530912399e-03,-3.269945085048675537e-02,-2.431732267141342163e-01,-1.814953088760375977e-01,-8.544579893350601196e-02,-1.275264024734497070e-01,1.157468929886817932e-02,-2.589234411716461182e-01,1.138070002198219299e-01,-1.019131485372781754e-02,2.296230942010879517e-02,-7.041993737220764160e-02,-2.500622272491455078e-01,2.940124459564685822e-02,8.047387748956680298e-02,3.857385739684104919e-02,2.190485149621963501e-01,-7.566900551319122314e-02,5.863311141729354858e-02,1.088516712188720703e-01,-2.205285578966140747e-01,-1.088058575987815857e-01,6.082659214735031128e-02,-1.682064235210418701e-01,3.351598232984542847e-02,-2.253235876560211182e-01,-1.361063271760940552e-01,-2.670444082468748093e-03,-1.134626567363739014e-02,-2.069587707519531250e-01,-1.072933971881866455e-01,4.769228398799896240e-03,5.581904202699661255e-02,-1.476555615663528442e-01,-1.063289046287536621e-01,2.385541796684265137e-02,9.346200525760650635e-02,-1.112263351678848267e-01,-1.698281466960906982e-01,7.976412773132324219e-02,-7.571944594383239746e-02,-5.035602673888206482e-02,1.510299742221832275e-01,-1.774118989706039429e-01,-8.949446678161621094e-02,-1.101017519831657410e-01,-2.183226943016052246e-01,-1.161777451634407043e-01,-7.422786206007003784e-02,-2.497545927762985229e-01,-5.086086317896842957e-02,1.557470299303531647e-02,2.181745320558547974e-01,-1.458610147237777710e-01,-1.512955501675605774e-02,-1.005660220980644226e-01,-2.757864631712436676e-02,-3.060930781066417694e-02,-2.773757092654705048e-03,-1.320827472954988480e-02,-4.653757438063621521e-02,-4.930295422673225403e-02,1.454900056123733521e-01,-2.181502729654312134e-01,-5.746614187955856323e-02,-4.023160040378570557e-02,-1.156449876725673676e-02,4.273094236850738525e-03,-4.245265573263168335e-02,-2.769201993942260742e-02,3.663423657417297363e-02,-5.361456423997879028e-02,2.555833011865615845e-02,4.769536852836608887e-02,5.434057489037513733e-02,4.397400096058845520e-02,-2.317735180258750916e-02,3.940629586577415466e-02,-1.756375581026077271e-01,2.677050046622753143e-02,-3.162983059883117676e-02,-2.143341153860092163e-01,4.231357201933860779e-02,-9.904963523149490356e-02,1.832411857321858406e-03,-1.719863116741180420e-01,-7.527734339237213135e-02,-2.676265500485897064e-02,2.332469075918197632e-02,4.678736254572868347e-02,-1.115476060658693314e-02,-1.764187961816787720e-01,-2.272444032132625580e-02,-5.040299892425537109e-02,-1.008015349507331848e-01,-1.053060963749885559e-01,-1.616640239953994751e-01,-4.896628856658935547e-02,-4.416589811444282532e-02,5.852889642119407654e-02,-2.240816205739974976e-01,-1.725005954504013062e-01,3.436920465901494026e-03,1.167200282216072083e-01,5.053356289863586426e-02,3.855972737073898315e-02,2.676251530647277832e-02,6.098448485136032104e-02,1.228596176952123642e-02,9.007640182971954346e-02,5.296304821968078613e-02,-3.669513016939163208e-02,5.247336626052856445e-02,-1.066190376877784729e-01,-1.535580903291702271e-01,-3.526154905557632446e-02,-1.269220560789108276e-01
-2.119512483477592468e-02,3.301160410046577454e-02,-1.440798956900835037e-02,-9.617675095796585083e-03,-3.658742085099220276e-02,-1.806090027093887329e-02,1.453406177461147308e-02,7.335948757827281952e-03,-5.887436866760253906e-02,-4.998339340090751648e-02,-1.093920599669218063e-02,-1.784740574657917023e-02,6.349340081214904785e-03,3.783592581748962402e-02,2.994388528168201447e-02,-5.456760525703430176e-02,-9.723740816116333008e-02,-5.574092641472816467e-02,6.640464998781681061e-03,-4.728636518120765686e-02,1.750107668340206146e-02,-6.027542054653167725e-03,-2.569584548473358154e-02,1.659210538491606712e-03,-4.950543120503425598e-02,-4.062334448099136353e-02,3.617846220731735229e-02,-9.878975339233875275e-03,-5.243230983614921570e-02,-3.562091290950775146e-02,7.180905085988342762e-04,-3.294385969638824463e-02,5.866633262485265732e-03,-2.745868265628814697e-02,2.754251286387443542e-02,-3.266710042953491211e-02,7.414615899324417114e-02,-4.156994074583053589e-02,2.403493039309978485e-02,2.694333903491497040e-03,-1.195506304502487183e-01,-2.889122068881988525e-02,1.286844536662101746e-02,3.974461555480957031e-02,3.182354941964149475e-02,-3.335507959127426147e-02,6.527537852525711060e-02,3.647178038954734802e-02,-1.087389960885047913e-01,4.163791984319686890e-02,-1.046904176473617554e-02,-4.856739938259124756e-02,-7.747738854959607124e-04,4.079880565404891968e-02,1.263291295617818832e-02,-1.897434890270233154e-02,-2.487896755337715149e-02,2.353721298277378082e-02,-2.623951062560081482e-03,1.557919383049011230e-02,-6.777439266443252563e-02,-9.536285698413848877e-02,-7.272282242774963379e-02,-1.522737002233043313e-04,-2.791316062211990356e-02,5.860643461346626282e-02,-6.424052268266677856e-02,9.017765522003173828e-03,-3.359444439411163330e-02,2.355607412755489349e-02,-3.421352058649063110e-02,-6.524337828159332275e-02,6.604486703872680664e-02,-7.189965993165969849e-02,-6.352946162223815918e-02,-7.806951552629470825e-02,1.404098514467477798e-02,-3.514463454484939575e-02,-2.817626297473907471e-02,8.407505229115486145e-04,-3.455989807844161987e-02,-3.681851178407669067e-02,-6.828800588846206665e-02,-7.946416735649108887e-02,-1.219580881297588348e-02,-8.450140058994293213e-02,-4.525220394134521484e-02,-6.142032518982887268e-02,1.085527520626783371e-02,-1.062216460704803467e-01,-7.768283039331436157e-02,-9.353875368833541870e-02,2.200370840728282928e-02,-3.985194861888885498e-02,-1.372341997921466827e-02,-4.871065169572830200e-02,1.915563270449638367e-02,5.288569629192352295e-02,-6.025309115648269653e-02,3.923178091645240784e-02,-7.506503909826278687e-02,-6.601551920175552368e-02,-8.725626766681671143e-02,-5.261949449777603149e-02,-4.555790126323699951e-02,-8.971038274466991425e-03,-4.825185984373092651e-02,-2.674817480146884918e-02,-6.304805167019367218e-03,-2.141254208981990814e-02,-8.562375442124903202e-04,-2.331470325589179993e-02,-3.465757519006729126e-02,-4.589182883501052856e-02,-3.203584579750895500e-03,5.563792586326599121e-02,4.177907016128301620e-03,-4.004856944084167480e-02,8.299006521701812744e-02,-1.801380701363086700e-02,-6.319998204708099365e-02,-6.460888683795928955e-02,2.804411388933658600e-02,-8.551293611526489258e-02,-8.648628741502761841e-02,9.129761904478073120e-02,-5.807317048311233521e-02,-8.837603032588958740e-02,-1.056040897965431213e-01,-2.984586358070373535e-02,-2.825185656547546387e-02,-2.301556430757045746e-02,-4.270536452531814575e-02,-1.445499993860721588e-02,-5.624306201934814453e-02,-2.753652818500995636e-02,-4.740632697939872742e-02,-2.761330269277095795e-02,-6.118534132838249207e-02,-4.359750077128410339e-02,-1.028897427022457123e-02,2.699715644121170044e-02,-2.174251712858676910e-02,5.873885005712509155e-03,-7.764352858066558838e-02,-1.592997647821903229e-02,8.121578022837638855e-03,-4.540712758898735046e-02,-6.163724511861801147e-02,-3.153604641556739807e-02,-3.851984441280364990e-02,-5.471608415246009827e-02,2.600434795022010803e-02,-2.153813606128096581e-03,5.420356523245573044e-03,3.796916455030441284e-02,-9.759439155459403992e-03,-5.345196928828954697e-03,-7.202447950839996338e-02,-6.496220827102661133e-02,-3.272440284490585327e-02,2.256670594215393066e-02,-1.978378742933273315e-02,-2.706520259380340576e-02,2.719405805692076683e-03,-5.288550630211830139e-02,-6.808949261903762817e-02,2.079560887068510056e-03,-4.358868580311536789e-03,-4.569450393319129944e-02,2.929495833814144135e-02,3.886197134852409363e-02,-4.627602174878120422e-02,1.279954053461551666e-02,-5.414935201406478882e-02,-5.052941665053367615e-02,-3.689475357532501221e-02,-2.362371794879436493e-02,7.557168602943420410e-02,2.127716317772865295e-02,3.832220332697033882e-03,-4.724550060927867889e-03,-5.447702109813690186e-02,-7.804565876722335815e-02,3.275961428880691528e-02,1.862959004938602448e-02,-7.348509132862091064e-02,-3.718375787138938904e-02,-7.524463534355163574e-02,-9.932146407663822174e-03,-3.964605554938316345e-02,-1.537556480616331100e-02,1.964820548892021179e-02,-1.060419008135795593e-01,-5.097413063049316406e-02,1.479388773441314697e-02,-6.206295639276504517e-02,-1.344049535691738129e-02,1.230192556977272034e-02,-7.018852233886718750e-02,3.067963058128952980e-03,-6.666738539934158325e-02,3.129582479596138000e-02,-3.446898981928825378e-02,-6.079646572470664978e-02,-6.788937747478485107e-02,5.653537809848785400e-02,-8.070839568972587585e-03,5.063692480325698853e-02,2.893098443746566772e-02,-5.500141158699989319e-02,-5.489727854728698730e-02,-4.928999766707420349e-02,6.074037775397300720e-02,-6.165310740470886230e-03,9.651701897382736206e-03,-3.199822083115577698e-02,-2.923110313713550568e-02,-6.007431447505950928e-02,-2.447624132037162781e-02,-1.098995357751846313e-01,-6.867339462041854858e-02,-7.021837681531906128e-02,-7.828380912542343140e-02,-4.816822707653045654e-02,-1.992123760282993317e-02,3.567336592823266983e-03,-2.809847891330718994e-02,-1.287713833153247833e-02,-7.820256054401397705e-03,-5.146306380629539490e-02,1.209778059273958206e-02,-4.553395509719848633e-02,-3.826525062322616577e-02,-7.092673331499099731e-02,-1.084826141595840454e-01,-5.302886664867401123e-02,-3.011030331254005432e-02,5.964245181530714035e-03,-6.814723461866378784e-02,2.300450205802917480e-02,-6.146347895264625549e-02,-3.195674391463398933e-03,-6.123615801334381104e-02,-5.634788423776626587e-02,1.999749243259429932e-02,-5.085336416959762573e-02,-9.151136875152587891e-02,-1.015455089509487152e-02,1.940400898456573486e-02,-7.669627666473388672e-05,-1.876458339393138885e-02,-5.659678578376770020e-02,-8.763850480318069458e-02,-9.172444231808185577e-03,-2.847247384488582611e-02
-2.710345029830932617e+00,-6.194118261337280273e-01,2.136274576187133789e+00,1.438089489936828613e+00,-1.706802845001220703e+00,7.586911320686340332e-01,2.232208251953125000e+00,-6.466981172561645508e-01,-6.843670606613159180e-01,1.059332013130187988e+00,-3.272856473922729492e+00,-1.438027739524841309e+00,-1.150581717491149902e+00,-8.107185959815979004e-01,-4.799337089061737061e-01,-5.262748599052429199e-01,-3.143149137496948242e+00,-2.341902554035186768e-01,-1.526646256446838379e+00,2.095660567283630371e-01,4.386530220508575439e-01,-6.776017695665359497e-02,9.350618720054626465e-01,-1.744308590888977051e+00,-3.012990474700927734e+00,9.108580946922302246e-01,-5.633677482604980469e+00,-3.133299112319946289e+00,-1.093742489814758301e+00,-1.432064175605773926e+00,-8.070003986358642578e-01,1.428783178329467773e+00,-1.180512666702270508e+00,-1.044680953025817871e+00,1.339918017387390137e+00,1.743266105651855469e+00,-6.544700622558593750e+00,-3.830831646919250488e-01,-2.489064335823059082e-01,-2.096625089645385742e+00,-4.371520519256591797e+00,-6.325215697288513184e-01,-8.928647637367248535e-01,-7.626581937074661255e-02,1.306988745927810669e-01,-3.478849411010742188e+00,1.561283469200134277e+00,1.710022330284118652e+00,1.908774137496948242e+00,6.432822942733764648e-01,-1.463948130607604980e+00,-5.461808204650878906e+00,-4.307405948638916016e+00,-1.487251877784729004e+00,-3.395721912384033203e+00,9.823763370513916016e-01,-1.168492734432220459e-01,-1.142454385757446289e+00,-1.555845141410827637e-01,4.535505175590515137e-01,-1.313609480857849121e-01,-7.216590642929077148e-01,-4.840721607208251953e+00,-1.175120472908020020e-01,-1.521677970886230469e+00,-1.118849515914916992e+00,1.724066734313964844e-01,2.786867916584014893e-01,-4.137918949127197266e+00,1.446491003036499023e+00,1.451009213924407959e-01,-2.563394546508789062e+00,-5.304885506629943848e-01,-2.070940256118774414e+00,2.646413166075944901e-03,-9.071708917617797852e-01,-9.801958203315734863e-01,-1.057031974196434021e-01,-6.719158887863159180e-01,-6.871163845062255859e-02,-5.966069102287292480e-01,-2.077300786972045898e+00,4.573416709899902344e-01,-3.100725710391998291e-01,-2.191289424896240234e+00,-4.571763992309570312e+00,-1.235399365425109863e+00,-1.494910597801208496e+00,3.142586231231689453e+00,-1.294155955314636230e+00,8.467045426368713379e-01,-2.561430931091308594e+00,-6.341119408607482910e-01,-3.403552293777465820e+00,-9.834172129631042480e-01,-8.985370993614196777e-01,-1.665958046913146973e+00,4.511323571205139160e-01,-1.623021721839904785e+00,-7.211452722549438477e-01,-3.967165946960449219e+00,5.473863333463668823e-03,-1.379462957382202148e+00,-4.475724399089813232e-01,-1.474520444869995117e+00,-5.231888294219970703e+00,-1.357748270034790039e+00,-1.132628228515386581e-02,1.844128012657165527e+00,7.381159663200378418e-01,4.281153202056884766e+00,-6.624016165733337402e-01,-8.250407576560974121e-01,-1.568398356437683105e+00,-2.463370561599731445e+00,4.091219007968902588e-01,-4.115867316722869873e-01,-4.900708198547363281e+00,6.747822761535644531e-01,-2.875364303588867188e+00,-2.187589854001998901e-01,-4.270425140857696533e-01,-8.653784394264221191e-01,-1.288192152976989746e+00,-1.531420707702636719e+00,4.469172954559326172e-01,2.160858064889907837e-01,1.702916264533996582e+00,3.335959017276763916e-01,2.869844064116477966e-02,-2.662769556045532227e-01,-1.502802133560180664e+00,9.622549414634704590e-01,3.774009644985198975e-01,-7.360417842864990234e-01,2.052030563354492188e+00,-1.432939052581787109e+00,-1.039496302604675293e+00,-2.243877172470092773e+00,1.481436252593994141e+00,-8.023067116737365723e-01,1.656986027956008911e-01,-1.330219626426696777e+00,-1.559978485107421875e+00,1.775792121887207031e+00,-1.506420731544494629e+00,1.850372433662414551e+00,1.868278741836547852e+00,2.217057198286056519e-01,1.187514185905456543e+00,-5.791188217699527740e-03,-1.471124887466430664e+00,1.260693669319152832e+00,-7.567049264907836914e-01,-3.587874174118041992e+00,1.158796072006225586e+00,-1.782800793647766113e+00,-1.634349465370178223e+00,-4.740070179104804993e-02,-1.330693244934082031e+00,3.981056213378906250e-01,-2.880051732063293457e-01,8.550446480512619019e-02,-9.856761097908020020e-01,6.353237628936767578e-01,-9.738594293594360352e-01,-6.913452148437500000e-01,-2.635996341705322266e+00,-3.436986207962036133e+00,-1.623509228229522705e-01,4.996609985828399658e-01,-1.108669877052307129e+00,-3.028959989547729492e+00,-2.470742225646972656e+00,5.214548110961914062e-02,-1.206131100654602051e+00,-4.236232638359069824e-01,9.412609934806823730e-01,-1.592917799949645996e+00,1.209488153457641602e+00,1.355094194412231445e+00,-6.384382247924804688e-01,2.433360576629638672e+00,-4.009752750396728516e+00,-1.715645194053649902e+00,-4.583494365215301514e-01,1.958091735839843750e+00,9.806174784898757935e-04,-1.195293426513671875e+00,2.302001416683197021e-02,-2.952562808990478516e+00,-4.451944828033447266e-01,-2.514616727828979492e+00,6.441874057054519653e-02,-2.275251388549804688e+00,-3.837212622165679932e-01,1.861739039421081543e+00,-1.630599051713943481e-01,3.145151436328887939e-01,1.224491447210311890e-01,1.027891397476196289e+00,1.842563867568969727e+00,-1.264000654220581055e+00,-1.539613127708435059e+00,6.991002559661865234e-01,-3.465382814407348633e+00,-1.947969645261764526e-01,2.009395122528076172e+00,-3.285779803991317749e-02,-3.987115621566772461e-02,-9.246563538908958435e-03,-3.700746536254882812e+00,-5.927619710564613342e-02,-1.512905597686767578e+00,9.658432602882385254e-01,3.383869528770446777e-01,-9.856005311012268066e-01,-4.787139892578125000e+00,1.032393455505371094e+00,-1.716907620429992676e+00,-3.121989965438842773e+00,1.287049770355224609e+00,2.862418889999389648e-01,-5.232646465301513672e-01,3.382029056549072266e+00,-1.192870497703552246e+00,-1.017282962799072266e+00,3.570211887359619141e+00,-4.797750949859619141e+00,-6.878516077995300293e-01,1.119042873382568359e+00,2.234577894210815430e+00,4.715836644172668457e-01,1.820900797843933105e+00,-2.618995189666748047e+00,-6.561188697814941406e-01,2.837800979614257812e+00,-3.969302177429199219e+00,-2.565147876739501953e-01,1.981291919946670532e-01,-4.392265677452087402e-01,3.722280263900756836e-01,-1.757574200630187988e+00,1.031426787376403809e+00,-5.979539453983306885e-02,4.313785135746002197e-01,-7.895430326461791992e-01,-1.556602835655212402e+00,-1.012544035911560059e+00,-1.706538163125514984e-02,-3.720897436141967773e-01,2.263606309890747070e+00,1.286178112030029297e+00,5.631910562515258789e-01,-7.800669193267822266e+00,1.274526268243789673e-01
-2.358006238937377930e+00,-9.516961872577667236e-02,4.734368622303009033e-02,-7.318080067634582520e-01,-2.201979637145996094e+00,-4.112145006656646729e-01,-1.652645021677017212e-01,-7.550420761108398438e-01,-4.809466004371643066e-01,7.040552049875259399e-02,6.157356128096580505e-02,-1.567959904670715332e+00,-2.286492586135864258e+00,1.099341511726379395e+00,-8.608770370483398438e-01,2.104033380746841431e-01,-1.278495430946350098e+00,-1.629121303558349609e+00,7.279213666915893555e-01,-3.939583003520965576e-01,6.914891004562377930e-01,9.851438999176025391e-01,6.355167627334594727e-01,-2.320093393325805664e+00,2.016092091798782349e-01,-3.338898897171020508e+00,1.056390047073364258e+00,-4.652128696441650391e+00,-7.281556129455566406e-01,-1.186711668968200684e+00,-1.651214003562927246e+00,-3.074008524417877197e-01,-2.567797183990478516e+00,2.916043996810913086e+00,4.577727913856506348e-01,-2.501149773597717285e-01,8.445625305175781250e-01,-4.996092915534973145e-01,-1.893421858549118042e-01,-3.851613044738769531e+00,-5.873685479164123535e-01,2.508309364318847656e+00,1.237631082534790039e+00,-1.881643533706665039e-01,3.410885930061340332e-01,1.072555780410766602e+00,-6.172310113906860352e-01,-3.468835651874542236e-01,1.808775067329406738e+00,9.287212491035461426e-01,-2.825708389282226562e+00,7.623273134231567383e-01,1.442451357841491699e+00,-1.373826503753662109e+00,-2.134331464767456055e+00,1.030254006385803223e+00,8.272038102149963379e-01,2.713017225265502930e+00,-8.712809085845947266e-01,-2.113599628210067749e-01,-7.716923236846923828e+00,7.517088204622268677e-02,7.638241052627563477e-01,-1.816096901893615723e-01,5.734534263610839844e-01,4.962761104106903076e-01,-3.023663163185119629e-01,-4.952581822872161865e-01,1.437798619270324707e+00,-9.569650888442993164e-02,2.657756567001342773e+00,1.363907217979431152e+00,-3.589195609092712402e-01,-1.620372891426086426e+00,9.373906850814819336e-01,-3.098882675170898438e+00,1.123504519462585449e+00,-1.107739433646202087e-01,-1.426133155822753906e+00,6.338539123535156250e-01,-2.424109876155853271e-01,-1.268552422523498535e+00,1.995543718338012695e+00,2.797847390174865723e-01,2.310296058654785156e+00,-2.401746034622192383e+00,-1.712226271629333496e+00,-2.146274089813232422e+00,2.667461156845092773e+00,-1.469434380531311035e+00,1.371772885322570801e+00,-3.118219971656799316e-01,-4.463371753692626953e+00,-3.915832042694091797e+00,-2.836474418640136719e+00,9.226868152618408203e-01,2.151832818984985352e+00,-2.336698293685913086e+00,-4.252666234970092773e-01,-1.459800362586975098e+00,-1.343880057334899902e+00,-2.672868967056274414e+00,-1.921087265014648438e+00,-1.137099027633666992e+00,1.720546364784240723e+00,-1.150053620338439941e+00,4.809191524982452393e-01,1.697695493698120117e+00,1.331169605255126953e-01,1.015933394432067871e+00,1.142907500267028809e+00,-3.406451344490051270e-01,1.079609513282775879e+00,-7.082558870315551758e-01,4.034367501735687256e-01,-1.129676222801208496e+00,-1.081663250923156738e+00,1.191599011421203613e+00,1.917380690574645996e+00,-9.800376892089843750e-01,-3.899105787277221680e-01,1.588168144226074219e+00,5.897548198699951172e-01,-4.511425495147705078e-01,1.210934400558471680e+00,-3.075861632823944092e-01,6.717594265937805176e-01,1.025620937347412109e+00,-6.322855949401855469e-01,-4.832592964172363281e+00,-6.987167000770568848e-01,-3.999612092971801758e+00,1.607557654380798340e+00,-9.190095901489257812e+00,1.225761651992797852e+00,5.869376659393310547e-01,3.183557748794555664e+00,4.440246224403381348e-01,-2.539948225021362305e-01,9.264587759971618652e-01,4.760924279689788818e-01,-2.071954250335693359e+00,-3.624582767486572266e+00,-1.917305946350097656e+00,6.618785262107849121e-01,1.758792400360107422e-01,4.529618620872497559e-01,4.937811791896820068e-01,4.843991398811340332e-01,3.430200219154357910e-01,-2.251385211944580078e+00,-1.711189746856689453e+00,-1.662659168243408203e+00,2.604539692401885986e-01,2.122257351875305176e-01,-3.909901678562164307e-01,-2.086290836334228516e+00,8.087684512138366699e-01,-5.746105909347534180e-01,-1.431007146835327148e+00,-7.945635169744491577e-02,1.196103572845458984e+00,1.714125275611877441e+00,1.208064239472150803e-02,-3.759143054485321045e-01,-3.087226450443267822e-01,-3.223127603530883789e+00,-8.831809163093566895e-01,2.406647920608520508e+00,9.060135483741760254e-01,-1.695038527250289917e-01,1.391081064939498901e-01,-3.247718095779418945e+00,-6.916516423225402832e-01,6.869092583656311035e-03,-3.729654312133789062e+00,-4.622821807861328125e-01,-6.847170591354370117e-01,-1.528454899787902832e+00,1.269083261489868164e+00,1.890719890594482422e+00,-5.068181753158569336e-01,8.932847380638122559e-01,2.067668676376342773e+00,-2.270096063613891602e+00,2.802157104015350342e-01,-2.276832470670342445e-03,-4.250859737396240234e+00,1.715773940086364746e+00,-6.103713512420654297e-01,-2.682939767837524414e-01,-1.131634712219238281e+00,-4.354901790618896484e+00,2.862924337387084961e-01,8.822486400604248047e-01,-2.426913022994995117e+00,1.429748892784118652e+00,-1.396942138671875000e+00,-1.446600437164306641e+00,1.780738115310668945e+00,7.654523253440856934e-01,6.780604124069213867e-01,-8.414365053176879883e-01,-2.784351825714111328e+00,-5.815871357917785645e-01,-7.847477197647094727e-01,-3.706073164939880371e-01,-1.246742486953735352e+00,2.667158842086791992e-02,5.092290043830871582e-02,-1.725692488253116608e-02,-2.362386226654052734e+00,-7.440381646156311035e-01,-1.079095080494880676e-01,-1.786831617355346680e-01,3.816710114479064941e-01,-3.333444833755493164e+00,-6.345040798187255859e-01,1.536535263061523438e+00,2.941462993621826172e+00,9.586069583892822266e-01,9.913420677185058594e-01,-6.071393489837646484e-01,-2.888970136642456055e+00,-8.564133644104003906e-01,-1.319706797599792480e+00,-6.698632836341857910e-01,-1.848444491624832153e-01,-1.089290142059326172e+00,-7.643507122993469238e-01,1.323095858097076416e-01,-7.402172088623046875e-01,-4.490457177162170410e-01,-8.636086583137512207e-01,-2.509668111801147461e+00,-2.675861120223999023e-01,-1.470806002616882324e-01,9.484629631042480469e-01,-1.813492536544799805e+00,-3.612335443496704102e+00,-2.675971269607543945e+00,1.841648697853088379e+00,6.063066124916076660e-01,8.037382364273071289e-01,4.914541542530059814e-02,4.282413125038146973e-01,2.402744531631469727e+00,-1.277598619461059570e+00,-1.528082728385925293e+00,-1.417619735002517700e-02,-2.933203876018524170e-01,2.608300447463989258e+00,-1.086912751197814941e+00,5.323915481567382812e-01,-7.812846302986145020e-01,-6.877484321594238281e-01
-2.705468982458114624e-02,-1.146377623081207275e-02,2.990165352821350098e-02,-2.255997993052005768e-02,-8.374655619263648987e-03,1.067748642526566982e-03,2.202066034078598022e-02,-3.996277600526809692e-02,1.371190324425697327e-02,-8.092595636844635010e-02,3.921846672892570496e-02,-3.957939799875020981e-03,4.252167791128158569e-02,-9.295835159718990326e-03,4.647698253393173218e-02,-6.743861734867095947e-02,-5.036892741918563843e-02,-1.662396639585494995e-02,-4.265533387660980225e-02,-4.218298196792602539e-02,-8.040174841880798340e-03,-1.939659006893634796e-02,-3.124063834547996521e-02,4.946867376565933228e-02,-2.755054458975791931e-02,3.495533019304275513e-02,-3.579610725864768028e-03,-5.107485875487327576e-02,-4.359592869877815247e-02,-3.491038223728537560e-03,-1.338350214064121246e-02,-7.114863395690917969e-02,-6.759809702634811401e-02,1.164046209305524826e-02,-2.569717168807983398e-02,-2.960446476936340332e-02,-4.424965381622314453e-02,5.640321969985961914e-02,7.583668455481529236e-03,-1.010440066456794739e-01,-1.777187921106815338e-02,4.643984604626893997e-03,-6.041316315531730652e-02,5.650014150887727737e-03,-7.058476656675338745e-02,-1.964207179844379425e-02,1.228536665439605713e-02,-2.551747672259807587e-02,-2.650188654661178589e-02,-2.877632528543472290e-02,3.001287579536437988e-03,5.437716841697692871e-02,-3.580215573310852051e-02,-1.058376021683216095e-02,2.153090946376323700e-02,3.011662140488624573e-02,-1.038893777877092361e-02,1.060130540281534195e-03,-5.012050271034240723e-02,-2.750150114297866821e-02,-2.891174890100955963e-02,-2.041125670075416565e-02,4.024716466665267944e-02,-7.200095057487487793e-02,-6.403250992298126221e-02,-5.506667494773864746e-02,2.709393389523029327e-02,1.423843670636415482e-02,7.920929347164928913e-04,-5.362965539097785950e-02,2.928034961223602295e-02,-4.314829036593437195e-02,-2.275679819285869598e-02,-7.828669250011444092e-02,-6.587076187133789062e-02,-9.715100377798080444e-02,-5.154754966497421265e-02,-3.153162449598312378e-02,-3.740256279706954956e-02,-2.177021652460098267e-02,-4.325344786047935486e-02,3.430256992578506470e-02,-3.222765773534774780e-02,-4.587460309267044067e-02,-3.117427416145801544e-02,2.432464063167572021e-02,-7.577046006917953491e-02,-6.904392689466476440e-02,3.973564878106117249e-02,2.103730291128158569e-02,-7.421960472129285336e-04,3.067005611956119537e-02,-8.242991566658020020e-02,2.032161317765712738e-02,-2.461652830243110657e-02,4.174061119556427002e-03,-3.412385284900665283e-02,1.770306378602981567e-02,-6.065180525183677673e-02,-3.066602349281311035e-02,-9.967993199825286865e-02,1.606634818017482758e-02,-7.711022626608610153e-03,2.611954323947429657e-02,-3.293824940919876099e-02,-5.119080841541290283e-02,-3.567128255963325500e-02,3.606249392032623291e-02,2.964739454910159111e-03,-6.672155857086181641e-02,1.252480596303939819e-02,2.750416845083236694e-02,3.909613937139511108e-02,-6.039409339427947998e-02,-4.121077060699462891e-02,-5.084075033664703369e-02,-4.330777376890182495e-02,-3.033182024955749512e-02,-1.011375058442354202e-02,-7.062455266714096069e-02,-4.723979532718658447e-02,1.827096939086914062e-02,4.743441939353942871e-03,-3.763125836849212646e-02,1.299737673252820969e-02,-3.238440304994583130e-02,1.684259437024593353e-02,-8.579412847757339478e-02,6.147014349699020386e-02,4.673217982053756714e-02,-3.024835884571075439e-02,-3.794239833950996399e-02,-6.531345099210739136e-02,-2.162151969969272614e-02,-4.490832798182964325e-03,-2.990463376045227051e-02,4.456144571304321289e-02,-5.986941233277320862e-02,-5.177871882915496826e-02,-6.104261428117752075e-02,7.938675582408905029e-03,-5.021851044148206711e-03,-4.770264029502868652e-02,-2.009122632443904877e-02,-3.554986417293548584e-02,6.147547066211700439e-02,-9.360396303236484528e-03,-4.183002561330795288e-02,1.316178683191537857e-02,3.191908448934555054e-02,-3.379951789975166321e-02,-1.566691882908344269e-02,4.230804741382598877e-03,-5.915094912052154541e-02,-4.854030907154083252e-03,2.582819014787673950e-02,-3.019316680729389191e-02,1.927503198385238647e-02,-5.904564261436462402e-02,-6.742847710847854614e-02,7.312156725674867630e-03,-2.558502182364463806e-02,3.472495824098587036e-02,-7.055550813674926758e-03,-2.869822457432746887e-02,-1.599612273275852203e-02,2.349461056292057037e-02,-4.123389720916748047e-02,2.975536137819290161e-02,-5.294110625982284546e-02,-4.991082847118377686e-02,-4.789689928293228149e-02,3.261549770832061768e-02,-3.659900650382041931e-02,1.410822570323944092e-02,-4.537720233201980591e-03,-4.026575013995170593e-02,-1.745990477502346039e-02,-4.857112094759941101e-02,-1.851060055196285248e-02,-1.650923490524291992e-02,1.022375747561454773e-02,-3.506384789943695068e-02,-7.550936192274093628e-02,5.362129304558038712e-03,2.766860648989677429e-02,-8.068739622831344604e-02,-3.662089630961418152e-02,-5.492386873811483383e-03,2.677320316433906555e-02,-5.367323756217956543e-02,2.573410421609878540e-02,-1.709764264523983002e-02,-5.658392980694770813e-02,-6.512507051229476929e-02,2.137995511293411255e-02,-6.703129410743713379e-02,-6.114976108074188232e-02,-3.042867034673690796e-02,-4.123312607407569885e-02,-1.978815346956253052e-02,2.865563891828060150e-02,-5.229284986853599548e-02,6.868079304695129395e-03,-6.080155447125434875e-02,-1.795373857021331787e-02,-6.071079522371292114e-02,-6.495771557092666626e-02,-3.579065203666687012e-03,4.060324281454086304e-02,9.216463193297386169e-03,4.323854297399520874e-02,-4.992679879069328308e-02,1.568193733692169189e-02,-7.768228650093078613e-02,-5.286984145641326904e-02,9.175340645015239716e-03,-7.183177769184112549e-02,3.256728127598762512e-02,-5.593042075634002686e-02,-6.063756532967090607e-03,-2.442687749862670898e-02,5.060531944036483765e-02,1.661654002964496613e-02,-5.317681282758712769e-02,1.272691041231155396e-02,5.978637933731079102e-02,-1.906639337539672852e-02,-7.067123055458068848e-02,5.142361298203468323e-02,-3.130094707012176514e-02,4.403368383646011353e-02,6.064169853925704956e-02,-6.363300234079360962e-02,-4.657886549830436707e-02,-8.536130189895629883e-03,5.504719167947769165e-02,2.233201451599597931e-02,-6.095671653747558594e-02,5.020354315638542175e-02,-9.725461155176162720e-02,1.722094230353832245e-02,-1.144687086343765259e-02,2.640852518379688263e-02,-4.553521424531936646e-02,4.187411069869995117e-02,-4.646454751491546631e-02,-7.180377840995788574e-02,2.801863849163055420e-02,4.966348409652709961e-02,-2.594333887100219727e-02,3.596971929073333740e-02,-4.626731574535369873e-02,-1.409941120073199272e-03,1.301129721105098724e-02,-3.050601296126842499e-02
2.489834725856781006e-01,-5.499107763171195984e-03,-3.770202875137329102e+00,-2.510699987411499023e+00,-3.599588572978973389e-01,-3.471891880035400391e-01,1.509869657456874847e-02,-9.878725409507751465e-01,-6.021871566772460938e-01,1.258177757263183594e-01,4.750327020883560181e-02,1.055078357458114624e-01,9.144808053970336914e-01,4.899303913116455078e-01,-3.537123799324035645e-01,-2.183112144470214844e+00,-6.458765268325805664e-01,1.318106502294540405e-01,-9.643312692642211914e-01,3.516426086425781250e-01,6.666368842124938965e-01,-1.891998648643493652e-01,7.189221382141113281e-01,-8.906232565641403198e-02,1.463367342948913574e-01,-8.220308274030685425e-02,-1.661778688430786133e+00,-1.803034096956253052e-01,-4.325425997376441956e-02,-1.847851157188415527e+00,3.643309772014617920e-01,1.244323626160621643e-01,5.733662843704223633e-01,-7.166587114334106445e-01,-3.107037067413330078e+00,-7.577410697937011719e+00,-1.925184249877929688e+00,-9.051132798194885254e-01,-1.045206263661384583e-01,-3.872763514518737793e-01,-7.038062214851379395e-01,-1.014602303504943848e+00,-2.905263900756835938e-01,1.754331707954406738e+00,-1.635308504104614258e+00,-2.798353433609008789e+00,-2.907029628753662109e+00,-2.031759977340698242e+00,-6.155271530151367188e-01,-3.653540313243865967e-01,6.062929630279541016e-01,-3.568680584430694580e-02,2.125202119350433350e-01,-1.535801887512207031e+00,-3.752146005630493164e+00,-7.626248598098754883e-01,-1.398157119750976562e+00,2.060647487640380859e+00,3.073708117008209229e-01,6.163041293621063232e-02,2.036505699157714844e+00,-3.686214089393615723e-01,-2.539635658264160156e+00,-4.737755954265594482e-01,2.568237185478210449e-01,-3.824602365493774414e+00,-2.697881221771240234e+00,-4.959776699542999268e-01,-3.506050825119018555e+00,-1.743224620819091797e+00,-3.561558246612548828e+00,3.453933298587799072e-01,1.085257530212402344e+00,1.294924616813659668e+00,-3.839448928833007812e+00,6.044148206710815430e-01,-1.067489862442016602e+00,4.660101234912872314e-02,4.090444743633270264e-01,-2.529121208190917969e+01,4.003826901316642761e-02,-8.204698562622070312e-01,3.257794976234436035e-01,4.651500582695007324e-01,-3.423740863800048828e-01,-1.231856822967529297e+00,-1.259785771369934082e+00,-1.713340282440185547e+00,-3.774828016757965088e-01,-6.463510394096374512e-01,-4.727935194969177246e-01,-1.535891532897949219e+00,2.721854448318481445e-01,-6.774339675903320312e-01,-1.803177595138549805e+00,-6.745475530624389648e-01,-4.945864379405975342e-01,-1.106122374534606934e+00,-1.374033212661743164e+00,-5.042046308517456055e-01,1.231276631355285645e+00,-1.547206759452819824e+00,2.581185400485992432e-01,1.427623480558395386e-01,9.874598979949951172e-01,-5.645254850387573242e-01,-1.661794781684875488e+00,-4.980414509773254395e-01,-2.049812078475952148e+00,-2.721292674541473389e-01,2.059908024966716766e-02,-1.086806535720825195e+00,-1.507534086704254150e-01,-1.232066005468368530e-02,3.186801970005035400e-01,-1.283248305320739746e+00,3.333750963211059570e-01,-1.046698763966560364e-01,3.354665338993072510e-01,7.108677625656127930e-01,4.892772436141967773e-01,-5.474554061889648438e+00,-4.857998490333557129e-01,-6.434024572372436523e-01,5.253551006317138672e-01,-5.265679359436035156e-01,-1.016531705856323242e+00,-3.485198020935058594e+00,-2.581675052642822266e-01,-8.618144392967224121e-01,-3.556994199752807617e-01,3.760239481925964355e-01,4.602855145931243896e-01,-1.334954023361206055e+00,3.027918040752410889e-01,-1.779643058776855469e+00,1.086787700653076172e+00,-2.352232187986373901e-01,-8.528854846954345703e-01,1.724862158298492432e-01,3.902541399002075195e-01,1.773229598999023438e+00,-9.809545278549194336e-01,1.121850609779357910e+00,-1.273711085319519043e+00,-3.169073462486267090e-01,1.782085537910461426e+00,4.560346603393554688e-01,-3.670939505100250244e-01,-3.917858123779296875e+00,-3.347159624099731445e+00,1.173741459846496582e+00,-1.075810939073562622e-01,-2.066175639629364014e-01,-1.653317451477050781e+00,4.211095273494720459e-01,2.011634223163127899e-02,-7.857758402824401855e-01,-2.031592130661010742e-01,6.947933882474899292e-02,-2.797044217586517334e-01,-1.343063592910766602e+00,-2.925824880599975586e+00,-2.903858572244644165e-02,-4.972040951251983643e-01,-6.697651147842407227e-01,-4.290182590484619141e+00,9.982088208198547363e-02,2.058130502700805664e-01,1.341423273086547852e+00,-5.127454176545143127e-02,-1.491134762763977051e+00,-1.231916189193725586e+00,-1.760734796524047852e+00,-3.959012776613235474e-02,1.890544056892395020e+00,4.664882123470306396e-01,1.107842206954956055e+00,-1.188165307044982910e+00,-3.183819055557250977e-01,-1.418319940567016602e+00,1.478476405143737793e+00,-2.177942991256713867e+00,-1.935523748397827148e+00,1.113081946969032288e-01,2.600979566574096680e+00,3.826643154025077820e-02,3.200800120830535889e-01,-4.785569906234741211e-01,9.292012453079223633e-01,9.379839897155761719e-02,-8.518409132957458496e-01,-1.064115047454833984e+00,5.225940942764282227e-01,-1.198306441307067871e+00,-2.001556873321533203e+00,-1.365504145622253418e+00,-2.392818450927734375e+00,-7.974352240562438965e-01,-1.671472042798995972e-01,-1.213574051856994629e+00,1.568525433540344238e+00,-9.193671345710754395e-01,-2.194241762161254883e+00,-1.194351315498352051e+00,1.426027774810791016e+00,1.838003695011138916e-01,-1.466845273971557617e+00,2.025116980075836182e-02,-3.416431695222854614e-02,1.179704442620277405e-01,1.148205995559692383e-02,-4.830339550971984863e-01,5.438402891159057617e-01,5.836378931999206543e-01,-2.600519657135009766e-01,1.722586303949356079e-01,-7.482284307479858398e-01,-1.040342092514038086e+00,3.808567225933074951e-01,-5.786289572715759277e-01,5.858808755874633789e-01,1.298549920320510864e-01,-2.460088282823562622e-01,3.633538782596588135e-01,-2.257926762104034424e-01,3.513962328433990479e-01,2.872205153107643127e-02,-3.174602091312408447e-01,6.324673295021057129e-01,-8.307078480720520020e-02,-8.751291036605834961e-01,-4.204185903072357178e-01,-5.247825384140014648e-01,-1.002235889434814453e+00,8.507651686668395996e-01,-7.263270765542984009e-02,-6.354061365127563477e-01,-1.843556761741638184e-01,1.512056440114974976e-01,5.609543919563293457e-01,4.885656833648681641e-01,-8.686208128929138184e-01,6.465981006622314453e-01,-4.050683975219726562e-02,-9.207392930984497070e-01,-5.061620473861694336e-01,-3.203718900680541992e+00,-1.744403719902038574e+00,-4.059150069952011108e-02,-1.205143213272094727e+00,-7.930084317922592163e-02,4.409547448158264160e-01,-3.257516026496887207e-01,-2.970177173614501953e+00,1.341364681720733643e-01
-1.248130388557910919e-02,-1.920280791819095612e-02,4.142035543918609619e-02,-4.461647942662239075e-02,-4.889148473739624023e-02,-9.367657452821731567e-02,-8.303894847631454468e-02,-1.444614771753549576e-02,-4.194432869553565979e-02,5.701354891061782837e-02,-2.647164463996887207e-02,4.037340730428695679e-02,-1.995460689067840576e-02,-7.563512772321701050e-02,1.773786172270774841e-02,-1.309217363595962524e-01,-2.007607137784361839e-03,-6.357637047767639160e-02,-1.158153787255287170e-01,2.441386505961418152e-02,1.757312379777431488e-02,6.533534824848175049e-02,-4.359211400151252747e-02,-1.895514130592346191e-02,-6.202043965458869934e-02,1.561131328344345093e-02,2.184392511844635010e-02,-7.035413384437561035e-02,-7.104050368070602417e-02,2.104882895946502686e-02,-1.141668483614921570e-01,-9.910718351602554321e-02,3.818931803107261658e-02,-1.171972006559371948e-01,-5.003697797656059265e-02,1.233582198619842529e-02,2.747409977018833160e-02,-9.686210751533508301e-02,-1.349437981843948364e-01,-6.705100834369659424e-02,-1.461835112422704697e-02,1.240359153598546982e-02,-6.565188989043235779e-03,1.714837737381458282e-02,-8.298990130424499512e-02,-1.946536079049110413e-02,-1.416576504707336426e-01,1.650458946824073792e-02,-3.130888193845748901e-02,-5.665561929345130920e-02,-5.231922119855880737e-02,-1.713443547487258911e-02,1.813905313611030579e-02,8.684156462550163269e-03,-7.685755193233489990e-02,-6.273572146892547607e-02,-6.321814656257629395e-02,-1.190575882792472839e-01,-4.310853034257888794e-02,-1.054196953773498535e-01,3.348437324166297913e-02,-9.668490290641784668e-02,-6.264238804578781128e-02,-2.429323270916938782e-02,3.091314062476158142e-02,5.819578468799591064e-02,-1.070591211318969727e-01,-7.170034945011138916e-02,-8.413857966661453247e-02,-8.951344341039657593e-02,3.592953085899353027e-02,1.031226757913827896e-02,-6.424257159233093262e-02,-5.147456750273704529e-02,-1.090681478381156921e-01,-1.088963672518730164e-01,8.259288966655731201e-02,-5.284505337476730347e-02,-5.729295313358306885e-02,-1.349006779491901398e-02,-7.016962021589279175e-02,-7.498603314161300659e-02,-5.232588946819305420e-02,-5.847354186698794365e-04,-1.187567226588726044e-02,-1.538964360952377319e-01,4.988593049347400665e-03,-2.597444131970405579e-02,-8.345846086740493774e-02,6.864812225103378296e-02,-4.410803318023681641e-02,-4.435498639941215515e-02,-8.485600352287292480e-02,5.760660022497177124e-02,-3.553950414061546326e-02,-5.975730344653129578e-02,-5.084251053631305695e-03,3.325075656175613403e-02,6.375201046466827393e-03,-6.555713713169097900e-03,-1.816176809370517731e-02,-8.398520201444625854e-02,-3.564216569066047668e-02,1.590406149625778198e-02,4.246260970830917358e-02,1.067399233579635620e-01,-7.587759196758270264e-02,-2.416382171213626862e-02,-6.448026746511459351e-02,-7.737735658884048462e-02,-1.086552813649177551e-01,-9.099547564983367920e-02,-2.265565842390060425e-02,3.158606588840484619e-02,6.564728450030088425e-03,-1.056281551718711853e-01,-9.406736493110656738e-02,-3.707125410437583923e-02,-5.417190119624137878e-02,6.755238026380538940e-02,1.428078114986419678e-02,-1.326784640550613403e-01,-6.740509718656539917e-02,-3.410879150032997131e-02,-5.414361506700515747e-02,1.035583615303039551e-01,1.110911555588245392e-02,-3.878802526742219925e-03,-9.554294496774673462e-02,5.481360480189323425e-02,4.256008192896842957e-02,3.528332570567727089e-03,-7.691847532987594604e-02,-7.620540261268615723e-02,1.754903607070446014e-02,2.478381432592868805e-02,-2.490804530680179596e-02,-1.871748827397823334e-02,-5.522636696696281433e-03,-5.003393441438674927e-02,-6.276749074459075928e-03,1.064297556877136230e-01,-7.607626169919967651e-02,-6.581024080514907837e-02,-2.443081326782703400e-02,5.093448329716920853e-03,-3.048938512802124023e-02,-4.246562719345092773e-02,9.415023028850555420e-03,-5.035722255706787109e-02,-2.582760527729988098e-02,-7.052457332611083984e-02,-2.138029225170612335e-02,1.909783855080604553e-02,-4.656737670302391052e-02,-2.729893103241920471e-02,5.162402614951133728e-02,-6.940987706184387207e-02,-5.292160063982009888e-02,1.716246595606207848e-03,4.169727116823196411e-02,-1.056931167840957642e-02,-2.191898785531520844e-02,3.692932426929473877e-02,-3.018343821167945862e-02,3.526495397090911865e-02,2.903114818036556244e-02,2.120820060372352600e-02,-1.232199445366859436e-01,-1.129861325025558472e-01,-1.442431099712848663e-02,-1.751674413681030273e-01,5.125471204519271851e-02,4.556341096758842468e-03,1.202663779258728027e-02,-1.096520423889160156e-01,6.336454302072525024e-02,-6.115740165114402771e-02,2.328141406178474426e-02,-1.168024167418479919e-02,4.712635651230812073e-02,7.252833247184753418e-02,4.795223101973533630e-02,-1.372264176607131958e-01,-8.002902567386627197e-02,-1.124870851635932922e-01,-8.401612192392349243e-02,-5.257935076951980591e-02,-1.410740427672863007e-02,-9.018351137638092041e-02,4.974672943353652954e-02,8.054117858409881592e-02,-5.429458245635032654e-02,7.442782074213027954e-02,5.307781696319580078e-02,1.593755371868610382e-02,1.506135705858469009e-02,6.952060014009475708e-02,6.339336931705474854e-02,5.183264147490262985e-03,-3.519394900649785995e-03,-6.785133481025695801e-02,-9.139068424701690674e-02,-6.269130110740661621e-02,5.572755262255668640e-02,3.208142146468162537e-02,-1.813508570194244385e-03,-1.873847097158432007e-02,3.559810668230056763e-02,1.987641304731369019e-02,-3.580326586961746216e-02,-1.301507651805877686e-02,-6.174332648515701294e-02,-1.490553002804517746e-02,-2.434127219021320343e-02,-9.071594476699829102e-02,-4.061786085367202759e-02,-2.071460522711277008e-02,4.004557058215141296e-02,-1.075550168752670288e-01,3.694648668169975281e-02,-1.251004487276077271e-01,1.786771044135093689e-02,-1.277982592582702637e-01,-5.027750041335821152e-03,-1.073798313736915588e-01,-6.103119999170303345e-02,-2.093570679426193237e-02,-1.373419165611267090e-02,-7.185071241110563278e-03,-6.447960436344146729e-02,4.199586808681488037e-02,-1.756869256496429443e-03,-5.071417242288589478e-02,-2.387133240699768066e-02,-4.792404547333717346e-02,-3.881026804447174072e-02,-9.842175990343093872e-02,-9.833334386348724365e-02,-4.687463492155075073e-02,-6.271238625049591064e-02,-6.492273509502410889e-02,9.058251045644283295e-03,-1.297478526830673218e-01,-1.322381198406219482e-02,-2.113730460405349731e-02,-5.941085517406463623e-03,-2.622664719820022583e-02,-4.918662458658218384e-02,1.609385013580322266e-03,-4.082726687192916870e-02,5.017918068915605545e-03,2.738598547875881195e-02,9.341831505298614502e-02,-1.859484054148197174e-02,-1.546278223395347595e-02
2.430426888167858124e-02,-4.494509473443031311e-02,-1.296369284391403198e-01,-1.468929350376129150e-01,-4.370565339922904968e-02,-5.766482278704643250e-02,4.542157053947448730e-02,-1.109923720359802246e-01,4.523476958274841309e-02,-3.705997765064239502e-02,-4.157594963908195496e-02,-3.824706748127937317e-02,-3.288935869932174683e-02,3.671956062316894531e-02,-4.773597791790962219e-02,2.024413645267486572e-02,-4.165051504969596863e-02,1.540445722639560699e-03,-8.036626130342483521e-02,-6.154017895460128784e-02,5.854478478431701660e-02,-1.144721210002899170e-01,-1.612425409257411957e-02,3.618555888533592224e-02,-2.203481644392013550e-02,-4.462860524654388428e-03,7.490314543247222900e-03,2.991340123116970062e-02,-9.781198203563690186e-02,-3.826171159744262695e-02,-1.286082416772842407e-01,-8.565180748701095581e-02,-7.180248200893402100e-02,-2.652975358068943024e-02,-6.146088987588882446e-02,-7.164303213357925415e-02,-2.558103203773498535e-02,1.887765526771545410e-02,-9.414383210241794586e-03,-6.340946257114410400e-02,-7.066579908132553101e-02,-8.697129040956497192e-02,5.754446983337402344e-02,-6.978555023670196533e-02,-1.301301270723342896e-01,-1.303793340921401978e-01,-2.197794765233993530e-01,-1.944769173860549927e-01,-1.277972608804702759e-01,-7.386062294244766235e-02,2.494213730096817017e-02,5.893941223621368408e-02,-8.996719494462013245e-03,-2.521301619708538055e-02,2.340367808938026428e-02,-8.255778998136520386e-02,-1.900736838579177856e-01,-6.789078563451766968e-02,7.961208000779151917e-03,5.696376785635948181e-02,-5.818435922265052795e-02,-4.224796965718269348e-02,-1.370187699794769287e-01,5.286481976509094238e-02,-4.953786730766296387e-02,-1.182442083954811096e-01,-4.519360885024070740e-02,-8.547222614288330078e-02,-1.450138539075851440e-01,-7.928422419354319572e-04,-1.751918047666549683e-01,3.524602204561233521e-02,-9.185276925563812256e-03,-1.413703560829162598e-01,-1.427427977323532104e-01,-1.394050428643822670e-03,-4.517308622598648071e-02,1.055914163589477539e-02,-5.204421281814575195e-02,-6.666713953018188477e-02,-9.366684406995773315e-02,-4.242531582713127136e-02,-5.700465291738510132e-02,-6.279177218675613403e-02,-9.849787503480911255e-02,-1.706401109695434570e-01,-8.005183935165405273e-02,-1.555157899856567383e-01,-3.312210738658905029e-02,-1.511862128973007202e-02,-8.528242260217666626e-02,-5.802810564637184143e-02,-7.846417278051376343e-02,-3.834547847509384155e-02,3.896561264991760254e-02,-1.250486522912979126e-01,-3.214960545301437378e-02,-1.451668888330459595e-02,-1.314595341682434082e-01,-4.829279333353042603e-02,4.045016318559646606e-02,-9.550402313470840454e-02,-5.152479559183120728e-02,-3.950517997145652771e-02,2.315829694271087646e-02,-3.440842777490615845e-02,-6.339653581380844116e-02,-1.803087890148162842e-01,-1.809474825859069824e-01,-1.365120857954025269e-01,-2.327543869614601135e-02,-1.250826865434646606e-01,-4.965733736753463745e-02,2.767884731292724609e-02,1.370213832706212997e-02,3.066139668226242065e-02,-7.166179828345775604e-03,-7.456345017999410629e-03,2.181004267185926437e-03,1.230472046881914139e-02,-5.851378664374351501e-02,-2.027938142418861389e-02,-1.994283944368362427e-01,-5.871994793415069580e-02,-7.427344471216201782e-02,1.520750694908201694e-03,-1.632879488170146942e-02,-1.083384752273559570e-01,-2.584021165966987610e-02,-1.405412852764129639e-01,2.066043764352798462e-02,-1.197997927665710449e-01,-5.640995129942893982e-02,-1.729273423552513123e-02,5.743437795899808407e-04,-1.051052808761596680e-01,-3.088654950261116028e-02,-3.185861185193061829e-02,-4.719207063317298889e-02,2.883848547935485840e-02,-4.644855856895446777e-02,7.223799824714660645e-02,-1.488680690526962280e-01,4.369263071566820145e-03,-1.250632256269454956e-01,-1.963773220777511597e-01,-8.842504024505615234e-02,-9.959893301129341125e-03,-4.281618818640708923e-02,-5.714219436049461365e-02,-7.165054976940155029e-02,-7.634560018777847290e-02,-9.420056641101837158e-02,-1.101780682802200317e-01,-7.275366038084030151e-02,-6.352756917476654053e-02,-9.125642478466033936e-02,1.844267547130584717e-02,-6.757716834545135498e-02,-6.178977340459823608e-02,-3.481872007250785828e-02,2.459298819303512573e-02,-4.620913788676261902e-02,-2.541708201169967651e-02,-1.252902895212173462e-01,-1.222027838230133057e-01,-4.949325695633888245e-02,-6.524674594402313232e-02,-4.297025874257087708e-02,-1.418187320232391357e-01,-1.206478998064994812e-01,3.822786733508110046e-02,-6.496200710535049438e-02,-1.467590779066085815e-01,-4.969413578510284424e-02,-6.754815578460693359e-02,2.742996625602245331e-02,3.794322162866592407e-02,-1.128276288509368896e-01,-1.008123978972434998e-01,-1.543299406766891479e-01,-5.089922249317169189e-02,1.998760364949703217e-02,4.262420535087585449e-02,-1.620741933584213257e-02,-1.481881290674209595e-01,3.269443660974502563e-02,-1.145622059702873230e-01,-1.757711768150329590e-01,-2.540101855993270874e-02,-2.729643508791923523e-02,-4.722806438803672791e-02,-1.129184942692518234e-02,2.363016130402684212e-03,-7.148676365613937378e-02,-7.472088932991027832e-02,-8.100573718547821045e-02,2.916689403355121613e-02,3.214376047253608704e-02,-1.105129793286323547e-01,-9.687894023954868317e-03,-4.712244123220443726e-02,-4.569330718368291855e-03,-5.745182186365127563e-02,-1.146876160055398941e-02,-1.066406965255737305e-01,-4.796157777309417725e-02,-6.165151018649339676e-03,3.883287310600280762e-03,6.208325177431106567e-02,-3.282244503498077393e-02,-5.798057466745376587e-02,6.472672335803508759e-03,-2.609736472368240356e-02,-4.776806756854057312e-02,2.138546109199523926e-02,1.773269847035408020e-02,-1.473658233880996704e-01,-5.168472975492477417e-02,-2.220969051122665405e-01,-2.350749820470809937e-02,-4.352239891886711121e-02,1.897958852350711823e-02,-1.230057049542665482e-02,3.899942338466644287e-02,2.318551763892173767e-02,4.553645104169845581e-02,2.565824985504150391e-02,1.487675495445728302e-02,-3.311064839363098145e-02,-3.013227693736553192e-02,5.341735109686851501e-02,-2.794642001390457153e-02,5.115466937422752380e-02,2.320990711450576782e-02,-1.536487601697444916e-02,-3.306500613689422607e-02,-5.846247076988220215e-04,-9.863393381237983704e-03,-1.896651461720466614e-02,-6.292480975389480591e-02,-7.395966351032257080e-02,-1.248353049159049988e-01,-4.152020905166864395e-03,-5.746252089738845825e-02,-1.083949953317642212e-02,3.694069385528564453e-02,-2.324471324682235718e-01,5.263150110840797424e-02,5.082222074270248413e-02,-3.459608554840087891e-02,-1.532821655273437500e-01,8.242048323154449463e-02,-6.329410523176193237e-02,-3.463019803166389465e-02,-6.672577559947967529e-02
1.112667694687843323e-01,1.398589462041854858e-01,1.225858688354492188e+00,1.144601941108703613e+00,-2.170706987380981445e+00,4.837567359209060669e-02,1.222663283348083496e+00,-1.760880351066589355e+00,-1.317667774856090546e-02,-2.224529504776000977e+00,7.323389649391174316e-01,-2.273488759994506836e+00,-2.619017124176025391e+00,-6.027298569679260254e-01,-3.187988281250000000e+00,5.459059774875640869e-02,-1.786722183227539062e+00,-1.533418178558349609e+00,7.256556749343872070e-01,-2.906844019889831543e-01,-6.465741991996765137e-01,-1.294498085975646973e+00,-1.814914226531982422e+00,2.326586544513702393e-01,-2.410842925310134888e-01,3.701249361038208008e-01,-1.154579758644104004e+00,-7.030473351478576660e-01,-7.648257166147232056e-02,-8.452460765838623047e-01,-2.823836088180541992e+00,-3.101398348808288574e-01,-5.112091541290283203e+00,-5.406143665313720703e-01,-4.268208146095275879e-01,1.129436612129211426e+00,1.569976329803466797e+00,-8.050567507743835449e-01,-2.565623819828033447e-01,-2.143459796905517578e+00,1.241693019866943359e+00,2.878422737121582031e+00,9.592665433883666992e-01,-4.679803848266601562e-01,9.071634411811828613e-01,3.593410849571228027e-01,-5.293850302696228027e-01,-3.718612909317016602e+00,3.226827681064605713e-01,-2.961230039596557617e+00,2.633474208414554596e-02,1.744500398635864258e-01,2.174312919378280640e-01,-2.542501449584960938e+00,-3.959577798843383789e+00,-8.407194167375564575e-02,2.405615597963333130e-01,8.660761713981628418e-01,-1.243288040161132812e+00,9.333243370056152344e-01,9.989696741104125977e-01,-8.734057545661926270e-01,-1.518657684326171875e+00,1.449260592460632324e+00,-3.024538516998291016e+00,-1.777268767356872559e+00,-2.177113533020019531e+00,-2.549818754196166992e+00,2.152248769998550415e-01,-8.760968446731567383e-01,3.088304400444030762e-02,1.146809816360473633e+00,7.821753621101379395e-03,5.951284766197204590e-01,6.152096986770629883e-01,-1.187036871910095215e+00,-1.212475672364234924e-01,-2.059110440313816071e-02,-1.195651888847351074e+00,-8.768982887268066406e-01,-5.242088437080383301e-01,7.989706099033355713e-02,-1.629331558942794800e-01,-6.420355796813964844e+00,2.192602634429931641e+00,3.310548067092895508e-01,-1.820896506309509277e+00,-1.145384311676025391e+00,-6.705327630043029785e-01,-3.211323022842407227e-01,-1.259388685226440430e+00,1.105261683464050293e+00,-3.012999594211578369e-01,-2.846169471740722656e+00,-1.468779683113098145e+00,-2.471529960632324219e+00,-7.352104783058166504e-01,1.227842211723327637e+00,-1.776651620864868164e+00,-9.114056825637817383e-01,1.439238548278808594e+00,-6.210533976554870605e-01,-2.651231527328491211e+00,3.236369490623474121e-01,1.757719635963439941e+00,1.132785439491271973e+00,2.437823772430419922e+00,-1.884797811508178711e+00,-1.131181120872497559e+00,-6.511165499687194824e-01,8.449281454086303711e-01,3.248796463012695312e-01,-3.110793113708496094e+00,6.588281393051147461e-01,-9.594941139221191406e-01,-1.315357446670532227e+00,-1.682680606842041016e+00,-6.673665046691894531e+00,3.985682427883148193e-01,-6.803899407386779785e-01,1.381384134292602539e+00,-2.648111898452043533e-03,1.597013473510742188e+00,1.266056180000305176e+00,1.580514013767242432e-01,-7.893379330635070801e-01,5.698236227035522461e-01,1.104310750961303711e+00,1.774368882179260254e+00,-5.007749795913696289e-01,-3.028878450393676758e+00,-3.870053589344024658e-01,1.727559447288513184e+00,-1.213777184486389160e+00,-8.571981191635131836e-01,-2.362946718931198120e-01,1.620779514312744141e+00,8.360065817832946777e-01,-9.464343190193176270e-01,1.819950580596923828e+00,1.267017483711242676e+00,-1.287637829780578613e+00,-1.392121315002441406e+00,9.427382349967956543e-01,-3.069467306137084961e+00,2.414747029542922974e-01,-8.232938647270202637e-01,4.388352036476135254e-01,2.014379262924194336e+00,-1.513872027397155762e+00,-2.638301610946655273e+00,2.300321608781814575e-01,-4.393106937408447266e+00,-1.319344401359558105e+00,-2.105350732803344727e+00,1.144780814647674561e-01,-2.266341686248779297e+00,8.864449858665466309e-01,1.514516353607177734e+00,-5.575601577758789062e+00,3.580281436443328857e-01,1.135832309722900391e+00,-3.404234170913696289e+00,-4.806122481822967529e-01,3.945740163326263428e-01,-2.673189938068389893e-01,-2.422456026077270508e+00,1.206518769264221191e+00,-2.608899593353271484e+00,-3.169658482074737549e-01,9.974715709686279297e-01,-2.622128248214721680e+00,-2.868418216705322266e+00,-1.837785243988037109e+00,-6.469449400901794434e-02,1.900414347648620605e+00,-1.082008600234985352e+00,-2.169087886810302734e+00,-1.986892938613891602e+00,-2.261092662811279297e+00,-1.985373973846435547e+00,-1.387538433074951172e+00,1.354409575462341309e+00,-3.991145372390747070e+00,6.204479336738586426e-01,-1.936847418546676636e-01,-1.337439179420471191e+00,-2.525021791458129883e+00,-1.526734352111816406e+00,-1.230293154716491699e+00,-1.300401329994201660e+00,-2.731366395950317383e+00,-5.320162773132324219e-01,7.232562899589538574e-01,6.199554800987243652e-01,-2.352129220962524414e+00,-1.334256410598754883e+00,2.709541559219360352e+00,-1.684798717498779297e+00,-1.238059520721435547e+00,-1.509740650653839111e-01,-1.838740587234497070e+00,-1.010997056961059570e+00,-1.339261293411254883e+00,-3.880704045295715332e-01,-2.794963598251342773e+00,1.234242081642150879e+00,-5.576626658439636230e-01,-5.145595222711563110e-02,-3.718522936105728149e-02,-7.966743409633636475e-02,1.620999127626419067e-01,3.555685877799987793e-01,-1.755195736885070801e+00,-1.039450407028198242e+00,6.508266329765319824e-01,1.503005176782608032e-01,1.521394014358520508e+00,-1.701440334320068359e+00,1.468427062034606934e+00,-1.510906577110290527e+00,1.525797724723815918e+00,2.683565616607666016e-01,4.609955251216888428e-01,2.857272624969482422e-01,4.622118771076202393e-01,3.934360742568969727e-01,3.249371647834777832e-01,-9.196516871452331543e-01,1.161884143948554993e-01,-6.808942556381225586e-01,-6.211007833480834961e-01,-2.837978303432464600e-01,-2.402909755706787109e+00,4.322733581066131592e-01,3.572570085525512695e-01,-5.956977009773254395e-01,1.021404385566711426e+00,-1.106528878211975098e+00,1.045630216598510742e+00,-3.734984159469604492e+00,4.603143036365509033e-02,1.047066926956176758e+00,8.154950141906738281e-01,-9.525373578071594238e-03,-8.202896714210510254e-01,1.462375223636627197e-01,-1.409406185150146484e+00,-1.002427786588668823e-01,-2.009533904492855072e-02,1.046779632568359375e+00,-1.959172368049621582e+00,1.191583037376403809e+00,-1.204761743545532227e+00,-4.845285117626190186e-01,-7.723003029823303223e-01
1.301599979400634766e+00,2.027009725570678711e-01,-1.541698455810546875e+00,-2.085279822349548340e-01,1.430794447660446167e-01,-4.418587684631347656e+00,-1.124559521675109863e+00,5.424298048019409180e-01,1.095621347427368164e+00,-1.536121249198913574e+00,-9.154865741729736328e-01,-1.747598886489868164e+00,3.764538526535034180e+00,-2.041425466537475586e+00,2.451361894607543945e+00,1.507762432098388672e+00,-3.434191346168518066e-01,2.247602701187133789e+00,4.391982853412628174e-01,-1.583611369132995605e-01,-1.097516536712646484e+00,-1.005396723747253418e+00,-2.011379480361938477e+00,-3.770945549011230469e+00,7.735908031463623047e-01,-2.250657320022583008e+00,1.101384639739990234e+00,-1.122333645820617676e+00,-4.478404998779296875e+00,-5.240150690078735352e-01,-3.312343657016754150e-01,-4.197493195533752441e-01,9.562712907791137695e-01,-7.085562348365783691e-01,-6.984000802040100098e-01,1.296294927597045898e+00,-1.208237767219543457e+00,7.307204008102416992e-01,-3.594233691692352295e-01,-1.093623757362365723e+00,-2.434778690338134766e+00,-4.410659313201904297e+00,7.961919903755187988e-02,2.680468559265136719e+00,-4.086002111434936523e-01,3.439852952957153320e+00,-2.407763242721557617e+00,1.990663290023803711e+00,-1.167069911956787109e+00,1.716211438179016113e+00,-1.506076455116271973e+00,-9.884758591651916504e-01,-1.250782310962677002e-01,2.138572216033935547e+00,8.218687772750854492e-01,-1.404534578323364258e+00,2.874018549919128418e-01,1.939580142498016357e-01,-1.980630397796630859e+00,1.541152954101562500e+00,6.172395944595336914e-01,4.080049514770507812e+00,2.557938337326049805e+00,1.264549195766448975e-01,7.378823161125183105e-01,6.027822971343994141e+00,-1.114282727241516113e+00,-8.975951075553894043e-01,4.613603591918945312e+00,-5.589454770088195801e-01,2.758950471878051758e+00,3.786422610282897949e-01,-1.404005289077758789e-01,5.363776087760925293e-01,1.677922964096069336e+00,2.479842185974121094e+00,-4.634096026420593262e-01,6.632748991250991821e-02,2.129523754119873047e+00,-7.874581217765808105e-01,-3.209094703197479248e-01,-6.570049524307250977e-01,-5.207951664924621582e-01,6.282518506050109863e-01,-1.218756914138793945e+00,3.808959960937500000e+00,1.926612496376037598e+00,9.876515269279479980e-01,1.767870187759399414e+00,1.488442897796630859e+00,-2.440855979919433594e+00,1.334046244621276855e+00,-1.667204141616821289e+00,-1.682675838470458984e+00,-1.467749476432800293e+00,1.689148306846618652e+00,-6.349493563175201416e-02,-1.190941214561462402e+00,2.817550182342529297e+00,3.867092609405517578e+00,-5.109376907348632812e+00,-1.486392021179199219e+00,2.913720011711120605e-01,5.853486657142639160e-01,3.144339561462402344e+00,2.001274585723876953e+00,4.389988780021667480e-01,4.201290309429168701e-01,-9.348025321960449219e-01,-7.204045653343200684e-01,-2.104038476943969727e+00,1.069351553916931152e+00,1.339112669229507446e-01,-6.564886093139648438e+00,-9.763613939285278320e-01,-6.715994477272033691e-01,2.002601325511932373e-01,3.255461752414703369e-01,-1.625937521457672119e-01,5.532016754150390625e+00,6.057146787643432617e-01,1.969780087471008301e+00,2.305592536926269531e+00,-2.073771715164184570e+00,5.381700992584228516e-01,2.854619026184082031e+00,-1.279122233390808105e+00,-1.928104877471923828e+00,-1.967250585556030273e+00,-1.785744279623031616e-01,2.498583555221557617e+00,-1.434186100959777832e+00,2.586370468139648438e+00,-3.966223955154418945e+00,-2.239544987678527832e-01,-1.827710419893264771e-01,1.501132845878601074e-01,-6.110225915908813477e-01,-2.827644050121307373e-01,-6.535984277725219727e-01,1.432157754898071289e+00,-8.931667357683181763e-02,-6.122691556811332703e-02,-1.087803721427917480e+00,-7.681112289428710938e-01,-2.767884969711303711e+00,-3.679826557636260986e-01,-1.382049918174743652e+00,2.207418918609619141e+00,5.577447414398193359e-01,1.982944488525390625e+00,2.633022069931030273e-01,1.935815960168838501e-01,-8.662638068199157715e-01,-2.876127958297729492e-01,2.390969753265380859e+00,7.094763755798339844e+00,-3.666954278945922852e+00,4.369467735290527344e+00,5.216807126998901367e-01,1.272765517234802246e+00,-5.855854973196983337e-02,-6.451252102851867676e-01,9.193238615989685059e-02,2.397276639938354492e+00,3.063433170318603516e+00,2.243738889694213867e+00,4.829384088516235352e-01,-3.885265588760375977e+00,-2.401594370603561401e-01,-2.820732831954956055e+00,-2.612443685531616211e+00,-1.930355906486511230e+00,4.830296516418457031e+00,-7.477284409105777740e-03,8.156644701957702637e-01,2.123241901397705078e+00,-1.605217218399047852e+00,7.762275338172912598e-01,5.634437799453735352e-01,2.307132184505462646e-01,1.334470510482788086e-01,1.164442539215087891e+00,-1.551580071449279785e+00,-1.244607120752334595e-01,6.273284554481506348e-02,-1.318613767623901367e+00,-5.755796432495117188e-01,-9.528968334197998047e-01,-1.843216776847839355e+00,-1.586848735809326172e+00,-9.637135267257690430e-01,-1.202589750289916992e+00,-2.929616928100585938e+00,-7.453352808952331543e-01,-2.991124391555786133e+00,4.310886561870574951e-01,-3.035669326782226562e+00,4.540226459503173828e-01,1.534408926963806152e-01,-1.224502682685852051e+00,1.303114652633666992e+00,1.247541069984436035e+00,-1.896824598312377930e+00,1.420531511306762695e+00,-1.514384150505065918e-01,-1.638875246047973633e+00,-2.343613654375076294e-01,5.765473842620849609e-02,5.648331716656684875e-03,-2.077503353357315063e-01,-3.716353416442871094e+00,1.435184836387634277e+00,-1.649659037590026855e+00,-3.122908115386962891e+00,6.062342524528503418e-01,-1.118911877274513245e-01,3.141954839229583740e-01,2.774570882320404053e-01,2.950554847717285156e+00,-6.122167110443115234e-01,-1.212307214736938477e+00,-3.105911254882812500e+00,3.816104829311370850e-01,1.238271474838256836e+00,-1.731775879859924316e+00,-1.098885655403137207e+00,4.980824470520019531e+00,1.815633535385131836e+00,6.596681475639343262e-01,-4.240892887115478516e+00,9.300951659679412842e-02,9.136400818824768066e-01,8.068247437477111816e-01,1.793699741363525391e+00,2.311249017715454102e+00,6.494792103767395020e-01,2.102226734161376953e+00,-2.780143976211547852e+00,3.554477393627166748e-01,-2.068903148174285889e-01,-6.207013130187988281e+00,-5.961601138114929199e-01,1.246640205383300781e+00,5.556551273912191391e-03,-1.549438118934631348e+00,-2.126589298248291016e+00,-8.300269246101379395e-01,2.984114885330200195e+00,1.827580668032169342e-02,2.150035500526428223e-01,-1.064863324165344238e+00,2.871727705001831055e+00,1.632194399833679199e+00,-2.303557157516479492e+00,-4.549591839313507080e-01
-5.554941948503255844e-03,1.661139912903308868e-02,-9.827294945716857910e-02,-9.484042227268218994e-02,-5.601942166686058044e-02,-9.745557606220245361e-02,2.766625769436359406e-02,-6.227237358689308167e-02,8.472484536468982697e-03,5.201967898756265640e-03,-3.404033929109573364e-02,-1.932607404887676239e-02,-1.205467432737350464e-02,7.402445375919342041e-02,-5.748287960886955261e-02,-1.344961822032928467e-01,-5.134561657905578613e-02,4.053186625242233276e-02,-1.171897444874048233e-02,1.900535635650157928e-02,-1.080936938524246216e-02,-7.865958660840988159e-02,-9.843654930591583252e-02,-4.416945576667785645e-02,-8.121124655008316040e-02,-3.236513584852218628e-02,-9.214274585247039795e-02,-1.578633673489093781e-02,-4.716869443655014038e-02,-4.219423979520797729e-02,3.973155841231346130e-02,-1.246631611138582230e-02,-7.470626384019851685e-02,1.778540946543216705e-02,-7.214832585304975510e-03,2.217110432684421539e-02,1.755812391638755798e-02,7.377712521702051163e-03,-8.657213300466537476e-02,-1.516379602253437042e-02,-2.826905809342861176e-02,-1.127292290329933167e-01,-2.536664344370365143e-02,-1.779937930405139923e-02,2.204624237492680550e-03,-9.232516586780548096e-02,-4.856151062995195389e-03,-9.195915609598159790e-02,-1.227997764945030212e-01,-1.887362264096736908e-02,2.201205678284168243e-02,4.498258978128433228e-02,4.449997469782829285e-02,-6.774088740348815918e-02,-4.870725388173013926e-04,-1.467467099428176880e-02,5.280584096908569336e-03,-6.053152307868003845e-02,-8.383090049028396606e-02,-6.241131201386451721e-02,-2.843872457742691040e-02,-3.172528743743896484e-02,1.035652030259370804e-02,-7.464210689067840576e-02,-2.870643511414527893e-03,5.193112418055534363e-03,2.497308887541294098e-02,-1.033774837851524353e-01,-5.643254891037940979e-02,2.380272373557090759e-02,3.895789384841918945e-02,-9.555681049823760986e-02,8.902426809072494507e-03,2.325975708663463593e-02,-2.993493340909481049e-02,1.725483918562531471e-03,-8.005015552043914795e-02,-4.824747890233993530e-02,2.761088311672210693e-02,1.471233670599758625e-03,-3.817979991436004639e-02,-4.788614064455032349e-02,-7.469766587018966675e-02,-4.578265547752380371e-02,-1.142894551157951355e-01,2.563690952956676483e-02,1.753722317516803741e-03,-5.540121346712112427e-02,1.933367177844047546e-02,-1.514759007841348648e-02,-2.156635560095310211e-02,-1.015554517507553101e-01,-4.518564045429229736e-02,-2.635161578655242920e-02,-8.309795521199703217e-03,-8.507627062499523163e-03,-6.955003738403320312e-02,4.814292490482330322e-02,-7.858046144247055054e-02,6.594436243176460266e-03,-4.015486687421798706e-03,-1.928079314529895782e-02,-9.212438017129898071e-02,1.099520083516836166e-02,-5.452616512775421143e-02,1.500128023326396942e-02,-3.554633259773254395e-02,-2.012787573039531708e-02,5.077067296952009201e-03,-4.775599390268325806e-02,-6.928859651088714600e-02,-6.319202017039060593e-03,-2.084518969058990479e-02,1.235831901431083679e-02,-5.665463954210281372e-02,-4.130952060222625732e-02,-6.191176921129226685e-02,5.140770692378282547e-03,-5.013066530227661133e-02,2.461212687194347382e-02,-7.695742696523666382e-02,1.880672789411619306e-04,3.872867301106452942e-02,-6.538762152194976807e-02,-8.342684246599674225e-03,-7.285271584987640381e-02,-6.357349455356597900e-02,-8.721537888050079346e-02,3.769098548218607903e-03,2.216837555170059204e-02,-7.810067385435104370e-02,-3.055103123188018799e-02,-7.439869642257690430e-02,-1.933325547724962234e-03,5.749765411019325256e-02,-5.171472672373056412e-03,-8.012061566114425659e-02,-1.501393388025462627e-03,-3.849690034985542297e-02,-3.692787513136863708e-02,-6.600502878427505493e-02,1.439864374697208405e-02,-9.077411144971847534e-02,2.662687376141548157e-02,-2.362797968089580536e-03,-7.315753400325775146e-02,2.639314392581582069e-03,-5.350648239254951477e-02,-2.337154932320117950e-03,-6.088467687368392944e-02,-7.600443810224533081e-02,-5.121197551488876343e-02,-5.725736171007156372e-02,4.217728972434997559e-02,-3.700168058276176453e-02,4.133019223809242249e-02,-4.299036040902137756e-02,1.355749834328889847e-02,-6.147864088416099548e-02,1.915558241307735443e-02,-7.511815428733825684e-02,-1.584026962518692017e-02,-4.917771369218826294e-02,-4.820618778467178345e-02,-5.569537170231342316e-03,-8.960545808076858521e-02,-1.027456894516944885e-01,2.830375544726848602e-02,-2.505249343812465668e-02,-3.467638045549392700e-02,-1.876454451121389866e-03,-4.742409661412239075e-02,-8.397728204727172852e-02,5.061431322246789932e-03,-5.894900858402252197e-02,2.035504765808582306e-02,4.183352459222078323e-03,7.203681860119104385e-03,-9.038921445608139038e-03,-9.061454981565475464e-02,-6.479003280401229858e-02,7.469013333320617676e-02,2.182605862617492676e-02,-1.420236825942993164e-01,-2.071106620132923126e-02,-2.469074167311191559e-02,-2.987118437886238098e-02,-2.251297980546951294e-02,-1.270695924758911133e-01,-1.116334367543458939e-02,1.568991504609584808e-02,2.734912000596523285e-02,-6.742177158594131470e-02,-8.814047276973724365e-02,-1.561457850039005280e-02,-4.931129515171051025e-02,-7.403615862131118774e-02,-1.034772116690874100e-02,-2.627160400152206421e-03,-3.735301643610000610e-02,2.344256266951560974e-02,1.601556874811649323e-02,2.602096647024154663e-02,-2.310201711952686310e-02,-2.603355795145034790e-02,2.816545963287353516e-02,-3.727704286575317383e-02,-9.764207154512405396e-02,-4.832703620195388794e-02,-7.982075214385986328e-03,-5.154224857687950134e-02,-1.236641407012939453e-02,9.858878329396247864e-03,2.643701247870922089e-02,-4.019631817936897278e-02,-6.458412110805511475e-02,1.001506298780441284e-02,-9.160001575946807861e-02,4.819096066057682037e-03,-2.107409760355949402e-02,-1.440363377332687378e-02,-9.315371513366699219e-02,1.537370868027210236e-02,6.911659240722656250e-02,-5.547292903065681458e-02,9.907639585435390472e-03,-8.231358230113983154e-02,3.828771412372589111e-03,4.271671175956726074e-02,1.283975970000028610e-02,-2.804233320057392120e-02,4.023808613419532776e-02,-2.150900661945343018e-03,3.500644862651824951e-02,9.596022777259349823e-03,-7.621984183788299561e-02,-1.057776063680648804e-02,-2.194227837026119232e-02,-4.700202867388725281e-02,-4.102914407849311829e-02,-5.259854719042778015e-03,-8.502025902271270752e-02,-6.490948051214218140e-02,6.261514965444803238e-03,-4.897072911262512207e-02,3.963799774646759033e-02,-5.522049963474273682e-02,-1.155099868774414062e-01,-1.994704216485843062e-04,-3.897703438997268677e-02,-3.626048564910888672e-04,1.333158090710639954e-02,-5.317521467804908752e-02,-8.509312756359577179e-03,-1.178553029894828796e-01,5.700044333934783936e-02
-7.294317334890365601e-02,-3.385188430547714233e-02,-1.423553079366683960e-01,-1.818896383047103882e-01,-1.552505642175674438e-01,-8.808443695306777954e-02,-1.299003362655639648e-01,1.356402598321437836e-02,-1.030913367867469788e-01,5.876353010535240173e-02,-1.969381421804428101e-01,-8.848523348569869995e-02,-1.360656321048736572e-02,-1.755957603454589844e-01,-1.118432963266968727e-03,-8.589199185371398926e-02,-2.041197568178176880e-01,-1.043171063065528870e-01,-4.451527446508407593e-02,-1.187587380409240723e-01,-5.733985081315040588e-02,1.711637713015079498e-02,-9.501370787620544434e-02,-2.548415586352348328e-02,1.706271059811115265e-02,-1.415248662233352661e-01,-9.871029108762741089e-02,-8.601024001836776733e-02,-4.283689334988594055e-02,-2.597212791442871094e-03,-6.934421509504318237e-02,5.213678628206253052e-02,-2.348404824733734131e-01,-1.008185893297195435e-01,7.380566745996475220e-02,-4.425397515296936035e-02,-3.182540833950042725e-02,-1.051620543003082275e-01,3.784448280930519104e-02,-1.219730526208877563e-01,-1.433959417045116425e-02,9.233529865741729736e-02,-1.637115031480789185e-01,-5.170599371194839478e-02,-6.213936582207679749e-02,-1.546628307551145554e-02,-1.428894549608230591e-01,-1.473086625337600708e-01,-2.471665889024734497e-01,-9.977744519710540771e-02,-4.726466909050941467e-02,1.482107490301132202e-02,-1.477108746767044067e-01,-1.346757709980010986e-01,-8.739409595727920532e-02,-1.268209218978881836e-01,-1.464505046606063843e-01,-4.556079208850860596e-02,-3.884874656796455383e-02,-5.744013190269470215e-02,-2.078181207180023193e-01,-4.821834154427051544e-03,2.007676521316170692e-04,-1.376657038927078247e-01,-2.111751735210418701e-01,-7.367152720689773560e-02,-8.778211474418640137e-02,9.135086089372634888e-03,-4.443644545972347260e-03,-2.839596867561340332e-01,-2.718385681509971619e-02,-1.371222734451293945e-01,-2.711166860535740852e-03,9.023474901914596558e-02,3.776636347174644470e-02,-8.725683391094207764e-02,-3.818144649267196655e-02,-4.185556620359420776e-02,3.851988166570663452e-02,-6.722272187471389771e-02,-4.753648489713668823e-02,-1.354433298110961914e-01,-9.687376022338867188e-02,-1.683236062526702881e-01,-5.137500539422035217e-02,-4.459851980209350586e-02,-1.253905594348907471e-01,-3.910997137427330017e-02,9.874078445136547089e-03,-5.256181582808494568e-02,-3.110190853476524353e-03,-8.381883800029754639e-02,-3.217633813619613647e-02,1.414324343204498291e-02,-1.344271600246429443e-01,2.289553172886371613e-02,-1.707711443305015564e-02,-1.106628552079200745e-01,-7.275813817977905273e-02,-9.871259331703186035e-02,-1.329729110002517700e-01,-6.620629131793975830e-02,-2.822499722242355347e-02,-1.790751516819000244e-02,-5.007073748856782913e-03,-1.677853986620903015e-02,-4.741891473531723022e-02,-1.934020072221755981e-01,-1.211860775947570801e-01,2.851243829354643822e-03,-1.106654182076454163e-01,-4.699428007006645203e-02,-4.338309913873672485e-02,2.212532050907611847e-02,-4.456363990902900696e-02,-1.051151975989341736e-01,-2.446484118700027466e-01,-9.120683372020721436e-02,-1.822127401828765869e-01,3.653515130281448364e-02,3.798069059848785400e-02,3.551192954182624817e-02,-1.804288923740386963e-01,-6.344853341579437256e-02,-1.913867890834808350e-02,-1.894324868917465210e-01,-1.474954653531312943e-02,7.239463180303573608e-02,-4.459181427955627441e-02,-4.856703430414199829e-02,-1.309790834784507751e-02,-6.826942414045333862e-02,-1.246218457818031311e-01,-1.573656685650348663e-02,-3.056701421737670898e-01,-2.059972435235977173e-01,-1.141651123762130737e-01,-1.159600391983985901e-01,-2.000983059406280518e-01,-3.451326787471771240e-01,-3.246663510799407959e-02,-1.555214971303939819e-01,4.696536436676979065e-02,-6.996189802885055542e-02,-1.338763386011123657e-01,-1.679755002260208130e-02,-3.275890275835990906e-02,-8.773857355117797852e-02,-1.359509080648422241e-01,-1.427038162946701050e-01,-4.332064837217330933e-02,-2.267684787511825562e-01,-1.198808550834655762e-01,-3.876304626464843750e-02,-4.005625098943710327e-02,-3.048177994787693024e-02,-1.911646574735641479e-01,3.520940244197845459e-02,3.814034536480903625e-02,4.043253511190414429e-02,-1.336144953966140747e-01,-1.221350505948066711e-01,-1.712026000022888184e-01,-2.516072988510131836e-02,-2.959043160080909729e-02,-1.312896013259887695e-01,-4.993757978081703186e-02,-6.522809714078903198e-02,-1.612213104963302612e-01,-8.822440169751644135e-03,-1.542939841747283936e-01,-1.897780299186706543e-01,-8.575026690959930420e-02,-7.753079291433095932e-03,-2.953673899173736572e-02,-1.383302211761474609e-01,-1.760526746511459351e-01,-9.877661615610122681e-02,-1.223234534263610840e-01,-9.163522720336914062e-02,2.962462045252323151e-02,-1.208310946822166443e-01,-2.497681528329849243e-01,-5.585937947034835815e-02,2.996470592916011810e-02,-2.891024351119995117e-01,4.725961014628410339e-02,-5.967205017805099487e-02,2.139422576874494553e-03,5.543124675750732422e-02,5.037144944071769714e-02,2.153068408370018005e-02,-1.760520190000534058e-01,3.673207014799118042e-02,-7.014624774456024170e-02,-6.230793148279190063e-02,-7.937203347682952881e-02,-1.263694614171981812e-01,-1.743011772632598877e-01,-4.256971552968025208e-02,-6.022405624389648438e-02,7.924723625183105469e-02,-1.169254034757614136e-01,-6.285725533962249756e-02,-2.943918108940124512e-02,7.975278794765472412e-02,-1.168205887079238892e-01,-1.205015182495117188e-01,-4.896815121173858643e-02,1.724033057689666748e-02,-1.788802146911621094e-01,-4.208467900753021240e-02,5.368847772479057312e-02,-9.992882609367370605e-03,-2.368975430727005005e-01,-6.552410125732421875e-02,-2.480334229767322540e-02,8.393672108650207520e-02,-2.060188353061676025e-02,-1.357606332749128342e-02,-1.357622742652893066e-01,3.676230087876319885e-02,-2.282772809267044067e-01,-1.835185438394546509e-01,-1.511084288358688354e-01,-5.531975999474525452e-02,-1.486351937055587769e-01,5.070594698190689087e-02,-8.865418285131454468e-02,-7.705178111791610718e-02,-1.801499873399734497e-01,-3.725569322705268860e-02,4.027206450700759888e-02,-1.036171615123748779e-01,-2.065686695277690887e-02,5.060940608382225037e-02,6.439358927309513092e-03,-6.138447299599647522e-02,-1.769472062587738037e-01,-9.518851526081562042e-03,-5.947127938270568848e-03,-5.618854612112045288e-02,-1.204398423433303833e-01,-1.470848321914672852e-01,3.999672830104827881e-02,7.384249009191989899e-03,-3.949370235204696655e-02,-2.009571641683578491e-01,-4.764681309461593628e-02,-2.414965629577636719e-02,-1.094178855419158936e-01,-3.722677379846572876e-02,-1.931554228067398071e-01,5.974371917545795441e-03,-8.543202280998229980e-02,-6.220573186874389648e-02
-2.148477137088775635e-01,7.824118435382843018e-02,3.866165578365325928e-01,-7.827541232109069824e-02,-1.023191213607788086e+00,-2.178819894790649414e+00,-6.982952356338500977e-01,-7.601311802864074707e-02,-3.033830523490905762e-01,-4.349333345890045166e-01,-2.605118751525878906e+00,-3.303444981575012207e-01,-4.657764360308647156e-02,-1.501247763633728027e+00,5.619047582149505615e-02,-2.400296032428741455e-01,-1.283633708953857422e+00,9.109454154968261719e-01,-5.292353630065917969e-01,-2.014600783586502075e-01,-2.753330767154693604e-01,-1.267977237701416016e+00,-6.564730405807495117e-01,-6.221671700477600098e-01,-6.216293573379516602e-01,1.667307376861572266e+00,2.697025239467620850e-02,2.107032090425491333e-01,6.521646380424499512e-01,-9.366048872470855713e-02,-1.192785859107971191e+00,-6.408924460411071777e-01,8.141966462135314941e-01,-3.095830678939819336e-01,3.293829970061779022e-03,-3.006595373153686523e-02,-3.135303556919097900e-01,1.727702260017395020e+00,-1.910339593887329102e-01,-1.816327691078186035e+00,1.779475063085556030e-01,3.023175299167633057e-01,-3.807200789451599121e-01,1.839643269777297974e-01,-8.548545241355895996e-01,-7.842828631401062012e-01,-1.738756537437438965e+00,4.311016201972961426e-01,-2.652624607086181641e+00,7.734301090240478516e-01,1.027442142367362976e-01,-1.842272430658340454e-01,-1.094094991683959961e+00,4.939351975917816162e-01,-1.225372105836868286e-01,1.365476250648498535e-01,-2.912822663784027100e-01,7.362754344940185547e-01,4.531539082527160645e-01,-1.165142655372619629e+00,-9.149853140115737915e-03,2.902025915682315826e-02,-1.327499389648437500e+00,-9.290451407432556152e-01,2.348174154758453369e-01,-6.829784251749515533e-03,-2.981931269168853760e-01,-4.750652611255645752e-01,-1.076121568679809570e+00,-4.075572490692138672e-01,-3.388874292373657227e+00,-7.075347900390625000e-01,-4.634533822536468506e-01,8.673384189605712891e-01,-4.996068477630615234e-01,-6.014272570610046387e-01,2.460909634828567505e-01,9.048410505056381226e-02,1.899321191012859344e-02,-1.507739543914794922e+00,-2.983658015727996826e-02,-1.070200324058532715e+00,-4.419814348220825195e-01,1.751269698143005371e+00,-3.400043547153472900e-01,-1.816733181476593018e-02,-1.935471296310424805e+00,-7.739204764366149902e-01,-7.192658185958862305e-01,1.893956959247589111e-02,-8.424940109252929688e-01,-1.487056255340576172e+00,-1.164733529090881348e+00,-2.750117182731628418e-01,1.230903625488281250e+00,1.965481787919998169e-01,-1.447905153036117554e-01,-1.148744225502014160e-01,-4.922101795673370361e-01,1.887436211109161377e-01,3.019590377807617188e-01,-1.245821595191955566e+00,-9.435045123100280762e-01,-3.467345833778381348e-01,1.433341484516859055e-02,-1.227744698524475098e+00,-7.068855762481689453e-01,2.338825464248657227e+00,-3.740588724613189697e-01,-4.501305520534515381e-01,1.065928414463996887e-01,-2.711486220359802246e-01,-2.548255026340484619e-01,4.419033229351043701e-01,-1.283191084861755371e+00,9.217978268861770630e-02,-2.522890269756317139e-01,-8.006183803081512451e-02,-1.188449859619140625e-01,-6.091191172599792480e-01,3.009668886661529541e-01,-4.987148642539978027e-01,1.548608303070068359e+00,-1.171117782592773438e+00,-3.256887793540954590e-01,-1.403779983520507812e+00,1.714071184396743774e-01,-1.500153899192810059e+00,2.561511397361755371e-01,1.012726664543151855e+00,-3.272373974323272705e-01,-8.740436434745788574e-01,-9.022338986396789551e-01,-1.167581319808959961e+00,-1.195471763610839844e+00,-1.669614791870117188e+00,1.410016119480133057e-01,-1.517509818077087402e-01,-1.703814864158630371e+00,-9.334461688995361328e-01,7.713242769241333008e-01,-9.157726764678955078e-01,-2.212374687194824219e+00,-8.258361816406250000e-01,2.898117993026971817e-03,-1.104190945625305176e+00,-1.847241997718811035e+00,4.061243832111358643e-01,-7.319422364234924316e-01,-1.565542101860046387e+00,-7.895720601081848145e-01,-2.503024101257324219e+00,3.720835745334625244e-01,4.757914692163467407e-02,4.074089825153350830e-01,1.041511297225952148e+00,-1.164962172508239746e+00,-1.107197284698486328e+00,1.231758594512939453e+00,-5.321426987648010254e-01,-5.488342046737670898e-01,7.376561760902404785e-01,-1.612457275390625000e+00,3.367344290018081665e-02,1.288786828517913818e-01,-1.314041972160339355e+00,-5.741717219352722168e-01,-9.774371981620788574e-02,3.050692677497863770e-01,-3.929653167724609375e-01,-1.884765028953552246e+00,-1.653439164161682129e+00,9.544377326965332031e-01,-2.505143284797668457e-01,2.057321369647979736e-02,-1.160614728927612305e+00,-1.160983324050903320e+00,-1.651714324951171875e+00,-2.068371921777725220e-01,-1.188280344009399414e+00,-9.137915968894958496e-01,-1.565716564655303955e-01,-5.099329724907875061e-02,1.214480216731317341e-04,-8.253785967826843262e-01,5.084778070449829102e-01,-9.014734625816345215e-02,3.895178809762001038e-02,3.092814385890960693e-01,8.334063887596130371e-01,-6.479980945587158203e-01,6.265872716903686523e-01,-1.723444223403930664e+00,-1.858558058738708496e+00,2.305343627929687500e+00,-5.656597018241882324e-01,4.062208831310272217e-01,7.504245042800903320e-01,-4.086733758449554443e-01,-1.938114285469055176e+00,3.241800367832183838e-01,-5.410962700843811035e-01,9.259995073080062866e-02,9.335287213325500488e-01,-1.745530247688293457e+00,-2.143247604370117188e+00,1.504410952329635620e-01,-5.447240471839904785e-01,-5.474917590618133545e-02,-2.455893158912658691e-02,1.561582740396261215e-02,-4.635652005672454834e-01,9.713705629110336304e-02,1.585688948631286621e+00,4.581314623355865479e-01,3.453136682510375977e-01,-5.325923562049865723e-01,-1.848231852054595947e-01,-1.373158812522888184e+00,-1.626425027847290039e+00,3.855209797620773315e-02,-3.427039980888366699e-01,-1.205843925476074219e+00,-1.949202299118041992e+00,-8.397973179817199707e-01,1.249452114105224609e+00,1.426060684025287628e-03,1.278361201286315918e+00,7.771567106246948242e-01,-5.554956197738647461e-01,-1.649428248405456543e+00,4.192231595516204834e-01,1.223656654357910156e+00,-1.325390696525573730e+00,-6.482622027397155762e-01,5.365934595465660095e-02,9.608935713768005371e-01,-4.709732532501220703e-01,8.008565306663513184e-01,-2.903485298156738281e-01,-8.803313225507736206e-02,-1.738335788249969482e-01,6.848740577697753906e-01,-2.678160965442657471e-01,8.283373713493347168e-02,-1.073293504305183887e-03,-3.512768149375915527e-01,1.141494631767272949e+00,1.338955760002136230e+00,4.460965842008590698e-02,-5.939362198114395142e-02,-1.377632141113281250e+00,3.002604469656944275e-02,6.473334878683090210e-02,-2.370559453964233398e+00,-9.405763149261474609e-01
1.825366377830505371e+00,-4.218494296073913574e-01,-1.610900878906250000e+00,-7.818736135959625244e-02,-2.111818552017211914e+00,-3.754569888114929199e-01,-1.358869910240173340e+00,-5.516486167907714844e-01,-1.275985121726989746e+00,1.861609339714050293e+00,9.971745610237121582e-01,1.666467547416687012e+00,1.643619060516357422e+00,-5.788831710815429688e-01,-1.492507815361022949e+00,-2.054556272923946381e-02,-1.137332558631896973e+00,-3.860117793083190918e-01,1.832626700401306152e+00,-1.559153676033020020e+00,8.306584954261779785e-01,-7.014146447181701660e-01,4.790551066398620605e-01,-9.186406731605529785e-01,9.876524806022644043e-01,9.831221699714660645e-01,-7.946400642395019531e-01,-3.389980196952819824e-01,-6.266806125640869141e+00,-3.203744649887084961e+00,9.397131800651550293e-01,-4.481828808784484863e-01,-1.191697835922241211e+00,-3.390977382659912109e+00,-6.972522735595703125e-01,2.753912806510925293e-01,-2.188903570175170898e+00,1.080597043037414551e+00,7.557085156440734863e-01,-4.022939130663871765e-02,6.222857832908630371e-01,-2.378256320953369141e+00,-5.542895793914794922e-01,-1.105033278465270996e+00,-1.544752597808837891e+00,-2.527951478958129883e+00,2.365206718444824219e+00,-7.479313850402832031e+00,-7.192995548248291016e-01,1.498564004898071289e+00,4.234308898448944092e-01,1.240312576293945312e+00,1.727814435958862305e+00,-3.421630382537841797e+00,-1.443887472152709961e+00,-5.049947500228881836e-01,5.881153941154479980e-01,3.797359466552734375e-01,1.073122978210449219e+00,1.125181794166564941e+00,2.815237998962402344e+00,1.095523595809936523e+00,9.119769334793090820e-01,1.985801607370376587e-01,-2.653326511383056641e+00,-6.938964724540710449e-01,-2.927803039550781250e+00,2.458544015884399414e+00,9.955516457557678223e-02,2.934475243091583252e-01,-8.938446044921875000e-01,-4.476656317710876465e-01,-2.478445053100585938e+00,-1.595675230026245117e+00,5.887467265129089355e-01,2.517363548278808594e+00,1.526155471801757812e+00,2.564242295920848846e-02,7.404391169548034668e-01,-7.116762995719909668e-01,-6.893373280763626099e-02,2.084892034530639648e+00,1.785109639167785645e+00,9.568425416946411133e-01,-1.122935652732849121e+00,1.803230643272399902e-01,-1.415147185325622559e-01,-8.604099154472351074e-01,-1.361836433410644531e+00,-5.117889642715454102e-01,-1.773992627859115601e-01,-9.439569711685180664e-02,-8.912716805934906006e-02,5.458674952387809753e-02,-1.542946457862854004e+00,2.201345443725585938e+00,-3.544233083724975586e+00,-8.035891652107238770e-01,-4.641392707824707031e+00,-1.866807222366333008e+00,-7.990860342979431152e-01,-5.107942223548889160e-01,-2.161157608032226562e+00,7.513297200202941895e-01,3.718265891075134277e-01,5.353027582168579102e-01,-1.642056941986083984e+00,-6.307368874549865723e-01,1.403153896331787109e+00,1.315827131271362305e+00,1.275703549385070801e+00,-1.849352598190307617e+00,1.451387763023376465e+00,-1.624655961990356445e+00,-6.616662740707397461e-01,-5.343473553657531738e-01,-2.074574708938598633e+00,-1.103184342384338379e+00,-3.269338309764862061e-01,1.541227698326110840e+00,-2.395683050155639648e+00,-4.290375113487243652e-01,7.147713899612426758e-01,-4.743939876556396484e+00,-6.993472576141357422e-01,-5.943453311920166016e-01,-1.474858522415161133e+00,1.109805941581726074e+00,-3.802658319473266602e-01,6.742052435874938965e-01,1.047953218221664429e-01,-1.319707632064819336e+00,1.869280338287353516e-01,-2.504429779946804047e-02,1.706258535385131836e+00,-6.357233226299285889e-02,4.831876456737518311e-01,-2.841208279132843018e-01,-2.386855602264404297e+00,-5.976323127746582031e+00,-1.297143936157226562e+00,-1.728384971618652344e+00,-1.513468503952026367e+00,-2.861847400665283203e+00,-3.818299174308776855e-01,-5.145043134689331055e-01,-1.143787279725074768e-01,3.404952287673950195e+00,2.512937545776367188e+00,-3.809702098369598389e-01,4.453562498092651367e-01,-1.372453331947326660e+00,7.350403666496276855e-01,1.438433170318603516e+00,-4.422315359115600586e-01,2.415932714939117432e-01,-3.344132006168365479e-01,1.177359700202941895e+00,-5.961059927940368652e-01,-9.958568215370178223e-01,1.305971384048461914e+00,-1.151418089866638184e+00,-3.208546400070190430e+00,1.311345338821411133e+00,1.728302240371704102e+00,-2.151238918304443359e+00,3.863080739974975586e+00,6.747515201568603516e-01,1.170690178871154785e+00,8.440943956375122070e-01,-1.367572396993637085e-01,-3.008852243423461914e+00,-1.428067684173583984e-01,-2.520283460617065430e+00,-1.436068862676620483e-02,-1.097153782844543457e+00,6.174906492233276367e-01,2.239271998405456543e-01,-2.817150831222534180e+00,2.120355367660522461e+00,-1.040797829627990723e+00,-1.634726047515869141e+00,-9.923414885997772217e-02,2.089347600936889648e+00,-1.739770531654357910e+00,1.679257035255432129e+00,2.016034603118896484e+00,3.487990796566009521e-01,5.691599845886230469e-01,-1.087015196681022644e-01,1.967244863510131836e+00,-9.978256374597549438e-02,5.579476356506347656e-01,-3.516649305820465088e-01,1.903702497482299805e+00,7.931874394416809082e-01,-5.205970406532287598e-01,-1.229402422904968262e+00,-2.902620792388916016e+00,7.106472849845886230e-01,-1.891469717025756836e+00,9.347189068794250488e-01,-2.493649244308471680e+00,1.631854295730590820e+00,2.074636697769165039e+00,2.610070705413818359e-01,-7.278894782066345215e-01,6.177886724472045898e-01,-3.437762707471847534e-02,7.086262106895446777e-03,3.030290007591247559e-01,7.986481189727783203e-01,-1.835974007844924927e-01,9.760764241218566895e-01,-2.400554180145263672e+00,2.456520080566406250e+00,-2.553120255470275879e-02,-1.750310301780700684e+00,-1.129685282707214355e+00,-1.472798109054565430e+00,-6.508603096008300781e-01,-7.078115642070770264e-02,1.025686621665954590e+00,-1.674717068672180176e-01,7.609561681747436523e-01,1.702366173267364502e-01,1.590604633092880249e-01,1.395104169845581055e+00,4.411619007587432861e-01,-2.615418732166290283e-01,-2.005412578582763672e-01,1.690138280391693115e-01,-1.573395967483520508e+00,-3.271595016121864319e-02,-7.276222705841064453e-01,2.573149800300598145e-01,1.763711810111999512e+00,-1.676460653543472290e-01,-2.159418821334838867e+00,-7.393535375595092773e-01,-1.904637336730957031e+00,9.326015710830688477e-01,2.676161527633666992e-01,-1.896905303001403809e-01,2.526409924030303955e-03,-1.635491847991943359e+00,-1.511485099792480469e+00,2.638205528259277344e+00,1.944025516510009766e+00,-2.821640856564044952e-02,1.631610989570617676e+00,7.157456874847412109e-01,-2.258935689926147461e+00,6.644117236137390137e-01,-3.622910678386688232e-01,-5.798124670982360840e-01
5.923197790980339050e-02,-2.441366761922836304e-02,3.120352514088153839e-02,-2.785836532711982727e-02,3.301628679037094116e-02,-1.703255251049995422e-02,-5.484864860773086548e-02,3.277795761823654175e-02,-4.848029091954231262e-02,7.662820164114236832e-03,-5.753640457987785339e-02,-2.205641008913516998e-02,4.625911265611648560e-02,-5.447213351726531982e-02,-2.891222387552261353e-02,2.426088973879814148e-02,2.572803292423486710e-03,-1.835861243307590485e-02,-6.068825349211692810e-02,-4.072502627968788147e-02,-4.117637127637863159e-02,-2.979436516761779785e-02,-3.530993312597274780e-02,2.631366625428199768e-02,-1.046072915196418762e-01,-4.049688577651977539e-04,-1.942427456378936768e-02,-6.881853193044662476e-02,8.214204717660322785e-05,-5.361378937959671021e-02,-6.695760041475296021e-02,-1.166575960814952850e-02,2.862366847693920135e-02,-5.330029875040054321e-02,-6.666961312294006348e-02,-5.846368521451950073e-02,-2.655018866062164307e-02,-1.114048063755035400e-02,3.386943787336349487e-02,-8.825822174549102783e-02,1.146840304136276245e-02,2.385928295552730560e-02,-2.790928259491920471e-02,4.670327529311180115e-02,-2.601592987775802612e-02,-2.947889640927314758e-02,-2.428933419287204742e-02,-7.204818725585937500e-02,-2.567644044756889343e-02,5.194002762436866760e-02,5.551891773939132690e-02,6.243200600147247314e-02,-2.391625754535198212e-02,-2.801334485411643982e-02,1.333058229647576809e-03,-7.312744110822677612e-02,-5.510754138231277466e-02,-2.250598743557929993e-02,-1.977244205772876740e-02,-4.787994921207427979e-02,-2.337430305487941951e-05,8.271587081253528595e-03,2.501181699335575104e-02,-6.362631171941757202e-02,2.086292393505573273e-02,6.757110822945833206e-03,2.005431801080703735e-02,-6.079704686999320984e-02,-6.899516284465789795e-02,-5.810903012752532959e-02,2.074762806296348572e-02,1.046358328312635422e-02,-1.172267179936170578e-02,-5.539089068770408630e-02,-6.820973753929138184e-02,-2.187271974980831146e-02,-6.897512823343276978e-02,4.735007137060165405e-02,4.396228492259979248e-02,-3.412690386176109314e-02,-4.566128551959991455e-02,7.863594219088554382e-03,-1.197714637964963913e-02,-1.577616482973098755e-02,-9.799933433532714844e-02,-4.232188686728477478e-02,-3.210803493857383728e-02,2.859831042587757111e-02,-7.395821064710617065e-02,-8.953399956226348877e-03,-7.246793061494827271e-02,-2.935528755187988281e-02,-9.165769815444946289e-02,-4.482142627239227295e-02,-3.394961729645729065e-02,-2.972288348246365786e-04,1.824721693992614746e-02,-2.629290521144866943e-02,3.381400927901268005e-02,-1.961175352334976196e-02,-4.721910506486892700e-02,-2.313288673758506775e-02,-1.062229461967945099e-02,6.224822252988815308e-03,3.404259681701660156e-02,3.098192624747753143e-02,-8.003914728760719299e-03,4.863018169999122620e-03,1.826477382564917207e-04,-5.512268841266632080e-02,-1.319644600152969360e-02,4.203758016228675842e-02,2.122663520276546478e-02,-4.840794578194618225e-02,2.234864979982376099e-02,2.885805815458297729e-02,4.569431021809577942e-02,-2.797875553369522095e-02,2.578012645244598389e-02,-5.253429710865020752e-02,-6.173145025968551636e-02,-8.341034874320030212e-03,2.250714041292667389e-02,1.586950384080410004e-02,-5.820145830512046814e-02,-7.209940999746322632e-02,1.882719993591308594e-02,-1.160655636340379715e-02,-1.745579019188880920e-02,5.500867962837219238e-02,3.094164095818996429e-02,-5.456862226128578186e-02,2.869519172236323357e-03,-9.606402367353439331e-02,-1.970798522233963013e-02,-1.183013804256916046e-02,4.310990497469902039e-02,-2.335041575133800507e-02,2.367704547941684723e-02,-6.894683837890625000e-02,-4.676035046577453613e-02,2.137420326471328735e-02,5.765029229223728180e-03,4.742004722356796265e-02,-3.762344270944595337e-02,3.691598400473594666e-02,-2.925270795822143555e-02,-7.114040851593017578e-02,-6.950888037681579590e-02,2.149554342031478882e-02,-5.309500545263290405e-02,-5.844645574688911438e-02,-4.145344719290733337e-02,-6.344909965991973877e-02,-6.501186639070510864e-02,5.642873235046863556e-03,-5.150040984153747559e-02,7.453871425241231918e-03,1.225589588284492493e-02,-1.581527478992938995e-02,-4.227096587419509888e-02,2.963436208665370941e-02,2.379512041807174683e-02,2.733969688415527344e-02,-2.951395511627197266e-02,2.073000743985176086e-02,-4.701803624629974365e-02,4.530850052833557129e-02,-4.988945648074150085e-02,1.659869588911533356e-02,-9.287546575069427490e-02,3.640334587544202805e-03,-4.704941809177398682e-02,1.095252018421888351e-02,-3.777918964624404907e-02,-7.299005985260009766e-02,-2.400109358131885529e-02,-6.005203351378440857e-02,2.262757904827594757e-02,-2.399386465549468994e-02,-1.284327078610658646e-02,-4.886715486645698547e-02,2.850286848843097687e-02,-2.778824977576732635e-02,-5.226581916213035583e-02,-4.046142101287841797e-02,-4.094206914305686951e-02,3.554377332329750061e-02,-9.047309868037700653e-03,2.601519040763378143e-02,4.987848550081253052e-02,4.754284024238586426e-02,-1.660473830997943878e-02,1.700453646481037140e-02,-1.411678269505500793e-02,-3.858634829521179199e-02,2.668659575283527374e-02,2.726981975138187408e-02,-1.343393232673406601e-02,-1.028435304760932922e-02,1.532221771776676178e-02,3.748282045125961304e-02,4.091342561878263950e-04,-9.800785034894943237e-02,3.336434438824653625e-02,4.377043247222900391e-02,5.345189571380615234e-02,-5.640062689781188965e-02,2.400895208120346069e-02,-1.522386819124221802e-02,-2.295313775539398193e-02,-4.112742096185684204e-02,-5.478817969560623169e-02,1.375412940979003906e-02,-4.908329993486404419e-02,-9.770511649549007416e-03,-1.664558798074722290e-02,-5.265075713396072388e-02,-6.760408729314804077e-02,-4.242914915084838867e-02,-4.854675754904747009e-02,-4.865482449531555176e-02,4.451004415750503540e-02,4.665527865290641785e-02,-5.697736516594886780e-02,-3.113608993589878082e-02,3.058326244354248047e-02,-1.544460654258728027e-03,1.289488561451435089e-02,-7.983215153217315674e-02,-5.981394648551940918e-02,-2.754568308591842651e-02,3.463576734066009521e-02,-1.700093597173690796e-02,-7.500825077295303345e-02,-4.557817056775093079e-02,6.692625582218170166e-03,-6.104919314384460449e-02,-5.610777530819177628e-03,5.962553899735212326e-03,-3.810416534543037415e-02,-5.034201592206954956e-02,-2.907997928559780121e-02,1.754742674529552460e-02,1.093630492687225342e-02,2.078574895858764648e-02,5.989853292703628540e-02,2.779301442205905914e-02,-3.669365076348185539e-03,4.958478361368179321e-02,-6.146580725908279419e-02,1.275038626044988632e-02,3.321382775902748108e-02,6.435254588723182678e-03,3.205952048301696777e-02,1.524659153074026108e-02
