4.017421975731849670e-02,-3.407359123229980469e-02,-2.610095143318176270e-01,-1.648283362388610840e+00,4.109837859869003296e-02,-1.414207935333251953e+00,-2.235566079616546631e-02,-1.182874548248946667e-03,-2.035981178283691406e+00,6.271564364433288574e-01,-3.386019915342330933e-02,-1.640982031822204590e-01,-8.231579065322875977e-01,4.108771383762359619e-01,3.000053018331527710e-02,5.331814885139465332e-01,-3.442453220486640930e-02,1.769992411136627197e-01,-6.375282537192106247e-03,-5.019731447100639343e-02,-5.574859380722045898e-01,-1.113531440496444702e-01,-8.628728240728378296e-02,-3.653028607368469238e-02,9.088171645998954773e-03,-3.702598810195922852e-02,-5.013441443443298340e-01,2.410128712654113770e-01,3.635620698332786560e-02,5.694501567631959915e-03,-1.276652049273252487e-02,-2.746776863932609558e-02,4.597680270671844482e-02,1.347477268427610397e-02,-2.461045980453491211e-03,-4.187883436679840088e-02,-6.655959039926528931e-02,4.673928767442703247e-02,1.522471755743026733e-01,7.512026280164718628e-02,-4.160054400563240051e-02,-1.791335642337799072e-02,-4.215164482593536377e-01,2.162358909845352173e-02,-1.847572438418865204e-02,5.309963971376419067e-02,-5.686369165778160095e-02,-1.611469686031341553e-02,-7.620412111282348633e-01,-1.825495436787605286e-02,-3.738775104284286499e-02,-1.957082748413085938e-02,-6.461159884929656982e-02,4.913244023919105530e-02,3.256471157073974609e-01,-5.249643921852111816e-01,1.728647947311401367e-02,-9.232594966888427734e-01,-5.269178748130798340e-01,-5.328667908906936646e-02,-2.312916517257690430e-02,-3.133906424045562744e-02,-2.658745646476745605e-02,5.112375691533088684e-02,-1.335116267204284668e+00,2.752168104052543640e-02,4.598503466695547104e-03,-5.551509857177734375e-01,-1.739368796348571777e+00,-5.634286999702453613e-01,1.169886440038681030e-02,-4.647942632436752319e-02,-1.725570671260356903e-02,-3.430145233869552612e-02,-6.493737548589706421e-02,2.355900406837463379e-02,5.155784636735916138e-02,1.325577497482299805e+00,3.905575256794691086e-03,-1.567818075418472290e-01,1.427108287811279297e+00,-4.508304223418235779e-02,-3.988015651702880859e-02,-4.726137220859527588e-02,-3.759475797414779663e-02,3.699835622683167458e-03,8.045787215232849121e-01,5.307164043188095093e-02,-2.265220135450363159e-02,-1.775545328855514526e-01,-1.300215441733598709e-02,3.834454417228698730e-01,-6.045188903808593750e-01,-1.400396041572093964e-02,-2.640274725854396820e-02,-4.468442499637603760e-02,-1.906009018421173096e-01,1.764637231826782227e-02,4.053561016917228699e-02,1.224736124277114868e-02,-2.475074678659439087e-02,3.358720839023590088e-01,5.947763472795486450e-02,6.209739297628402710e-02,4.328651353716850281e-02,4.766815304756164551e-01,6.397509574890136719e-02,1.562306284904479980e-02,-1.174153480678796768e-02,-5.626300349831581116e-02,-2.296572178602218628e-02,-1.126303710043430328e-02,-3.617903683334589005e-03,-3.352323919534683228e-02,-5.299453437328338623e-02,3.609795123338699341e-02,4.318486899137496948e-02,-4.481010138988494873e-01,-7.680714875459671021e-02,9.227916598320007324e-03,-2.032983489334583282e-02,-5.610907077789306641e-02,-9.057701230049133301e-01,-5.439402908086776733e-02,-1.042657345533370972e-01,-4.504788815975189209e-01,5.023271217942237854e-02,8.853725343942642212e-02,-4.285768605768680573e-03,-5.934862047433853149e-02,7.168001681566238403e-02,-4.379792883992195129e-02,-2.569437921047210693e-01,1.145057473331689835e-02,-3.493343666195869446e-02,-1.755258999764919281e-02,1.073123216629028320e-01,5.354456603527069092e-02,-7.719408869743347168e-01,9.145081043243408203e-03,-1.951627731323242188e+00,1.562135338783264160e+00,-1.989724487066268921e-01,-3.180459514260292053e-02,2.187187969684600830e-02,1.633389145135879517e-01,-4.226661920547485352e-01,-4.323281943798065186e-01,-4.775942862033843994e-01,3.833362162113189697e-01,-2.858293950557708740e-01,1.755490154027938843e-02,-4.544866736978292465e-03,3.435134142637252808e-02,-9.277388453483581543e-03,-2.172821760177612305e-02,2.298980951309204102e-03,4.030517116189002991e-02,-4.762006551027297974e-02,-5.928935483098030090e-02,4.496244192123413086e-01,3.039313852787017822e-02,1.891207695007324219e-02,8.314312100410461426e-01,1.155920233577489853e-02,4.710532724857330322e-01,-6.442791968584060669e-02,5.338984131813049316e-01,-4.779479652643203735e-02,2.272940054535865784e-02,-1.686313897371292114e-01,1.215611957013607025e-02,-2.133193016052246094e+00,-6.893668770790100098e-01,4.133024066686630249e-02,-1.087591145187616348e-02,4.483481869101524353e-02,2.411617338657379150e-02,1.205093711614608765e-01,-4.564320296049118042e-02,-3.677409514784812927e-02,-1.266081333160400391e-01,6.950244307518005371e-03,5.164934694766998291e-02,-1.632840782403945923e-01,4.516077786684036255e-02,9.349861145019531250e-01,7.644556462764739990e-03,2.206324040889739990e-02,5.135216936469078064e-02,-8.903014659881591797e-01,1.174370944499969482e-02,4.794558510184288025e-03,5.569906905293464661e-02,-9.660325199365615845e-02,-4.474629834294319153e-02,-4.487509429454803467e-01,-5.250899121165275574e-02,-1.220657467842102051e+00,3.622639551758766174e-02,-1.100235223770141602e+00,2.036268077790737152e-02,-2.407504558563232422e+00,-2.691662907600402832e-01,-4.854675382375717163e-02,9.597587585449218750e-02,-4.051096141338348389e-01,2.508478239178657532e-03,-1.896189898252487183e-02,-4.070323705673217773e-02,-3.855046629905700684e-01,-5.021032691001892090e-01,-4.352070018649101257e-02,-3.288641571998596191e-01,1.015500258654356003e-02,-3.177450895309448242e-01,2.855009958148002625e-02,-2.215067483484745026e-02,3.630732744932174683e-02,-5.646347999572753906e-01,1.888617515563964844e+00,-6.689314246177673340e-01,-5.172922015190124512e-01,1.784678459167480469e+00,1.702647656202316284e-02,-3.192860633134841919e-02,3.029760345816612244e-02,-3.824554011225700378e-02,9.955238550901412964e-03,-5.510905385017395020e-01,-2.350596785545349121e-01,-4.513807222247123718e-02,1.307989656925201416e-02,-9.459374123252928257e-04,-1.309247493743896484e+00,-4.741529524326324463e-01,2.952847257256507874e-02,-3.539321422576904297e-01,-3.724490478634834290e-02,-4.102383740246295929e-03,1.880969852209091187e-02,-5.141146481037139893e-02,3.534144908189773560e-02,1.307534333318471909e-02,-1.197187304496765137e+00,-1.173462625592947006e-02,2.936799824237823486e-02,-7.282368838787078857e-03,3.374579921364784241e-02,-1.036211133003234863e+00,5.428490042686462402e-01,5.738800391554832458e-02,-5.069559812545776367e-02,1.352705806493759155e-02,-1.401979103684425354e-02,2.133145462721586227e-03
5.594367161393165588e-03,3.717603906989097595e-02,-2.620198726654052734e+00,-2.450510978698730469e+00,-4.641211777925491333e-02,-5.650095939636230469e-01,2.621950348839163780e-03,-1.151817589998245239e-01,-1.478849053382873535e+00,-6.117269039154052734e+00,1.420438406057655811e-03,-1.011733412742614746e-01,-7.015639543533325195e-01,-1.391801953315734863e+00,9.637182578444480896e-03,3.923347592353820801e-01,-1.049392949789762497e-02,2.238713502883911133e-01,-2.886505365371704102e+00,-7.368246316909790039e-01,-5.767614021897315979e-02,-2.601615898311138153e-02,4.439935833215713501e-02,-2.646179124712944031e-02,3.622160991653800011e-03,-1.073107123374938965e-02,7.694689035415649414e-01,-4.217357039451599121e-01,-5.612877383828163147e-02,-2.065902471542358398e+00,4.663977771997451782e-03,-7.956929504871368408e-02,-1.382721355184912682e-03,1.464094500988721848e-02,2.449333854019641876e-02,5.805356800556182861e-02,-8.095760345458984375e-01,-1.440551877021789551e-02,-3.383754789829254150e-01,-1.762148924171924591e-02,2.295067766681313515e-03,2.165476605296134949e-02,8.465229868888854980e-01,-1.003881171345710754e-02,-1.670836843550205231e-02,4.268257878720760345e-03,3.338415920734405518e-02,-2.522259205579757690e-02,-1.141782879829406738e+00,3.539351746439933777e-03,1.292195171117782593e-02,-6.723345816135406494e-02,1.388715207576751709e-02,-1.704000309109687805e-02,-5.379127860069274902e-01,-8.110637068748474121e-01,2.314955554902553558e-02,1.789066642522811890e-01,-2.499249935150146484e+00,2.400025492534041405e-03,-3.799315541982650757e-02,6.813183426856994629e-03,-8.302510716021060944e-03,-2.222117781639099121e-02,-9.259224534034729004e-01,-1.044815406203269958e-02,-5.265970155596733093e-02,-1.735493540763854980e+00,-2.546943426132202148e+00,-2.375589132308959961e+00,1.571175083518028259e-02,6.266487240791320801e-01,-4.207605030387639999e-03,-1.850771345198154449e-02,2.474243566393852234e-02,-2.610919997096061707e-02,-1.577077433466911316e-02,-3.831281885504722595e-02,5.293225497007369995e-02,-6.136225461959838867e-01,-4.276176989078521729e-01,-4.995507188141345978e-03,1.277133226394653320e-01,2.190672606229782104e-02,1.456427387893199921e-03,-9.584750235080718994e-02,-1.301327824592590332e+00,-7.438801974058151245e-02,4.031386971473693848e-02,3.149944171309471130e-02,-4.325199127197265625e-02,-2.024739980697631836e+00,-3.220128059387207031e+00,-3.050574474036693573e-02,3.630532324314117432e-02,-4.323175549507141113e-02,1.130880236625671387e+00,-2.867192402482032776e-02,1.726235076785087585e-02,9.152131155133247375e-03,4.101248383522033691e-01,-1.164721846580505371e+00,-3.705916181206703186e-02,2.081466652452945709e-02,-4.445919767022132874e-02,-1.179013252258300781e+00,-3.471955657005310059e-02,1.053672097623348236e-02,1.447077468037605286e-02,6.552719324827194214e-02,8.555104956030845642e-03,6.874859333038330078e-02,4.290440306067466736e-02,3.571408241987228394e-02,-1.198205538094043732e-02,8.521041832864284515e-03,-4.064999148249626160e-02,-1.435026764869689941e+00,4.763623476028442383e-01,-5.591686069965362549e-02,2.031159587204456329e-02,-2.126758545637130737e-02,-3.819128274917602539e+00,-4.106436297297477722e-02,-3.818326294422149658e-01,-2.976391613483428955e-01,-2.360671386122703552e-02,-2.588563680648803711e+00,-2.276855856180191040e-01,-1.415423862636089325e-02,-1.672068834304809570e+00,-1.995928213000297546e-02,7.813343405723571777e-02,4.002973809838294983e-02,-6.004993245005607605e-02,-5.232053622603416443e-02,-9.296255111694335938e-01,1.781145110726356506e-02,-1.163676738739013672e+00,6.600598990917205811e-02,-6.480527520179748535e-01,-4.625444889068603516e+00,-1.310638040304183960e-01,-5.614565312862396240e-02,2.642719149589538574e-01,-1.100803613662719727e-01,-1.070925712585449219e+00,-2.907648563385009766e+00,-3.610737323760986328e+00,4.809558391571044922e-01,-8.553231954574584961e-01,-5.599268525838851929e-02,3.090604208409786224e-02,1.013844273984432220e-02,2.210299670696258545e-02,-4.726723418571054935e-04,-7.964963465929031372e-02,-4.316402226686477661e-02,-1.879892777651548386e-03,6.133262813091278076e-02,-1.411433100700378418e+00,2.606955729424953461e-02,4.301958903670310974e-02,3.401491343975067139e-01,4.962201043963432312e-02,-2.152642458677291870e-01,4.313942790031433105e-02,-8.300542831420898438e-01,4.296062514185905457e-02,-2.013137936592102051e-01,-6.107085347175598145e-01,-4.035525396466255188e-02,-1.828890919685363770e+00,-7.620558738708496094e-01,-2.042676135897636414e-02,-1.844579353928565979e-02,-2.502958290278911591e-02,1.929855346679687500e-02,-1.226062327623367310e-01,3.043398493900895119e-03,-4.370604641735553741e-03,-3.451597690582275391e-01,-1.537758577615022659e-02,-7.888339459896087646e-02,-1.427663207054138184e+00,-9.871298670768737793e-01,-1.817293882369995117e+00,1.856785416603088379e-01,3.612716495990753174e-02,9.321320056915283203e-02,2.375851124525070190e-01,7.005133200436830521e-03,-5.749531835317611694e-02,3.511704877018928528e-02,-2.950981259346008301e-01,-6.744894385337829590e-02,-6.701326370239257812e-01,-8.553498238325119019e-02,-1.492438912391662598e+00,-1.295215189456939697e-01,-2.218459844589233398e-01,3.727227821946144104e-02,-2.199547767639160156e+00,-2.107411623001098633e-01,4.451372101902961731e-02,-1.215987324714660645e+00,-1.231740713119506836e+00,1.981050707399845123e-02,6.917059421539306641e-02,-4.952654242515563965e-02,1.592278778553009033e-01,-5.330707430839538574e-01,4.634792357683181763e-02,-4.459145367145538330e-01,-4.743823409080505371e-02,-2.412668019533157349e-01,-1.214857473969459534e-01,-3.135469183325767517e-02,2.462201192975044250e-02,-7.950494885444641113e-01,-2.101129293441772461e+00,-1.461862325668334961e+00,-1.484465003013610840e+00,-2.421199321746826172e+00,7.221823930740356445e-02,2.042867802083492279e-02,-1.812829263508319855e-02,-2.619077637791633606e-02,-1.127388924360275269e-01,3.679560661315917969e+00,-1.619415998458862305e+00,-1.755399629473686218e-02,-5.681396275758743286e-02,-1.462719962000846863e-02,-8.977367877960205078e-01,-1.208400368690490723e+00,-7.381249964237213135e-02,-3.267601728439331055e+00,-1.820596866309642792e-02,2.695513516664505005e-02,1.108210906386375427e-02,3.855771571397781372e-02,-5.513241142034530640e-02,4.610143229365348816e-02,-1.637117385864257812e+00,3.137060999870300293e-02,-1.800858229398727417e-02,-2.111225016415119171e-02,8.661071769893169403e-03,-4.755495488643646240e-01,-1.193508148193359375e+00,-4.829815030097961426e-02,-6.692750006914138794e-02,-1.922858762554824352e-03,3.250147565267980099e-04,7.459195852279663086e-01
1.699973456561565399e-02,-1.175018772482872009e-02,1.498094350099563599e-01,3.042320720851421356e-02,-3.961314260959625244e-02,2.670645713806152344e-01,5.580503493547439575e-02,-4.721820587292313576e-04,-1.048107028007507324e+00,7.370045185089111328e-01,-3.330099582672119141e-02,2.856245636940002441e-02,-1.116221188567578793e-03,9.001051634550094604e-02,4.710679501295089722e-02,-3.287647068500518799e-01,2.362021245062351227e-02,1.649227738380432129e-01,-3.197135329246520996e-01,-8.840049803256988525e-02,1.262612700462341309e+00,5.864924285560846329e-03,-4.650127887725830078e-02,3.425493091344833374e-02,2.901332825422286987e-02,-1.169141288846731186e-02,1.599352061748504639e-02,8.228001594543457031e-01,5.580991506576538086e-02,-1.286665052175521851e-01,5.614436790347099304e-02,1.396785862743854523e-02,-1.159166172146797180e-02,4.089398717042058706e-04,6.110846996307373047e-03,4.481606930494308472e-02,2.553728967905044556e-02,-3.251559287309646606e-02,-2.067526102066040039e+00,4.408959671854972839e-02,-3.023704327642917633e-02,-1.164667308330535889e-02,-5.066872760653495789e-02,-2.633272856473922729e-02,5.947004072368144989e-03,2.268835157155990601e-02,-8.947108872234821320e-03,3.940836060792207718e-03,-3.140808343887329102e-01,-5.788902938365936279e-02,-1.871369034051895142e-02,4.167891293764114380e-02,2.722999639809131622e-02,4.511401429772377014e-02,-2.388689666986465454e-02,3.781458437442779541e-01,-8.121564984321594238e-03,-7.094556093215942383e-02,8.517138659954071045e-02,3.487368673086166382e-02,4.651785641908645630e-02,2.501867152750492096e-02,-2.435442060232162476e-02,-4.877017065882682800e-02,-2.435783892869949341e-01,4.178781807422637939e-02,-2.120367251336574554e-02,1.648023575544357300e-01,9.859137982130050659e-02,3.411128520965576172e-01,-5.597557872533798218e-02,-5.196764320135116577e-02,-3.034255281090736389e-02,-4.300624132156372070e-04,2.950014173984527588e-02,-1.832926832139492035e-02,-1.998088136315345764e-02,-2.255796790122985840e-01,1.749837212264537811e-02,-5.009195804595947266e-01,1.251325964927673340e+00,5.828081071376800537e-02,-9.593288600444793701e-02,4.018800798803567886e-03,1.888217031955718994e-02,2.989098057150840759e-02,6.609951257705688477e-01,3.522433713078498840e-02,7.686513941735029221e-03,1.004350930452346802e-02,-3.045930154621601105e-02,-4.621467590332031250e-01,-1.236822083592414856e-01,3.371890634298324585e-02,-3.033271245658397675e-02,-4.140523821115493774e-02,-5.777192860841751099e-02,5.956754088401794434e-03,-3.889694809913635254e-03,7.693804800510406494e-03,1.213508844375610352e-02,6.564025878906250000e-01,5.142934620380401611e-02,-1.465716678649187088e-02,-4.551251232624053955e-02,5.521699190139770508e-01,2.705878112465143204e-03,-3.922401368618011475e-02,-1.868508942425251007e-02,-2.565094828605651855e-02,-2.547853998839855194e-02,4.334780201315879822e-02,-1.628910005092620850e-02,-1.895735412836074829e-02,5.242483690381050110e-02,5.087570473551750183e-02,2.413767948746681213e-02,-1.747329086065292358e-01,1.127145905047655106e-02,-4.596587270498275757e-02,-3.485371544957160950e-02,5.338200181722640991e-02,-5.353189632296562195e-02,-2.373025566339492798e-02,-4.396348446607589722e-02,-6.345710754394531250e-01,-1.102634705603122711e-02,2.888670861721038818e-01,-2.694981396198272705e-01,1.240260154008865356e-02,-9.180842638015747070e-01,1.445773895829916000e-02,5.555212870240211487e-02,5.201455578207969666e-02,-6.096783652901649475e-02,2.922809310257434845e-02,-1.000156328082084656e-01,-2.442962676286697388e-02,2.297740280628204346e-01,5.906871706247329712e-02,-1.535898685455322266e+00,3.971399366855621338e-01,1.794373631477355957e+00,1.406349893659353256e-02,4.994640871882438660e-02,-5.390152335166931152e-02,3.152793645858764648e-01,-4.764182567596435547e-01,-8.812144398689270020e-02,1.009497284889221191e+00,1.216000244021415710e-01,-3.671491891145706177e-02,5.276237800717353821e-02,-5.143634974956512451e-03,-3.531865775585174561e-03,2.817133814096450806e-02,4.757861793041229248e-02,-4.227546451147645712e-04,-2.601797133684158325e-02,-6.719048134982585907e-03,1.832782477140426636e-01,-2.420135028660297394e-02,2.266065776348114014e-02,-1.226417720317840576e-02,-5.387494713068008423e-02,1.975991949439048767e-02,-4.944873154163360596e-01,-2.141617834568023682e-01,-6.431349366903305054e-02,1.342624425888061523e-03,-2.703455276787281036e-03,7.035592794418334961e-01,7.245309650897979736e-02,2.583317644894123077e-02,4.802414774894714355e-02,-8.943527936935424805e-03,-8.992478251457214355e-03,-4.349491745233535767e-02,-6.212756782770156860e-02,-3.048767708241939545e-02,-1.544362399727106094e-02,-1.803948432207107544e-01,-2.925083041191101074e-02,-4.244742542505264282e-02,-5.688377618789672852e-01,-1.131778717041015625e+00,2.702081762254238129e-02,6.190981715917587280e-02,-9.694844484329223633e-03,-4.023525118827819824e-02,3.849104046821594238e-02,-4.894082248210906982e-02,-1.681388728320598602e-02,4.157283902168273926e-02,-2.932665683329105377e-02,2.110730670392513275e-02,1.600000709295272827e-01,4.615224897861480713e-03,2.419121503829956055e+00,1.320726610720157623e-02,1.489644765853881836e+00,3.980764374136924744e-02,-1.368505805730819702e-01,3.230796009302139282e-02,-5.819418281316757202e-02,-1.246704459190368652e+00,-2.263760805130004883e+00,4.956566169857978821e-02,-2.381647378206253052e-02,3.703381866216659546e-02,-2.075096368789672852e-01,2.556011378765106201e-01,-1.816215924918651581e-02,2.282624840736389160e-01,2.067686431109905243e-02,-1.041610166430473328e-01,4.805988818407058716e-02,-9.569861926138401031e-03,5.718933045864105225e-02,-5.884891375899314880e-02,2.461564779281616211e+00,2.462777853012084961e+00,-3.716532289981842041e-01,-1.231727838516235352e+00,7.261985912919044495e-03,8.604578673839569092e-03,2.206218801438808441e-02,-1.792863011360168457e-02,-7.666515558958053589e-02,-1.114801406860351562e+00,9.007781744003295898e-03,4.312106221914291382e-02,3.308441489934921265e-02,-8.419848233461380005e-02,-6.853833049535751343e-02,5.398161336779594421e-02,-8.879046142101287842e-02,1.748508773744106293e-02,1.847727037966251373e-02,-2.974381856620311737e-02,4.940151423215866089e-02,-8.738845586776733398e-03,1.999755203723907471e-02,5.468552559614181519e-02,3.029972910881042480e-01,2.219202555716037750e-02,1.160222291946411133e-02,1.958768814802169800e-02,-3.348595276474952698e-02,1.642314910888671875e+00,-8.555120974779129028e-02,4.928839206695556641e-02,-1.166703552007675171e-02,3.785651177167892456e-02,2.126503735780715942e-02,7.139031775295734406e-03
-7.422125339508056641e-02,-3.373824805021286011e-02,-2.013620376586914062e+00,-5.835423469543457031e-01,-4.579656943678855896e-02,2.358185499906539917e-01,1.859022118151187897e-02,-4.015741497278213501e-02,1.021640896797180176e+00,-2.802645564079284668e-01,9.157815948128700256e-03,-1.238935291767120361e-01,-3.224363327026367188e-01,-9.586656689643859863e-01,4.826322942972183228e-02,-8.607543259859085083e-02,-4.666284099221229553e-02,-7.796451449394226074e-01,-5.881857872009277344e-01,6.593368202447891235e-02,-3.098109066486358643e-01,3.766808658838272095e-02,-3.298443928360939026e-02,-6.443606317043304443e-02,1.090019848197698593e-02,-6.051600724458694458e-02,6.534558534622192383e-01,-5.756796598434448242e-01,-2.559519372880458832e-02,-4.536318480968475342e-01,-8.548757992684841156e-03,2.610481716692447662e-02,-6.898667197674512863e-03,7.768207043409347534e-02,6.851404905319213867e-02,3.790024667978286743e-02,-6.507831811904907227e-01,2.920972881838679314e-03,-1.066630557179450989e-01,-1.990265958011150360e-02,1.963817747309803963e-03,-3.748538345098495483e-02,-5.640542507171630859e-01,3.801258280873298645e-02,1.487251743674278259e-02,2.916675759479403496e-03,-4.476302117109298706e-02,4.147917404770851135e-02,-1.388377100229263306e-01,4.232006892561912537e-02,-4.989423602819442749e-02,-3.396683558821678162e-02,-3.050592169165611267e-02,-3.982936590909957886e-02,-3.077380061149597168e-01,-7.148482203483581543e-01,-7.911930792033672333e-03,-7.278460264205932617e-01,-6.057875156402587891e-01,1.972520165145397186e-02,8.027788251638412476e-02,-5.741413682699203491e-02,6.780546391382813454e-04,5.346793215721845627e-03,2.557697892189025879e-01,2.939274534583091736e-02,-3.471835330128669739e-02,4.889870062470436096e-02,-5.060971975326538086e-01,-1.899764686822891235e-01,9.121544659137725830e-02,6.008657217025756836e-01,8.084947615861892700e-02,5.178967118263244629e-02,-2.601319737732410431e-02,4.575076699256896973e-02,1.656579412519931793e-02,-4.000257551670074463e-01,2.009409293532371521e-02,-3.271032571792602539e-01,-1.827020496129989624e-01,-2.765547111630439758e-02,9.979212284088134766e-02,-5.977090820670127869e-02,-7.046817988157272339e-02,-5.298681557178497314e-02,-3.758103847503662109e-01,-5.490860715508460999e-02,1.160246320068836212e-02,-3.322492167353630066e-02,-7.676173001527786255e-03,7.548137307167053223e-01,-1.633438467979431152e+00,-1.447853259742259979e-02,4.563262313604354858e-02,-8.450907655060291290e-03,-2.018371224403381348e-01,7.145544979721307755e-03,-2.982546389102935791e-02,1.616099849343299866e-02,5.073145627975463867e-01,2.883564829826354980e-01,5.960044264793395996e-02,6.965835392475128174e-02,-1.344676967710256577e-02,-6.634262204170227051e-01,-5.918338894844055176e-02,1.779102906584739685e-02,-6.576006859540939331e-02,6.678874790668487549e-02,-4.565662145614624023e-02,-2.076090127229690552e-02,-1.500249467790126801e-02,-1.463856641203165054e-02,-1.485096104443073273e-02,-2.630840055644512177e-02,-2.479359135031700134e-02,-1.528629213571548462e-01,1.033615589141845703e+00,4.626625031232833862e-02,2.981902100145816803e-03,2.913490496575832367e-02,-3.316951692104339600e-01,1.654735580086708069e-02,-1.177544370293617249e-01,-5.004853606224060059e-01,-3.987051174044609070e-02,9.979254007339477539e-02,-2.860608100891113281e-01,-8.907131850719451904e-03,-3.829460740089416504e-01,-7.377639412879943848e-02,-5.706938505172729492e-01,9.486434981226921082e-03,-3.917688503861427307e-02,1.673633977770805359e-02,-7.943374514579772949e-01,-7.036007940769195557e-03,-1.439267873764038086e+00,7.584978640079498291e-02,-1.221778094768524170e-01,-1.246038198471069336e+00,-2.749984562397003174e-01,1.972710713744163513e-02,3.373191356658935547e-01,-7.722559571266174316e-02,3.909682929515838623e-01,4.358062893152236938e-02,4.675515890121459961e-01,4.383648559451103210e-02,-3.809006214141845703e-01,-2.523315837606787682e-03,-3.302494762465357780e-03,-1.033560559153556824e-02,-1.047112047672271729e-03,-1.213456198456697166e-05,-6.664063036441802979e-02,-1.424886006861925125e-02,3.055836446583271027e-02,-3.355461359024047852e-02,-1.246090888977050781e+00,-5.509534105658531189e-02,-2.575407177209854126e-02,-6.980364918708801270e-01,1.124875340610742569e-02,4.636068940162658691e-01,1.159488439559936523e+00,-2.587336003780364990e-01,-9.188401512801647186e-03,1.411767750978469849e-01,-3.704747557640075684e-01,1.406283527612686157e-01,-3.502588868141174316e-01,9.709621071815490723e-01,8.927234448492527008e-03,5.311807990074157715e-02,5.227341130375862122e-02,-1.654043048620223999e-02,3.400140628218650818e-02,-1.018162816762924194e-01,2.367613837122917175e-03,4.862760901451110840e-01,2.912646858021616936e-03,-5.346862599253654480e-02,4.059804379940032959e-01,-1.933635473251342773e-01,-8.443728685379028320e-01,1.293072551488876343e-01,3.747094422578811646e-02,4.204338416457176208e-03,1.306422799825668335e-01,-4.681633785367012024e-02,3.417628817260265350e-03,4.786850884556770325e-03,2.726874947547912598e-01,-1.744792051613330841e-02,2.074262946844100952e-01,4.444287344813346863e-02,1.140099912881851196e-01,1.263347547501325607e-02,-8.006737232208251953e-01,1.444832771085202694e-03,-8.157236576080322266e-01,2.839849330484867096e-02,3.085018135607242584e-02,-1.108189940452575684e+00,-1.144524663686752319e-01,-1.894557662308216095e-02,4.651631414890289307e-02,2.720737829804420471e-02,-3.542686104774475098e-01,-6.609260439872741699e-01,2.643323130905628204e-02,-9.170277714729309082e-01,-7.340725511312484741e-02,2.655477523803710938e-01,2.261236496269702911e-02,-2.721169963479042053e-02,6.043416913598775864e-03,-1.664351582527160645e+00,-6.654163599014282227e-01,-4.072650969028472900e-01,-3.409072756767272949e-01,5.634647011756896973e-01,-1.655627228319644928e-02,9.295733645558357239e-03,4.865584522485733032e-02,-2.995897270739078522e-02,-6.584583967924118042e-02,1.547906845808029175e-01,1.524632722139358521e-01,-1.056954860687255859e-01,-4.171832650899887085e-02,-3.466443344950675964e-02,-4.702228605747222900e-01,-8.701940178871154785e-01,3.315971698611974716e-03,-8.279248476028442383e-01,3.095705062150955200e-02,-2.689329162240028381e-02,3.913036733865737915e-02,2.795752696692943573e-02,4.995600879192352295e-02,3.479402884840965271e-02,-1.350571274757385254e+00,1.636509783565998077e-02,1.501414924860000610e-02,-2.985173277556896210e-02,3.010529093444347382e-02,-9.879864454269409180e-01,3.757834434509277344e-01,-1.240003760904073715e-02,1.233086735010147095e-02,-4.775183741003274918e-03,-3.883679583668708801e-02,-4.450481235980987549e-01
2.229267358779907227e-02,-1.054342836141586304e-02,-1.260654721409082413e-02,2.803604304790496826e-02,-5.829811841249465942e-02,-1.041074916720390320e-01,-1.082502305507659912e-02,-4.218658059835433960e-02,-1.258828490972518921e-01,-1.169114187359809875e-02,2.843784540891647339e-02,5.331636220216751099e-02,3.993766754865646362e-02,4.451128188520669937e-03,-6.093875318765640259e-02,-2.670073322951793671e-02,5.916772037744522095e-02,-6.746892631053924561e-02,-6.422898918390274048e-02,1.863665878772735596e-03,-3.589458018541336060e-02,-8.452020585536956787e-03,-3.940527141094207764e-02,-3.709820657968521118e-02,-7.052801549434661865e-03,-3.356191515922546387e-02,-5.602403730154037476e-02,-5.665313452482223511e-02,-2.584528923034667969e-02,-8.836668729782104492e-02,4.590966552495956421e-02,-3.191647306084632874e-02,3.893883526325225830e-02,3.145032376050949097e-02,5.718982964754104614e-02,4.162244498729705811e-03,4.675500094890594482e-03,1.594410091638565063e-02,-9.784975647926330566e-02,-2.715820074081420898e-02,4.837710410356521606e-02,1.831616461277008057e-02,-1.844737678766250610e-02,4.829008132219314575e-02,4.671895503997802734e-02,-4.489107429981231689e-02,-2.966843545436859131e-03,-5.421120673418045044e-02,-2.269019745290279388e-02,5.207079648971557617e-02,1.474235206842422485e-02,5.194794386625289917e-02,-2.121606469154357910e-02,-2.786295861005783081e-02,2.686528116464614868e-02,-4.905473068356513977e-02,-5.916099250316619873e-02,-4.378269240260124207e-02,-2.159697189927101135e-02,-2.182275056838989258e-05,4.708033800125122070e-02,-4.876731336116790771e-02,-2.574466913938522339e-02,5.490250140428543091e-02,-1.680659875273704529e-02,-2.897327393293380737e-02,-6.224352121353149414e-02,-1.147785875946283340e-02,-7.122147828340530396e-02,-3.578811138868331909e-02,-2.087908983230590820e-02,-1.097956299781799316e-02,4.914656281471252441e-03,-5.456272512674331665e-02,-3.452847898006439209e-02,2.975188195705413818e-02,3.934346884489059448e-02,-1.588480919599533081e-02,4.616154730319976807e-02,-5.589696392416954041e-02,-2.915102802217006683e-02,3.832063078880310059e-02,-5.970432609319686890e-02,-2.887986600399017334e-03,-1.020711660385131836e-02,1.147253066301345825e-02,-1.271367967128753662e-01,2.823034673929214478e-02,-9.688995778560638428e-03,-6.107361614704132080e-02,-5.012233555316925049e-02,-6.677363812923431396e-02,-6.854943931102752686e-02,-4.653354734182357788e-02,6.856091320514678955e-03,-4.659581184387207031e-02,-5.997085943818092346e-02,4.264680296182632446e-02,-3.337134420871734619e-02,3.183027356863021851e-02,-1.207891479134559631e-02,-5.383751168847084045e-02,3.447894006967544556e-02,4.947656765580177307e-02,-9.843379259109497070e-03,-1.381885353475809097e-02,-4.915761202573776245e-02,-2.529078722000122070e-02,5.948722362518310547e-03,4.633332043886184692e-02,2.836770564317703247e-02,3.992395848035812378e-02,5.441083759069442749e-02,-3.906215727329254150e-02,-7.839460857212543488e-03,-1.022736728191375732e-02,-5.162936449050903320e-02,-5.861986428499221802e-02,-4.735928028821945190e-02,-1.475796103477478027e-03,-3.845240920782089233e-02,1.093793660402297974e-02,2.044622087851166725e-03,-6.064584106206893921e-02,4.887002054601907730e-03,-3.320911154150962830e-02,-5.840733647346496582e-04,-6.452761590480804443e-02,-1.452179253101348877e-02,-4.601287841796875000e-02,-9.931210428476333618e-02,-2.613874524831771851e-02,-3.086033836007118225e-02,8.802115917205810547e-03,-3.549056127667427063e-02,-1.251307129859924316e-02,-3.144630417227745056e-02,5.803770571947097778e-02,-2.859841287136077881e-02,4.529066383838653564e-03,-9.412540495395660400e-02,-1.714516989886760712e-02,-3.864187747240066528e-02,-1.339178532361984253e-02,-5.929203331470489502e-02,-3.376467898488044739e-02,-3.585424274206161499e-02,-1.813210919499397278e-02,-6.389118731021881104e-03,-3.703830065205693245e-03,1.123875379562377930e-02,7.508128881454467773e-03,3.266569226980209351e-02,-6.067126989364624023e-03,-6.118998676538467407e-02,-2.912066131830215454e-02,-2.590744197368621826e-02,5.225080251693725586e-02,2.422368526458740234e-02,-7.389552891254425049e-03,-4.323633387684822083e-02,-5.413008481264114380e-02,-1.605541259050369263e-02,-6.844428181648254395e-02,2.907152473926544189e-02,-6.782159209251403809e-03,-2.954997681081295013e-02,-6.927973777055740356e-02,-1.277059316635131836e-03,-1.809489727020263672e-02,-3.471008315682411194e-02,3.142952919006347656e-04,-7.394623011350631714e-02,-1.818791963160037994e-02,1.922731101512908936e-02,-3.239402174949645996e-02,-6.351120769977569580e-03,1.730453222990036011e-02,3.079620003700256348e-02,-5.310350656509399414e-02,4.918595403432846069e-02,-1.015693619847297668e-01,8.467413485050201416e-03,5.429514497518539429e-02,-4.597873240709304810e-02,-7.172001153230667114e-02,-3.054687194526195526e-02,-4.263905808329582214e-02,3.970853984355926514e-02,-7.476463913917541504e-03,-1.120898202061653137e-01,9.445421397686004639e-03,-2.055113017559051514e-02,-2.326421439647674561e-03,-3.598226979374885559e-02,3.888087719678878784e-02,-9.798748046159744263e-02,-2.882678061723709106e-02,-6.376482546329498291e-03,-3.646962344646453857e-02,-8.125424385070800781e-02,3.353589773178100586e-02,-7.077842950820922852e-02,6.230891495943069458e-02,1.442000269889831543e-03,-2.215276006609201431e-03,-5.100903660058975220e-02,4.462544620037078857e-02,2.799670398235321045e-02,-8.458957076072692871e-03,1.032690331339836121e-02,-3.738229628652334213e-03,-3.028531372547149658e-02,-6.522195786237716675e-02,-4.172571003437042236e-02,-2.272204309701919556e-02,2.451193332672119141e-02,4.881940782070159912e-02,-5.107837170362472534e-02,6.777569651603698730e-03,-6.726124137639999390e-02,-1.991216279566287994e-02,-2.066934108734130859e-02,-4.241721332073211670e-02,-4.487083107233047485e-02,4.092692583799362183e-02,-3.622248768806457520e-02,1.668336242437362671e-02,-4.480260238051414490e-02,-2.612000331282615662e-03,-3.952278196811676025e-02,1.566093415021896362e-02,5.534739792346954346e-02,4.914036393165588379e-02,-2.854447998106479645e-02,-2.479863353073596954e-02,-1.517613884061574936e-02,-1.554368156939744949e-02,-7.447421550750732422e-03,1.807557791471481323e-02,6.164457648992538452e-02,-2.619565278291702271e-02,2.838674187660217285e-02,-3.735620528459548950e-02,-6.989647448062896729e-02,8.201591670513153076e-03,-1.071219891309738159e-02,1.303308457136154175e-02,5.638754367828369141e-02,-8.380349725484848022e-03,-2.591552212834358215e-02,-8.603496104478836060e-02,-4.239741340279579163e-02,-5.000725388526916504e-03,-7.271692156791687012e-02,-1.268111448734998703e-02
5.608103424310684204e-02,-1.725455932319164276e-02,-3.268737792968750000e-01,-3.808146119117736816e-01,-3.443863242864608765e-02,-4.057494103908538818e-01,-7.248416543006896973e-02,1.119988877326250076e-02,-1.342914581298828125e+00,-3.793303668498992920e-01,1.527203246951103210e-02,-2.604752546176314354e-03,4.724436253309249878e-02,-1.386655122041702271e-01,-1.314154174178838730e-02,-3.034273386001586914e-01,-1.991162821650505066e-02,-2.335121929645538330e-01,-3.508564829826354980e-01,3.510164842009544373e-02,-1.340918391942977905e-01,-7.352940738201141357e-02,4.126448929309844971e-02,-1.920544728636741638e-02,-7.429031282663345337e-02,-2.405451424419879913e-02,1.535910010337829590e+00,2.060351520776748657e-01,-9.437883854843676090e-04,3.137083351612091064e-02,-4.721532389521598816e-02,9.101864881813526154e-03,2.805707417428493500e-02,6.238092854619026184e-02,4.293446615338325500e-02,3.991141170263290405e-02,-8.990464359521865845e-02,2.199946530163288116e-02,-1.686921715736389160e+00,-3.858374059200286865e-02,5.130167305469512939e-02,5.414370447397232056e-02,1.953304708003997803e-01,8.040446788072586060e-03,-4.353642836213111877e-02,7.045658677816390991e-02,-3.871170431375503540e-02,-1.415030658245086670e-02,-3.986745476722717285e-01,-3.740947693586349487e-03,2.407401800155639648e-02,-2.150423824787139893e-03,-1.228467654436826706e-02,7.665306329727172852e-03,-5.037683248519897461e-02,-6.826983690261840820e-01,8.069351315498352051e-03,-4.511576890945434570e-02,-1.376484155654907227e+00,-1.510249078273773193e-02,4.723340645432472229e-02,-4.943372309207916260e-02,-3.033894300460815430e-02,1.086567528545856476e-03,-5.694764852523803711e-01,4.418611526489257812e-02,-5.616421997547149658e-02,-1.083304509520530701e-01,-1.032299041748046875e+00,-8.793975114822387695e-01,1.197623554617166519e-02,8.106616139411926270e-02,4.584722965955734253e-02,-4.928521811962127686e-03,-2.401367574930191040e-02,-6.214202195405960083e-02,-4.050801321864128113e-02,3.021663241088390350e-02,-2.540423721075057983e-02,8.540195971727371216e-02,-4.271548823453485966e-05,8.801825344562530518e-03,-9.928975999355316162e-02,-3.629651293158531189e-02,5.028586089611053467e-02,-4.337110370397567749e-02,-1.268729567527770996e-01,-5.743673536926507950e-03,-4.749953746795654297e-02,4.672196134924888611e-02,-2.238313853740692139e-02,-7.195151448249816895e-01,-1.673006296157836914e+00,-5.053516104817390442e-02,-1.453759334981441498e-02,5.753651261329650879e-02,-1.812200546264648438e-01,2.482516877353191376e-02,-5.399519950151443481e-02,3.859366476535797119e-02,3.420174494385719299e-02,-5.593367815017700195e-01,-5.179214105010032654e-02,4.291869699954986572e-02,-1.751555502414703369e-02,-1.920837461948394775e-01,2.722488716244697571e-02,-1.722854375839233398e-02,-4.558267071843147278e-02,3.374601155519485474e-02,-4.420716688036918640e-02,1.497099641710519791e-02,-7.144567370414733887e-02,-3.547942638397216797e-02,1.577952876687049866e-02,6.191479507833719254e-03,2.019463106989860535e-02,-1.404673337936401367e+00,3.686844930052757263e-02,-2.205624431371688843e-02,3.606470301747322083e-02,2.223476767539978027e-04,-8.273535370826721191e-01,-5.760370567440986633e-02,-5.820943713188171387e-01,-2.812346816062927246e-01,-5.044911056756973267e-02,-3.817250952124595642e-02,2.184871956706047058e-02,-2.365851588547229767e-02,-2.688820064067840576e-01,-3.927110135555267334e-02,-3.645891547203063965e-01,2.186388708651065826e-02,-1.067705601453781128e-01,-6.213650107383728027e-02,-1.512271165847778320e+00,-5.617951508611440659e-03,-3.777382671833038330e-01,-4.060000926256179810e-02,-2.132013142108917236e-01,-8.149846456944942474e-03,-2.065128460526466370e-02,1.086387084797024727e-03,3.677979111671447754e-01,-1.651524449698626995e-03,-1.664977312088012695e+00,-1.301580309867858887e+00,-8.241130709648132324e-01,-2.021487951278686523e-01,-3.121489286422729492e-01,-6.175884976983070374e-02,-5.598299950361251831e-02,2.002719417214393616e-02,5.185879766941070557e-02,9.551197290420532227e-04,-1.376387081108987331e-04,-1.441203639842569828e-03,-5.287159234285354614e-02,-4.041302576661109924e-02,-4.143409729003906250e-01,2.978591248393058777e-03,-4.467067494988441467e-02,-4.566331207752227783e-01,-6.800530850887298584e-02,2.819414436817169189e-02,-2.358816862106323242e-01,-9.856861084699630737e-03,-6.365799903869628906e-02,-5.674452707171440125e-02,-9.096761792898178101e-02,3.400142788887023926e-01,-4.985581338405609131e-02,-4.022828638553619385e-01,5.048811808228492737e-02,-2.343344874680042267e-02,5.601157620549201965e-02,3.582470118999481201e-03,-2.994839847087860107e-01,-3.239376842975616455e-02,3.978159278631210327e-02,2.297771349549293518e-02,9.276084601879119873e-02,7.953892345540225506e-04,-8.043471574783325195e-01,2.389372289180755615e-01,-1.519669294357299805e+00,7.301604747772216797e-02,4.189230501651763916e-02,-1.539064943790435791e-02,-2.875278592109680176e-01,-7.132487837225198746e-03,2.674951590597629547e-02,9.195356629788875580e-03,2.590914368629455566e-01,-1.655196025967597961e-02,1.366381049156188965e-01,-6.720919162034988403e-02,-8.891761302947998047e-01,-2.202884852886199951e-02,-1.431408803910017014e-02,-3.979130834341049194e-02,-7.963775992393493652e-01,-4.819002747535705566e-02,3.461396321654319763e-02,-9.059745073318481445e-01,-2.216596901416778564e-01,-3.768345108255743980e-03,6.489799171686172485e-02,-5.307193845510482788e-02,-9.166455268859863281e-02,-2.955366671085357666e-01,-3.699687868356704712e-02,-7.567448019981384277e-01,-3.178993612527847290e-02,-1.620471775531768799e-01,-1.016019750386476517e-02,-6.287900730967521667e-03,5.180730670690536499e-02,-1.844464540481567383e-01,-7.784214615821838379e-01,-8.540070801973342896e-02,-7.811696529388427734e-01,-1.903218328952789307e-01,1.514168363064527512e-02,-1.142174750566482544e-02,-5.928917974233627319e-02,-6.172709539532661438e-02,-7.576344162225723267e-02,1.368194341659545898e+00,-2.454341799020767212e-01,-1.649346388876438141e-02,-4.544631391763687134e-02,1.283370424062013626e-02,-1.386824697256088257e-01,-3.728244081139564514e-02,1.067612171173095703e-01,-6.334539651870727539e-01,-6.667582690715789795e-02,2.255692891776561737e-02,1.889242790639400482e-02,-6.024236232042312622e-02,-4.618658125400543213e-02,-1.086104568094015121e-02,-5.724211335182189941e-01,-4.877815768122673035e-02,-3.033756464719772339e-02,2.578892558813095093e-02,-2.571184746921062469e-02,-5.304450392723083496e-01,1.556855440139770508e-01,2.543815970420837402e-02,1.030198298394680023e-02,8.939688652753829956e-02,-5.316925793886184692e-02,1.462814211845397949e-01
1.757375895977020264e-03,1.329385489225387573e-02,-1.256538152694702148e+00,5.299397278577089310e-03,-2.415537834167480469e-02,6.749467253684997559e-01,2.940557897090911865e-03,1.355043798685073853e-02,-2.726926803588867188e-01,-4.262646734714508057e-01,1.205454487353563309e-02,-2.060147374868392944e-01,-2.256856709718704224e-01,-4.175297021865844727e-01,-3.641784889623522758e-03,-4.707472026348114014e-01,-6.229110807180404663e-02,7.328677922487258911e-02,-5.680165886878967285e-01,-7.734299451112747192e-02,6.047462224960327148e-01,-1.557226199656724930e-02,1.889542490243911743e-02,-4.044000059366226196e-02,-3.043244034051895142e-02,-1.744755357503890991e-02,-7.464656829833984375e-01,-2.494429349899291992e-01,1.427491754293441772e-02,-1.439258456230163574e+00,-5.411592870950698853e-02,1.486874767579138279e-03,1.954634673893451691e-02,5.549511313438415527e-02,3.511813282966613770e-02,5.589452385902404785e-02,2.586724609136581421e-02,-4.479420557618141174e-02,1.617110520601272583e-01,-1.351306587457656860e-02,-5.280770361423492432e-02,-1.324503868818283081e-02,2.743812501430511475e-01,-1.017596572637557983e-02,-2.980258315801620483e-02,2.719815820455551147e-02,3.394520282745361328e-02,-4.764234274625778198e-02,-5.284228920936584473e-01,1.389021426439285278e-02,7.060915231704711914e-03,4.707348346710205078e-02,-4.128374904394149780e-02,-2.801317721605300903e-02,-6.646093130111694336e-01,-8.373527526855468750e-01,1.913372427225112915e-02,-1.436337381601333618e-01,-7.717143297195434570e-01,-2.011866495013237000e-02,-7.935494184494018555e-03,4.401254653930664062e-02,6.804689764976501465e-04,-4.476934671401977539e-03,5.108474567532539368e-02,-4.251927137374877930e-03,-2.913300693035125732e-02,-1.780651688575744629e+00,-1.224829912185668945e+00,-7.913079261779785156e-01,-2.147927135229110718e-02,-5.216470360755920410e-02,-2.814613282680511475e-02,4.009795188903808594e-02,-1.799590140581130981e-02,-5.141893774271011353e-02,9.956147521734237671e-02,-8.387211561203002930e-01,1.134711503982543945e-02,7.924329489469528198e-02,-4.142566919326782227e-01,-4.425688087940216064e-02,-5.842943489551544189e-02,2.779866009950637817e-02,-6.012137234210968018e-02,1.779944449663162231e-02,-2.947404682636260986e-01,-5.513630807399749756e-02,4.179644584655761719e-02,-4.983375221490859985e-02,3.395268321037292480e-02,1.563554108142852783e-01,-1.430912256240844727e+00,1.169707626104354858e-02,2.926179207861423492e-02,-8.373290300369262695e-03,1.020885109901428223e-01,-4.171377420425415039e-02,7.611341774463653564e-03,1.876126974821090698e-02,1.306889206171035767e-02,-1.196004301309585571e-01,8.800126612186431885e-03,-8.432944864034652710e-02,-2.341491729021072388e-02,-3.894212543964385986e-01,1.351868361234664917e-02,4.807300865650177002e-03,-2.970955520868301392e-02,2.094213664531707764e-02,2.601675689220428467e-02,4.538393020629882812e-02,-4.673334956169128418e-02,-5.631652474403381348e-02,-1.451351307332515717e-02,4.680605232715606689e-02,-6.065410375595092773e-02,-1.243483901023864746e+00,1.261651609092950821e-02,1.103688031435012817e-02,-1.290315389633178711e-02,4.279650747776031494e-02,5.080036818981170654e-02,-4.225013405084609985e-02,-4.955530464649200439e-01,-1.259887814521789551e+00,-1.671249419450759888e-02,3.748846650123596191e-01,3.068027272820472717e-02,-4.302968829870223999e-02,-9.645965099334716797e-01,-8.131624758243560791e-02,-8.200893998146057129e-01,-3.974950313568115234e-02,2.138162404298782349e-02,-3.609353303909301758e-02,-1.269374132156372070e+00,5.543909221887588501e-02,-9.591245055198669434e-01,5.440653767436742783e-03,-8.152253180742263794e-02,-4.088756144046783447e-01,-8.120210170745849609e-01,4.407058656215667725e-02,-3.740429133176803589e-02,4.808131977915763855e-02,7.565504312515258789e-01,-4.231190085411071777e-01,-3.310295343399047852e-01,-2.364136934280395508e+00,-1.645261049270629883e+00,5.876245349645614624e-02,1.281358301639556885e-02,-5.780281871557235718e-02,-2.230934053659439087e-02,-5.636849999427795410e-02,-6.005070358514785767e-02,-5.627810955047607422e-02,1.720569282770156860e-02,1.143489126116037369e-02,-7.912915945053100586e-01,5.836750566959381104e-02,4.284564405679702759e-02,-1.370628118515014648e+00,-4.336220026016235352e-02,1.271892637014389038e-01,-1.052488207817077637e+00,-7.778209447860717773e-01,4.316239804029464722e-02,-1.104404553771018982e-01,-6.671614646911621094e-01,3.079834580421447754e-02,-5.906715393066406250e-01,-1.348880648612976074e+00,1.191786676645278931e-02,-3.878704458475112915e-02,3.331193327903747559e-02,3.106794506311416626e-02,-4.522484540939331055e-02,-3.604621440172195435e-02,2.502521872520446777e-02,-4.992914199829101562e-01,-3.002279996871948242e-02,6.110478192567825317e-02,-9.440815448760986328e-02,4.371821582317352295e-01,-3.790959417819976807e-01,3.061396628618240356e-02,3.220444917678833008e-02,-9.557604789733886719e-04,-8.965954780578613281e-01,2.875396609306335449e-02,2.981802076101303101e-02,1.061382144689559937e-02,-5.326657090336084366e-03,-2.800083160400390625e-02,-9.222125262022018433e-02,2.071069367229938507e-02,-4.762335121631622314e-01,-1.917708665132522583e-02,1.077637672424316406e-01,-1.976775377988815308e-02,-6.296633481979370117e-01,7.632092572748661041e-03,-5.605592578649520874e-02,-4.360869228839874268e-01,-1.219364106655120850e-01,2.924355864524841309e-02,-1.296140998601913452e-02,-3.672834485769271851e-02,-1.339275240898132324e-01,1.767363548278808594e-01,-5.275903642177581787e-02,-1.520130932331085205e-01,-3.626070916652679443e-03,-8.842033892869949341e-02,5.223406851291656494e-02,-2.919222414493560791e-02,-3.847669064998626709e-02,1.582337021827697754e-01,3.385637402534484863e-01,-3.240850567817687988e-01,-9.635508656501770020e-01,8.725784420967102051e-01,-5.775356292724609375e-02,5.055390298366546631e-02,-3.525015711784362793e-02,-4.961396753787994385e-02,-3.715369105339050293e-02,3.105702400207519531e-01,-1.066502928733825684e+00,3.127344697713851929e-02,-3.896501660346984863e-02,1.304768025875091553e-02,9.216913580894470215e-01,-1.066410779953002930e+00,-6.047051027417182922e-02,-9.152680039405822754e-01,4.308249056339263916e-02,-1.087742298841476440e-02,-5.625803768634796143e-02,5.797548592090606689e-02,1.209865510463714600e-02,3.088742494583129883e-02,-1.705441594123840332e+00,-5.418352037668228149e-02,-5.597191303968429565e-02,-3.794471919536590576e-02,-1.521021127700805664e-03,1.017759740352630615e-01,1.537633538246154785e-01,6.670871376991271973e-02,-4.939702898263931274e-02,1.804783195257186890e-02,4.107622802257537842e-02,9.387049823999404907e-02
9.307389706373214722e-02,-4.578823596239089966e-02,-3.852697014808654785e-01,1.326801925897598267e-01,-1.685365848243236542e-02,-2.449402809143066406e+00,8.710666745901107788e-02,1.377913206815719604e-01,-2.127762079238891602e+00,1.038023114204406738e+00,-4.190795868635177612e-02,3.286544233560562134e-02,7.355607300996780396e-02,-1.139087200164794922e+00,-5.120424553751945496e-02,2.148159593343734741e-01,4.749848693609237671e-02,3.788287937641143799e-01,-1.007719874382019043e+00,2.625854909420013428e-01,-2.176368713378906250e+00,1.060600951313972473e-02,3.444698452949523926e-02,3.538734465837478638e-02,1.708457618951797485e-02,-6.034727394580841064e-02,-5.891967415809631348e-01,-3.625830709934234619e-01,-5.980679392814636230e-02,-5.978945493698120117e-01,-1.480006426572799683e-02,1.944118924438953400e-02,-7.395728677511215210e-02,2.982832258567214012e-03,5.973447114229202271e-02,-2.915136516094207764e-03,3.547983616590499878e-02,8.513420820236206055e-03,-5.308701395988464355e-01,1.303783059120178223e-02,-5.710191279649734497e-02,-1.136112213134765625e-02,2.085045099258422852e+00,4.075383394956588745e-02,-4.981039464473724365e-02,3.116369247436523438e-03,-5.398590117692947388e-02,3.210403490811586380e-03,3.909250348806381226e-02,3.400356322526931763e-02,-2.736558020114898682e-02,-4.208213090896606445e-02,-2.160190790891647339e-02,-4.854314029216766357e-02,4.236296117305755615e-01,-1.746903806924819946e-01,-1.873377710580825806e-02,-4.787683486938476562e-01,-2.244229912757873535e-01,-1.815370842814445496e-02,-2.053824812173843384e-02,-8.630368858575820923e-03,-1.610904932022094727e-02,-3.193430602550506592e-02,6.814784407615661621e-01,-5.270161479711532593e-02,1.980487443506717682e-02,-2.646312490105628967e-02,-1.516822874546051025e-01,1.401979565620422363e+00,5.247753113508224487e-02,-2.320625074207782745e-02,4.930368065834045410e-02,2.665849030017852783e-02,2.941695787012577057e-02,3.156511485576629639e-02,-5.764428898692131042e-02,1.221209287643432617e+00,-5.933753401041030884e-02,-1.549760699272155762e-01,4.449745416641235352e-01,4.822619259357452393e-03,-1.960796862840652466e-02,6.091428548097610474e-02,2.218332141637802124e-02,-3.591477870941162109e-02,6.052502989768981934e-01,2.965558320283889771e-03,5.276775360107421875e-02,-6.555097550153732300e-02,5.185216665267944336e-03,1.866889186203479767e-02,-5.227251052856445312e-01,1.109404861927032471e-02,-3.388223052024841309e-02,2.812696248292922974e-02,1.655293405055999756e-01,-2.500762045383453369e-02,-3.546550869941711426e-03,5.817368626594543457e-03,2.514819055795669556e-02,9.409307837486267090e-01,3.538022190332412720e-02,2.871347963809967041e-02,-1.265175733715295792e-02,3.005811572074890137e-01,5.367232486605644226e-02,5.591808259487152100e-02,1.945263519883155823e-02,-3.099562972784042358e-02,4.288470745086669922e-02,-1.132345199584960938e-02,3.055093251168727875e-02,6.318307667970657349e-02,-2.334119193255901337e-02,3.703700751066207886e-02,-1.389200538396835327e-01,9.836827963590621948e-02,-2.531425356864929199e-01,-7.606536149978637695e-03,6.195242702960968018e-02,-2.421957999467849731e-02,-7.591276168823242188e-01,1.004327461123466492e-02,4.010535180568695068e-01,-4.638553857803344727e-01,-1.169067621231079102e-02,-2.905934751033782959e-01,1.420001745223999023e+00,3.920608013868331909e-02,1.221972227096557617e+00,8.697929792106151581e-03,-1.783788651227951050e-01,4.887900128960609436e-02,-5.640722811222076416e-02,2.856642752885818481e-02,1.515384204685688019e-02,2.893526107072830200e-02,-7.975580692291259766e-01,2.605250477790832520e-02,-3.181014657020568848e-01,9.602159261703491211e-02,1.557980179786682129e+00,-2.012277580797672272e-02,8.652454242110252380e-03,-9.904950857162475586e-02,-1.386981010437011719e-01,6.308365613222122192e-02,-8.066815733909606934e-01,7.662605047225952148e-01,-1.710302755236625671e-02,6.568692624568939209e-03,5.381812155246734619e-02,-3.322198987007141113e-03,6.429791450500488281e-03,-5.684749782085418701e-02,-4.189300537109375000e-02,-3.628125414252281189e-02,5.706504732370376587e-02,1.704079657793045044e-02,-1.267830848693847656e+00,5.804679822176694870e-03,2.717910706996917725e-02,7.261081784963607788e-02,3.158153221011161804e-02,5.711247324943542480e-01,-3.303746223449707031e+00,6.497849524021148682e-02,5.465374886989593506e-02,6.380006670951843262e-01,-1.725142955780029297e+00,1.969104766845703125e+00,3.091159164905548096e-01,-1.840510129928588867e+00,-2.275726199150085449e-02,2.309360355138778687e-02,5.200719833374023438e-02,-4.611961543560028076e-03,-4.956536740064620972e-02,5.107714235782623291e-02,-5.695035308599472046e-02,-3.738231420516967773e+00,-4.813206195831298828e-02,-2.976742386817932129e-02,4.013583660125732422e-01,1.511767599731683731e-02,-4.363563954830169678e-01,-6.394621729850769043e-02,-3.992519527673721313e-02,-3.238588571548461914e-02,1.334660965949296951e-02,-1.997706666588783264e-02,2.543662488460540771e-02,-3.252676129341125488e-02,-4.170614778995513916e-01,1.292750239372253418e-02,1.134340651333332062e-02,-1.295631844550371170e-02,1.215546846389770508e+00,-1.078775674104690552e-01,6.620160341262817383e-01,4.148934036493301392e-02,-6.284489482641220093e-02,-1.499959677457809448e-01,-5.001046520192176104e-05,9.681999087333679199e-01,-2.296868562698364258e+00,-5.279452726244926453e-02,-1.443619281053543091e-02,1.829174160957336426e-02,-1.224850654602050781e+00,1.001455336809158325e-01,1.980213075876235962e-02,1.006604805588722229e-01,-4.731399565935134888e-02,-7.991462945938110352e-01,-1.380779594182968140e-02,-5.917097628116607666e-02,3.854193538427352905e-02,1.361060142517089844e-01,1.439079642295837402e+00,1.051715850830078125e+00,-1.625225067138671875e+01,-2.052756994962692261e-01,1.555402576923370361e-02,1.497600227594375610e-02,-3.772310167551040649e-02,6.832041777670383453e-03,-5.286736786365509033e-02,-1.347191691398620605e+00,-4.005661308765411377e-01,1.309579471126198769e-03,-3.952103108167648315e-02,-7.230423390865325928e-02,1.077510118484497070e+00,3.966468572616577148e-01,-6.887010484933853149e-02,-3.422490060329437256e-01,5.609105527400970459e-02,4.874867945909500122e-02,1.421274989843368530e-02,-4.116627573966979980e-02,-4.526083171367645264e-02,2.126904577016830444e-02,-3.681910336017608643e-01,-1.655305176973342896e-02,2.795352786779403687e-02,7.228717207908630371e-03,4.944173246622085571e-02,4.475568234920501709e-01,-7.171980142593383789e-01,5.341835319995880127e-03,3.744769096374511719e-02,5.252648144960403442e-02,4.666193947196006775e-02,3.735420107841491699e-02
3.831594437360763550e-02,-6.754467636346817017e-02,-4.642933905124664307e-01,-3.686665371060371399e-02,-4.525011777877807617e-02,-1.219335913658142090e+00,-2.819420397281646729e-02,3.515242040157318115e-02,-1.543898284435272217e-01,1.391544099897146225e-02,-5.067416280508041382e-02,5.823154747486114502e-02,-6.543962657451629639e-02,-1.542441546916961670e-01,-1.130780205130577087e-03,-2.496009692549705505e-02,-1.752986200153827667e-02,-8.716386556625366211e-01,-1.714350432157516479e-01,-2.906447649002075195e-02,-1.455027014017105103e-01,9.497437626123428345e-03,-2.220709621906280518e-02,5.464394390583038330e-02,5.106949433684349060e-02,5.114943906664848328e-02,-1.660196036100387573e-01,-8.128645271062850952e-02,-2.650936879217624664e-02,-4.502883926033973694e-02,-3.112519532442092896e-02,-5.407024547457695007e-02,-3.703343495726585388e-02,4.999288171529769897e-02,-1.684548705816268921e-02,-6.395459175109863281e-03,4.794776439666748047e-02,-3.497084975242614746e-02,-1.333905160427093506e-01,2.439059503376483917e-02,5.210900306701660156e-02,1.461590081453323364e-02,-2.264015376567840576e-01,-2.992164343595504761e-02,4.467489570379257202e-02,-2.863379567861557007e-02,-2.075815387070178986e-02,-6.789787858724594116e-02,-1.059158563613891602e+00,1.725050993263721466e-02,-1.160499453544616699e-02,3.954453021287918091e-02,-1.304183341562747955e-02,-4.302643984556198120e-02,-3.261221200227737427e-02,-2.519032359123229980e-01,-1.036155596375465393e-02,-3.629269450902938843e-02,-1.011699661612510681e-01,-4.008082672953605652e-02,-1.070427894592285156e-02,1.021272502839565277e-02,-1.539651304483413696e-02,-1.885005086660385132e-02,-3.092146813869476318e-01,5.429693032056093216e-03,-3.419451788067817688e-02,-5.996327847242355347e-02,-7.422390580177307129e-02,2.945670112967491150e-02,-2.027816325426101685e-02,-1.472043246030807495e-01,2.220033109188079834e-02,4.743836820125579834e-03,-6.566882133483886719e-02,4.627227410674095154e-02,-3.587878122925758362e-02,-2.690415084362030029e-02,2.364222519099712372e-02,-1.946730911731719971e-01,3.148426068946719170e-03,-5.430909991264343262e-02,-4.043447226285934448e-02,5.095262825489044189e-02,-6.062776222825050354e-02,3.051374666392803192e-02,-5.683683156967163086e-01,2.972221374511718750e-02,-6.470911204814910889e-02,-6.225901469588279724e-02,-4.362776875495910645e-02,-1.434812664985656738e+00,-7.302804589271545410e-01,1.028818637132644653e-02,-2.892124839127063751e-02,-5.965733528137207031e-02,-8.104153871536254883e-01,2.030631154775619507e-02,-2.259872108697891235e-02,-3.101849555969238281e-02,4.905173480510711670e-01,-2.756886184215545654e-01,-1.188574824482202530e-02,-5.665728822350502014e-02,-5.739040300250053406e-02,-8.830490708351135254e-02,-3.381506726145744324e-02,2.269092202186584473e-02,9.308976004831492901e-04,-4.395080730319023132e-03,3.788134828209877014e-02,4.626232199370861053e-03,3.249970078468322754e-02,3.115145117044448853e-02,6.122722849249839783e-02,1.765395328402519226e-02,-4.801761358976364136e-03,-1.076164171099662781e-01,-1.201752349734306335e-01,3.692875057458877563e-02,5.405906587839126587e-02,5.483768880367279053e-02,-1.775478422641754150e-01,3.395432233810424805e-02,-5.766509771347045898e-01,-5.011203885078430176e-01,2.938030287623405457e-02,-4.215892851352691650e-01,-1.699550628662109375e+00,-1.081500761210918427e-02,-6.543902158737182617e-01,-1.831418834626674652e-03,2.588786743581295013e-02,-1.657668687403202057e-02,5.067545920610427856e-02,2.483962662518024445e-02,-3.837059438228607178e-01,-3.006025403738021851e-02,-4.823020398616790771e-01,-5.878404527902603149e-02,-9.770564734935760498e-02,-1.128059387207031250e+00,-6.803472060710191727e-03,1.565651409327983856e-02,5.625367760658264160e-01,-5.158300325274467468e-02,-2.454274147748947144e-02,-5.446144938468933105e-01,-1.499792467802762985e-02,-1.951892524957656860e-01,-5.691601708531379700e-02,-3.086678683757781982e-02,-6.697232276201248169e-02,-4.561644047498703003e-02,-4.302342236042022705e-02,5.732598900794982910e-02,-3.128111362457275391e-02,1.686299219727516174e-02,5.898597836494445801e-02,-1.941804774105548859e-02,-3.800918161869049072e-01,-2.677194215357303619e-02,-2.891309559345245361e-03,-1.640405156649649143e-03,4.704337194561958313e-02,-1.324943173676729202e-02,-2.526524960994720459e-01,5.497717112302780151e-02,5.650026723742485046e-02,7.642835378646850586e-03,-1.272133784368634224e-03,3.826572746038436890e-02,-6.517962813377380371e-01,-9.427727013826370239e-02,-5.254250019788742065e-02,1.810961961746215820e-02,3.226648271083831787e-02,3.823321312665939331e-02,-9.797472506761550903e-02,-2.028130739927291870e-02,2.920892462134361267e-02,-2.395445257425308228e-01,-1.605882495641708374e-02,5.280968546867370605e-02,-6.125712767243385315e-03,-9.223174303770065308e-02,4.904799163341522217e-02,1.034698009490966797e+00,-4.537349194288253784e-02,1.135202217847108841e-02,-1.287500411272048950e-01,4.749256372451782227e-02,5.567817389965057373e-02,-5.959253385663032532e-02,-4.261373579502105713e-01,3.961247205734252930e-02,-2.120853066444396973e-01,-2.081447094678878784e-02,-7.806023955345153809e-02,5.022747442126274109e-02,-6.942277401685714722e-02,-1.524410862475633621e-02,1.021362375468015671e-02,-4.453160986304283142e-02,-1.364900823682546616e-02,-2.314918786287307739e-01,-8.185860514640808105e-01,-6.637170910835266113e-02,-2.950655668973922729e-02,4.700037837028503418e-02,1.957585066556930542e-01,6.150173139758408070e-04,-1.692806184291839600e-02,4.401360452175140381e-02,-2.386494167149066925e-02,-9.898577630519866943e-02,-8.165084756910800934e-03,-7.490772753953933716e-03,-4.966391623020172119e-02,-1.345264725387096405e-02,-4.548521339893341064e-01,-1.563861370086669922e-01,-6.855113506317138672e-01,-4.227389991283416748e-01,-4.287272226065397263e-03,-5.378648638725280762e-04,4.560934007167816162e-02,-2.483344823122024536e-02,1.738523095846176147e-01,-8.716799318790435791e-02,-5.596172213554382324e-01,-6.729792058467864990e-02,-2.951167151331901550e-02,-1.904641091823577881e-02,-3.272449374198913574e-01,-2.993137836456298828e-01,-2.255669236183166504e-01,-3.317146003246307373e-01,4.229930043220520020e-02,2.899982780218124390e-02,-6.757333874702453613e-03,4.391263425350189209e-02,-1.584744453430175781e-02,-6.060780584812164307e-02,-1.997725367546081543e-01,-4.688914492726325989e-02,-1.681544631719589233e-02,-2.202166430652141571e-02,-1.700554601848125458e-02,-3.246498107910156250e-01,8.701099082827568054e-03,3.308165585622191429e-03,3.589328378438949585e-02,4.340223968029022217e-03,3.301310352981090546e-03,-9.339892864227294922e-02
-1.947112381458282471e-02,-4.060321673750877380e-02,-1.234930157661437988e+00,-1.217589497566223145e+00,-2.555776387453079224e-02,6.889181137084960938e-01,1.977474242448806763e-02,-3.363451361656188965e-02,8.214227855205535889e-02,-1.262215971946716309e+00,1.958893239498138428e-02,-1.320462375879287720e-01,2.519036531448364258e-01,-8.075387477874755859e-01,4.598532244563102722e-02,-6.152789592742919922e-01,-1.419100351631641388e-02,-3.425543010234832764e-01,2.276523411273956299e-01,-2.961052954196929932e-01,-1.243756413459777832e+00,1.736817508935928345e-02,-3.619814664125442505e-02,-4.503547400236129761e-02,-7.687045261263847351e-03,4.159384593367576599e-02,-8.645983338356018066e-01,-1.198436617851257324e+00,3.580253571271896362e-02,-9.431599974632263184e-01,1.918442174792289734e-02,-5.182499811053276062e-02,2.169391885399818420e-02,-5.935191735625267029e-02,-4.507502168416976929e-02,2.818465977907180786e-02,-2.619162201881408691e-02,-4.376113787293434143e-02,8.542824536561965942e-02,1.071523036807775497e-02,-1.214599516242742538e-02,-5.994015932083129883e-02,-6.818863153457641602e-01,4.169288277626037598e-02,2.898771688342094421e-02,4.780957847833633423e-02,2.217865549027919769e-02,2.032710239291191101e-02,-2.041135728359222412e-01,3.994732350111007690e-02,5.363710224628448486e-02,4.450536519289016724e-02,-2.599033713340759277e-02,1.921541616320610046e-02,-5.952933430671691895e-01,-2.082212269306182861e-01,1.774127967655658722e-02,-8.392657637596130371e-01,-1.298297405242919922e+00,-4.090461879968643188e-02,-1.465391367673873901e-02,-5.662492662668228149e-02,-2.130913734436035156e-02,-5.019805207848548889e-02,-8.783941268920898438e+00,3.440307080745697021e-02,-3.560259938240051270e-02,-4.018562138080596924e-01,-7.463829517364501953e-01,1.131317019462585449e+00,-4.016397893428802490e-02,2.586195943877100945e-03,4.428876563906669617e-02,-4.183993488550186157e-02,2.673572115600109100e-02,-4.277436435222625732e-02,4.331614822149276733e-02,-1.804757595062255859e+00,2.799092605710029602e-02,-4.170578002929687500e+00,-2.461272001266479492e+00,5.561388097703456879e-04,-4.580419138073921204e-02,-2.919219620525836945e-02,-6.188954040408134460e-02,-1.828662864863872528e-02,2.756756544113159180e-01,2.808413654565811157e-02,5.654311552643775940e-02,4.715649038553237915e-02,1.046209689229726791e-02,-5.201098322868347168e-01,-2.548176646232604980e-01,1.351874961983412504e-04,2.655729092657566071e-02,-5.131236463785171509e-02,-7.696281187236309052e-03,-4.899330437183380127e-02,2.930370159447193146e-03,4.015261679887771606e-02,-6.159698218107223511e-02,1.158821061253547668e-01,3.332754597067832947e-03,-2.492496557533740997e-02,-6.067345663905143738e-02,-6.016498804092407227e-01,-2.223536372184753418e-02,4.249732196331024170e-02,5.957427248358726501e-02,-4.163952171802520752e-02,-4.911334067583084106e-02,-1.458082348108291626e-02,-1.543650683015584946e-02,-3.894639015197753906e-02,4.120051488280296326e-02,-5.553597956895828247e-02,3.465048968791961670e-02,7.083081722259521484e+00,-1.375529821962118149e-02,5.113527923822402954e-02,-5.591014772653579712e-02,-2.561290562152862549e-02,-1.298372626304626465e+00,-1.440306007862091064e-02,2.767035961151123047e-01,1.618917584419250488e-01,6.628502160310745239e-02,-1.121752619743347168e+00,1.161984130740165710e-01,-2.353814616799354553e-02,-8.365402221679687500e-01,2.142224833369255066e-02,2.714332342147827148e-01,2.172206155955791473e-02,3.039101697504520416e-02,3.268897533416748047e-02,-4.063635468482971191e-01,2.919538319110870361e-02,2.688140142709016800e-03,3.431010991334915161e-02,5.523397326469421387e-01,4.102238416671752930e-01,-5.873757004737854004e-01,-2.417396567761898041e-02,-1.665783487260341644e-02,-4.294118285179138184e-01,-1.189397946000099182e-01,-7.702831625938415527e-01,4.072264134883880615e-01,-3.767876625061035156e-01,-3.746626663208007812e+01,4.910862445831298828e-02,-6.405002903193235397e-03,6.071119755506515503e-02,5.836939066648483276e-02,-1.126835495233535767e-02,-2.908569574356079102e-02,2.558145858347415924e-02,-1.844007708132266998e-02,-5.476212128996849060e-02,-1.749614924192428589e-01,-3.917415440082550049e-02,1.379983872175216675e-02,5.730780586600303650e-02,2.967700175940990448e-02,-3.974657654762268066e-01,-3.615210056304931641e-01,-1.683125853538513184e+00,2.390015870332717896e-02,2.554726600646972656e-01,4.209697246551513672e-03,2.020945101976394653e-01,3.358425498008728027e-01,-4.995022118091583252e-01,-3.754893317818641663e-02,8.824825286865234375e-02,2.682467550039291382e-02,3.460666909813880920e-02,1.902153342962265015e-01,-2.984623983502388000e-02,6.201113760471343994e-02,-3.005013167858123779e-01,-3.935839980840682983e-02,2.877980470657348633e-02,1.888007223606109619e-01,5.453418940305709839e-02,-2.040187358856201172e+00,-1.514703035354614258e-05,4.540823400020599365e-03,4.257923364639282227e-02,1.804312020540237427e-01,-3.133572265505790710e-02,3.383452445268630981e-02,5.812477692961692810e-02,2.022163383662700653e-02,-1.705295965075492859e-02,-1.649690270423889160e-01,-1.600916124880313873e-02,-2.194948196411132812e-01,3.222460672259330750e-02,-6.716525554656982422e-02,3.808538988232612610e-02,-3.580951988697052002e-01,1.630627065896987915e-01,-8.622460998594760895e-03,-5.332903861999511719e-01,-4.897012710571289062e-01,3.494480391964316368e-03,1.581868529319763184e-02,-2.416156232357025146e-02,-1.445301532745361328e+00,-8.800032734870910645e-01,2.865185961127281189e-02,-8.799947798252105713e-02,5.970330163836479187e-02,-3.035893440246582031e-01,-4.828426614403724670e-02,3.972109779715538025e-02,6.225905567407608032e-02,8.241143822669982910e-01,-3.408185839653015137e-01,-1.041652485728263855e-01,-2.315947264432907104e-01,-1.077681183815002441e+00,-6.911716423928737640e-03,-2.041937597095966339e-02,9.466229821555316448e-04,-6.040966510772705078e-02,-6.870999932289123535e-03,-8.001271486282348633e-01,-1.161655712127685547e+01,2.794238179922103882e-02,1.219909638166427612e-02,2.219783514738082886e-02,-1.584905862808227539e+00,-7.741103172302246094e+00,3.118450194597244263e-02,-1.152402877807617188e+00,-4.788858443498611450e-02,-5.928132683038711548e-02,3.593946993350982666e-02,6.412021815776824951e-03,-1.490337587893009186e-02,-3.673166409134864807e-02,-2.781369686126708984e-01,3.722321987152099609e-02,-5.258043110370635986e-02,1.837015151977539062e-02,-3.450215980410575867e-02,2.256429344415664673e-01,-1.375210046768188477e+00,-3.677845001220703125e-02,-6.135031580924987793e-02,-2.573326975107192993e-02,-9.361875243484973907e-03,1.633490249514579773e-02
4.781659319996833801e-02,1.846243394538760185e-03,-1.070732355117797852e+00,1.024389505386352539e+00,-5.531654506921768188e-02,-1.925653219223022461e+00,-3.177531808614730835e-02,-4.262174665927886963e-02,-7.401341199874877930e-02,-5.680016474798321724e-04,1.040205126628279686e-03,-9.806762449443340302e-03,-1.206088587641716003e-01,-9.918022751808166504e-01,-3.016671724617481232e-02,-1.469425559043884277e-01,1.804415485821664333e-03,-2.215287923812866211e+00,-6.381501555442810059e-01,5.249716714024543762e-02,-1.267713546752929688e+00,-3.737790137529373169e-02,-3.426221385598182678e-02,-4.402311518788337708e-02,-8.513047359883785248e-03,-2.465910464525222778e-02,-1.151656389236450195e+00,4.837739169597625732e-01,4.032289725728332996e-04,1.107505917549133301e+00,-5.509585514664649963e-02,1.312371045351028442e-01,-4.301442578434944153e-02,4.717303067445755005e-02,2.605863660573959351e-02,-4.021716490387916565e-02,1.469468235969543457e+00,2.731412649154663086e-03,-2.949684858322143555e+00,-2.555404789745807648e-02,-2.888719923794269562e-02,6.623685359954833984e-03,-9.777638912200927734e-01,-4.238757491111755371e-02,-3.627596888691186905e-03,-2.230895496904850006e-02,5.561158806085586548e-02,-4.639242589473724365e-02,-3.730950057506561279e-01,-3.630384057760238647e-02,1.194310653954744339e-02,5.717509239912033081e-02,6.048052385449409485e-02,1.770105212926864624e-02,-1.381633430719375610e-01,-1.694715380668640137e+00,-2.048993337666615844e-04,-1.983660936355590820e+00,-9.570483565330505371e-01,-5.183630157262086868e-03,2.828202396631240845e-02,-4.363045468926429749e-02,5.474242568016052246e-02,6.482457369565963745e-02,-1.598754763603210449e+00,9.295572526752948761e-03,-3.438382595777511597e-02,-1.038641482591629028e-01,6.907033324241638184e-01,-1.443051081150770187e-02,-1.574485749006271362e-02,-5.635396242141723633e-01,3.009009733796119690e-02,-7.683710195124149323e-03,-1.370897609740495682e-02,-3.641897439956665039e-02,1.013973429799079895e-01,-1.709212362766265869e-01,-2.701051905751228333e-02,7.712551951408386230e-01,5.982165336608886719e-01,2.977340109646320343e-02,-6.603594869375228882e-02,2.283746004104614258e-02,2.017206698656082153e-02,-1.778968237340450287e-02,-9.937009811401367188e-01,-2.383844181895256042e-02,4.035227000713348389e-03,-1.176837924867868423e-02,-9.300953242927789688e-04,1.246278882026672363e+00,-1.814789026975631714e-01,2.002289751544594765e-03,-4.472814500331878662e-02,1.227217842824757099e-03,-1.124675631523132324e+00,3.333778679370880127e-02,-2.371776103973388672e-02,3.935336321592330933e-02,-1.265128552913665771e-01,-5.250803753733634949e-02,1.330784708261489868e-02,-5.910270381718873978e-03,-4.153019934892654419e-02,-5.579404830932617188e-01,-2.161141112446784973e-02,7.176965475082397461e-02,3.698770701885223389e-02,9.078146889805793762e-03,-4.877983033657073975e-02,2.073432505130767822e-02,4.681724682450294495e-02,2.553903311491012573e-02,7.745476812124252319e-02,-5.554590374231338501e-02,-1.278397291898727417e-01,-2.459201067686080933e-01,-9.726400673389434814e-02,2.242948859930038452e-02,2.381093072472140193e-04,1.459112204611301422e-02,-7.584098577499389648e-01,5.432577803730964661e-02,1.899148821830749512e-01,-1.441924929618835449e+00,1.820296049118041992e-02,-1.064669370651245117e+00,-2.401955723762512207e-01,-4.336702078580856323e-02,-9.685497879981994629e-01,4.641258344054222107e-02,-1.066676855087280273e+00,-2.229199977591633797e-03,9.350635111331939697e-02,2.518305927515029907e-02,9.035263210535049438e-02,-4.524569958448410034e-02,-4.244185984134674072e-01,5.828987434506416321e-02,1.281944960355758667e-01,6.627067327499389648e-01,-1.753490269184112549e-01,3.930720314383506775e-02,-1.243566125631332397e-01,1.683000773191452026e-01,-4.572797119617462158e-01,-1.011088728904724121e+00,3.320699930191040039e-01,-5.776807665824890137e-01,-4.106163978576660156e-01,-9.079367853701114655e-03,1.892582327127456665e-02,-3.430417552590370178e-02,-3.574094921350479126e-02,3.043610788881778717e-02,-1.765178889036178589e-02,7.125912234187126160e-03,4.092505201697349548e-02,-1.979568600654602051e-02,-2.012385368347167969e+00,-3.949584811925888062e-02,-4.905968904495239258e-02,-1.120577812194824219e+00,8.990839123725891113e-04,-1.432029902935028076e-01,6.753487139940261841e-02,1.047818183898925781e+00,-5.597177520394325256e-02,2.789882384240627289e-02,3.023986220359802246e-01,1.060799658298492432e-01,-1.541033536195755005e-01,7.777869701385498047e-01,4.008041322231292725e-02,-8.055865764617919922e-04,-6.114933267235755920e-02,1.366471964865922928e-02,9.299408644437789917e-03,5.564495921134948730e-03,3.889309614896774292e-02,-1.031270146369934082e+00,-3.078935295343399048e-02,1.525227539241313934e-02,4.162673652172088623e-01,-1.995836198329925537e-01,-7.672791481018066406e-01,-4.303593933582305908e-02,1.253075525164604187e-02,-4.918088391423225403e-02,4.999014437198638916e-01,4.014275968074798584e-03,-4.707136750221252441e-02,1.010708510875701904e-03,-9.755682349205017090e-01,-3.639946505427360535e-02,-9.793449044227600098e-01,2.526944130659103394e-02,-3.085049092769622803e-01,-2.564263530075550079e-02,2.396035671234130859e+00,3.542021661996841431e-02,-1.674181222915649414e+00,-8.186250925064086914e-02,-4.855982493609189987e-03,-7.809243798255920410e-01,-2.763891518115997314e-01,-4.176205769181251526e-02,2.586941421031951904e-02,-2.040947228670120239e-02,-2.338234424591064453e+00,1.043890342116355896e-01,-3.580350056290626526e-02,-3.321102559566497803e-01,7.839172333478927612e-02,4.091360569000244141e-01,-3.563810884952545166e-02,5.049296095967292786e-02,-7.103251665830612183e-02,1.064605712890625000e+00,-1.230983063578605652e-01,9.305313974618911743e-02,3.360432386398315430e-02,1.097971320152282715e+00,3.632739931344985962e-02,-9.907643310725688934e-03,2.691878750920295715e-02,7.474800106137990952e-03,6.607571989297866821e-02,-7.939116954803466797e-01,-6.556151509284973145e-01,5.070074647665023804e-02,1.122324913740158081e-02,-8.979144506156444550e-03,-3.708816170692443848e-01,-1.275764226913452148e+00,1.522287875413894653e-01,-2.458433866500854492e+00,-2.685262076556682587e-02,3.848833218216896057e-02,3.564404323697090149e-02,-1.147090550512075424e-02,3.787627071142196655e-02,-3.382615745067596436e-03,-9.165282845497131348e-01,-5.955993663519620895e-03,-2.359634637832641602e-02,-6.461766362190246582e-02,-4.999602958559989929e-02,-2.662839412689208984e+00,-1.751397967338562012e+00,1.716838181018829346e-01,-9.742073714733123779e-03,-8.904916234314441681e-03,1.202262416481971741e-01,5.217046141624450684e-01
-6.127227097749710083e-02,6.894370744703337550e-05,-6.292548775672912598e-02,1.002496957778930664e+00,-3.226256370544433594e-02,-1.610032677650451660e+00,-3.492876887321472168e-02,6.248089671134948730e-02,8.736004829406738281e-01,-1.245587825775146484e+00,-2.626131474971771240e-02,-5.614938586950302124e-02,-1.716027855873107910e+00,-6.980006694793701172e-01,-1.115335384383797646e-03,-1.146627664566040039e+00,4.878282919526100159e-02,-5.394794940948486328e-01,-1.356468796730041504e-01,3.228064253926277161e-02,1.044154286384582520e+00,-5.019929632544517517e-02,1.508918032050132751e-02,-6.636416912078857422e-02,8.186528459191322327e-03,5.449697375297546387e-03,-4.065811634063720703e-01,9.862022995948791504e-01,8.580838888883590698e-02,-5.431069731712341309e-01,-2.642294578254222870e-02,6.427833437919616699e-02,5.850480869412422180e-02,-6.277734786272048950e-02,3.072334267199039459e-02,-1.235873624682426453e-02,6.973988413810729980e-01,-1.237615346908569336e-01,-2.093119323253631592e-01,-1.414288673549890518e-02,-1.047575939446687698e-02,-7.087483070790767670e-03,1.513255596160888672e+00,1.590571179986000061e-02,1.607807911932468414e-02,2.981691807508468628e-02,3.159908577799797058e-03,-2.775452658534049988e-02,2.987118363380432129e-01,4.851489514112472534e-02,-8.171895518898963928e-03,-3.651529923081398010e-02,-9.130304679274559021e-04,-2.977047115564346313e-02,-5.430711507797241211e-01,-1.765763044357299805e+00,4.748248681426048279e-02,-4.825903475284576416e-01,-5.328938364982604980e-01,-4.845258221030235291e-02,-5.135896801948547363e-02,-6.008007749915122986e-02,4.932478070259094238e-03,4.400084167718887329e-02,-3.133422434329986572e-01,-3.503293544054031372e-02,4.933845251798629761e-02,-1.440477967262268066e+00,-8.556908369064331055e-01,-3.473891913890838623e-01,-9.176949970424175262e-03,-5.926364660263061523e-01,6.423620879650115967e-02,-7.216954976320266724e-02,-4.504808038473129272e-02,7.161798328161239624e-02,1.133151277899742126e-01,1.359754562377929688e+00,3.913174569606781006e-02,-5.837689042091369629e-01,6.317555904388427734e-01,-8.578466624021530151e-02,-1.134057343006134033e-01,5.814488977193832397e-02,7.566837128251791000e-03,4.631611704826354980e-02,2.611343860626220703e+00,4.812527820467948914e-02,4.793359339237213135e-02,-7.514315098524093628e-02,6.928614806383848190e-03,-2.623304724693298340e-01,-1.063583612442016602e+00,-2.416653558611869812e-02,7.739055156707763672e-02,-6.636808812618255615e-02,-8.757290244102478027e-01,-2.105413563549518585e-02,4.553633183240890503e-02,3.209952637553215027e-02,-4.550565481185913086e-01,1.022923469543457031e+00,1.250165048986673355e-02,2.034527249634265900e-02,6.858216971158981323e-02,1.186227917671203613e+00,-2.864424325525760651e-02,-8.907406590878963470e-04,4.835037887096405029e-02,3.117058612406253815e-02,-5.828953534364700317e-02,1.390348374843597412e-02,6.382734980434179306e-03,2.532665990293025970e-02,7.453118264675140381e-02,-5.810716748237609863e-02,-6.141729280352592468e-02,-1.725753843784332275e-01,3.569971919059753418e-01,-2.073732763528823853e-02,2.490911446511745453e-02,-1.818597689270973206e-02,-1.027460336685180664e+00,2.757375873625278473e-02,4.796817898750305176e-01,-1.703090906143188477e+00,2.110792696475982666e-02,3.154698759317398071e-02,-1.334112286567687988e+00,-3.072452358901500702e-02,8.280115723609924316e-01,2.069991640746593475e-02,-1.809864282608032227e+00,-3.247137367725372314e-02,6.763136386871337891e-02,5.721101909875869751e-02,2.655973732471466064e-01,1.844147592782974243e-02,-4.289454519748687744e-01,5.929159233346581459e-04,6.293733417987823486e-02,3.868393659591674805e+00,1.670013517141342163e-01,-2.570550329983234406e-02,-1.267129778861999512e-01,9.536286443471908569e-02,-1.154664039611816406e+00,-4.099535942077636719e-02,-1.084469705820083618e-01,2.758215427398681641e+00,9.931898117065429688e-01,3.457247465848922729e-02,1.976269111037254333e-02,-6.216844078153371811e-03,-2.634123899042606354e-02,1.015373854897916317e-03,2.839855104684829712e-02,-2.891230024397373199e-02,-2.184316888451576233e-02,3.693147003650665283e-02,-4.843368530273437500e-01,1.049211714416742325e-02,1.453126408159732819e-02,-8.161838650703430176e-01,-1.294915378093719482e-02,-5.507138371467590332e-01,-2.559249877929687500e+00,1.381275773048400879e+00,-5.973444785922765732e-03,6.824526190757751465e-02,-5.430414676666259766e-01,-2.452953532338142395e-02,2.390792816877365112e-01,-1.096606135368347168e+00,-5.188308656215667725e-03,-8.570396900177001953e-02,8.953761309385299683e-03,2.806536387652158737e-03,1.985386908054351807e-01,8.330627530813217163e-02,-9.009410627186298370e-03,-2.056213855743408203e+00,5.508262664079666138e-02,3.462083637714385986e-03,2.341245859861373901e-01,-1.137611627578735352e+00,-3.040869235992431641e-01,-1.161012202501296997e-01,-7.424075901508331299e-02,3.179611638188362122e-02,-1.249159693717956543e+00,-4.567038267850875854e-02,-2.885788306593894958e-02,5.795098096132278442e-02,-2.554319202899932861e-01,4.495154693722724915e-02,-4.497423768043518066e-01,-2.540341950953006744e-02,6.994527578353881836e-02,9.644417464733123779e-02,3.495930194854736328e+00,3.383470326662063599e-02,-1.657162666320800781e+00,1.311598271131515503e-01,-7.521461695432662964e-02,-1.044013500213623047e+00,1.000236868858337402e+00,-2.171718329191207886e-02,-3.205851465463638306e-02,1.160021219402551651e-02,-6.750704050064086914e-01,5.309069156646728516e-01,-4.559506196528673172e-03,1.239065647125244141e+00,2.268823049962520599e-02,-1.321360111236572266e+00,9.178906679153442383e-02,5.937507376074790955e-02,2.371688373386859894e-03,2.991614937782287598e-01,6.623651832342147827e-02,-7.639006376266479492e-01,-1.231648623943328857e-01,1.350939869880676270e+00,9.123809635639190674e-03,8.501420170068740845e-02,-1.600250974297523499e-02,-8.316179364919662476e-02,1.637385934591293335e-01,-9.947866201400756836e-01,2.978419959545135498e-01,-1.937260292470455170e-02,-2.911666035652160645e-02,6.169458106160163879e-02,2.011495351791381836e+00,-9.837142825126647949e-01,7.514222711324691772e-02,-1.949582457542419434e+00,-1.404548157006502151e-02,-7.583136111497879028e-02,-4.644728824496269226e-02,-5.465125292539596558e-02,4.570483416318893433e-02,-3.043446689844131470e-02,-1.296672105789184570e+00,1.559865847229957581e-02,-7.802544534206390381e-02,-4.334257915616035461e-02,1.451750658452510834e-02,-8.341052532196044922e-01,-4.125721156597137451e-01,1.492898762226104736e-01,3.415426239371299744e-02,2.391130663454532623e-02,2.140318602323532104e-02,-7.499314546585083008e-01
9.421971626579761505e-03,-8.246202021837234497e-02,-1.526614785194396973e+00,-4.293482005596160889e-01,1.023543160408735275e-02,-8.761284947395324707e-01,1.494495570659637451e-02,-7.234456017613410950e-03,-8.427883386611938477e-01,-1.681769132614135742e+00,3.478995710611343384e-02,-1.468560099601745605e-01,4.889186918735504150e-01,-2.640999078750610352e+00,-1.213459298014640808e-02,6.011009812355041504e-01,3.902570903301239014e-02,-5.293542146682739258e-01,-1.185770511627197266e+00,1.556555647403001785e-02,-1.204273104667663574e+00,4.650601744651794434e-02,2.541853301227092743e-02,-1.723480224609375000e-02,4.990495368838310242e-02,-3.149431198835372925e-02,-7.297776937484741211e-01,-3.190161466598510742e+00,1.555524021387100220e-02,-9.386191368103027344e-01,-5.935216322541236877e-03,5.943926051259040833e-02,-2.366248518228530884e-02,-2.372575923800468445e-02,2.500765770673751831e-02,2.338944375514984131e-02,-1.614693254232406616e-01,2.747818827629089355e-02,-8.980243802070617676e-01,3.761078044772148132e-02,8.007086068391799927e-02,4.290208220481872559e-02,3.635863363742828369e-01,-3.481920808553695679e-02,3.708952292799949646e-02,5.923703312873840332e-03,-4.634830728173255920e-02,3.597940504550933838e-02,-1.799247264862060547e+00,-2.496959082782268524e-02,4.440903663635253906e-02,1.730681955814361572e-02,4.811182618141174316e-02,2.932976000010967255e-02,-1.320414096117019653e-01,-3.088849782943725586e-02,-6.675375625491142273e-03,-3.560164868831634521e-01,-1.525426745414733887e+00,-1.214382518082857132e-02,-3.721794486045837402e-02,-2.476705983281135559e-02,-5.193319171667098999e-02,-5.928554758429527283e-02,-8.338756561279296875e-01,2.562529221177101135e-02,3.800576552748680115e-02,-1.225022912025451660e+00,-9.815235733985900879e-01,-1.315889835357666016e+00,-1.701046526432037354e-02,4.888986945152282715e-01,-2.142150141298770905e-02,5.883454531431198120e-02,3.640001267194747925e-02,2.855590917170047760e-02,1.027399487793445587e-02,-1.779851615428924561e-01,2.601906843483448029e-02,-5.082141160964965820e-01,-9.793733358383178711e-01,2.553889341652393341e-02,4.290647804737091064e-02,-5.745085701346397400e-02,5.953561887145042419e-02,2.774106152355670929e-02,-1.618396341800689697e-01,-4.077411442995071411e-02,-6.132440175861120224e-03,-7.340973615646362305e-01,-1.675344817340373993e-02,-2.477773651480674744e-02,-6.580544114112854004e-01,-2.278620749711990356e-02,5.969003587961196899e-02,4.335200786590576172e-02,5.995987057685852051e-01,-2.582244575023651123e-03,-4.698610398918390274e-03,6.103847175836563110e-02,-2.933834493160247803e-02,-5.043689012527465820e-01,-5.600823834538459778e-02,-2.159462682902812958e-02,-3.333829715847969055e-02,-1.072000861167907715e+00,-4.526681266725063324e-03,-1.572575420141220093e-02,4.573593288660049438e-02,1.628467254340648651e-02,1.113529223948717117e-02,-2.493630535900592804e-02,-8.889794349670410156e-02,5.922909080982208252e-02,-6.270311772823333740e-02,-3.769970033317804337e-03,-3.475714847445487976e-02,5.159480094909667969e+00,-7.897992432117462158e-02,-6.075946241617202759e-02,-3.820323571562767029e-02,5.854944884777069092e-02,-1.673167467117309570e+00,-3.048716485500335693e-02,-3.468126356601715088e-01,-1.912198364734649658e-01,-1.418985798954963684e-02,-1.525601595640182495e-01,-1.393488168716430664e+00,4.916961118578910828e-02,-1.049043059349060059e+00,-1.158030405640602112e-01,1.728341877460479736e-01,-2.579743042588233948e-02,-1.150321308523416519e-02,2.572124451398849487e-02,-6.585854291915893555e-01,-1.970425993204116821e-02,-2.072481662034988403e-01,6.111077964305877686e-03,-6.130184531211853027e-01,-6.914051175117492676e-01,-3.517507016658782959e-01,-4.367253556847572327e-02,-5.720650032162666321e-02,-8.719037473201751709e-02,-9.712265133857727051e-01,9.497732520103454590e-01,-1.032432317733764648e+00,-1.750425398349761963e-01,-2.514109849929809570e+00,-6.119017302989959717e-02,-2.969439886510372162e-02,-4.620236903429031372e-02,-4.292989522218704224e-02,4.912629723548889160e-02,-4.580853134393692017e-02,-1.402908843010663986e-02,5.776950716972351074e-02,-3.194320946931838989e-02,-1.485464692115783691e+00,-2.164625190198421478e-02,-3.713233023881912231e-02,-6.738880276679992676e-01,1.673406455665826797e-03,4.812973439693450928e-01,5.433996915817260742e-01,-2.188421189785003662e-01,-6.417108234018087387e-03,1.139566078782081604e-01,8.481807112693786621e-01,-2.451892644166946411e-01,-1.069192767143249512e+00,-1.522333025932312012e-01,3.336044773459434509e-02,5.745380744338035583e-02,6.920390296727418900e-03,2.622573077678680420e-02,2.398018911480903625e-02,1.367182191461324692e-02,3.580196201801300049e-02,-1.315253257751464844e+00,4.331459850072860718e-02,-1.479648053646087646e-02,-1.511595010757446289e+00,2.913300275802612305e+00,-1.729711592197418213e-01,-3.205575793981552124e-02,-3.209885209798812866e-02,-3.752047941088676453e-02,6.843484640121459961e-01,-6.070230156183242798e-02,-7.805517315864562988e-02,5.499713495373725891e-02,-9.502109885215759277e-01,-2.946100383996963501e-02,-1.326421499252319336e+00,2.431028336286544800e-02,-2.045136243104934692e-01,-3.494200855493545532e-02,-8.506326377391815186e-02,3.594367206096649170e-02,-1.553946852684020996e+00,8.649048209190368652e-02,4.970295727252960205e-02,8.434076905250549316e-01,-4.552779197692871094e-01,-8.756501600146293640e-03,-4.600577056407928467e-03,2.275250852108001709e-02,-7.852798700332641602e-01,-3.633403480052947998e-01,-1.888026483356952667e-02,-2.630089521408081055e-01,-2.322791330516338348e-02,1.027493327856063843e-01,-1.824060641229152679e-02,3.182464512065052986e-03,3.994429111480712891e-02,1.908639222383499146e-01,-3.452733278274536133e+00,-7.255783677101135254e-01,-1.294974565505981445e+00,-2.701966047286987305e+00,6.480128318071365356e-02,2.313549071550369263e-02,7.168295234441757202e-02,-2.224509418010711670e-02,-5.513844545930624008e-03,-7.509424090385437012e-01,-5.265933275222778320e-01,3.252719296142458916e-03,-4.748202115297317505e-02,6.060082465410232544e-02,-1.209468126296997070e+00,-1.390857219696044922e+00,5.014245957136154175e-02,-7.018401622772216797e-01,-7.573833223432302475e-03,-2.391811646521091461e-02,3.812678903341293335e-02,5.217580869793891907e-02,2.644141763448715210e-02,-1.249155122786760330e-02,-8.394666314125061035e-01,-3.414903953671455383e-02,5.253423005342483521e-02,6.073578447103500366e-02,-6.339501589536666870e-02,-1.540508508682250977e+00,-1.111835122108459473e+00,-2.731768228113651276e-02,7.238531112670898438e-02,5.817157775163650513e-02,1.043569948524236679e-02,-6.050230264663696289e-01
2.229865640401840210e-04,4.895632714033126831e-02,-1.176167249679565430e+00,-2.330994129180908203e+00,5.219231545925140381e-02,1.302041769027709961e+00,3.000438958406448364e-02,4.258125275373458862e-02,-8.927906155586242676e-01,-1.203052043914794922e+00,3.799267113208770752e-03,-1.305513828992843628e-01,6.308829188346862793e-01,-3.082705736160278320e+00,-1.168397907167673111e-02,-1.970220804214477539e-01,-4.241065308451652527e-02,-6.710845232009887695e-01,-4.370244592428207397e-02,-2.626769542694091797e-01,-5.537112355232238770e-01,-7.328353822231292725e-02,6.162392348051071167e-02,-4.476651549339294434e-03,3.880880028009414673e-02,3.483007103204727173e-02,-1.356760025024414062e+00,-5.161973834037780762e-01,-4.456015676259994507e-02,-1.905135035514831543e+00,8.551878854632377625e-03,1.149382162839174271e-02,-2.242740802466869354e-02,-1.878534816205501556e-02,3.665395826101303101e-02,-5.427590757608413696e-02,-3.552142158150672913e-02,2.166840620338916779e-02,-5.611959695816040039e-01,1.131741213612258434e-03,1.160530839115381241e-02,-3.006428480148315430e-03,2.004638314247131348e-01,3.359348326921463013e-02,1.036104261875152588e-01,1.512461993843317032e-02,-2.273938851431012154e-03,1.509846420958638191e-03,-1.475759625434875488e+00,2.839934080839157104e-02,6.128762662410736084e-02,4.230039566755294800e-02,-3.083935566246509552e-02,-5.205355212092399597e-02,-9.581592679023742676e-01,-2.064982354640960693e-01,3.532499074935913086e-02,3.191148340702056885e-01,-4.386933445930480957e-01,2.404136769473552704e-02,-2.216890454292297363e-02,2.911305241286754608e-02,-4.121962934732437134e-02,-5.254697799682617188e-02,-9.091633558273315430e-01,-5.816610530018806458e-03,5.238362401723861694e-02,-1.023491859436035156e+00,4.360710456967353821e-02,-1.129962563514709473e+00,-5.747735500335693359e-02,-6.951478123664855957e-02,4.021241143345832825e-02,-1.567753404378890991e-02,-1.979066431522369385e-02,-4.258579760789871216e-02,9.080672636628150940e-03,-1.206441879272460938e+00,6.198980286717414856e-02,-2.085677623748779297e+00,-7.780889868736267090e-01,6.254067178815603256e-03,-2.603576332330703735e-02,3.322651982307434082e-02,-1.846228726208209991e-02,1.250834763050079346e-02,-1.380777120590209961e+00,-1.398533582687377930e-02,-1.320882327854633331e-02,1.034931391477584839e-01,-1.142469421029090881e-02,-9.983581304550170898e-01,-2.264402359724044800e-01,5.133612081408500671e-02,6.583738327026367188e-02,5.619309097528457642e-02,-1.000354886054992676e-01,-3.674677759408950806e-02,-9.723000228404998779e-03,2.493765950202941895e-02,-6.300523411482572556e-03,3.235472366213798523e-03,5.164838209748268127e-02,-3.218401223421096802e-02,2.196930162608623505e-02,4.526717960834503174e-02,-4.832000005990266800e-03,3.502818197011947632e-02,-1.900683529675006866e-02,-5.413587763905525208e-02,5.455057695508003235e-02,6.066917628049850464e-02,4.106366634368896484e-02,2.798705548048019409e-02,-1.456368900835514069e-02,4.026161506772041321e-02,2.618219144642353058e-02,4.217152118682861328e+00,-3.156333416700363159e-02,-4.277493804693222046e-02,3.818279132246971130e-02,-3.890958428382873535e-02,-5.732206106185913086e-01,-8.079171180725097656e-03,-4.172807633876800537e-01,4.284623861312866211e-01,1.382323354482650757e-02,-3.462474942207336426e-01,-8.638997077941894531e-01,-6.650947034358978271e-02,-3.186003446578979492e+00,2.470743097364902496e-02,-3.928136527538299561e-01,-3.544118255376815796e-02,4.536689724773168564e-03,1.516082230955362320e-02,1.394483540207147598e-02,-5.808904767036437988e-03,-6.884159147739410400e-02,-1.249164342880249023e-04,-9.126892089843750000e-01,1.609532535076141357e-01,1.183519884943962097e-01,-4.531169682741165161e-02,7.718781009316444397e-03,1.428161859512329102e-01,5.073027610778808594e-01,1.569821089506149292e-01,-6.559835672378540039e-01,-3.625653505325317383e+00,-2.250015068054199219e+01,1.696819067001342773e-02,-6.567463278770446777e-02,5.797803401947021484e-03,3.906826674938201904e-02,9.796805679798126221e-03,-5.373496562242507935e-02,2.655306272208690643e-02,-2.953416854143142700e-02,2.619758434593677521e-02,-4.749052226543426514e-03,-2.990796789526939392e-02,2.711482346057891846e-02,-4.803604185581207275e-01,2.796435542404651642e-02,-1.272279676049947739e-02,6.689293980598449707e-01,-2.750880122184753418e-01,-1.974130980670452118e-02,1.054228562861680984e-02,-5.030864477157592773e-01,8.477716445922851562e-01,-1.390869915485382080e-01,-1.388670444488525391e+00,2.504906384274363518e-03,-4.906533658504486084e-02,3.881975635886192322e-02,-6.073705106973648071e-02,1.744921505451202393e-01,-1.157107669860124588e-02,4.677962511777877808e-02,-2.930988967418670654e-01,-4.159834980964660645e-02,-4.335651546716690063e-02,2.290170937776565552e-01,5.231240987777709961e-01,-1.587650775909423828e+00,-6.108124554157257080e-02,4.326345026493072510e-02,4.119114950299263000e-02,-1.421439290046691895e+00,-1.107099652290344238e-02,-4.981257766485214233e-02,-2.936295606195926666e-02,-6.687915325164794922e-02,-2.153297886252403259e-02,-1.412904262542724609e-01,3.241598233580589294e-02,-1.415224969387054443e-01,-2.272495999932289124e-02,3.227548440918326378e-03,-2.163192257285118103e-02,-2.889106273651123047e-01,-1.526333987712860107e-01,-3.375681862235069275e-02,1.295779645442962646e-01,-4.326088726520538330e-01,-6.141719594597816467e-02,2.844872325658798218e-02,-3.414966911077499390e-02,-1.082243323326110840e+00,-1.974715441465377808e-01,8.043269626796245575e-03,-1.630961775779724121e+00,8.616764680482447147e-04,2.635507881641387939e-01,6.074322387576103210e-02,-3.613455593585968018e-02,-5.643986910581588745e-02,7.189235687255859375e-01,-1.049493670463562012e+00,-8.251130580902099609e-01,1.627538651227951050e-01,3.613574802875518799e-01,-3.289723396301269531e-02,1.623824238777160645e-02,-5.092239752411842346e-02,-3.480380028486251831e-02,3.058793395757675171e-02,-1.409197688102722168e+00,-6.129849910736083984e+00,4.928563535213470459e-02,-4.713610559701919556e-02,3.237298806197941303e-04,-7.808600366115570068e-02,-2.604768514633178711e+00,-1.120851263403892517e-01,-9.632705152034759521e-02,-1.905957609415054321e-02,5.971287190914154053e-02,4.267879575490951538e-02,-4.348254203796386719e-02,2.325393259525299072e-03,-5.354640074074268341e-03,-2.584562897682189941e-01,2.925189910456538200e-04,5.921483784914016724e-02,-2.409410476684570312e-02,3.125691413879394531e-02,1.898388981819152832e+00,-1.234342455863952637e+00,-1.345281489193439484e-03,-7.661261409521102905e-02,5.197366327047348022e-02,-4.538516327738761902e-02,-9.323202818632125854e-02
-9.466741979122161865e-02,-1.797106489539146423e-02,-1.729471921920776367e+00,4.471009671688079834e-01,7.635938376188278198e-02,-1.964077115058898926e+00,2.208113111555576324e-02,6.720304489135742188e-02,-1.937752723693847656e+00,-3.683219850063323975e-01,7.269667088985443115e-02,-1.949882358312606812e-01,-7.274360656738281250e-01,8.188368082046508789e-01,3.035939112305641174e-02,-7.608307003974914551e-01,6.558904796838760376e-02,-1.122505664825439453e+00,-2.783821895718574524e-02,-3.424964472651481628e-02,-3.148339688777923584e-01,-3.496629372239112854e-02,1.111198507715016603e-04,1.383140124380588531e-02,-8.270438015460968018e-02,3.283441066741943359e-02,3.370943367481231689e-01,-2.056635856628417969e+00,6.921878457069396973e-02,8.556005358695983887e-01,6.586291640996932983e-02,1.215898171067237854e-01,6.786520034074783325e-02,6.652226299047470093e-02,7.639760733582079411e-04,-3.101951070129871368e-02,-3.732699155807495117e-01,7.432369887828826904e-02,-1.886424422264099121e-01,-2.933588810265064240e-02,-5.391649529337882996e-02,5.347736179828643799e-03,5.054429173469543457e-01,4.583804309368133545e-02,-9.997306764125823975e-02,-1.881967473309487104e-04,-2.507162839174270630e-02,6.285651028156280518e-02,4.140067100524902344e-01,-8.002182468771934509e-03,1.085274480283260345e-02,6.546604633331298828e-02,-2.745766006410121918e-02,1.821027696132659912e-02,-9.265235066413879395e-01,9.538267552852630615e-02,-3.643067926168441772e-02,-8.728536367416381836e-01,-8.981866240501403809e-01,1.167756039649248123e-02,-3.843954950571060181e-02,-5.050607770681381226e-02,3.593704104423522949e-02,3.872398287057876587e-02,-1.967469602823257446e-01,5.615413561463356018e-02,-1.209663599729537964e-02,-9.213911294937133789e-01,-6.979960203170776367e-01,2.636724412441253662e-01,-4.737285897135734558e-02,-1.744251847267150879e-01,1.381590068340301514e-01,1.799807511270046234e-02,-3.087438642978668213e-03,-8.900085464119911194e-03,1.766000315546989441e-02,-1.455992102622985840e+00,-5.311814602464437485e-03,-6.084463596343994141e-01,-1.844579815864562988e+00,1.925434730947017670e-02,-5.288662016391754150e-02,5.649081617593765259e-02,5.471087992191314697e-02,2.790232538245618343e-04,-1.469015479087829590e+00,-3.684638813138008118e-02,-4.123700316995382309e-03,-6.789420843124389648e-01,-2.863031579181551933e-03,5.611574277281761169e-02,-3.473797440528869629e-01,-3.389959782361984253e-02,-1.598428934812545776e-02,1.181173603981733322e-02,-2.986973524093627930e-01,-2.107851207256317139e-02,-1.906551979482173920e-02,-3.165704384446144104e-02,-4.512765109539031982e-01,-5.364153981208801270e-01,-3.089102357625961304e-02,6.923280656337738037e-02,-3.094362653791904449e-02,-1.468565344810485840e+00,4.562278464436531067e-02,3.795848041772842407e-02,-2.091007679700851440e-02,6.299480050802230835e-02,9.238244034349918365e-03,3.459003195166587830e-02,-2.243589144200086594e-03,-1.157130300998687744e-02,3.698212653398513794e-02,5.151313380338251591e-04,4.339482635259628296e-02,-8.387569785118103027e-01,5.901566147804260254e-01,-3.552982211112976074e-02,3.887881711125373840e-02,1.011421158909797668e-02,-1.847891569137573242e+00,-1.188173331320285797e-02,5.415287017822265625e-01,2.319886684417724609e-01,-9.743528440594673157e-03,-7.488523721694946289e-01,3.956466317176818848e-01,3.813069080933928490e-03,-1.318311691284179688e+00,9.226459264755249023e-02,-8.130145072937011719e-01,2.876847237348556519e-02,5.461885035037994385e-02,-1.816533692181110382e-02,1.010237708687782288e-01,-1.286000944674015045e-02,3.094378709793090820e-01,-2.297502569854259491e-02,-5.156044363975524902e-01,1.209983825683593750e+00,-9.531934857368469238e-01,-3.306676866486668587e-03,-1.275625973939895630e-01,2.327940613031387329e-01,9.668648242950439453e-01,9.781690835952758789e-01,-6.129357814788818359e-01,-1.009376049041748047e+00,-3.128663003444671631e-01,2.270200662314891815e-02,-2.839960716664791107e-02,-3.106019832193851471e-02,5.550367012619972229e-02,8.121051639318466187e-02,6.380612403154373169e-02,-1.366071403026580811e-02,6.617823988199234009e-02,-1.151744462549686432e-02,5.502728819847106934e-01,-2.336933277547359467e-02,4.170168936252593994e-02,-7.204519510269165039e-01,-6.208864599466323853e-02,5.555886775255203247e-02,1.116022467613220215e-01,-6.411932408809661865e-02,1.989495009183883667e-02,-1.921143382787704468e-02,-6.387470364570617676e-01,-4.428223371505737305e-01,5.228105559945106506e-02,6.790654063224792480e-01,4.026865959167480469e-02,-3.091430291533470154e-02,-5.531938746571540833e-03,-5.821827054023742676e-02,1.472229659557342529e-01,6.153806298971176147e-02,3.965788334608078003e-02,-1.089893221855163574e+00,7.629287429153919220e-03,7.290448993444442749e-02,-2.830046653747558594e+00,6.723620891571044922e-01,-5.439553260803222656e-01,-7.560276240110397339e-02,-2.491376549005508423e-02,2.156031876802444458e-02,-1.082996964454650879e+00,6.781022250652313232e-02,8.525832556188106537e-03,-1.002113521099090576e-02,3.260370492935180664e-01,4.168415814638137817e-02,7.378379702568054199e-01,1.169536039233207703e-01,1.058160662651062012e+00,5.010804906487464905e-02,3.766648769378662109e-01,-5.638882517814636230e-03,-7.613604068756103516e-01,1.802730262279510498e-01,-6.046964228153228760e-02,-1.697595596313476562e+00,-5.383938550949096680e-01,1.519795414060354233e-02,2.814121777191758156e-03,-2.682819031178951263e-02,1.036383211612701416e-01,6.626185029745101929e-02,-2.924583852291107178e-02,4.185055568814277649e-02,5.219780653715133667e-02,-2.054622471332550049e-01,-1.048515271395444870e-02,7.887782901525497437e-02,-5.127079784870147705e-02,-1.843677759170532227e-01,-1.088518857955932617e+00,-2.452218770980834961e+00,-6.366756558418273926e-01,1.455308079719543457e+00,3.297684341669082642e-02,-5.507829040288925171e-02,-1.055500656366348267e-02,4.224482923746109009e-02,1.086124777793884277e-01,5.667550563812255859e+00,-1.349466681480407715e+00,4.363983869552612305e-03,1.839416474103927612e-02,-7.251638919115066528e-02,-9.216468930244445801e-01,-8.931913375854492188e-01,1.357558816671371460e-01,1.027680840343236923e-02,-2.565209567546844482e-02,3.759467229247093201e-02,-1.017550826072692871e-01,3.727713599801063538e-02,3.407582640647888184e-03,-4.933760315179824829e-02,-4.635863006114959717e-01,-2.688203193247318268e-02,-1.266297325491905212e-02,1.802944764494895935e-02,-1.339203305542469025e-02,-1.436922430992126465e+00,-3.719454407691955566e-01,8.045414835214614868e-02,5.475506559014320374e-02,5.018585920333862305e-02,9.148913621902465820e-02,-3.662295043468475342e-01
